{"mode_names":["trump_oben_0","trump_oben_1","trump_oben_2","trump_oben_3","trump_unten_0","trump_unten_1","trump_unten_2","trump_unten_3","oben","unten","slalom","misere","allesTrumpf","elefant","molotof","schafkopf_0","schafkopf_1","schafkopf_2","schafkopf_3"],"layers":[{"W":[[0.083677,0.086626,-0.036764,-0.31927,-0.170811,0.036325,0.074447,-0.036775,0.064667,0.017846,-0.049899,0.118836,0.170334,-0.152517,0.060726,-0.086959,0.010826,-0.012095,0.05888,-0.034271,-0.178118,-0.111431,-0.037579,0.072325,0.07936,0.11289,-0.073792,-0.001646,0.236288,-0.063077,0.03212,-0.060649,0.049062,0.026104,0.226592,0.173865,0.023085,0.017213,-0.03886,-0.011767,-0.083936,-0.155585,-0.026168,0.0677,-0.006453,-0.036236,-0.017569,0.005,0.084808,-0.079076,0.051835,0.00369,0.054609,0.130276,-0.022836,0.098571,0.01,-0.03969,-0.037354,-0.026215,-0.278626,-0.03652,0.205118,0.024507,-0.097762,0.000911,-0.014925,0.023052,-0.088952,0.138406,0.133348,-0.067292,-0.047447,0.08428,0.099077,0.046691,-0.003286,-0.351993,-0.073079,0.014691,0.027613,0.070304,0.000684,-0.279008,0.006092,-0.032303,-0.036451,0.004645,-0.114275,0.040978,-0.072849,-0.06032,0.063248,0.067424,0.100876,0.029289,-0.078066,-0.070697,-0.120696,-0.053149,-0.107385,0.005338,-0.025202,0.014964,0.217987,0.078482,-0.151482,0.040125,0.088671,-0.155999,-0.039174,-0.026939,0.137651,0.021437,-0.050496,0.012294,0.049595,-0.383056,0.189014,-0.082365,0.072269,0.08146,-0.077696,-0.022483,-0.091062,0.026287,0.055827,0.038152,-0.157878,-0.05177,-0.069033,-0.050441,-0.129185,-0.03614,0.165211,-0.019444,-0.003931,-0.030477,0.039109,0.162679,0.069966,-0.0088,-0.060218,0.007405,-0.168402,0.019679,0.102061,0.174322,-0.049439,0.032358,0.092408,-0.07171,-0.91017,0.071975,0.059738,0.230777,-0.058459,-0.031389,0.068212,-0.005124,-0.043738,0.03075,0.19493,0.089052,-0.060176,-0.133187,-0.038506,-0.011485,-0.075752,0.058567,0.021303,0.019135,-0.162114,-0.262074,-0.031312,-0.011985,0.059776,-0.030002,-0.185632,0.134817,-0.099416,0.017196,0.0712,0.127678,-0.02201,0.106104,0.076012,-0.052687,-0.040855,-0.003752,-0.05065,0.050329,0.012969,-0.026083,0.094311,-0.054038,0.024014,0.061689,0.017509,0.016706,-0.068647,-0.114763,-0.186662,0.119121,-0.025081,-0.035866,-0.039373,0.150311,-0.167188,-0.06106,-0.081812,0.027885,-0.140584,0.039584,-0.080854,0.000679,-0.017695,0.049466,0.039285,0.024293,0.105111,0.028841,-0.141845,-0.05097,0.008302,0.072156,0.3791,0.048098,-0.003851,0.150486,0.057916,0.050144,0.080377,0.037417,0.004569,0.023115,-0.073551,0.00496,0.105778,0.033726,0.026413,0.064521,-0.028574,0.005966,-0.065686,0.377589,0.034159,0.073486,0.048548,-0.001942,0.05282,0.042892,0.039447,-0.063035,-0.182974,-0.046251],[0.111152,0.023309,-0.101055,-0.284046,-0.168887,0.050523,0.067721,-0.008111,0.050707,0.018234,0.023668,0.07646,0.076655,-0.082047,0.078017,-0.113343,0.07243,-0.032673,0.015817,-0.022339,-0.18828,0.023946,-0.016958,0.077234,0.054603,-0.109218,-0.037588,-0.033053,0.213368,-0.047877,0.013502,-0.069221,0.03855,0.008297,0.020337,-0.013291,0.06502,-0.042065,0.100769,0.045955,0.051116,-0.158737,0.003588,-0.026741,-0.013747,-0.001274,0.038384,-0.016088,0.104872,-0.010034,0.039663,-0.064396,0.063389,-0.020715,-0.042753,0.016678,0.099339,0.045495,-0.044707,0.006291,0.026322,-0.067539,0.191113,0.07222,-0.034964,-0.004293,-0.029165,0.077165,-0.029246,0.073307,0.043417,0.007972,0.027345,-0.001101,-0.22262,0.048412,0.060363,-0.133679,-0.017081,-0.046418,-0.030373,0.004779,0.002412,-0.062246,0.018696,-0.027046,-0.035103,0.013104,-0.106588,-0.05492,0.042813,-0.049496,0.07246,0.027822,0.02008,0.01855,0.113319,-0.019386,-0.143698,-0.054225,-0.033366,0.000102,0.037526,0.013763,-0.081494,0.105721,-0.154166,0.01421,0.083792,-0.134731,-0.040868,-0.027294,0.104088,-0.13773,-0.031247,0.042466,-0.025771,-0.125456,0.002827,-0.079708,0.066405,-0.014595,-0.024816,0.028016,-0.062826,0.036082,0.046006,0.068315,-0.097001,-0.075759,-0.084752,-0.06701,-0.130809,0.023163,0.02812,0.037401,0.008993,0.069394,-0.021068,0.111073,0.093846,-0.004974,-0.02219,0.178093,-0.183656,0.073855,0.183396,0.052928,-0.082221,0.051503,0.059648,-0.107401,0.195973,-0.065919,0.022791,0.103112,-0.062753,0.052501,0.070474,-0.019264,-0.043726,0.050979,0.16671,-0.006513,-0.007697,-0.132363,-0.024804,0.033552,-0.228405,0.078289,-0.099963,0.071584,-0.141602,-0.322183,-0.076279,0.022222,0.046884,-0.139663,-0.180398,0.10263,-0.096784,0.02831,-0.026371,0.019771,-0.053819,0.093972,0.11298,-0.092824,-0.06452,0.03354,-0.081744,0.071894,0.003022,-0.015092,0.078423,-0.065816,0.031891,0.10656,-0.048522,0.01561,-0.0784,-0.10961,-0.342379,0.007939,0.023947,-0.016903,-0.013012,0.009217,-0.086743,-0.071437,-0.014207,0.058332,-0.105641,0.051673,-0.378848,0.20461,-0.011284,0.019868,-0.069984,0.024577,0.172228,0.06295,-0.016857,-0.054573,-0.005127,-0.001486,0.10006,0.030342,-0.030578,0.149664,0.065755,0.025531,0.000342,0.003931,0.0384,0.032089,-0.05413,-0.040293,0.03723,0.086571,0.020102,0.009917,0.014611,0.028638,0.062519,0.00597,-0.004634,-0.012573,0.00567,0.019446,0.100716,0.103231,0.036689,-0.04443,-0.098224,-0.010635],[0.053657,0.058347,-0.07185,-0.32667,0.158497,0.0313,0.058352,-0.021892,0.00879,0.051301,0.058559,0.148311,0.051351,0.001176,0.003748,0.152153,0.086981,0.05094,0.025981,0.050739,0.176816,0.030721,0.091365,0.056051,0.065437,-0.104175,-0.016518,-0.028891,0.22444,-0.019866,0.032267,0.018449,0.024791,0.030838,-0.013998,0.102929,0.032685,-0.003415,0.133644,0.043886,-0.027455,0.22742,0.075019,0.015908,-0.05399,-0.053976,0.012754,-0.020345,0.092141,-0.037192,0.040913,-0.202908,0.0316,0.161285,-0.03366,0.058036,0.041056,-0.002855,-0.00198,0.072437,-0.364878,-0.097593,0.216143,0.078381,-0.117765,0.038146,0.002591,0.089779,0.022367,0.05351,0.011864,-0.063976,-0.008699,-0.027728,-0.200454,0.00099,-0.026565,-0.126465,-0.043489,0.002194,-0.076579,-0.123956,0.029017,-0.069282,0.036291,-0.017129,0.010235,-0.023849,-0.096151,-0.066192,0.006244,-0.07704,0.090758,0.126081,0.035155,0.008378,-0.0213,0.064736,-0.160278,-0.056218,-0.079131,-0.023839,0.035147,0.027316,-0.144478,0.037648,0.188208,0.026318,-0.077942,0.165577,-0.012307,-0.000452,0.08943,-0.150827,-0.086065,0.051413,-0.146229,-0.100906,0.010793,0.120025,0.069216,-0.060914,0.04092,0.039895,-0.011879,-0.006618,0.035285,0.011119,-0.098011,0.057019,-0.085452,-0.001574,-0.137499,0.025553,0.071786,0.11965,0.058717,0.040425,-0.032151,0.061109,0.073419,0.013775,-0.042084,0.091178,-0.108819,0.01923,0.194083,0.063993,-0.074113,0.107998,0.038318,-0.031902,0.269457,-0.028638,0.001724,0.076776,-0.069935,0.017324,0.069855,0.006079,-0.053824,0.024226,0.127337,0.052465,-0.05498,-0.14858,0.03639,0.008308,-0.090463,-0.000638,-0.099746,-0.017176,-0.070581,-0.172404,0.022511,-0.031433,0.030229,-0.039844,-0.21514,0.156893,-0.100195,0.041444,-0.020747,-0.038898,0.023411,0.088259,0.113419,-0.071588,-0.085607,0.010564,-0.065448,0.001792,0.020447,0.036933,0.055192,0.025445,0.019751,0.056076,0.010574,0.136109,-0.015049,-0.105872,-0.240498,0.119585,0.089908,0.048642,-0.04208,0.064554,0.029788,-0.064408,-0.046179,0.061757,-0.028146,0.088588,-0.172486,0.232596,-0.011502,0.021355,0.046944,0.07096,0.18748,-0.007851,-0.071871,0.032015,-0.000828,0.022866,0.09663,0.004803,-0.047058,0.108622,0.061421,-0.032646,-0.011114,0.041011,0.059476,0.044176,-0.075134,0.019146,0.000559,0.128574,-0.034088,0.023962,0.016697,0.035927,0.133783,0.139722,0.090709,-0.004281,-0.03655,-0.036677,-0.022033,0.02917,-0.015091,0.04323,-0.042743,-0.030931],[0.055458,-0.083866,-0.101188,-0.281066,-0.17648,-0.030097,0.046757,-0.024194,-0.073339,-0.032485,-0.007953,0.067847,0.086563,0.067627,0.003864,-0.095931,-0.055558,-0.027743,0.080209,-0.094054,-0.19465,0.222408,-0.053606,0.052866,0.035716,-0.017782,-0.018543,0.069649,0.110615,0.021251,0.06841,0.078019,0.033447,-0.082853,-0.035127,0.065148,0.025231,-0.002282,0.227769,0.021401,0.048772,-0.147893,0.054252,0.065302,0.008818,0.051363,0.013609,0.024554,0.073363,-0.018307,-0.006435,-0.04217,0.029786,-0.016044,-0.081001,0.02612,0.031318,0.155871,0.005054,0.003577,-0.127489,0.005227,-0.045386,0.028728,-0.043186,-0.005555,-0.002115,0.068412,0.088224,0.014552,0.087139,-0.013447,-0.098827,0.039452,-0.211937,0.138375,-0.051686,-0.101454,-0.038228,-0.005252,-0.00594,-0.058205,0.000759,0.03853,0.012159,-0.020458,-0.027284,-0.039184,-0.105812,-0.044651,0.057688,0.029519,0.070016,0.027962,0.013619,0.041673,0.013053,0.040473,-0.012247,-0.060161,-0.057852,0.043273,-0.031349,-0.011299,-0.049642,-0.031701,-0.151583,-0.046652,0.091423,-0.145294,-0.068238,0.008309,-0.304615,0.153017,-0.038912,-0.025088,0.008036,0.03175,0.082069,-0.07737,0.018918,0.021171,-0.03381,0.003722,0.001615,-0.002776,0.037598,0.09107,-0.097395,-0.048513,-0.102116,0.023445,-0.144643,-0.090822,0.088441,0.058511,0.014244,-0.047064,0.042252,0.019878,0.004995,-0.109597,0.009906,-0.13957,-0.071728,-0.03814,-0.274305,0.016293,-0.078131,0.097228,-0.002837,-0.09752,0.14738,-0.084756,-0.031195,0.035394,-0.065481,-0.041023,0.064179,0.164982,0.033744,-0.013515,-0.030212,0.045103,0.097792,-0.094044,-0.036216,-0.012731,-0.24249,0.067839,-0.13179,-0.031298,-0.205754,-0.049151,0.086327,-0.007208,0.046194,-0.177594,-0.184701,0.063578,-0.116558,0.072018,0.004951,0.044956,-0.029562,0.164675,0.157029,-0.125355,-0.058275,-0.003608,-0.074925,0.088466,0.037811,-0.068643,0.096608,-0.02881,-0.01835,0.064478,-0.026762,0.094506,0.008016,-0.110874,0.029815,0.070063,0.095938,-0.010772,-0.014562,-0.048697,-0.157953,-0.069838,-0.04762,-0.063041,-0.037303,0.018809,0.143524,-0.464195,-0.041029,0.009234,-0.033113,0.021479,0.113418,0.058204,-0.01665,0.169823,-0.110484,-0.026788,0.14949,0.020884,0.035119,-0.20704,0.041585,0.025848,0.477494,0.020821,0.022137,0.042868,-0.064088,-0.018341,0.062507,0.098838,-0.116617,0.047684,0.050056,0.065364,0.084435,0.091881,0.089378,-0.005738,-0.054638,-0.084481,0.030379,-0.032162,-0.001643,-0.0076,-0.032453,0.060432],[-0.032409,0.014004,0.004874,-0.344076,-0.183006,-0.011776,0.065659,-0.041433,-0.083735,-0.001186,-0.026728,0.079614,-0.056158,0.106013,0.020298,-0.098907,0.056991,-0.015509,0.047179,-0.128491,-0.196182,0.200425,-0.144569,0.056878,0.05633,-0.090352,-0.008329,0.002912,0.101122,0.016613,0.052576,0.045252,0.046427,0.016505,-0.012142,0.069384,0.030072,0.00034,0.165727,0.015569,-0.091947,-0.158255,0.021276,0.006788,-0.006429,-0.086697,-0.019667,0.017025,0.017642,-0.033489,-0.006043,0.023537,0.087427,0.053583,-0.062701,0.076578,0.084097,0.017609,0.007065,0.033928,0.177407,-0.027557,-0.005099,-0.046447,0.088803,-0.084621,0.008806,0.048562,0.010387,0.042502,0.010172,-0.12258,-0.043961,-0.032846,0.001115,-0.006736,-0.061689,0.04029,0.00885,0.043951,0.044037,-0.067596,-0.003306,0.012255,0.050811,-0.027607,0.038362,0.019629,-0.096569,-0.056483,0.115287,-0.019867,0.069271,0.10715,-0.052212,0.032513,0.140683,0.110785,-0.022932,-0.063796,-0.033277,0.019005,-0.026419,-0.001742,-0.048514,0.061647,-0.146142,0.025985,0.073481,-0.143181,0.055873,-0.061899,0.102892,-0.005134,-0.063211,0.025858,0.003427,0.020874,0.055128,-0.077245,0.041923,0.044936,0.033811,-0.00287,0.05914,0.02022,0.060178,0.164411,-0.03792,-0.000818,0.028889,0.073353,-0.135683,0.079263,0.138391,0.004375,0.021986,-0.08792,0.061102,0.055705,-0.055939,-0.012172,-0.026822,0.053795,-0.038461,0.073418,0.012749,0.024368,-0.050893,-0.099896,0.043684,-0.088262,0.120393,-0.078678,-0.031762,0.041332,-0.063833,0.010689,0.071143,0.077735,-0.048326,0.00204,0.104458,0.063219,-0.033948,-0.097822,0.001594,-0.035951,-0.010729,-0.000695,-0.097702,0.033267,-0.037938,-0.066033,0.071606,-0.047826,0.019878,0.003124,-0.185942,0.028993,-0.103481,0.095842,-0.051896,0.030615,-0.045886,0.203812,0.158996,-0.052053,-0.009894,0.071831,-0.060786,-0.016698,0.077012,-0.159226,0.020463,0.024483,0.016752,0.042264,-0.010302,0.080774,0.014031,-0.114327,-0.276113,-0.027502,0.225319,0.043736,0.001392,0.003374,-0.096024,-0.067647,-0.035541,-0.071363,0.032261,0.022309,0.230122,-0.123031,-0.057564,0.023838,0.040128,-0.030284,0.178004,0.030483,-0.267052,-0.301469,0.089894,-0.078908,0.106379,0.081634,-0.129883,-0.177062,0.040686,0.00668,-0.019478,0.014001,0.054778,-0.054683,-0.07495,0.033718,0.028118,0.126963,-0.114995,0.028232,0.013711,0.010497,0.058252,0.140461,-0.061655,0.033944,0.019787,-0.11797,-0.104834,-0.002331,0.009237,0.101849,-0.058914,0.03565],[-0.061366,0.055818,-0.01104,-0.249035,-0.17448,-0.276328,0.056845,-0.151373,-0.04677,-0.014178,-0.009534,-0.090464,-0.11732,0.072698,0.053953,-0.094042,-0.256327,-0.064444,0.022695,0.195898,-0.188499,0.223749,-0.113149,0.038361,0.120247,-0.013666,-0.000513,0.097564,0.057077,0.084033,0.02562,0.189948,0.058812,0.080254,0.042195,0.096162,0.015976,0.019942,0.088242,-0.064345,-0.028272,-0.156231,0.102785,0.018882,0.179086,-0.041439,-0.042909,-0.020426,0.02052,0.006589,-0.022724,0.118579,0.055324,0.163751,-0.021215,0.064967,0.038411,0.147891,0.020959,0.024619,-0.074062,-0.005392,-0.072644,0.037142,-0.057695,0.026797,0.014697,0.059714,0.277033,-0.044362,0.143088,0.040158,-0.030074,0.01233,-0.02244,0.144684,-0.07626,-0.01916,-0.004955,-0.103653,0.163734,0.003361,0.065515,-0.115372,0.019885,-0.030565,0.101129,0.063828,-0.1113,0.027038,0.125437,0.047222,0.082139,0.090812,-0.037558,0.063581,-0.024079,0.085005,-0.054083,-0.066254,-0.009943,-0.005066,0.014889,-0.071208,-0.076111,0.049698,-0.150931,-0.134695,0.090642,-0.149941,-0.060308,-0.019726,-0.481008,-0.045692,0.002345,0.113796,-0.001237,0.104213,-0.038867,-0.093855,0.047068,-0.040407,-0.06762,0.017381,0.172372,-0.012707,0.040075,0.010768,-0.078963,0.130963,-0.031945,-0.041498,-0.143137,-0.124166,0.072127,0.253826,-0.163588,-0.061041,0.080137,0.150787,-0.01671,-0.01493,-0.004932,0.032087,-0.041965,0.080717,-0.451509,0.107228,-0.034904,0.057228,-0.010555,-0.100945,0.032153,0.071549,-0.04735,0.032492,-0.057845,0.026006,0.058877,0.631017,0.015831,-0.127616,-0.37194,0.044232,0.071843,-0.085034,0.010001,0.091764,-0.054922,0.047444,-0.035176,-0.002349,0.006786,-0.015943,-0.135387,0.024773,0.01116,0.016497,-0.212928,0.118358,-0.10796,-0.00038,-0.116699,0.058544,-0.003239,-0.499411,0.213905,-0.092561,-0.023127,0.087269,-0.070509,-0.006776,-0.042953,-0.150275,-0.013015,0.109162,0.008589,0.020722,0.083985,0.087083,0.001955,-0.115654,-0.029265,-0.117918,-0.14093,-0.000879,-0.010686,0.046886,-0.028195,-0.051454,-0.123925,-0.089425,0.028363,-0.557359,0.114347,0.169816,-0.082063,0.025354,0.057892,-0.064304,0.173154,0.018881,-0.128659,-0.161721,0.006025,-0.017393,0.085977,0.038583,-0.022913,0.018296,0.020664,0.001242,0.384756,0.013104,0.070784,0.038368,-0.072449,0.105273,-0.004723,0.125432,-0.138866,0.026075,0.011001,-0.060998,0.005541,0.142152,-0.28692,0.028186,0.093454,-0.102605,-0.074366,-0.005767,0.019717,-0.018398,-0.048779,-0.027192],[0.038582,0.006752,-0.064844,-0.261134,0.146546,-0.001156,0.022098,-0.363761,0.142722,0.006168,0.040901,0.019927,-0.150842,0.082848,0.012624,0.19069,-0.05409,0.236225,-0.011981,0.178704,0.15825,0.093666,-0.084758,0.017053,0.023898,0.043122,0.041446,0.006449,-0.051767,0.016748,0.021724,0.001499,0.052994,0.123796,0.081084,0.120816,0.015312,-0.024897,0.117687,-0.022415,-0.063993,0.274854,0.109723,0.04995,-0.012018,-0.018391,0.008635,-0.013449,0.081526,0.040752,0.042146,-0.272827,0.028104,0.041702,-0.031497,0.086805,-0.018085,-0.02846,-0.014474,0.00961,0.012607,-0.017102,-0.0292,-0.035071,0.019897,-0.05229,0.006944,-0.143776,0.036041,0.056577,-0.050971,0.105464,-0.004315,-0.057721,0.010835,-0.005305,-0.022632,-0.003403,0.019872,-0.005917,0.076902,0.006745,0.051678,-0.039002,0.026378,-0.076064,0.052781,0.005718,-0.087153,0.078922,0.048704,-0.006918,0.078582,0.017512,-0.008036,0.035194,0.03475,0.057054,-0.030954,-0.052909,-0.0837,-0.012085,0.009182,0.057017,-0.015662,-0.018382,0.229491,0.069616,-0.130966,0.192581,-0.02843,0.022744,0.06988,-0.043366,-0.130375,0.032538,-0.077275,0.039128,-0.078287,0.154725,0.021117,-0.041971,-0.080057,-0.108829,0.056263,-0.011531,0.054087,-0.032251,0.013951,0.16123,-0.023512,0.038191,-0.141662,0.046864,0.023586,0.14192,0.077481,0.056334,0.036187,0.006941,-0.019952,-0.00243,-0.077493,0.058644,-0.034658,0.169594,0.17551,0.035895,-0.059466,0.067036,0.094743,-0.094318,0.079164,-0.077898,-0.028185,-0.011394,-0.06711,-0.040702,0.053683,0.019739,-0.051598,0.029784,0.14015,-0.031335,0.089048,-0.130834,-0.033006,0.076434,0.124401,-0.054565,-0.107035,0.014248,0.014179,0.013379,-0.063647,0.030749,0.070617,-0.046181,-0.255882,0.113543,-0.094513,0.045254,0.218496,-0.042231,-0.043381,0.08179,0.122898,-0.101216,-0.026752,0.034119,-0.064332,0.077583,0.165886,0.123719,-0.016448,-0.002208,0.008378,-0.023636,-0.060594,0.028823,-0.058389,-0.10155,-0.133939,0.018147,0.19063,0.094239,-0.006186,-0.164644,-0.112013,-0.052657,-0.003145,-0.148853,0.124827,0.021323,-0.006542,-0.15234,-0.150531,0.056699,0.12608,0.254057,0.142215,0.02228,-0.066486,0.075687,-0.027332,0.022201,-0.007157,0.014453,-0.028375,0.047867,0.039318,-0.00945,0.009328,-0.001851,0.035712,-0.019758,-0.052346,0.156694,0.029543,0.038356,-0.072551,0.045844,0.001303,0.0849,-0.08785,-0.019579,-0.131082,0.042486,0.05958,-0.134565,0.011319,-0.02319,-0.085076,0.054071,-0.02759,0.020825],[0.026499,0.002497,-0.086515,-0.24547,-0.175538,0.024756,0.040696,-0.256368,0.007831,0.033705,-0.037974,0.010869,-0.198533,0.061608,0.026967,-0.096308,-0.046241,-0.028517,-0.024746,-0.052918,-0.179555,0.031878,-0.09491,0.023385,0.013805,0.003709,0.008017,0.036957,-0.140488,-0.049287,0.074612,0.008825,0.04526,0.072091,0.005878,0.146467,0.000448,-0.025227,0.128903,0.018705,-0.004305,-0.158043,0.036393,0.106668,0.108041,-0.093612,-0.010489,0.058759,-0.000775,0.079015,0.05931,0.02209,0.034166,-0.022765,-0.037411,-0.041749,0.04315,0.025724,-0.019237,0.062397,-0.027065,0.02814,0.016105,-0.03144,0.053661,-0.070693,0.00909,-0.130077,0.015325,-0.015642,-0.029807,-0.073098,0.007192,-0.088349,0.001787,-0.037484,-0.039426,0.030749,0.031683,-0.001498,0.0083,0.061137,0.053928,-0.021123,0.022132,-0.04429,-0.016109,0.009981,-0.084901,0.102169,0.074695,-0.007924,0.058019,-0.19883,0.003298,0.0698,0.038489,0.158092,0.025316,-0.046282,-0.012884,0.021102,0.030953,-0.036109,0.036193,0.080615,-0.155974,0.009069,0.105306,-0.150185,-0.011899,-0.092731,0.163202,-0.066121,-0.054546,0.002703,-0.019832,0.011287,-0.0541,-0.068095,0.04969,0.021273,-0.100371,-0.039366,0.063834,-0.017987,0.031625,-0.004512,0.018076,-0.033281,0.047918,0.092309,-0.122118,-0.057244,-0.088424,0.089291,0.070952,-0.000349,0.047127,0.023265,-0.030951,0.070783,-0.022988,0.052822,2.7e-05,0.072285,0.156461,-0.009763,-0.030529,-0.021091,0.065243,-0.097638,0.104491,-0.0833,0.018661,-0.061365,-0.049764,0.015702,0.064367,0.038107,-0.034925,0.045856,0.142056,0.030413,0.095947,-0.120395,0.046268,0.035095,-0.181438,-0.060261,0.011184,0.054218,0.119789,0.08923,-0.005146,-0.050117,0.013621,-0.067969,-0.190659,0.064437,-0.084563,0.026284,0.040016,-0.083459,-0.052361,0.097914,0.139477,-0.045656,-0.049417,0.026763,-0.057325,-0.020189,-0.04554,-0.071694,0.029805,0.069409,-0.022834,0.041112,0.018875,-0.00721,-0.009956,-0.105114,-0.049637,0.016088,0.199539,0.011481,0.021294,-0.038283,-0.006677,-0.045813,-0.036158,-0.059959,0.163902,-0.016424,0.172175,0.029981,-0.07867,0.006671,0.04817,-0.000669,0.114852,-0.01417,-0.04287,0.041466,0.008427,0.029565,-0.113739,0.061733,0.095524,-0.050398,0.056902,0.002964,0.01852,0.009056,0.053196,0.026457,-0.081863,0.078809,-0.021042,-0.05654,0.065848,0.018478,0.005855,0.012091,-0.095687,-0.058742,-0.140145,0.030321,0.066883,-0.122069,-0.101931,-0.009526,0.117264,-0.005403,-0.033827,-0.044768],[-0.040589,-0.05394,0.040335,-0.223454,-0.186041,0.009708,0.063661,0.30581,-0.029224,0.029016,0.058815,0.004126,-0.087932,-0.047582,0.056278,-0.104041,-0.295676,-0.054368,-0.07241,-0.169131,-0.195242,-0.25404,-0.029035,0.067425,-0.018173,0.068354,0.047785,0.095832,-0.134426,-0.025096,0.076617,0.065941,-0.161096,-0.229314,-0.201662,0.213732,-0.040906,-0.121589,0.138942,0.125471,-0.044336,-0.156894,0.098787,0.227732,0.099636,-0.06874,-0.004528,0.003996,-0.117968,0.12591,-0.046022,-0.426626,0.080784,-0.106583,-0.083957,-0.035105,0.032124,-0.041547,0.079608,0.022095,-0.103375,0.078891,-0.274781,-0.087185,-0.206065,-0.111268,-0.006057,-0.160267,0.027755,0.032313,-0.035713,0.065919,0.08658,-0.117689,0.058936,0.03244,0.001054,0.289346,0.076566,-0.224269,0.088656,-0.028895,-0.068521,-0.053278,0.030443,-0.093521,0.084875,0.135871,-0.101649,0.090046,-0.006662,-0.007981,0.068376,-0.346583,-0.011671,0.027783,-0.00507,0.239855,-0.06782,-0.019158,-0.072091,0.008597,0.00576,-0.095689,0.111817,0.253502,-0.145446,-0.011842,0.1001,-0.13903,-0.041846,-0.059686,0.134843,-0.049315,-0.055388,0.026975,-0.022267,0.071209,0.009039,-0.078321,0.013634,-0.041277,-0.039004,-0.069454,-0.034047,-0.000826,-0.029,0.122197,-0.011866,0.059419,0.017573,0.066653,-0.157998,-0.044794,-0.294213,0.030622,0.122144,0.098096,0.148323,0.055658,0.018991,0.108048,0.064591,0.32097,-0.005748,-0.023685,-0.0713,-0.055789,-0.017975,0.082046,0.018594,-0.102179,0.21255,-0.186079,-0.031733,-0.258903,-0.036017,0.079868,0.058276,0.184788,-0.072036,0.219297,0.011499,-0.158579,-0.242271,-0.108619,0.029278,-0.019167,-0.000411,0.019583,0.144303,-0.082096,0.028837,0.163655,-0.170121,-0.107645,-0.004291,0.005533,-0.183201,0.033343,-0.139111,-0.030536,-0.028371,-0.087517,0.007948,0.355554,0.264579,-0.071887,-0.038614,-0.025326,-0.066775,-0.038331,-0.042048,-0.027865,-0.046938,0.067075,0.003532,0.052288,-0.044537,0.221367,0.019716,-0.12891,-0.28224,0.051178,0.112718,0.053319,0.072812,-0.17969,-0.059512,-0.006399,-0.125003,-0.005785,0.074315,0.004737,0.215115,-0.149394,-0.194,0.000535,-0.006594,-0.030898,-0.056998,-0.0677,-0.12357,-0.091447,-0.007195,0.003622,0.104478,-0.028705,0.091186,-0.112889,-0.026623,-0.101846,-0.342876,0.002961,-0.023703,-0.14047,-0.038897,0.072096,0.098205,-0.316987,0.078091,0.014679,-0.010964,0.023137,-0.062987,-0.202503,-0.143992,-0.036177,0.005108,-0.119263,-0.294014,-0.061984,0.097699,0.042521,0.029829,-0.025366],[0.102472,-0.046656,-0.279339,0.069339,-0.162897,0.005309,0.06997,0.009416,0.041028,0.029503,0.050835,-0.054176,0.021957,-0.047502,0.017179,-0.107176,0.088048,-0.065035,0.025733,-0.001378,0.161221,0.058152,0.107526,-0.293153,-0.025542,-0.080135,-0.09024,-0.052118,-0.009854,0.053788,0.028179,0.046758,-0.002634,-0.130999,-0.260263,0.047326,-8.2e-05,0.015828,-0.133639,-0.00573,0.094433,-0.158747,-0.024921,0.020005,0.029566,-0.209903,0.067516,-0.049837,0.043518,0.025696,-0.036881,-0.237577,0.085138,-0.146537,-0.00777,-0.100281,-0.131235,-0.087632,-0.046094,-0.086255,0.022776,-0.030393,-0.033552,0.091796,-0.124407,0.058733,0.028499,0.082834,0.026782,0.042539,0.138739,0.00447,-0.151553,0.093436,0.087633,0.091172,0.157518,0.00321,0.119292,0.000615,-0.014361,0.126995,0.018176,0.065555,0.318,-0.068841,-0.054784,-0.052335,0.048094,0.040977,0.013922,0.013517,0.071277,-0.569606,0.028081,0.052408,-0.004588,-0.074333,-0.010828,-0.052452,0.024211,0.022803,-0.088244,-0.167062,0.117608,0.020733,0.147821,0.053234,-0.078804,-0.139122,-0.05025,0.180233,-0.124312,-0.155609,-0.053508,-0.018873,0.032984,-0.56757,0.097779,0.099502,0.071323,0.077067,-0.00352,0.041367,0.007534,0.1188,0.045135,-0.073486,0.21832,-0.10843,0.067414,-0.019198,-0.128083,-0.025017,0.053074,-0.051624,0.017868,-0.011143,0.040896,0.140611,-0.007314,-0.018429,-0.057816,-0.053068,-0.203793,-0.05796,0.047515,0.144247,-0.064467,-0.027702,-0.014414,-0.115604,-0.028562,0.037389,-0.198039,0.207981,0.165835,0.057078,0.078016,-0.114241,0.02249,0.014652,-0.090756,-0.16858,0.041574,0.190378,-0.127196,0.166179,-0.048246,0.079946,-0.001576,0.040214,-0.577273,0.088084,-0.014399,0.018968,0.046273,0.234167,0.156021,-0.075954,-0.103021,0.074226,-0.034305,-0.17365,-0.01657,-0.000117,-0.060448,-0.113484,-0.045887,-0.050052,0.072559,-0.026567,0.018499,0.073669,0.183657,0.01287,0.147905,0.08738,0.084132,0.011511,-0.044786,-0.111402,0.149108,0.008715,-0.035231,0.001879,-0.012173,0.128062,-0.129958,-0.039839,0.102568,0.006223,-0.149298,0.027945,-0.008487,0.033288,0.194953,-0.203329,0.064621,0.063706,-0.057204,0.061472,0.064607,0.120287,-0.030961,0.097177,-0.168096,0.108577,-0.036028,0.025511,0.069918,0.168616,-0.132235,-0.242158,0.04893,0.013866,-0.078182,0.019888,0.119241,0.011721,0.121994,0.04942,-0.037066,0.109588,-0.017176,0.02419,-0.026602,-0.237455,0.047002,0.017497,-0.043443,0.081978,0.011444,-0.096736,-0.457287,0.063784],[0.157556,-0.012019,-0.142018,0.07158,-0.16955,0.018449,0.074857,0.031222,0.061581,0.042555,0.059182,0.1064,0.023441,-0.031461,-0.01412,-0.100216,0.092743,-0.116275,0.007362,0.009306,0.161583,0.020962,0.051559,-0.33927,-0.051475,-0.038523,-0.153229,0.009491,-0.02283,0.074466,0.032997,0.086548,0.016522,-0.030291,-0.221186,0.031845,-0.003037,0.084671,-0.140928,-0.055712,0.056885,-0.157249,0.042053,0.01669,-0.083689,-0.083129,0.031692,0.002887,0.037127,-0.017916,0.070376,-0.420287,0.101155,-0.010331,0.088861,0.002137,-0.031936,-0.147579,0.058572,-0.053986,0.10469,-0.062143,-0.043858,0.115462,-0.104221,0.069466,0.01728,0.061235,0.053821,0.035858,0.066093,-0.001924,-0.06375,-0.00803,0.094229,0.015459,0.101208,0.012854,0.086103,0.015257,-0.0302,-0.098085,0.022025,0.033097,-0.386992,-0.024127,0.046294,-0.031371,0.073944,-0.030812,0.024858,0.016584,0.069637,-0.258073,0.024929,0.012291,0.011644,-0.023064,0.021057,-0.051465,-0.051962,0.082345,-0.064442,-0.021289,0.079806,-0.123363,0.154711,-0.018523,-0.082865,-0.145354,-0.002059,0.077292,-0.048102,-0.229584,-0.062532,0.026515,-0.070472,-0.133444,-0.005288,0.126578,0.043972,0.019391,-0.040126,-0.015951,-0.0062,-0.046476,0.06376,-0.09031,0.060099,-0.109032,0.008271,-0.02858,-0.123518,-0.009655,0.055877,-0.031018,-0.011946,-0.026093,0.111963,0.084528,0.031175,0.039418,-0.065879,-0.042527,-0.141844,0.021154,0.051604,0.0573,-0.049428,-0.001587,-0.002182,-0.10307,-0.055758,-0.056614,-0.062155,0.084554,0.207394,0.082621,0.07469,-0.105902,-0.01054,0.054309,-0.073782,-0.138186,0.089843,0.196342,-0.121151,0.007307,-0.165631,0.081353,-0.059761,0.030953,-0.303429,0.09843,0.077096,0.035819,0.088648,0.068427,0.154531,-0.050342,-0.109452,0.060199,0.002889,-0.108194,-0.030962,-0.00395,-0.072271,-0.104108,-0.054559,-0.009891,0.101041,0.004994,0.007133,-0.005889,0.163265,-0.143972,-0.015884,0.043197,0.103233,-0.035241,-0.078847,-0.115772,0.132319,-0.006611,-0.082211,0.039442,0.008513,-0.103444,-0.041862,-0.058692,0.052341,-0.024468,-0.121399,-0.008343,-0.023192,-0.204325,0.150529,-0.249225,0.029199,-0.05409,-0.061021,0.051346,0.10011,0.115416,-0.035962,0.009162,-0.097712,-0.017923,0.056861,0.05753,0.052417,0.015787,-0.121826,-0.228627,-0.029191,0.062298,-0.07204,0.012513,0.075334,-0.061859,0.079735,0.038701,0.298353,0.073102,0.010038,0.016458,-0.005531,-0.121976,-0.02843,0.030256,-0.039682,0.010944,-0.016893,-0.050172,0.068741,0.030506],[0.10515,-0.041914,-0.096942,0.032027,0.157377,-0.009064,0.054146,0.045164,0.010018,-0.001212,0.001702,-0.035499,0.011572,-0.029587,0.033341,0.145841,0.072647,0.014621,0.023371,0.062575,0.180729,0.0302,0.05697,-0.384251,-0.052157,-0.083352,0.113066,0.091722,-0.026086,0.014635,0.042019,-0.040689,-0.035346,-0.071957,0.007646,-0.081749,0.011798,0.013627,-0.1369,0.008431,-0.048177,0.219063,0.076841,-0.033341,-0.002462,-0.055883,0.007837,0.081834,0.030415,-0.0221,0.122169,0.191033,0.029081,-0.085472,0.120219,0.037933,0.062661,-0.022323,0.015841,-0.082865,-0.334883,-0.08003,-0.355963,0.126402,-0.088205,-0.05631,-0.005037,0.054933,0.023178,0.100461,0.020183,0.007172,0.040764,0.051955,0.132163,-0.027016,0.07381,-0.006365,-0.004288,0.097327,-0.014654,-0.180231,0.01475,-0.021215,-0.15746,0.029085,0.002717,-0.078511,0.102393,-0.092792,0.141344,-0.014501,0.056835,-0.195683,-0.037845,0.027096,0.037214,0.010669,-0.009921,-0.05721,0.105921,0.034979,-0.015144,0.072461,0.079801,-0.153444,0.184443,0.014651,-0.077964,0.169523,-0.014361,0.068438,-0.030973,-0.007903,-0.059333,-0.005948,-0.069105,-0.091688,0.004261,0.127765,0.049219,0.040869,0.065521,0.04492,-0.025788,-0.013879,0.068584,0.028408,-0.061921,-0.083482,0.036848,0.022682,-0.13534,-0.000995,0.001146,0.049733,-0.02863,0.005154,-0.01102,0.071229,-0.020615,0.019471,-0.069755,-0.019465,-0.087177,0.017526,0.041474,0.057903,-0.086777,0.019474,-0.031133,-0.06144,-0.094468,0.020812,-0.015709,0.048589,0.234865,0.029079,0.068836,-0.094478,0.049308,-0.002232,-0.062743,-0.027733,0.033108,-0.14771,0.043274,0.027816,0.099001,0.014591,-0.106189,0.044096,-0.083344,0.112227,0.015471,0.011049,0.022741,0.00296,-0.201791,0.049686,-0.10131,0.047454,0.020102,-0.030544,-0.008288,-0.010205,-0.096721,-0.093332,-0.059634,0.040588,0.127591,-0.030407,-0.00552,-0.024965,0.066808,-0.073025,-0.010166,-0.010088,0.090693,-0.039501,-0.062933,-0.107182,0.036292,0.103006,-0.046471,-0.050926,-0.012258,-0.029763,-0.181251,-0.07497,0.065765,0.014378,-0.030241,-0.016028,-0.10074,-0.128165,0.129285,-0.303789,0.092537,0.034375,-0.035006,0.069451,-0.036041,-0.216557,0.010196,0.042071,-0.122047,0.057669,0.023521,0.047891,0.062347,-0.109772,-0.111923,-0.240406,-0.05211,0.088481,-0.065211,0.036828,0.034789,-0.062078,0.028918,0.015319,-0.319114,0.000854,0.045725,0.013346,0.030529,-0.037667,0.044201,-0.044266,-0.08172,0.065915,-0.041803,0.046552,0.210524,-0.049001],[-0.003432,0.036527,-0.131509,0.058415,-0.177217,-0.032159,0.053218,0.010414,0.007302,0.04004,-0.00504,0.054569,0.066143,0.028241,-0.000719,-0.105071,0.039275,-0.074187,0.012698,-0.026534,0.123192,-0.019722,0.036967,-0.261683,0.063382,0.005166,-0.098098,0.039863,0.020732,0.035654,0.041643,-0.032955,0.008472,-0.155075,-0.036611,-0.09082,0.050977,-0.070861,-0.138328,0.025854,0.068169,-0.15677,-0.100826,0.152376,0.01733,-0.085837,0.078413,-0.136232,-0.001612,-0.018024,-0.09274,-0.420987,0.081549,0.097945,0.218662,-0.05009,-0.001024,-0.056459,0.160589,-0.047201,0.061848,-0.029582,-0.213215,0.02105,-0.040168,0.090977,0.006786,0.010153,-0.005562,0.061158,0.12632,-0.00847,-0.414803,-0.05839,0.15926,0.065147,0.055313,0.029049,0.003179,-0.002385,0.032303,-0.081288,-0.026431,0.000237,-0.101993,-0.056619,0.040699,-0.111,0.135808,-0.048453,0.008903,0.001804,0.071955,-0.064574,0.089827,0.011726,0.034214,0.025304,0.042702,-0.060464,-0.115991,-0.002867,0.002524,0.133058,0.063768,-0.02443,0.151446,0.037418,-0.03556,-0.144741,-0.00195,-0.20045,-0.07097,-0.042961,-0.006079,-0.029066,0.007495,0.003878,-0.011013,0.108259,0.046182,-0.016577,-0.063387,0.040527,0.056695,0.116839,-0.294811,-0.025704,0.283271,-0.056182,-0.049376,0.011779,-0.141838,0.034539,0.024405,0.04266,-0.049484,0.021486,-0.030967,0.059645,0.027903,0.00705,-0.035351,-0.067043,-0.094879,0.026139,0.039254,0.039862,-0.055304,-0.066573,-0.026471,-0.070506,-0.073328,0.122174,-0.060187,0.033026,0.145822,-0.063294,0.067597,-0.109129,-0.052517,0.019667,-0.106022,-0.099809,-0.021116,0.207038,0.115735,0.009236,0.074665,0.060006,-0.081841,0.047671,-0.085784,0.006165,0.07606,-0.050056,0.039988,0.011328,0.153869,-0.123718,-0.095565,-0.059465,-0.02782,-0.081543,-0.026853,-0.03707,-0.073629,-0.08212,-0.042122,-0.00568,-0.356894,-0.014711,-0.206778,-0.213306,-0.00746,-0.087413,0.034386,-0.054401,-0.185458,-0.012746,0.032213,-0.10839,0.011841,0.030604,-0.086874,0.038775,0.003193,0.105189,0.002892,-0.036653,0.228955,-0.045608,-5.2e-05,-0.116477,-0.067727,-0.163832,0.192287,-0.132093,-0.073733,-0.019613,-0.064076,-0.004349,0.051923,-0.45006,-0.070895,-0.026374,-0.116846,0.082132,0.027951,0.073969,0.026872,0.013873,-0.094731,-0.122674,-0.006777,0.03163,-0.07151,0.067573,0.056676,0.028361,0.002394,0.010072,-0.146729,0.104095,0.084151,0.027504,0.12484,0.098434,0.013274,-0.04235,0.056721,-0.062093,0.042819,-0.0124,0.144773,0.008471],[-0.051756,-0.036543,0.170032,0.059423,-0.181958,-0.014929,0.066456,0.053505,0.00481,-0.007066,0.083636,0.049369,0.019767,-0.00348,-0.028182,-0.100808,-0.014375,-0.125398,0.032793,-0.031647,0.132136,-0.054942,-0.035057,-0.292928,0.070873,-0.071882,0.006123,-0.015264,-0.043285,0.046803,0.02497,0.018328,0.010108,0.048318,0.045636,-0.210129,0.022706,-0.039493,-0.133766,-0.010836,-0.1059,-0.162436,-0.0249,0.071661,-0.023221,-0.219434,0.0856,0.076271,0.072589,0.002315,-0.094592,0.059194,0.084714,-0.049696,0.249481,-0.0194,-0.250788,-0.034668,-0.050222,-0.089518,-0.064123,-0.042316,-0.186508,0.119565,0.026673,-0.12987,0.048859,0.023468,0.027456,0.01176,-0.02467,-0.019911,-0.295123,-0.011595,0.116771,0.018068,0.014595,0.013504,0.093399,0.055846,0.059421,-0.151723,-0.05435,-0.012322,-0.115241,-0.001202,0.040567,-0.130588,0.089909,0.0891,0.024811,-0.0757,0.064899,-0.198668,0.025247,0.007918,0.045637,0.064831,0.096966,-0.045237,0.106403,0.076719,-0.002756,0.046,-0.145562,-0.126425,0.144037,0.02619,-0.045346,-0.153406,0.082166,0.036582,-0.114103,-0.001351,0.000694,0.020892,0.120713,0.07127,-0.014123,0.132051,0.052368,-0.114357,0.081584,-0.011526,0.030267,0.022413,0.014714,-0.010341,0.25748,0.03608,-0.007956,0.042949,-0.135972,0.022306,0.089823,0.019629,-0.014675,0.079643,-0.006149,0.052124,-0.019681,-0.025839,-0.127945,-0.07318,-0.011815,-0.015288,0.054179,0.064652,-0.060533,0.003844,0.007316,-0.081719,-0.072259,-0.017901,0.069269,-0.003055,0.21551,-0.02733,0.07139,-0.111469,-0.00365,0.018495,-0.091037,-0.143614,0.030886,0.198786,0.024649,-0.05015,0.06754,0.018922,-0.08219,-0.01801,-0.123088,0.05398,0.067463,-0.057436,-0.010814,-0.011194,0.154086,0.025662,-0.10249,-0.080909,0.051853,-0.17821,-0.020109,-0.028805,-0.074784,-0.103698,-0.009966,-0.003877,-0.132159,-0.021442,-0.045072,0.090211,-0.059518,-0.023578,-0.051035,0.009134,0.010227,0.024435,0.010534,-0.10605,0.050851,0.045526,-0.09932,-0.098027,-0.015106,-0.075106,-0.023068,-0.064702,0.107274,-0.095313,0.028948,-0.147502,-0.066671,-0.178798,0.189336,-0.013948,0.006693,-0.018572,-0.052593,0.020048,-0.052293,-0.340418,0.019742,-0.042406,-0.070491,0.003863,0.02926,-0.017004,0.054481,0.014023,-0.079299,0.206458,-0.096863,-0.077423,-0.081879,0.088349,0.065678,0.018089,0.069375,0.016982,-0.148139,-0.049407,0.064164,-0.067973,-0.026027,0.135324,-0.05538,-0.065715,0.063199,0.029541,0.041028,0.098472,0.038078,0.009929],[-0.046381,-0.059562,-0.049243,0.074541,-0.172638,-0.221411,0.065304,0.035327,-0.001451,0.059434,0.001375,-0.000805,0.020691,0.084861,0.040657,-0.094559,-0.243444,0.206043,0.058508,-0.042259,0.097437,-0.061465,-0.005094,-0.276798,0.21648,0.247997,-0.064608,0.002985,-0.038601,0.01391,0.032825,-0.072921,-0.176458,0.114699,0.188679,-0.10804,-0.000358,-0.031372,-0.079523,0.141227,-0.019087,-0.159937,-0.135526,0.169028,0.187632,-0.073087,0.055575,-0.172266,-0.033648,-0.009827,-0.140116,0.069577,0.052558,-0.102243,-0.305024,-0.107117,-0.151483,-0.000517,-0.054128,-0.018702,0.066351,-0.027163,-0.007256,0.066469,-0.08992,0.008107,0.027174,-0.019888,-0.013496,-0.011727,-0.122321,-0.078987,-0.20845,0.01926,0.091413,0.05502,-0.061922,0.017682,-0.160188,-0.071278,0.032721,0.03972,0.163305,0.062208,-0.107017,-0.073852,0.050712,-0.083261,0.361432,-0.123472,-0.030854,-0.041119,0.074485,-0.106832,0.154525,-0.009745,0.025099,0.046346,0.093019,-0.052139,0.035756,0.0425,0.041807,0.052803,-0.149765,-0.084133,0.194898,0.032906,-0.106258,-0.15201,-0.077007,-0.012573,0.046509,0.072613,0.026411,-0.02662,0.04512,0.11423,0.000898,0.13797,0.047067,0.116524,0.06695,0.04254,0.020189,0.1789,-0.464699,-0.042933,0.200504,-0.003025,0.150796,0.017952,-0.132505,-0.036997,0.017907,0.039474,0.008946,0.157917,0.108288,-0.04759,-0.007302,0.040204,-0.054451,-0.031445,-0.069913,-0.011916,0.04204,0.129561,-0.050835,0.088958,-0.054292,-0.060931,-0.041006,0.149964,-0.025861,0.013667,0.476675,0.068925,0.062965,-0.177579,-0.015739,0.013379,-0.041404,-0.056189,0.072161,0.205691,0.088771,0.034818,0.105853,0.076471,0.072892,-0.059339,-0.161584,-0.069759,0.042475,0.043843,0.031215,0.126251,0.152908,0.045372,-0.104405,-0.063852,0.012833,-0.141726,-0.035327,-0.033171,-0.06896,-0.099634,-0.003746,0.029084,0.493974,0.22207,-0.007604,0.019951,-0.013517,0.024511,-0.037048,-0.114549,-0.473816,0.008262,-0.009824,-0.116667,0.125087,-0.02434,-0.044358,0.165321,-0.027339,-0.19056,-0.028607,-0.041069,-0.344888,-0.066907,0.040496,-0.106311,-0.055273,0.144449,0.139976,0.022186,0.061201,-0.012475,-0.072303,0.013526,-0.030698,-0.133339,0.006317,-0.065162,-0.052161,0.05743,-0.052715,0.007882,0.036512,-0.000913,-0.099291,-0.074779,0.070346,0.007751,-0.061181,0.049831,0.085804,0.092094,-0.581105,0.030019,-0.085422,-0.045735,0.011478,-0.204327,-0.087739,0.153265,0.104807,-0.106393,0.103081,0.055629,0.057002,0.020648,0.045666,-0.030639],[0.031027,-0.073788,-0.119245,0.038175,0.164853,-0.013034,0.05309,0.050024,-0.008173,0.046206,0.039543,-0.061235,0.092282,0.022471,-0.025912,0.164477,-0.065269,0.140645,0.029862,0.181116,0.176149,-0.03072,-0.025794,-0.214669,-0.031404,0.061408,-0.005094,0.019767,-0.034042,-0.002754,0.053342,0.044363,-0.488126,0.039205,-0.263538,-0.170867,0.022899,0.019138,-0.089011,0.001994,-0.086093,0.257354,0.150724,-0.001447,0.032489,-0.069241,0.068142,0.128157,0.057777,0.05915,0.052927,-0.04495,0.050754,-0.051667,0.172268,0.02614,-0.1875,0.014079,0.000888,0.032437,0.114138,-0.079559,-0.165731,-0.002386,0.042869,-0.202911,0.006867,-0.112971,0.044121,-0.052321,-0.08082,0.055899,-0.448588,0.004111,-0.019924,-0.011843,-0.050913,0.000673,0.06044,0.047105,0.066535,0.053031,0.035093,-0.020172,-0.102092,-0.076357,0.008336,-0.084637,0.109635,0.074136,0.117862,-0.027968,0.068961,-0.25418,0.027708,0.010023,-0.009104,-0.022471,0.051074,-0.057042,0.146755,0.068664,-0.016151,0.076419,-0.193182,-0.138701,0.22002,0.056012,-0.112923,0.198495,-0.031903,0.119916,-0.071553,-0.117961,-0.068459,0.005689,0.041962,0.013695,-0.067414,0.146201,0.043372,0.004011,0.041282,-0.06419,0.025603,0.028829,0.070872,-0.093248,0.046747,0.065131,0.043944,-0.019793,-0.136445,0.036429,-0.051958,0.110528,0.021922,0.08347,-0.066457,0.006137,-0.011661,-0.037518,-0.126636,-0.060698,-0.058331,0.07651,0.036968,0.009118,-0.053799,0.112944,-0.059283,-0.077469,-0.060714,-0.039988,-0.022435,-0.03064,0.224582,-0.010528,0.063123,-0.100369,0.036733,0.063843,-0.057534,-0.087631,0.025293,-0.151543,-0.00927,0.046618,-0.050006,-0.015479,0.005572,-0.03772,0.045687,-0.105566,0.006249,0.007433,0.105465,0.070516,-0.229448,0.041248,-0.103126,0.040196,0.112812,-0.083827,-0.01142,0.016531,-0.068697,-0.088644,-0.035844,0.014564,0.137136,-0.013953,-0.078024,0.120715,0.043686,-0.00503,0.107483,-0.001864,0.011781,0.041358,-0.014215,-0.110002,0.11982,0.049065,-0.107432,0.028553,-0.040861,0.025133,-0.016969,-0.059177,0.085825,-0.032182,0.112039,-0.054375,-0.089024,-0.675789,-0.001831,0.104821,0.083065,0.151936,-0.063709,0.015906,0.0214,-0.274083,-0.015997,0.057476,-0.043315,0.031779,-0.052594,0.021054,0.049473,0.053304,-0.08635,-0.051274,0.055367,-0.003675,-0.081989,0.058695,0.018047,-0.126763,0.038945,0.037356,-0.151016,0.066144,-0.058687,-0.20348,-0.141982,0.061297,0.094921,-0.14545,-0.019833,-0.023302,0.02612,0.074504,0.093998,-0.040263],[0.004352,-0.050337,-0.096637,0.042478,-0.175385,-0.005549,0.044538,0.050175,-0.011793,0.003047,0.100545,-0.037548,0.105556,-0.022866,-0.008212,-0.092117,-0.141732,-0.084098,-0.034529,-0.032058,0.155137,-0.033288,-0.071703,-0.178883,0.01527,-0.04678,0.044354,0.103019,-0.0402,-0.036821,0.052435,0.065219,-0.389907,0.000842,-0.33407,-0.202968,-0.01149,-0.106535,-0.023136,0.014345,-0.074598,-0.156499,0.117369,0.112932,0.108653,-0.093688,-0.076171,0.159093,0.047056,0.154819,-0.066069,0.069859,0.017214,0.035402,0.183435,-0.041509,-0.183989,-0.032527,-0.073106,-0.233723,-0.075109,-0.02115,-0.10318,0.143829,0.024462,-0.179538,0.012707,-0.065327,0.011204,-0.032067,4.3e-05,-0.028891,-0.269766,-0.029522,0.004285,0.010394,-0.032451,0.00159,0.074142,0.109062,-0.003798,0.049766,-0.012185,0.097561,-0.114362,-0.093409,-0.010594,-0.059984,0.10702,0.111633,0.014407,-0.054909,0.069607,0.004897,0.015993,0.028987,0.045491,0.004861,-0.003731,-0.033125,-0.550628,0.021943,-0.023266,-0.039517,-0.045976,-0.039191,0.148748,0.082353,-0.04714,-0.149448,-0.02107,0.063467,0.00766,-0.017878,0.03904,-0.020955,0.118377,0.021532,0.012762,0.132624,0.044898,0.009595,0.023611,-0.048138,0.047922,0.007172,0.038779,-0.03144,-0.035355,-0.087179,0.03019,0.036589,-0.125579,-0.019547,-0.075505,0.005196,-0.004251,0.039741,-0.00469,-0.014866,-0.036006,0.016807,-0.052639,-0.012869,-0.033063,0.029859,0.064905,-0.024634,-0.054394,0.027347,-0.049913,-0.067613,-0.048665,0.057166,0.014364,-0.078407,0.205517,0.008925,0.0722,-0.110778,0.064335,-0.007045,-0.051714,-0.182546,0.017733,0.195735,-0.061691,-0.020976,-0.055728,-0.015808,0.043138,-0.018934,0.085078,0.049581,0.025308,0.07273,0.033037,0.007094,0.159106,0.046157,-0.092342,-0.035897,0.016058,-0.203203,-0.038256,-0.020816,-0.065824,-0.086737,-0.04725,-0.01293,0.06417,-0.007575,-0.240603,0.02794,0.045391,0.030067,0.01012,0.027548,0.013332,-0.002772,0.051979,-0.097196,-0.109144,0.043606,-0.080973,0.043417,-0.010389,-0.053031,0.119562,-0.042903,0.097276,-0.046042,0.14869,-0.066084,-0.139335,-0.054102,-0.225444,0.128258,-0.090419,-0.029118,-0.042207,-0.010302,0.02238,-0.080357,0.005789,-0.002322,0.018604,0.056085,0.000212,0.004584,0.059472,0.141736,-0.086129,-0.035729,-0.007174,0.000448,-0.0802,0.063346,-0.06986,-0.094172,0.098628,0.011701,-0.116801,-0.037741,-0.027052,-0.224209,-0.124154,0.072739,0.042852,-0.181886,-0.040434,0.05342,0.053232,0.076648,0.08365,-0.003703],[0.035313,-0.015285,-0.064618,0.082548,-0.182361,0.050958,0.076401,0.030296,-0.040344,0.068906,0.029675,-0.029291,-0.090853,-0.033056,-0.067604,-0.092626,-0.238517,-0.139762,-0.127174,-0.037308,0.142266,-0.020502,0.014586,-0.156915,0.034008,0.066574,-0.012897,0.026979,-0.059975,-0.057157,0.035721,0.077322,0.275911,-0.057673,0.202492,-0.227506,-0.089385,-0.093328,-0.022313,0.043972,-0.091545,-0.15541,0.146001,0.189436,0.208929,-0.129175,-0.105765,-0.009744,-0.041863,0.116363,-0.161105,-0.02695,0.072716,-0.03916,0.215394,0.00915,-0.15258,-0.034766,-0.114872,-0.197907,-0.057029,0.049816,-0.231523,0.152348,-0.06301,-0.03314,0.000988,-0.19521,-0.052532,0.07067,0.004462,0.010831,-0.20316,-0.140601,-0.083171,0.032868,-0.000454,0.0153,0.111763,-0.213019,-0.04038,-0.012384,-0.159894,0.090113,-0.137142,-0.062742,0.194059,-0.043599,0.446655,0.055711,-0.004151,-0.055662,0.048612,-0.063998,-0.024229,-0.027659,-0.004949,0.077204,-0.092893,-0.004919,0.276565,0.06588,0.016256,-0.235121,-0.004072,-0.282344,0.142056,0.011213,-0.050006,-0.145364,0.052816,-0.262084,-0.088757,-0.198542,-0.054491,0.061647,0.196537,0.007832,0.026112,0.114334,-0.000491,0.023387,0.05339,-0.093598,-0.051172,-0.07424,-0.060242,0.027752,-0.076927,-0.038753,0.007628,0.041519,-0.172589,0.062267,-0.178043,0.003991,0.06656,-0.003373,-0.008502,0.036608,0.033267,0.139248,0.053335,-0.038681,-0.003437,-0.143977,0.029431,-0.084426,-0.03841,0.006522,-0.117512,-0.132681,-0.053286,-0.08709,0.140639,-0.291979,-0.077836,0.108719,0.046754,-0.092645,-0.033127,0.113851,0.010837,-0.11795,-0.117603,0.201105,-0.112927,-0.022671,0.214996,-0.004514,0.113751,-0.067013,0.162307,-0.001653,0.027436,0.057631,0.005184,-0.016499,0.153763,-0.031703,-0.137946,-0.154189,-0.003209,-0.142537,0.019337,-0.085245,-0.039712,-0.088708,-0.054557,0.11979,-0.476639,-0.042058,-0.084726,0.121009,-0.018627,0.026739,0.057479,0.075002,0.223232,-0.102658,-0.038045,-0.118925,-0.225971,0.038007,-0.029248,0.025128,0.118275,0.12153,0.136684,-0.012806,0.341628,0.052005,0.083958,0.112273,-0.056908,-0.118565,-0.322194,0.211508,-0.001257,-0.055096,-0.087344,0.016275,0.048267,-0.489947,-0.141512,-0.072063,0.073173,0.052097,0.137549,0.001866,-0.023056,0.001522,-0.091487,0.237421,-0.068767,-0.096483,-0.004886,0.025391,0.01443,-0.151086,-0.034113,0.004743,-0.15627,0.025736,-0.00682,-0.051591,-0.085128,0.078661,-0.042441,-0.080302,0.14122,-0.055745,0.025457,0.119197,0.209309,-0.005008],[0.161889,0.051341,-0.026723,0.088875,0.141535,0.071181,-0.307211,0.028819,0.05906,0.075451,-0.00859,0.135712,0.044611,-0.020282,-0.216251,0.16047,0.074281,-0.043589,0.038798,-0.000181,-0.186915,0.052786,0.028276,0.051845,0.027894,-0.080028,0.011865,0.083096,-0.044893,0.00198,0.033806,-0.014718,0.007968,0.03587,-0.01607,-0.00875,0.035943,-0.00373,-0.126734,0.057682,0.191864,-0.153454,0.022323,0.067242,-0.012138,0.148628,0.010477,-0.030358,0.017725,-0.003171,0.040509,0.013734,0.066814,0.060583,-0.013231,0.018602,0.059932,0.09722,-0.03849,0.093127,0.103299,0.024165,-0.139213,0.00134,0.065224,-0.009519,-0.058559,0.091305,0.003894,0.009001,0.065334,-0.008456,-0.00835,-0.149173,0.06286,0.006389,0.118976,0.016465,0.013281,-0.129281,-0.034217,0.119455,0.041061,0.045221,0.008085,-0.013536,-0.066821,0.16641,-0.099132,0.053259,-0.020656,0.178306,0.077565,0.031001,0.003441,0.09872,-0.030873,0.015453,0.016483,0.137896,-0.096448,0.033832,0.065978,-0.0386,-0.040936,0.101696,-0.153194,0.043408,0.084155,0.112594,-0.100986,0.002829,-0.042956,-0.292192,-0.035694,-0.04495,-0.04517,-0.408811,0.148037,-0.084262,0.072965,-0.058472,-0.051942,0.017027,0.046593,0.113428,0.040267,-0.049106,-0.268782,-0.023391,-0.013034,-0.004243,-0.029088,-0.021291,0.090686,0.029285,-0.033629,-0.035057,-0.020229,-0.065206,-0.038119,0.04153,0.034975,-0.089975,0.144457,-0.005932,0.046997,0.166927,-0.721862,0.059195,-0.029351,0.183701,-0.07404,0.037956,0.055533,0.200586,-0.048025,0.116582,0.081845,-0.109011,0.103022,-0.013073,-0.064313,0.033817,-0.090799,0.180863,-0.012903,0.148627,-0.013514,0.020445,0.084577,-0.213526,-0.156435,-0.343779,0.032571,-0.00953,0.035806,-0.021775,0.160898,-0.058794,-0.11409,0.083252,-0.057677,0.257081,-0.292466,-0.0023,-0.071031,-0.087312,-0.044747,0.039876,-0.062182,0.072843,0.001546,-0.00822,0.141506,-0.172321,0.134613,0.012366,-0.061055,0.118742,-0.061266,-0.120686,-0.408787,0.089768,-0.051635,-0.040067,-0.000513,0.062778,0.020305,-0.068493,-0.019266,-0.004159,-0.138545,0.081138,-0.04244,-0.022184,-0.01339,0.048398,0.024884,-0.057195,-0.069595,-0.064926,0.201489,0.112234,0.062035,0.097279,-0.241779,-0.0574,0.023325,0.02627,-0.252504,0.032225,-0.11876,0.000487,0.021254,-0.09902,-0.191878,0.009221,0.151675,-0.187249,0.047926,-0.319634,0.044185,0.020047,-0.011749,0.088618,0.116183,0.017602,-0.045556,0.107543,0.050627,0.073182,0.012825,0.021049,-0.139199,0.009316],[0.101842,0.067682,0.009235,0.101768,0.147363,0.052278,-0.275667,0.01658,-0.014106,0.064357,0.067834,0.15151,0.010785,0.013647,-0.151072,0.137571,0.131741,-0.028197,0.039837,-0.020809,-0.184869,0.03271,-0.049943,0.077784,-0.02321,-0.024892,0.012055,-0.05825,-0.077095,-0.002488,0.018128,-0.050356,0.01505,0.020515,0.030007,0.033158,0.043922,0.007575,-0.128438,0.03295,0.181605,-0.153214,0.097525,0.009836,0.041705,0.031951,0.163742,-0.019739,0.080269,-0.033307,0.019544,-0.006349,0.065072,0.049034,-0.065068,-0.026063,0.036648,0.108521,-0.010682,0.099566,-0.104792,-0.023565,-0.027779,0.048804,0.041863,0.020656,-0.079416,0.083219,0.063097,0.031417,0.00994,-0.042584,-0.014796,-0.006254,-0.011897,0.098072,0.08044,0.029852,0.036809,-0.078305,-0.06249,0.026955,0.037051,0.056324,-0.003145,-0.016186,0.0488,0.066497,-0.104327,-0.00329,-0.02564,0.070361,0.071693,0.135091,-0.029346,0.072219,-0.008858,0.020811,-0.018328,0.184917,-0.022293,-0.05569,0.099472,0.018473,0.098503,-0.132298,-0.15385,0.143284,0.089455,0.128872,-0.061524,0.031084,-0.026454,-0.216135,-0.027952,-0.082053,0.03705,-0.104561,0.078753,-0.069355,0.061515,0.011111,-0.101441,-0.060427,0.005721,0.041146,0.040125,-0.027907,-0.225002,-0.011538,-0.092919,-0.016798,-0.021465,-0.027975,-0.004571,0.037193,-0.003112,0.030537,-0.003398,0.00849,-0.037212,0.046425,-0.000366,-0.087484,-0.00019,-0.048005,0.042407,0.103136,0.357192,0.023586,-0.025029,0.235851,-0.060152,0.053212,0.073175,0.078874,-0.067551,-0.010947,0.121166,-0.102005,0.193221,-0.007385,-0.072954,-0.124201,0.015896,0.189295,0.012466,-0.003612,-0.002638,-0.001234,-0.041369,-0.096173,-0.010888,-0.018378,0.074968,0.076899,0.055745,-0.040107,0.158768,-0.067389,-0.113791,0.062902,-0.097986,0.056347,-0.285394,-0.014795,-0.075144,-0.115826,-0.074223,-0.02088,-0.068415,0.035547,-0.076043,-0.028745,0.108585,-0.16706,0.048481,0.108791,-0.039004,-0.02254,-0.097819,-0.115422,-0.079688,0.012309,-0.065633,-0.049523,0.007331,0.033178,0.036502,-0.054173,-0.00966,-0.000503,-0.125919,0.011066,-0.06369,0.037202,-0.05046,0.054114,0.049053,-0.048822,-0.042746,0.007755,0.188274,-0.166436,0.033192,0.065623,-0.106157,-0.016999,0.013552,0.027158,-0.274605,-0.005555,-0.091617,-0.002751,0.003283,-0.033272,-0.112468,-0.005253,0.091463,-0.152755,0.012287,-0.273362,0.005171,-0.067401,0.022439,0.060535,0.114621,-0.003887,0.09486,0.126615,-0.037792,-0.003534,0.009459,0.036089,-0.047584,0.043595],[0.038464,-0.016158,-0.069922,0.070106,0.153109,0.038864,-0.341582,0.032705,-0.041232,-0.016285,0.027119,0.037587,-0.059007,-1.6e-05,0.171882,0.141381,0.052654,-0.045665,0.035748,0.02401,0.175095,-0.040634,-0.00748,0.010109,0.014331,-0.033576,-0.064417,0.084075,-0.043412,-0.012544,0.062701,-0.064459,0.021922,0.023066,-0.010211,-0.105836,0.03631,0.009368,-0.098831,-0.008975,0.073055,0.216332,0.020262,-0.012198,-0.033848,0.012161,0.018024,0.009911,0.03744,0.042614,-0.006343,-0.090705,0.034191,-0.002655,-0.054097,0.035696,0.047251,0.050228,-0.043277,0.076109,-0.058706,0.060703,-0.254744,0.01817,0.172971,0.026657,-0.020766,0.087827,0.059389,-0.100603,0.019721,0.044705,0.05884,0.186329,-0.046336,0.08313,0.059913,0.011302,-0.04227,-0.070764,-0.096687,0.000479,0.017015,0.021415,0.02027,-0.035512,0.041507,0.009924,-0.098951,-0.067085,0.044585,0.065313,0.071279,0.040467,-0.009751,0.057125,0.03564,-0.019922,-0.022873,0.172572,-0.074853,0.004542,0.024202,0.060106,0.011198,-0.108285,0.174969,0.034675,-0.077152,0.154398,0.0582,0.059935,-0.004321,-0.114162,-0.055045,-0.111418,-0.03567,-0.08223,-0.040862,0.122456,0.048074,-0.007399,0.041221,-0.019335,0.034166,0.036727,0.031542,-0.017535,-0.030013,-0.044143,0.002389,0.013826,0.027147,-0.014328,0.073986,0.00967,-0.068,0.056512,0.0157,0.09831,-0.048572,-0.040579,0.043076,-0.027097,0.074936,0.007418,0.05008,0.016893,0.199673,-0.009587,-0.008614,0.197636,-0.076829,0.08775,0.009122,0.071994,-0.072372,0.008916,0.128231,-0.096039,0.0901,-0.005443,-0.097048,0.059763,0.094859,-0.145871,0.015557,-0.036632,-0.042723,-0.040832,-0.075235,-0.040201,-0.036949,-0.004232,0.05206,-0.082698,0.015745,-0.042951,-0.195009,0.066604,-0.104545,0.014998,-0.01021,0.169333,-0.250252,0.00528,-0.08267,-0.091684,-0.045053,0.036527,-0.072118,0.065173,0.056933,0.055402,0.025091,-0.147312,-0.023181,0.072356,0.004686,0.066534,0.011496,-0.109259,-0.118413,0.190851,-0.097164,-0.037452,-0.023066,0.122577,0.088087,-0.098122,-0.00069,-0.021965,-0.054055,-0.019482,-0.055445,-0.026861,-0.063705,0.049764,0.030862,-0.076891,-0.036504,0.055804,0.030993,-0.202805,0.033219,0.046964,-0.144266,-0.012131,-0.03296,0.062798,-0.18007,-0.016273,-0.114901,-0.005493,-0.003549,-0.052742,-0.00528,-0.002379,0.093116,-0.210752,-0.008048,-0.22709,-0.013295,0.001766,0.0377,0.018146,-0.004915,-0.022144,0.069639,0.098245,-0.051076,-0.035183,0.013189,-0.016109,-0.026464,-0.023872],[-0.014029,-0.006655,0.05322,0.081655,0.1097,0.040819,-0.321451,0.004659,0.003184,0.023096,-0.010944,0.115751,0.046142,0.086643,-0.213613,0.143902,-0.004864,-0.030862,0.033954,-0.036324,-0.198547,-0.017633,-0.008965,0.047354,0.019384,0.007445,0.10541,0.004222,-0.080399,0.070483,0.05225,-0.027022,0.04757,-0.046681,-0.054934,-0.09332,0.002703,0.024243,-0.148665,0.01461,0.135513,-0.158998,0.005419,0.011949,0.041446,0.026372,-0.034387,0.037333,0.021774,-0.010089,0.026911,-0.078385,0.059137,-0.094993,-0.061614,-0.020468,0.079607,-0.145525,0.088623,-0.053742,0.06153,0.139241,-0.119199,0.015079,0.012173,0.054825,-0.369685,0.088547,-0.046559,-0.094198,0.032725,0.019915,0.076776,0.073461,-0.061516,0.009011,0.062051,-0.005736,-0.031128,-0.073388,-0.088122,0.014522,0.116267,0.078791,0.027653,-0.045101,-0.020695,0.036239,-0.126301,-0.080559,0.056573,0.002795,0.066034,-0.093449,0.022188,0.038042,-0.072004,0.004931,-0.051677,0.157682,-0.058157,0.036699,0.110947,0.107016,0.010477,-0.020363,-0.150906,0.040431,0.081857,0.125257,-0.041432,0.023145,0.053429,0.205517,-0.063743,0.070448,-0.010753,0.05604,0.006551,-0.089586,0.053792,0.012489,-0.032945,0.018318,0.035595,-0.023595,0.048459,-0.187414,-0.082395,-0.031917,0.022075,0.025172,-0.014315,0.004395,0.143984,0.053963,-0.021301,0.0356,0.0473,0.071336,0.059597,0.177995,-0.080134,-0.049596,0.2731,-0.076894,0.051098,0.028744,0.147022,-0.109803,0.021441,0.168878,-0.070174,-0.101671,-0.051212,0.043702,-0.065014,0.024703,-0.332021,-0.105588,0.096014,0.094779,-0.050013,-0.095229,-0.159842,0.193318,0.021294,0.090286,-0.154283,-0.039349,0.008099,0.006766,-0.170629,-0.069861,0.002275,7.3e-05,0.04952,0.02085,0.158982,0.010595,-0.090548,0.155021,-0.052729,0.082224,-0.130298,-0.056092,-0.068819,-0.099051,-0.030991,0.015374,-0.076646,0.061362,0.065976,0.004849,0.084448,-0.017868,-0.026234,-0.008471,0.062284,0.011815,-0.010098,-0.115191,0.03224,-0.017491,-0.102975,-0.004063,-0.038131,-0.069925,0.022264,-0.089021,-0.137276,0.073293,-0.011045,-0.05306,-0.02081,0.082058,-0.044033,0.02699,-0.057343,-0.003883,-0.055703,0.163893,0.115838,0.160219,-0.06723,-0.181931,-0.107862,0.09236,-0.062207,0.130522,-0.053039,0.086421,-0.081125,0.002214,-0.003682,0.111211,0.221858,0.024846,0.07463,0.020243,-0.101637,-0.191895,0.000982,-0.134554,0.079359,-0.001116,0.137729,0.00814,-0.037764,-0.011494,0.078992,-0.022909,0.025873,-0.107333,-0.000665,-0.001894],[-0.169547,0.029383,-0.131771,0.049334,0.122069,0.054397,-0.391227,0.026746,-0.027397,-0.007742,-0.021614,-0.014154,0.047253,-0.02209,-0.185054,0.140897,0.030159,-0.043072,0.051189,-0.039135,-0.196513,-0.044411,-0.092486,0.036001,0.007513,-0.074582,0.099671,0.020398,-0.043692,0.051832,0.091396,0.031205,0.037937,0.089958,0.064987,-0.099568,0.011052,0.019852,-0.095399,-0.02701,0.012906,-0.156013,0.066762,0.063434,-0.004287,-0.013968,-0.000305,0.014173,-0.003853,-0.002525,0.078011,-0.221902,0.058657,-0.022059,-0.063476,0.029802,0.036558,0.050409,-0.048338,-0.14375,0.021169,0.082641,-0.040876,-0.007942,0.063202,0.007514,0.163244,0.089363,-0.00772,-0.130494,0.047992,-0.034477,0.074465,0.030312,-0.052731,-0.072515,0.015348,0.043721,-0.038355,-0.0073,-0.037761,0.03186,0.004526,0.02399,0.029006,-0.066024,-0.031701,-0.006888,-0.102816,0.026314,0.126944,-0.100265,0.065405,0.092706,0.022282,-0.016786,0.026435,-0.032417,0.099688,0.143037,-0.070401,0.012204,0.093567,0.01145,-0.023332,-0.107623,-0.155699,0.026274,0.103019,0.13068,0.089261,0.10152,0.006027,-0.02626,-0.087543,0.0885,0.022989,0.036624,0.024927,-0.08079,0.051654,0.013582,0.095115,-0.027246,0.013616,-0.030884,0.092438,-0.159416,-0.053835,-0.001347,-0.004696,0.107984,0.061804,0.006197,0.099532,0.003782,-0.003465,0.034466,0.03612,0.040975,0.034493,-0.037081,0.046245,-0.057375,0.168299,-0.072083,0.066942,0.002275,0.109069,-0.036229,-0.011894,0.155714,-0.103845,0.036136,-0.000819,0.028684,-0.067664,-0.021411,0.018172,-0.113803,0.075138,0.12243,-0.069232,0.134271,-0.068987,0.20752,0.121397,-0.003712,-0.10865,-0.163493,-0.050096,0.136304,0.001874,-0.138517,0.023384,-0.036058,-0.021844,-0.062737,0.156251,0.057928,-0.09978,0.03617,-0.071108,0.186286,-0.042516,-0.034179,-0.0778,-0.093173,-0.026753,-0.021438,-0.063099,0.06421,0.007306,-0.09454,0.001102,-0.093429,-0.025604,-0.090616,0.043293,0.036717,0.024178,-0.111809,-0.04512,0.000821,-0.117382,0.030583,-0.027864,0.026247,0.041499,-0.094947,-0.072438,-0.127289,0.012952,-0.105977,-0.06549,0.032188,-0.09992,0.026293,-0.043435,-0.069705,-0.037668,0.087366,0.123434,-0.102374,-0.009707,-0.197829,-0.101937,0.135127,-8.4e-05,-0.007,-0.131886,-0.029811,-0.081282,0.009152,0.076088,-0.055993,0.210263,0.075894,0.019437,-0.042754,-0.059065,0.027726,-0.027047,-0.159582,0.075544,-0.042697,-0.008626,0.016584,-0.047743,0.115803,-0.032674,0.113825,0.00134,-0.065059,-0.004141,0.038158],[0.01843,0.063231,0.023284,0.047958,0.079622,-0.439511,-0.279699,0.060509,0.205812,0.076462,0.103161,-0.007201,-0.012803,0.034927,-0.078851,0.159825,-0.190789,-0.014937,0.043279,-0.003714,-0.197032,-0.053605,-0.100147,0.028837,0.048557,-0.090956,0.023305,-0.07824,0.020063,-0.054526,0.03585,0.013808,0.044428,0.189285,0.01598,-0.061036,-0.113705,-0.045248,-0.107288,0.119475,0.027602,-0.157375,-0.004623,-0.029943,0.042964,0.00277,-0.000668,0.010632,-0.001084,-0.032208,-0.034692,-0.383033,0.018892,-0.021889,-0.02038,0.076494,0.094788,-0.236521,-0.065037,-0.043226,-0.075828,0.118983,-0.227469,0.061788,0.074578,0.011622,-0.222911,0.053478,0.097051,-0.010243,0.1809,0.076906,0.042083,0.056449,-0.139914,-0.007506,-0.046799,0.020932,0.041646,-0.068982,0.041248,0.122471,0.170282,0.05435,0.027184,-0.068755,-0.074441,0.124402,-0.10529,-0.110685,0.03365,0.008257,0.077373,-0.094149,0.221536,0.056064,-0.026182,-0.090164,0.064316,0.427755,-0.118502,0.003443,-0.139667,0.102138,0.047061,-0.067856,-0.151951,-0.012069,0.077492,0.188823,-0.088893,-0.116981,0.050042,-0.118469,-0.002999,0.086435,-0.033493,0.115437,-0.035883,-0.080311,0.04089,0.00529,0.11129,0.035323,0.208976,0.04367,0.045344,-0.158406,-0.085526,0.037094,0.026493,-0.025,0.056503,0.093803,0.050635,-0.027138,-0.046992,0.041069,0.169055,-0.083246,0.114655,-0.222672,0.037095,-0.049324,0.280279,-0.033194,0.033409,-0.02365,0.070175,0.075014,0.035281,0.219297,-0.061278,-0.481143,0.009276,0.008697,-0.059867,0.079687,-0.384461,-0.19987,0.150266,0.256706,-0.052585,0.090097,-0.076077,0.198683,0.015861,-0.056553,-0.051645,-0.230132,0.18749,0.043871,0.010563,-0.088522,0.006847,-0.043605,-0.022505,-0.014028,0.161845,-0.001779,-0.104506,-0.018455,0.1517,0.049383,0.022222,-0.019194,-0.081645,-0.113216,-0.049871,0.096125,-0.079713,0.033838,0.034027,0.124578,-0.049917,0.030858,-0.025293,-0.084532,0.077239,0.039062,-0.029851,-0.105063,-0.007602,0.15169,-0.062747,0.090848,-0.204494,-0.015779,-0.121035,-0.068358,-0.119188,-0.08536,0.03136,-0.025257,-0.091619,-0.022924,-0.088906,0.00464,-0.076078,-0.008791,-0.062412,0.167941,0.08163,-0.132149,0.080258,-0.028318,-0.078705,0.32045,-0.026178,0.035028,0.027423,0.01229,-0.101373,0.022588,-0.084684,0.168249,0.243872,0.146037,-0.057572,-0.033494,-0.23304,-0.088971,-0.017137,0.081412,0.007179,-0.133258,-0.033506,-0.018549,-0.003615,0.139989,-0.02413,-0.00465,0.011682,0.028248,-0.001089,0.166237],[-0.010676,-0.007158,-0.044507,0.054011,0.158933,0.009745,-0.310102,0.054242,-0.021928,0.033557,-0.008066,-0.016206,-0.080736,0.012208,0.002106,0.157379,0.046917,0.086785,-0.004262,0.107702,0.177101,-0.061484,-0.131912,0.017355,0.010714,-0.12046,0.009474,0.081795,-0.015103,0.035397,0.047689,0.025595,0.030945,0.080594,-0.032353,-0.133942,0.041961,-0.031245,-0.121292,0.061548,-0.1738,0.2489,0.067015,0.049051,-0.026895,0.039055,0.020194,0.048931,0.002513,0.099895,0.025568,-0.196861,0.024505,0.010022,-0.060133,0.093407,-0.026517,0.060901,0.053486,0.070013,-0.01951,0.120594,-0.108254,-0.027622,0.014159,0.018769,-0.042614,-0.036593,0.106051,-0.071578,0.003261,0.043409,0.001388,0.137719,-0.020639,-0.019863,0.028183,0.009069,-0.022093,-0.135861,-0.022393,-0.011647,-0.01214,0.031129,0.036861,-0.076646,0.049078,0.089805,-0.096953,0.050739,0.015733,-0.002208,0.062481,-0.147348,0.034971,0.030299,0.003508,0.002993,-0.016432,0.153265,-0.06659,-0.041144,-0.089802,0.004689,-0.091478,-0.160519,0.208111,0.051334,-0.093668,0.198497,-0.001539,0.035591,0.006886,0.068979,-0.074611,-0.067252,-0.057521,-0.003162,-0.012332,0.130432,0.04757,-0.047686,-0.016069,-0.076511,0.011421,0.023935,0.024554,0.041669,0.006031,0.079443,0.033568,0.074239,0.122402,-0.017584,-0.066276,0.10589,0.030438,0.000614,0.082606,0.044181,-0.061016,-0.016581,0.155618,-0.086011,0.034013,-0.064864,0.051017,0.028163,0.107481,0.016039,0.032791,0.122195,-0.042003,0.006736,0.027108,-0.037339,-0.06671,-0.009424,0.121665,-0.100766,0.079546,0.040344,-0.050097,0.062595,0.085746,-0.151579,0.032339,0.054037,0.174275,-0.198628,-0.11679,0.025823,0.078432,-0.174932,0.028419,-0.032307,0.047759,0.022832,-0.221322,0.055299,-0.100747,0.006072,-0.015652,0.052922,0.107842,-0.021571,-0.075075,-0.081035,-0.039123,0.033046,-0.06739,0.043312,0.045579,-0.009911,-0.000303,0.048243,-0.024208,0.022508,0.022286,-0.001085,-0.00939,-0.104014,-0.212622,0.135662,-0.066812,-0.005346,-0.364777,-0.021874,-0.129653,-0.064412,0.011749,-0.022971,0.106024,-0.036445,-0.053119,-0.125119,-0.164813,0.010874,-0.011491,0.053515,-0.050971,0.02159,-0.01177,-0.237898,0.022101,-0.030367,-0.065248,0.000449,-0.0249,0.013481,-0.199153,-0.019931,-0.083721,-0.007699,0.096382,-0.004623,0.097079,0.105504,-0.038194,-0.151074,-0.02223,-0.063764,0.01439,0.105861,-0.075469,-0.204549,-0.169495,0.01618,0.045124,0.16626,0.016445,-0.023748,-0.041381,-0.009736,-0.030048,0.077553],[-0.000162,-0.0035,-0.010437,0.054494,0.132527,0.062283,-0.305547,0.028797,0.022264,0.021889,-0.013285,-0.018772,-0.008266,-0.044247,-0.078101,0.138819,-0.057638,-0.006091,-0.01597,-0.04953,-0.192769,0.001832,-0.132622,0.02707,0.025755,-0.011714,0.005435,0.033304,-0.049522,0.043712,0.057285,0.06835,0.002754,0.001053,-0.031311,-0.153086,0.088618,-0.047629,-0.050776,0.059351,-0.27697,-0.15405,0.047849,0.007977,0.084927,-0.056636,0.029354,0.039585,-0.061644,0.135541,0.106113,0.06204,0.035173,0.028417,-0.058698,0.041802,-0.043534,0.06379,-0.064678,-0.063006,-0.108089,0.083395,0.080431,0.014864,0.187215,-0.046491,0.018736,-0.09741,0.039559,-0.178395,0.00538,0.005235,-0.047942,0.020902,-0.033711,0.037642,-0.011516,0.022306,0.027574,-0.126912,0.06313,0.068752,0.053979,0.055046,0.017452,-0.060272,0.109433,-0.002604,-0.083951,0.095904,0.034605,-0.029714,0.050326,-0.117202,0.032143,0.047483,0.007048,-0.104926,-0.028568,0.140295,-0.05459,-0.016417,0.033297,-0.104424,-0.037047,-0.015233,-0.14983,0.031168,0.081027,0.129554,-0.066529,0.049408,0.061719,0.105759,-0.075704,-0.010479,0.067295,-0.000421,0.071133,-0.085726,0.046829,-0.011667,0.042713,-0.068292,-0.051021,-0.020978,0.028958,0.009034,0.023721,-0.03245,0.093491,0.076085,0.223428,-0.023957,-0.093393,-0.0197,0.007977,0.038454,0.042883,0.027417,-0.03873,0.066528,0.21448,-0.022203,0.008535,-0.084159,0.052864,0.013134,0.077009,0.031502,-0.024209,-0.01965,-0.042702,0.030548,0.047101,-0.067263,-0.050029,-0.035903,0.122767,-0.108716,-0.011826,0.051745,-0.034166,0.155646,0.008349,0.198554,0.117618,0.02366,-0.024986,-0.101536,-0.070882,-0.409055,0.101002,0.038548,0.02877,-0.012199,0.020103,-0.002404,0.160711,-0.00566,-0.095458,0.050126,-0.004032,0.141262,0.09177,-0.041524,-0.051795,-0.080252,-0.029963,0.025253,-0.047408,-0.037254,-0.061311,-0.000972,0.091755,0.012119,0.017894,-0.064647,0.014391,-0.027665,0.035059,-0.106831,0.067407,0.067498,-0.037017,0.022995,-0.22128,-0.032625,0.144998,-0.046849,-0.03751,-0.006007,0.12584,-0.020951,-0.08701,-0.181604,-0.101972,0.02794,-0.033419,-0.028575,-0.059769,-0.036922,-0.008941,0.055739,-0.01254,-0.161027,-0.014922,0.076273,0.066577,0.00419,-0.126872,-0.011108,-0.07247,0.042542,0.05776,0.111336,0.174236,0.095597,-0.099689,-0.25544,-0.021082,-0.02635,0.007375,0.045689,-0.019384,-0.190551,-0.097082,-0.011608,0.043671,0.152287,-0.047726,0.075995,0.015818,-0.053201,-0.020617,0.034154],[-0.119536,-0.095478,0.019904,0.084549,0.131156,0.073946,-0.290982,-0.000654,0.047034,0.047797,-0.026386,0.05611,-0.040394,0.044525,-0.054393,0.134305,-0.264061,-0.060661,-0.111544,-0.047214,-0.19931,-0.031424,-0.089257,0.067134,0.01822,0.007263,0.150709,-0.011855,-0.027173,-0.086467,0.008101,0.025929,-0.106668,-0.068642,-0.049662,-0.197684,0.009795,-0.036689,-0.026279,0.166666,-0.045405,-0.149242,0.071014,0.062499,0.11183,-0.008337,0.040254,0.020078,-0.078313,0.233988,0.091309,0.132241,0.084978,-0.018757,-0.096885,0.016808,0.023455,0.143953,0.005605,-0.122056,-0.404111,0.079049,-0.209844,-0.0566,0.077738,-0.129378,0.156954,-0.399399,-0.009286,-0.134447,0.006342,0.014716,0.109839,0.283925,-0.04278,0.04361,0.187744,0.016204,0.031978,-0.030984,0.095799,-0.026998,-0.013692,0.130476,0.0314,-0.061513,0.13075,0.094746,-0.105718,0.108698,-0.002967,-0.106216,0.051859,-0.092417,-0.022028,-0.000446,-0.011462,-0.107474,-0.100376,0.179551,-0.074361,-0.039681,0.057069,-0.183807,-0.098539,-0.268669,-0.151974,-0.035123,0.103397,0.131733,0.008115,-0.040154,0.065257,-0.561427,-0.062508,0.042369,0.076195,0.032394,0.053677,-0.070847,0.04461,-0.019793,0.124788,-0.116211,-0.012994,0.012584,-0.050315,0.010006,0.001605,0.031795,-0.008789,0.104633,0.677543,0.002255,-0.14355,0.020637,0.010677,-0.028189,0.087392,-0.025371,-0.029547,-0.139547,-0.145127,-0.049414,-0.069789,-0.081661,0.018085,-0.033831,0.0787,0.061545,0.081704,-0.066971,-0.015654,-0.020222,0.055004,-0.264052,-0.02933,0.021397,-0.140062,-0.109869,-0.138372,0.117719,0.020003,0.133896,0.040285,0.208729,0.023959,0.060981,-0.410422,0.046957,0.051343,0.125056,-0.039239,0.035122,0.096474,-0.057165,-0.016851,0.043645,0.158556,-0.03461,-0.157331,0.054206,-0.007482,0.159802,0.340008,-0.100058,-0.021577,-0.074714,-0.020868,-0.028218,-0.067174,-0.028102,0.156449,-0.043433,0.003368,0.15077,0.040973,0.102773,-0.045023,-0.076377,0.01073,-0.125216,-0.052725,0.009707,-0.073894,0.063487,0.320695,-0.092049,-0.038955,-0.006722,-0.127416,-0.052089,0.106351,0.120448,-0.022847,-0.165892,-0.143348,-0.035733,-0.067982,-0.077532,-0.13776,-0.199637,0.198846,-0.155722,-0.038229,-0.245637,0.040616,-0.006554,0.10672,0.066751,-0.113452,-0.105786,-0.083589,0.023051,0.04663,-0.102794,0.223018,0.008884,-0.053335,0.078361,0.064016,0.007787,-0.025544,-0.167123,-0.053159,-0.06052,-0.219431,-0.033274,-0.011462,-0.056553,-0.015113,0.017939,0.051727,-0.093606,0.033269,0.108818],[-0.129794,-0.014255,0.080174,0.085486,-0.164575,0.053622,0.064798,0.01834,0.077316,-0.088182,0.003372,0.046307,-0.00675,-0.009502,0.076147,-0.098598,0.07348,-0.008356,-0.145976,-0.007346,-0.18645,0.049263,0.254025,0.06893,0.019026,0.026293,-0.02653,0.019605,-0.018339,0.016569,0.203713,-0.075348,0.025135,0.040691,-0.017602,0.063812,0.121318,-0.149334,-0.10992,-0.014532,0.088551,0.184199,0.039115,0.02036,0.026507,0.251779,0.000337,0.031599,0.054545,-0.002656,0.055209,-0.166968,-0.242321,-0.199119,-0.00554,0.073648,0.047561,-0.102539,-0.015829,0.021526,0.031797,-0.03744,-0.145249,-0.043082,0.04734,0.059678,0.005599,0.035593,-0.046737,0.033531,0.162312,0.078361,0.019862,0.062987,0.04565,0.024294,-0.034472,-0.018838,0.019318,-0.021548,-0.061859,-0.036732,0.108107,0.054546,0.018283,0.068954,-0.009628,-0.227091,-0.101128,-0.019696,0.032065,0.204401,-0.12136,-0.062113,0.025354,-0.4664,-0.00667,-0.096253,-0.023117,-0.059097,-0.084317,-0.138112,0.02175,-0.012299,0.025861,0.066432,-0.142238,0.053835,0.082055,-0.14906,0.068101,0.034192,-0.102318,0.06102,-0.157685,0.064825,0.01223,-0.520898,0.037681,-0.1115,-0.020488,0.045049,0.045667,0.110887,-0.04881,-0.029594,0.001236,0.017572,-0.134536,-0.041377,-0.004399,-0.110772,-0.141408,-0.022195,-0.325434,-0.052331,0.015646,0.031905,0.051218,0.000208,-0.014887,0.06881,-0.060486,-0.040164,-0.203267,0.011983,0.045281,0.120416,-0.068875,-0.010971,0.07686,-0.048452,-0.067285,0.030793,-0.044889,0.191318,-0.051164,-0.02243,0.065846,-0.103033,0.022835,-0.036546,-0.107988,0.03395,0.099937,0.19027,0.003865,-0.007642,-0.302643,0.021687,-0.010334,0.036614,0.099909,-0.225856,0.012423,0.067264,-0.063834,-0.190547,0.15833,-0.114483,0.006709,0.024452,-0.047648,-0.092872,-0.056128,-0.020988,-0.083075,0.225241,-0.652242,0.001745,-0.080248,0.051239,-0.370731,0.029253,0.008413,0.080574,0.107546,0.094728,-0.032091,0.137,-0.08184,-0.029019,-0.030173,0.073755,-0.017179,-0.007384,-0.020584,0.044354,-0.024903,0.07611,-0.033221,0.016391,-0.143362,0.065096,-0.037038,-0.119072,-0.011701,0.034967,-0.205896,-0.21207,-0.04293,0.005532,-0.067361,-0.070913,0.120304,0.043008,-0.187282,0.017093,0.15853,0.012647,0.061015,0.071933,-0.106465,-0.000837,0.011714,0.006432,-0.048016,0.002388,0.187432,0.021487,0.113915,0.092591,0.004602,0.083933,-0.01632,0.10149,0.049584,0.013481,0.052183,-0.022048,0.022911,0.049306,0.065146,0.014619,-0.134182,-0.002555],[-0.094561,0.03361,0.071156,0.078952,-0.173456,0.059499,0.082638,0.003157,0.074291,-0.112764,-0.009932,0.052542,-0.063534,-0.027781,0.076107,-0.094765,0.068154,0.007071,-0.065277,-0.0077,-0.190902,0.031277,0.208387,0.065165,0.008439,-0.149641,0.03359,-0.057236,-0.022098,0.029284,0.094075,-0.014452,0.002081,-0.084892,-0.002702,0.050096,0.062768,-0.09929,-0.167381,-0.028146,0.061914,0.194669,0.092206,0.095989,-0.025694,0.189694,0.020029,0.001371,0.042094,-0.013542,0.042068,0.147956,-0.256057,-0.081762,-0.023618,-0.039213,0.017781,-0.063638,0.04922,0.018918,0.179156,-0.029719,-0.079233,-0.002867,-0.068413,0.028253,0.015204,0.073054,0.038839,0.034983,0.058095,0.01062,-0.015225,0.115181,-0.129957,0.038911,-0.030845,-0.031927,0.018038,0.037421,-0.047995,-0.011199,0.119184,0.044369,0.018713,0.102026,-0.013498,-0.037609,-0.09742,-0.044901,0.086912,0.130855,-0.119583,-0.101798,-0.005859,-0.293978,0.019435,0.00206,-0.058711,-0.060377,-0.071422,-0.124289,0.017236,0.024361,0.100266,-0.037171,-0.146864,0.039728,0.086208,-0.142966,0.103387,-0.022576,-0.032872,-0.393257,-0.130838,0.04636,-0.083293,-0.132107,0.087406,-0.068615,0.14889,0.129131,0.039322,0.043945,-0.020773,0.01036,0.039063,0.068526,-0.054519,-0.070032,0.030582,-0.073208,-0.132205,-0.045217,-0.043171,0.031173,-0.032619,0.061354,0.095967,-0.032958,0.068221,-0.035487,-0.020611,-0.0618,-0.144454,-0.026192,0.052195,0.056982,-0.072788,0.026901,0.034422,-0.057869,-0.033604,-0.036681,-0.139558,0.098086,-0.06756,-0.029861,0.057513,-0.097983,0.022997,0.041604,-0.09358,-0.074462,0.141256,0.204914,0.000494,-0.041919,-0.334317,0.039958,-0.009152,0.018815,0.159406,-0.056648,0.056841,0.030027,-0.086551,-0.147073,0.155436,-0.101277,-0.005169,0.035518,-0.036099,-0.063337,0.01761,-0.047955,-0.070913,0.272132,0.315843,0.129569,-0.064945,0.029199,-0.260592,0.030796,0.057074,0.026145,0.048654,0.087882,0.029171,-0.043284,0.008639,-0.015071,0.021059,0.052219,-0.036732,0.025364,-0.028878,-0.014221,-0.041811,0.089595,-0.052238,-0.310622,-0.111569,0.05553,-0.017348,-0.031822,-0.000102,0.01681,-0.102139,-0.169683,-0.082479,0.015455,-0.076507,-0.254963,0.17133,0.086443,-0.135009,-0.035421,-0.073013,0.060046,0.060659,0.041835,-0.122796,-0.027671,-0.008931,-0.029359,-0.080611,-0.061504,0.113463,0.092429,0.050017,0.056644,0.004364,0.008388,0.018539,0.033588,0.059609,0.053979,0.010581,0.012414,0.036986,0.074938,0.000864,0.022856,-0.10987,-0.037868],[-0.068638,-0.036587,-0.031301,0.07361,0.146947,0.038006,0.063593,0.030637,-0.007923,-0.137012,-0.047061,0.111233,-0.049151,-0.029822,0.023553,0.133952,0.074678,-0.055957,-0.060638,-0.059124,0.172636,-0.036483,-0.008455,0.052424,0.035569,-0.211278,-0.008745,-0.014552,-0.056066,0.006167,0.083093,0.035169,0.023636,-0.067482,-0.043814,-0.06063,0.065052,0.08748,-0.100002,0.046423,-0.014493,0.20591,0.047749,0.092216,-0.040187,-0.064674,-0.008532,-0.005213,0.109025,-0.005036,0.036466,-0.113207,-0.300424,-0.075014,-0.038346,0.01306,0.060635,-0.015038,-0.011236,0.079458,0.024673,0.013088,-0.077389,-0.040215,-0.014494,0.050524,-0.020066,0.093989,0.012526,0.063682,0.092322,0.003433,0.059267,-0.008059,-0.138911,-0.007931,-0.01058,0.001297,-0.024761,0.084518,-0.039141,-0.089627,0.049042,-0.002537,0.020683,0.090552,0.02125,0.126921,-0.105626,-0.020199,0.05255,0.083068,-0.128256,0.038516,-0.009154,-0.266429,0.01876,-0.024383,0.006263,-0.064664,-0.036332,-0.021939,0.067715,0.013737,0.052918,-0.065938,0.163419,-0.003688,-0.057826,0.148845,0.112218,-0.006869,-0.055944,-0.208747,-0.029619,-0.042398,-0.009915,-0.147472,0.039955,0.111544,0.168289,-0.10048,0.103099,-0.038981,0.030208,0.026696,0.044458,-0.017405,-0.00081,-0.063966,0.003829,-0.063552,-0.135061,-0.001139,-0.057707,0.075775,0.00232,0.037602,0.032375,0.047428,0.030169,0.068696,-0.04078,-0.033218,-0.119152,0.002103,0.037084,0.031204,-0.056283,0.047881,-0.054137,-0.036554,-0.080957,-0.005061,0.036651,0.055552,-0.078848,-0.031859,0.057617,-0.109215,0.021254,0.044364,-0.088497,-0.070746,0.110692,-0.139537,-0.042688,-0.018017,0.051783,-0.014071,-0.107893,0.089089,-0.000593,-0.054839,0.03339,0.004974,-0.044446,-0.082625,-0.189004,-0.011647,0.053788,0.035793,-0.096119,-0.097431,-0.032663,-0.030819,-0.088931,0.227291,0.226951,-0.037432,-0.073588,0.003716,-0.277522,-0.103655,0.008582,0.070119,0.011955,-0.004319,-0.05582,-0.040159,0.107865,0.00969,0.035325,0.066383,-0.040074,0.015776,-0.013544,-0.04876,-0.025039,0.130193,-0.059121,-0.210099,-0.049676,0.03401,-0.148307,-0.06591,-0.005937,0.054187,-0.045633,-0.178041,-0.047413,-0.008698,-0.026454,-0.03035,0.025469,0.090918,-0.110543,0.004108,0.012935,0.058341,0.041993,0.140221,-0.094305,-0.021669,0.013244,0.064811,-0.097366,-0.052662,0.040895,0.056592,0.007004,0.011043,-0.002014,0.046012,0.063377,0.036123,0.002917,-0.041202,0.097431,-0.033291,-0.011388,-0.006856,0.00333,-0.017052,-0.166389,-0.156911],[0.001895,0.033469,0.113166,0.061868,-0.176925,0.033404,0.061746,0.010015,-0.007782,-0.011117,-0.028287,0.128669,-0.011921,0.03126,0.049904,-0.095174,-0.068192,-0.009426,-0.064408,-0.007317,-0.187925,-0.030237,0.03025,0.064186,-0.026859,-0.080023,0.034599,0.004423,-0.009417,0.061066,-0.130055,0.017953,0.052515,-0.002821,-0.219494,-0.056326,0.071179,0.212619,-0.098235,0.065416,0.056705,0.19015,-0.060629,-0.010427,0.02707,0.0514,-0.030554,-0.029202,0.099028,0.004741,0.035618,-0.037009,-0.276728,-0.002545,-0.031994,0.019353,0.059398,-0.075607,0.132233,-0.000567,-0.02215,0.044688,0.178512,-0.105952,-0.062713,-0.072791,-0.002066,0.133843,0.03876,0.057281,-0.003631,0.044293,0.06768,-0.080646,-0.076294,-0.015179,0.011172,0.02601,0.017881,0.076498,0.063471,-0.131988,-0.000294,0.081093,0.042275,0.089877,-0.06562,-0.13808,-0.097944,0.031407,0.058566,0.013012,-0.13181,0.082851,0.011512,-0.093475,-0.055999,-0.020066,0.067983,-0.064599,-0.078946,-0.265696,-0.008172,0.016857,0.093109,-0.00775,-0.146114,-0.018004,0.124389,-0.141537,-0.013579,0.028454,-0.053189,-0.096445,0.002946,-0.012784,0.036326,0.058154,-0.018376,-0.090306,-0.337328,-0.021817,0.103202,0.10249,0.032304,0.026325,0.041599,0.119746,-0.117145,-0.124926,-0.072555,-0.030097,-0.130079,0.033971,-0.130489,0.024139,-0.01708,0.127943,-0.010397,0.052893,0.036347,0.005253,-0.0625,-0.000618,-0.12791,-0.022986,0.05078,0.021841,-0.051611,0.045835,0.074851,-0.069061,-0.051987,0.037087,-0.063026,0.030663,-0.072968,0.098517,0.064916,-0.127162,0.032705,-0.004874,-0.112257,-0.104034,0.088351,0.205759,0.002801,-0.01784,-0.220066,0.055784,-0.0965,0.070551,0.029193,-0.192465,0.038642,-0.026045,0.026955,-0.1386,0.1552,0.003563,0.031648,-0.157988,-0.061065,-0.092539,-0.004491,-0.052243,-0.07933,0.168159,0.144822,0.002198,-0.064029,-0.011188,0.129756,-0.104849,0.127224,0.016116,0.048595,0.041544,0.010963,-0.059723,-0.533325,0.124821,-0.164683,0.089716,-0.073359,0.044025,-0.050601,-0.02153,-0.004031,0.054999,-0.102421,0.010811,-0.044011,-0.056401,-0.051465,-0.000992,-0.042016,0.0295,-0.035487,-0.142184,-0.062344,-0.04549,-0.111345,0.04089,-0.393552,0.080517,-0.109833,0.076829,0.003662,0.017886,0.028931,0.020084,-0.107194,-0.012114,-0.009556,0.018832,-0.048179,-0.118752,-0.031741,0.057347,-0.056444,0.021775,-0.027775,-0.016905,0.098222,0.021322,0.15875,0.002884,0.072941,-0.038332,0.060358,0.061946,0.014423,0.032176,-0.081365,-0.107674],[-0.102826,0.064124,-0.118077,0.064206,-0.177172,0.03666,0.074399,0.027119,0.021886,-0.09968,0.011755,0.080799,-0.01166,-0.013642,0.034787,-0.086678,0.050199,-0.001481,-0.033024,-0.004381,-0.197882,-0.05753,-0.025463,0.05324,0.035721,-0.140107,0.016557,0.032503,-0.020078,-0.044148,-0.154751,0.020993,0.008374,0.019552,0.064557,-0.118537,-0.007232,0.172323,-0.095158,-0.062161,-0.046128,0.192138,0.072461,-0.02477,-0.039422,0.02031,0.029451,0.000894,-0.010484,0.00401,0.082996,-0.19065,-0.302088,0.095801,-0.035762,0.022122,-0.047758,-0.167014,0.007644,0.079513,-0.272863,0.039388,-0.059823,-0.208944,-0.001116,0.026293,0.010029,0.062616,-0.020582,0.01815,0.018749,-0.028524,0.064739,-0.03085,-0.09397,-0.024881,-0.01612,0.035987,0.000325,0.05994,0.076908,0.029807,0.028756,0.031125,0.048706,0.181377,0.020662,-0.025161,-0.096858,-0.006529,0.085923,-0.135664,-0.131777,0.08258,0.01561,-0.025087,0.060163,-0.046717,0.157775,-0.039212,-0.087943,0.143958,0.01414,-0.005974,-0.024431,-0.073818,-0.137913,0.014302,0.088414,-0.151541,0.052258,0.039294,-0.092185,-0.096889,0.078358,-0.049105,0.094655,0.024697,0.017828,-0.119193,-0.002901,-0.081687,-0.190593,0.075761,0.006251,-0.012136,0.065524,0.080151,-0.056357,-0.115212,0.021349,-0.100697,-0.132463,0.03971,-0.105167,0.007249,-0.009672,0.04868,-0.036002,-0.007858,-0.005338,0.041096,-0.012737,-0.077102,-0.042286,0.006098,0.057445,0.016068,-0.067143,0.07443,0.061486,-0.068785,-0.036709,0.01001,0.003472,0.031331,-0.063322,0.139945,0.063127,-0.116899,-0.00147,-0.000409,-0.122956,0.032736,0.068901,0.207844,0.049148,-0.016296,-0.071556,-0.065195,-0.135802,-0.023923,-0.022696,-0.024628,-0.002709,-0.094561,0.102995,0.04622,0.163205,0.051551,0.078936,-0.179128,-0.013086,-0.251025,-0.036686,-0.033453,-0.075577,0.224633,0.139071,-0.013324,-0.072833,0.040742,0.228408,0.021652,0.062777,0.08196,-0.003756,-0.036068,-0.002556,-0.002295,0.106547,0.099744,-0.109503,0.028325,-0.061098,0.02913,-0.026758,-0.131206,0.032215,0.123545,-0.063492,7.9e-05,-0.018229,-0.082433,-0.092259,0.007485,-0.047074,0.023198,-0.023292,-0.156902,-0.055679,0.00165,-0.093345,0.033904,0.070064,0.107789,-0.12473,0.051124,0.0239,-0.045753,0.069705,-0.051791,-0.078159,0.033787,0.044878,-0.016537,-0.098681,-0.09197,0.038587,-0.033074,-0.131978,-0.019004,0.014133,-0.080536,0.020701,-0.054289,0.002288,-0.005733,-0.02634,-0.107772,-0.017926,0.099225,0.033842,0.05717,-0.039031,-0.035859],[-0.116568,-0.055079,0.057412,0.05728,-0.177082,-0.448193,0.060651,0.019705,-0.019891,-0.293422,0.089103,-0.070019,0.091688,-0.014357,-0.067777,-0.102715,-0.262326,-0.003844,-0.16928,-0.036649,-0.195748,-0.04866,0.012156,0.038443,0.026505,0.014411,-0.054701,0.13895,0.012544,-0.082158,-0.167444,0.087151,0.024264,-0.078575,0.039283,-0.063069,0.063605,-0.030654,-0.11843,0.108246,0.020073,0.237891,-0.118841,-0.09167,0.227418,0.039376,0.046351,-0.05256,-0.000555,0.040492,-0.065686,0.081956,-0.266577,0.096482,-0.023667,0.083057,-0.047673,-0.0716,0.053816,0.10391,-0.195988,0.007746,-0.077105,-0.037126,-0.104046,0.081747,0.031927,0.096257,-0.122262,-0.073737,0.099576,-0.056211,0.095493,-0.058634,-0.036381,0.044262,0.080156,0.014229,0.032921,-0.037091,-0.066602,-0.015621,-0.021268,0.086511,0.028101,0.145436,-0.03503,-0.210533,-0.117232,0.139515,0.163197,-0.039507,-0.123894,0.062599,0.001135,-0.118951,-0.055325,-0.024763,0.170529,-0.071557,-0.053417,-0.140307,0.039838,0.041605,-0.059667,-0.150618,-0.153153,0.228568,0.085648,-0.14548,0.053866,0.002449,-0.056308,-0.401934,-0.037118,0.010044,0.03313,0.112696,-0.049815,-0.070329,-0.354093,-0.032546,-0.164324,-0.036878,0.154223,0.000949,0.070018,-0.017537,-0.088799,0.120458,0.036106,0.021549,-0.142134,0.059352,-0.342545,0.206498,0.060862,0.068749,0.224919,0.151713,0.101402,0.01048,-0.00192,0.005381,-0.071181,0.029466,0.045191,0.003438,-0.024233,0.088924,0.036951,-0.051552,-0.059975,0.090095,0.030098,0.036645,-0.064257,0.043005,0.05652,-0.189633,0.003172,0.01098,-0.06847,-0.167498,0.032692,0.205166,-0.030516,0.021122,0.029009,-0.209475,0.012657,0.021667,-0.082406,-0.015988,0.063763,0.071332,0.234247,-0.076402,0.14983,-0.120087,0.034344,-0.029236,0.066264,-0.019727,0.011485,-0.029398,-0.079927,0.130428,0.085613,-0.092427,-0.061159,0.051158,-0.373886,-0.095896,0.171426,0.002311,0.00698,-0.020797,0.057823,-0.015835,-0.035621,0.693672,0.12824,0.161261,-0.057423,0.010801,0.019852,0.032181,-0.030127,0.335604,-0.117142,0.051324,0.067367,-0.111541,-0.073446,-0.116912,-0.055201,0.056418,0.154556,0.262406,-0.079831,-0.162403,-0.094977,-0.479475,0.155468,0.058095,-0.104649,-0.069396,-0.015974,-0.036034,0.022012,-0.01792,-0.0879,-0.017558,-0.084723,0.046219,-0.067954,-0.069006,-0.049829,0.081383,-0.074107,0.017887,-0.004371,-0.016832,0.008094,-0.116901,-0.133469,-0.026725,-0.023938,-0.173262,-0.07468,-0.017438,-0.120067,0.024983,-0.046766,0.051364],[-0.079004,0.040214,-0.000398,0.045738,0.158234,0.012269,0.052754,0.012987,0.019945,-0.159235,0.020577,-0.01187,0.109455,0.03172,0.047665,0.166438,-0.040159,0.086316,-0.34898,0.097529,0.178167,-0.055352,-0.017388,0.044553,0.015872,0.000435,0.075019,0.073788,0.020289,0.050948,0.031843,0.029098,-0.005855,-0.087696,-0.064832,-0.073937,0.07551,0.026738,-0.121465,0.080761,-0.026956,0.241279,0.058647,0.008607,0.033292,0.009517,0.026494,0.013349,0.056675,0.121731,0.063914,-0.437611,-0.211632,-0.042368,-0.041412,0.069382,-0.079499,0.056113,0.020326,0.047972,0.08508,0.028609,0.02368,-0.064578,0.029939,0.078796,-0.015338,-0.046165,0.070811,0.007518,0.068255,0.032845,0.055317,0.006107,-0.047372,-0.036151,-0.038491,0.006677,0.009295,0.064133,0.025128,0.00486,0.049433,0.034284,0.031286,0.218528,0.108074,-0.01001,-0.103397,0.070547,0.051817,-0.041676,-0.164226,0.038427,0.089687,-0.01212,0.069824,-0.05379,0.031524,-0.057352,-0.043143,-0.028111,0.071162,0.029164,-0.051231,-0.216319,0.194208,0.029964,-0.093212,0.174725,0.077628,0.020027,-0.011246,0.068689,0.069347,-0.026959,-0.012945,0.019959,0.005378,0.138143,0.153388,0.008428,0.016444,-0.08666,-0.010276,-0.012615,0.053545,-0.110067,0.004802,-0.057335,0.025859,-0.117182,-0.142458,0.032448,0.043981,0.056646,0.01375,0.00793,0.107371,0.088741,-0.021593,-0.052071,0.085308,-0.070362,-0.057099,-0.008122,0.052045,0.001952,-0.040361,-0.024646,0.030136,-0.065343,-0.037942,-0.071502,-0.007311,-0.029653,-0.070911,-0.079231,0.054511,-0.10597,-0.005362,0.063187,-0.057291,0.049807,0.059417,-0.150446,-0.042149,0.073852,0.053141,-0.223765,-0.12828,-0.040977,0.036382,-0.00973,0.007996,0.088319,-0.030715,-0.035511,-0.214474,0.011916,0.148356,0.011996,-0.056858,-0.119709,-0.058184,-0.022115,-0.059533,0.153536,0.088731,-0.004541,-0.06305,0.035402,-0.116522,0.018449,0.040677,-0.055533,-0.027991,-0.026845,-0.015379,-0.033446,0.053887,0.014463,-0.026454,0.022213,-0.053876,-0.015328,0.078203,-0.108728,-0.016929,0.114816,-0.030144,0.043551,0.099265,-0.010704,-0.032779,0.102351,-0.13936,0.046452,0.18783,0.087092,-0.064528,0.028875,-0.025729,-0.185689,0.05926,0.112521,-0.042591,0.012713,-0.032509,0.018897,0.046307,0.002106,-0.084351,-0.004745,0.039698,0.004173,-0.047793,-0.065223,-0.042836,-0.086347,-0.032084,0.006715,-0.000251,0.040146,-0.07984,-0.195469,-0.134967,0.003565,0.084542,-0.188318,-0.005945,-0.025176,0.072106,0.08889,-0.036847,-0.073454],[-0.019417,0.005829,0.094143,0.055424,-0.173352,0.026367,0.037833,0.007595,0.043633,-0.138429,0.111916,0.066973,0.097291,0.072036,-0.052362,-0.089137,-0.105663,-0.017292,-0.379988,-0.025409,-0.193237,-0.040733,-0.043357,0.018892,-0.039899,0.10148,-0.064141,0.111933,-0.033467,-0.016124,-0.048265,0.027574,0.004795,-0.060031,-0.157169,-0.069711,0.006103,0.003325,-0.109785,0.057706,-0.048072,0.20141,0.035418,0.048212,0.068991,0.085794,0.00793,0.087396,-0.019438,0.121606,0.046123,0.086718,-0.208245,-0.085229,-0.032156,-0.003108,-0.092395,-0.036871,-0.057438,0.014985,-0.044172,0.090192,0.216081,-0.163363,0.012754,0.066352,0.001752,-0.131139,0.08962,-0.065749,0.083903,-0.056001,0.104105,-0.039396,-0.057775,-0.035058,-0.067371,0.005524,0.062397,0.076108,-0.016082,-0.006562,-0.002887,0.107914,0.022497,0.273596,0.051805,-0.042191,-0.081194,0.084371,-0.0319,0.002251,-0.221657,-0.034539,0.061628,0.057499,0.093384,-0.096802,-0.071236,-0.045069,-0.046834,0.143657,-0.020147,-0.013289,-0.148795,-0.236519,-0.148904,0.042661,0.092699,-0.15842,0.055348,0.105516,-0.030636,-0.097159,0.288758,0.019517,0.038432,0.043906,0.024661,-0.086758,0.126721,-0.007137,-0.044162,-0.029565,-0.001031,-0.020317,0.0601,-0.044022,0.00019,-0.006031,0.045646,-0.095626,-0.118345,0.011819,0.20232,-0.014941,0.022327,-0.006512,0.04273,0.09399,-0.073857,0.022126,0.067309,-0.004902,-0.062816,-0.111593,0.061807,0.045246,-0.056996,0.041735,0.031512,-0.080568,-0.028589,-0.00221,0.023203,-0.084077,-0.060629,0.066228,0.061858,-0.103542,-0.022851,0.038636,-0.03745,-0.012468,-0.008798,0.201434,0.044796,-0.0616,-0.077192,-0.118145,-0.06401,0.074589,-0.155548,0.081318,0.002479,-0.026868,0.01162,-0.006182,0.156423,0.019618,0.251069,-0.141219,0.050425,-0.100379,-0.0478,-0.039304,-0.055152,0.058485,0.089819,-0.044193,-0.046996,0.016042,-0.46008,0.004414,-0.002127,0.048199,-0.060919,0.074672,0.026941,-0.029742,0.002258,0.040576,-0.047436,0.017146,0.040224,0.051418,0.073517,-0.003011,0.051371,0.101967,-0.018051,0.041993,0.113776,-0.012868,-0.077241,-0.141574,-0.099001,0.023721,0.127892,-0.110201,-0.066881,0.023611,-0.048813,-0.048573,0.014835,0.116969,0.005217,-0.016711,0.001386,-0.024524,0.060032,-0.036634,-0.097125,0.000429,0.085313,-0.025502,-0.089615,0.010714,0.023233,-0.083518,-0.053885,0.012274,0.021782,0.018759,-0.065417,-0.163339,-0.091116,0.017823,-0.041297,-0.196941,-0.058422,0.047862,-0.010545,0.017702,-0.066803,0.047648],[-0.066269,-0.025823,-0.056283,0.097107,-0.177519,0.126677,0.088104,-0.009405,0.013671,0.053624,-0.088703,0.048128,-0.119107,-0.039951,-0.009259,-0.087892,-0.25951,-0.06635,0.200151,-0.012332,-0.198125,-0.062059,0.071822,0.069088,-0.016613,0.093523,-0.066525,0.087171,-0.043192,0.019967,-0.173754,0.058404,-0.038092,0.014918,-0.115126,-0.210062,-0.109526,0.288521,-0.074452,0.197406,0.008726,0.186517,0.109519,0.088475,0.108957,0.014387,0.017604,0.024542,-0.100533,0.226937,0.01001,-0.081194,-0.162998,0.020719,-0.061966,-0.037133,0.005688,0.02256,-0.02496,0.122579,-0.136258,0.024813,0.130203,-0.080472,-0.101743,-0.016464,0.002391,-0.294548,0.071983,0.020947,0.00653,0.004664,0.039053,-0.072944,-0.005103,0.123392,-0.099349,0.016804,0.016336,-0.471727,-0.082538,-0.110861,-0.00973,0.121657,0.03515,-0.488606,0.021135,-0.113717,-0.096831,-0.015959,0.099876,-0.081306,-0.277605,-0.36208,0.026638,0.176383,0.016535,-0.162547,-0.123564,-0.021444,-0.08203,-0.244812,0.032858,-0.083456,-0.027784,-0.288142,-0.146924,0.058273,0.101697,-0.154509,0.053837,-0.050465,-0.131919,0.025325,0.31679,0.044238,-0.029434,0.03008,-0.052463,-0.078648,-0.023864,-0.02842,-0.152034,0.247755,-0.000903,-0.000176,-0.046532,0.041334,-0.11214,-0.082085,0.041912,-0.047462,-0.18288,0.048543,0.023026,0.029651,0.013384,-0.039185,0.034965,-0.065579,0.011684,0.116968,0.058376,-0.080585,-0.008807,-0.047878,0.032679,-0.05511,-0.036547,0.034986,0.103357,-0.135387,-0.041637,-0.026624,0.01119,-0.286205,-0.010187,0.061062,0.04657,-0.101675,-0.003041,0.135866,0.024941,0.139728,-0.082892,0.209866,0.091792,0.014814,0.082551,0.039557,0.016276,-0.016968,-0.086275,0.113319,0.053326,-0.015522,-0.060493,0.041824,0.15896,0.033468,0.634901,-0.430716,0.050965,-0.123587,0.033413,-0.100601,-0.03931,0.143844,0.139122,-0.073436,-0.055338,-0.025077,-0.161228,-0.004719,-0.032199,-0.092226,0.045536,0.065795,0.040673,-0.044207,0.212158,0.195057,-0.148102,-0.042587,0.06073,0.068234,0.056921,-0.036817,0.033043,0.072052,-0.161022,0.244586,0.104959,0.04853,-0.022755,-0.30153,-0.190405,-0.009377,-0.021226,-0.189023,-0.065091,0.040064,-0.022797,-0.076017,-0.030631,0.152771,0.054359,0.011617,0.138439,-0.016343,-0.004157,-0.2613,-0.108515,0.016643,0.103166,-0.129362,-0.033529,0.012292,0.02583,-0.164232,0.139906,0.02303,0.012917,-0.002067,-0.040069,-0.114816,-0.082402,0.048255,0.032488,-0.101043,0.035279,-0.018628,-0.035189,0.004207,-0.016735,0.083475]],"b":[0.006112,0.112906,0.089815,-0.103719,-0.143833,0.001511,-0.020527,-0.023604,0.113755,0.102221,-0.01846,0.13395,-0.041282,0.070679,-0.016572,-0.101352,0.095215,-0.041249,0.058086,-0.056012,-0.197153,-0.125207,-0.003643,0.015914,-0.028166,0.017914,0.051253,0.076252,-0.021018,0.120019,0.001024,-0.012632,-0.094796,-0.061375,-0.16119,0.004514,-0.064275,-0.07577,0.041364,-0.001638,-0.091784,-0.070876,0.102693,-0.033853,0.056591,-0.022995,0.055507,0.052959,0.092746,-0.093704,-0.064672,-0.137036,-0.136497,-0.073347,-0.06159,0.026488,0.018468,-0.067807,0.060479,-0.068949,-0.103376,0.005201,-0.201575,-0.131725,-0.046979,0.100549,0.060215,-0.11304,0.114391,0.048774,0.067983,0.088731,-0.054666,-0.082916,-0.031553,0.02822,0.011503,0.008873,0.136113,0.086868,0.090451,0.058543,0.137895,-0.101818,-0.077806,-0.023165,0.117386,-0.018874,0.078279,-0.091619,-0.044366,0.064987,-0.058733,-0.0872,-0.060031,-0.031749,0.068187,-0.042588,0.01663,-0.101033,0.038816,-0.058214,0.035323,0.043864,-0.109622,0.075944,0.047131,-0.010839,-0.062085,0.11789,0.051365,-0.101306,-0.083168,0.018411,0.039007,0.081304,-0.024831,0.034369,-0.027734,-0.098,0.06116,0.146154,-0.080268,-0.010255,0.07271,0.011319,0.100108,0.04258,-0.164436,0.117331,0.070533,0.110663,-0.007785,0.101249,-0.14863,0.014242,0.112642,-0.087186,-0.088767,0.101692,0.093365,-0.114673,0.085616,0.047561,-0.032487,0.092325,0.018857,-0.079943,-0.084605,0.005298,0.016247,0.074335,0.065058,-0.000608,0.06722,-0.036576,-0.143784,0.107196,-0.070663,-0.139035,0.065828,0.019919,0.076716,-0.095421,-0.132951,-0.011238,0.019921,-0.027797,-0.04898,0.084233,0.105843,-0.073517,-0.068904,-0.024237,0.139626,0.132139,-0.074073,0.060979,0.004584,-0.145422,-0.182125,-0.008398,-0.011318,-0.179004,0.042061,-0.068302,0.030109,-0.076693,-0.130032,-0.012237,-0.124503,0.020798,-0.142774,-0.020821,-0.053612,0.04244,0.060376,-0.118108,-0.024202,-0.114577,0.005068,-0.089988,-0.053712,0.016984,0.09789,0.01201,0.01181,-0.05026,0.096395,0.100685,-0.096794,0.062433,-0.01393,0.066908,0.064291,-0.169385,0.037831,-0.053589,-0.061389,-0.104222,0.066486,-0.081677,-0.168195,-0.023407,-0.107265,-0.123691,-0.112546,0.038199,-0.016627,-0.145123,0.122486,0.06861,-0.126936,-0.07608,0.007039,0.031803,-0.129679,-0.078405,0.128308,-0.099723,-0.061582,0.091272,0.025603,-0.059168,0.056662,-0.157863,0.035369,-0.018492,0.099017,0.092907,0.106633,0.113556,-0.002965,-0.047174,-0.029932,0.039015]},{"W":[[0.286665,0.0,-0.025688,0.109172,0.012873,0.005244,-0.09134,0.140122,-0.060181,-2.4e-05,0.024057,-6e-06,0.083835,-0.139183,0.0,-9e-06,0.096041,0.05383,-0.008729,-0.009957,-0.031128,-0.000351,0.128644,0.106133,0.02118,0.053988,0.108691,-0.025881,-0.018686,-0.0,0.153086,-3e-06,0.013202,-0.101421,0.019045,-0.0,0.084015,-0.071692,0.041866,0.058802,-0.104068,-0.002551,0.0,0.014061,-0.010885,-0.138938,-0.046888,-0.202825,-0.021509,-4e-06,0.112151,0.0,-0.056307,-0.028688,-0.0,-0.052983,0.086106,0.0,0.127509,0.011666,0.015588,-0.0,-0.08674,-0.075387,0.114405,2e-06,-2.9e-05,0.0,-0.114072,0.019906,0.060846,0.0,-0.04965,-0.306131,-0.050151,-0.00372,-0.071551,0.062725,-0.0,0.149024,0.13499,0.0,-0.000968,-0.090209,-0.133025,-0.0,0.0,0.001852,-0.025845,-0.002331,0.01938,0.027778,0.02913,-0.044771,-0.009646,0.09122,0.142831,0.063574,-0.024486,-0.0,-0.029409,-0.030376,-0.079854,-0.052395,0.122783,-0.675405,4e-06,-0.03813,-0.023098,-0.225964,-0.353352,-0.019309,0.0,-0.0,-0.055467,0.134962,0.0,-0.106493,0.0,-0.154594,0.042406,-0.0,-0.062611,-0.003867,-0.021233,0.104477,-0.018326,-0.066857],[-0.106156,0.0,-0.0699,-0.090207,0.015147,0.07543,0.055137,-0.03515,-0.047239,-0.000409,0.018425,-0.002581,0.132434,-0.136843,0.0,0.0,0.011372,0.074459,0.00086,-0.010448,-0.005296,-0.001317,0.062565,-0.114108,-0.120349,0.038857,0.013645,0.080579,-0.092976,-0.0,-0.161616,-3e-06,-0.134178,0.079558,-0.091229,0.0,0.05083,-0.124389,-0.044898,-0.052115,-0.015461,-0.029014,-0.0,-0.02603,-0.021333,0.01165,0.054436,-0.004266,-0.018616,-0.000483,-0.06567,-0.0,-0.044866,0.042992,-0.0,0.034144,0.069607,-0.0,0.056665,0.035868,0.025989,-1.8e-05,-0.066136,-0.076569,-0.026998,0.000512,-7.6e-05,-2e-06,0.035531,0.069314,-0.082908,3e-06,-0.009459,-0.149727,0.04254,-0.008619,0.063482,-0.078988,0.0,-0.084598,0.023859,-0.0,-0.008656,-0.101861,-0.121625,-0.0,-0.0,-0.043747,-0.028084,0.000474,0.104879,-0.007255,-0.006477,0.092472,-0.041915,0.017164,-0.067938,0.062611,0.054284,0.0,0.013017,-0.041036,0.067453,0.08143,0.001525,-0.119844,-0.000196,-0.018667,-0.036791,-0.16985,0.064485,0.004133,-0.0,-0.0,-0.010716,0.031235,-0.0,-0.07119,0.000251,0.039322,0.046103,-0.0,0.053686,-0.002415,-0.076034,0.123688,-0.03147,-0.071868],[-0.136026,0.0,-0.225403,0.003719,0.041769,0.095805,0.048984,0.034523,0.075552,-0.0,0.129793,-5e-05,-0.097324,-0.06888,0.0,0.0,0.016751,0.018149,-1.7e-05,-0.000534,-0.150153,-0.000483,0.011612,0.056709,0.124139,0.021624,0.024074,0.042345,-0.050697,-0.0,-0.235103,-0.0,-0.113367,0.094972,0.099683,-0.0,0.023218,-0.029727,0.071079,-0.269174,-0.047697,-0.004669,0.0,0.011021,-0.007667,0.373828,-0.001938,0.028292,-0.027693,-0.0,-0.026238,0.0,-0.017955,0.035808,0.0,-0.001694,0.026729,-0.0,-0.035948,0.156031,0.046522,-0.0,0.035393,0.1094,0.03716,-0.0,-0.0,0.0,0.025863,0.0105,0.026996,0.0,0.038633,-0.360936,0.073261,0.000459,0.046495,0.023983,0.0,0.162076,0.167413,-0.0,-0.000591,0.323753,0.020556,0.0,0.0,0.103805,0.020714,-0.0,0.083159,-0.0668,-0.017414,0.125777,0.040105,-0.069799,-0.190296,0.024191,0.00283,0.0,-0.112301,-0.032699,0.073689,0.015604,0.151294,0.304082,-0.0,-0.060886,0.092703,0.154847,0.125914,-0.001256,0.0,0.0,-0.077426,-0.008945,0.0,-0.075234,0.0,-0.064124,0.095779,0.0,-0.037761,-1e-06,0.028815,0.069327,0.203981,0.032038],[-0.176719,0.0,-0.110227,-0.072435,-0.061214,0.077612,0.091383,-0.148991,0.001926,-1e-06,-0.325466,-0.0,0.09935,0.147068,-0.0,-5.9e-05,-0.090526,-0.037581,-0.001226,0.000102,-0.13868,-0.001116,-0.135439,0.317129,-0.310307,-0.04303,0.12354,0.000443,-0.024464,0.0,0.019333,0.0,0.14682,0.28981,0.158403,0.0,0.250408,-0.041835,-0.03232,0.072959,-0.03335,-0.014635,0.0,0.235719,-0.111387,0.001651,-0.073376,0.096957,-0.000335,-0.0,-0.036385,0.0,0.008101,0.163716,0.0,0.340413,0.181033,0.0,-0.0,0.061712,0.083731,-0.0,0.055065,0.005624,-0.064098,0.0,-3e-06,-0.0,-0.077712,0.036248,0.070554,0.0,-0.171147,0.150708,0.006511,-1.7e-05,-0.118179,-0.126307,0.0,0.063725,-0.007825,-0.0,-0.003665,0.058746,0.186276,-0.0,-0.0,-0.010947,-0.020965,-0.0,-0.32748,-0.014481,-0.156576,-0.118651,-0.016859,0.002276,0.097263,0.025892,-0.123765,-0.0,-0.113071,-0.018907,0.095354,0.067594,-0.060726,0.002435,0.0,0.02547,0.008074,0.11038,0.173727,-0.009061,0.0,-0.0,0.023344,0.176344,-0.0,0.105939,-5e-06,-0.111486,-0.07887,0.0,0.105494,-0.002491,-0.049231,0.059851,-0.023825,0.03277],[-0.09251,-0.0,-0.495885,-0.039709,-0.215468,0.103107,-0.122161,-0.162412,0.354012,-0.0,-0.596198,1e-06,0.175615,-0.054895,0.0,-0.0,0.062244,-0.254355,-0.00052,-2e-06,-0.190157,-0.0,0.066049,-0.2149,0.11951,-0.022397,-0.170462,-0.137805,0.559761,0.0,-0.183915,0.0,-0.351048,-0.152283,0.013288,0.0,-0.065212,0.045016,-0.001209,0.000252,-0.121494,-0.001541,-0.0,0.024956,-0.042384,-0.05011,-0.225023,-0.062027,-0.007032,-0.0,-0.23935,0.0,-0.037484,0.393838,0.0,-0.043936,0.103026,-0.0,-0.012121,0.004249,0.130067,0.0,-0.064341,0.097799,0.001769,0.0,0.0,0.0,-0.132781,0.032543,-0.009625,0.0,0.024713,-0.149251,-0.17486,-0.0,-0.482775,0.011591,0.0,0.017427,-0.269398,0.0,-3.2e-05,-0.110306,-0.069062,0.0,-0.0,0.200213,-0.025181,-2.8e-05,-0.128061,-0.132134,0.140453,0.330555,-0.060083,0.107126,0.007527,0.038403,-0.103874,-0.0,-0.175523,0.017645,0.136061,-0.146618,-0.06944,-0.027544,-0.0,-0.214211,-0.143331,0.001419,-0.400674,-0.003147,-0.0,-2.9e-05,-0.067026,0.079807,-0.0,0.148305,-0.0,-0.006601,0.049905,0.0,-0.127453,-1.1e-05,0.018458,-0.13711,-0.003558,-0.240821],[0.02281,0.0,-0.298091,-0.025474,-0.115203,-0.012896,-0.073149,-0.055926,-0.066863,-5e-06,0.016006,2e-06,-0.056518,0.103117,-0.0,0.000428,-0.022294,0.05108,0.007212,-0.005671,-0.029247,-6.3e-05,0.085468,0.04133,0.041929,0.117655,0.038742,0.008741,0.058241,-0.0,0.075854,-0.0,0.038052,0.088006,0.030443,-0.0,0.071717,0.420077,0.110957,-0.116491,-0.059124,-0.019615,-0.0,-0.044895,-0.079296,-0.106888,0.067053,0.037556,-0.028714,-0.000244,0.052071,-0.0,0.087334,-0.087059,-0.0,0.050708,-0.14091,-0.0,0.009458,-0.045261,0.096478,-0.0,0.015161,-0.001174,0.059433,-0.00012,-7.1e-05,5.5e-05,0.034605,0.109581,-0.785601,-0.0,0.14656,-0.029797,-0.030087,-0.000104,-0.035185,-0.082317,0.0,-0.006334,0.017562,0.0,0.000569,0.052202,-0.071236,0.0,-0.0,-0.035875,-0.029251,-0.003827,-0.162427,-0.026996,0.004638,-0.134851,0.022445,0.008009,-0.050374,0.104326,0.084764,-0.0,-0.086438,-0.024189,0.155929,0.025526,-0.155734,-0.082285,-2e-06,-0.158541,0.018431,-0.063177,-0.04983,-0.026702,-0.0,-0.0,0.116005,0.042354,-0.0,-0.122745,0.0,0.030668,0.031405,-0.0,-0.008378,-0.002568,0.052938,0.024775,0.126678,-0.033224],[0.019337,-0.0,-0.284571,-0.140434,-0.004497,0.054131,-0.011582,-0.14944,0.089014,-1e-06,-0.001189,-0.001662,-0.013027,-0.081509,0.0,-0.00029,0.54184,0.011464,0.001093,-0.007825,0.013786,0.000312,0.014188,0.131937,0.080322,-0.016761,0.108162,-0.096438,0.020399,0.0,-0.00698,-1e-06,0.234755,0.05554,0.197979,-0.0,0.155024,0.128988,-0.07087,0.161651,-0.034204,-0.019907,-0.0,0.04012,-0.116018,-0.017442,-0.037788,0.216743,-0.022874,-0.000643,-0.037947,-0.0,0.021638,0.097226,-0.0,0.308939,0.18161,-0.0,0.082499,0.0851,0.277397,0.0,-0.11863,-0.037578,-0.053538,0.0,-0.000201,-1e-06,0.1503,-0.016419,0.0,-0.0,-0.023116,-0.087852,-0.017651,5e-05,0.022102,-0.11044,0.0,0.098061,-0.030649,-0.0,-0.008983,-0.121446,0.023915,-0.0,-0.0,-0.182734,0.018639,2.2e-05,-0.116158,0.006148,-0.171445,-0.000467,-0.119525,0.135135,-0.255844,0.107845,-0.051515,0.0,-0.112585,-0.005063,0.057344,0.011177,-0.13169,-0.076566,-0.001208,0.138064,-0.075062,0.065854,0.034659,-0.009154,-0.0,0.0,-0.010457,0.026207,0.0,0.138748,-0.000969,-0.114884,0.004278,0.0,0.094767,-0.001322,0.003464,0.11584,-0.294026,-0.117081],[-0.012999,0.0,-0.133929,0.060781,0.041966,0.261646,0.074335,0.044501,-0.012752,-2.5e-05,0.025683,-8.6e-05,0.094266,0.019383,-0.0,-0.000209,0.094011,-0.027595,-0.005947,-0.01126,-0.003172,-0.001342,0.166842,0.01444,-0.086647,0.046051,-0.069443,0.082196,0.042078,-0.0,0.048878,-0.0,-0.080559,-0.194455,-0.106458,0.0,0.16558,-0.112893,-0.071119,0.006684,0.052807,-0.026646,0.0,0.032777,-0.03372,-0.598557,-0.025759,0.045618,-0.030764,-5e-06,0.036292,-0.0,0.090248,-0.113184,-0.0,6.8e-05,-0.056583,-0.0,-0.651828,0.215385,-0.053519,-0.0,-0.135871,-0.024039,0.038448,-0.0,-0.000292,-0.0,-0.104433,-0.017279,0.0423,-0.0,-0.068067,-0.101501,0.030527,0.038341,0.047754,0.016919,-0.0,-0.101701,0.085762,-0.0,-0.008119,-0.093192,-0.049041,-0.0,-0.0,-0.045278,-0.029389,-8.9e-05,0.008271,-0.082224,-0.012462,0.007937,0.061791,0.095277,-0.000139,-0.008777,0.008998,-0.0,0.016374,-0.022716,0.056537,0.009471,-0.054094,-0.142831,-0.000258,0.001303,-0.05341,-0.051891,-0.136497,-0.008007,0.0,-0.0,0.005456,-0.051818,0.0,-0.000242,-0.00019,0.000993,-0.017433,0.0,-0.039129,-0.001837,-0.016825,0.044099,-0.042103,-0.11633],[-0.029118,0.0,0.008905,-0.080746,-0.09912,-0.131989,0.061257,-0.005944,0.089943,-0.001859,-0.011585,-0.004473,0.076438,-0.124804,-0.0,-0.001701,-0.009876,-0.03224,-0.002336,-0.020634,0.007625,-0.004948,-0.010977,0.009047,-0.051958,-0.025421,0.051111,-0.020795,-0.033292,0.0,-0.050175,-0.000111,0.010727,-0.039885,0.06038,0.0,0.096974,-0.087308,0.023988,0.106907,-0.019841,-0.041564,-0.0,0.028737,-0.075169,-0.013996,0.049021,-0.01791,-0.019038,-0.001005,0.077047,0.0,-0.021622,-0.053983,-0.0,-0.0002,0.043084,0.0,-0.022991,-0.116035,-0.110162,0.000158,0.006771,0.120205,-0.058112,0.002799,-0.001254,-0.000576,-0.030578,0.053109,0.091097,-1.2e-05,0.134205,0.066161,0.059539,0.007128,-0.06688,-0.014511,0.0,0.093555,0.11102,5e-05,-0.014811,-0.004695,-0.054882,1e-06,-1e-06,0.020857,-0.02775,-0.014844,-0.177071,0.103379,0.020894,-0.035477,0.090876,0.059932,-0.105282,-0.079602,0.110215,7e-06,0.012358,-0.035789,-0.08059,-0.002637,-0.187423,0.038078,-0.001914,0.132586,-0.016994,-0.097676,0.017789,0.017271,0.0,0.000414,0.003886,0.025953,-0.0,-0.025423,1.2e-05,-0.01999,0.107476,0.0,-0.079011,-0.014195,-0.087944,-0.099763,-0.005498,0.14256],[0.029193,-0.0,0.117825,0.039536,-0.074115,0.016569,-0.037709,0.010423,0.024251,-0.000108,-0.07719,-6.5e-05,-0.037502,0.230086,0.0,-0.000281,-0.051913,0.01398,-0.016172,-0.009166,0.113109,-0.000929,-0.292847,0.01163,0.072123,-0.054331,0.089255,0.065073,0.069019,-0.0,-0.079346,2.3e-05,-0.064341,-0.081757,-0.107807,0.0,-0.006419,-0.060298,0.057559,-0.010153,0.004449,-0.019213,-0.0,0.198482,0.064318,-0.189095,0.108513,-0.159449,-0.031085,3.8e-05,-0.11387,0.0,0.076572,-0.024793,-0.0,-0.052997,0.103125,0.0,-0.102086,-0.028209,0.032769,-1.7e-05,-0.021484,-0.215527,0.096302,-0.002643,-8e-05,-0.000534,0.060919,-0.103029,0.019278,6e-05,0.110918,0.09929,0.043354,-0.000929,-0.034707,0.002093,-0.0,-0.068361,-0.077776,0.0,-0.0001,-0.056763,-0.031712,-0.0,-0.0,0.038842,-0.025653,0.000169,0.166278,-0.068168,0.030922,-0.032415,-0.114684,-0.088577,-0.292138,-0.16013,-0.001027,1.1e-05,0.062034,-0.0317,0.025055,0.007864,-0.08723,0.109836,-0.000261,0.040698,0.100357,-0.009538,-0.153479,