{"mode_names":["trump_oben_0","trump_oben_1","trump_oben_2","trump_oben_3","trump_unten_0","trump_unten_1","trump_unten_2","trump_unten_3","oben","unten","slalom","misere","allesTrumpf","elefant"],"layers":[{"W":[[0.058981,0.146182,0.01805,-0.019879,-0.102335,0.003117,-0.021543,0.144184,-0.042544,0.091161,-0.187204,0.150441,0.092339,-0.074372,-0.022974,-0.177364,-0.136544,0.035802,0.004734,-0.044097,0.062406,-0.069456,0.064458,-0.065992,-0.020367,0.072087,-0.130895,-0.012085,0.166012,-0.026375,0.068025,-0.069749,-0.073918,0.131816,0.205575,0.041049,-0.094166,-0.109403,-0.018938,-0.036178,-0.012526,-0.018098,0.025611,0.11792,-0.066091,0.052454,-0.089664,0.137379,0.028625,-0.099713,0.188083,0.030018,-0.013861,0.166171,0.072679,0.219379,-0.190987,-0.000454,0.037739,0.005197,-0.025806,-0.195069,0.103525,-0.031238,-0.105874,0.084181,-0.031563,0.103834,0.064058,0.174285,0.08024,-0.004976,-0.211778,0.144389,0.032745,0.152635,0.129134,-0.073473,-0.028799,-0.152202,0.158738,0.062886,-0.097708,-0.065243,0.003905,0.03925,0.024379,0.007727,0.183568,-0.015663,-0.136849,0.137654,0.145029,-0.015542,0.177313,-0.040695,0.082064,-0.012459,-0.041762,-0.161802,-0.05701,0.069569,0.047809,-0.04991,0.162076,-0.093222,-0.058084,0.10107,0.034867,-0.112035,-0.0572,-0.149459,0.140614,0.082384,0.061178,0.132647,0.115225,0.067766,0.096355,0.064045,0.162456,0.093316,-0.116141,-0.154505,-0.131139,0.001741,0.090091,0.139717],[-0.084762,0.110256,-0.092088,-0.122782,0.007352,0.04136,0.170113,0.09644,0.056113,0.064375,-0.081363,0.092634,0.120859,-0.059972,-0.024132,-0.119421,-0.128939,-0.09659,0.025845,-0.001788,-0.064618,-0.066151,0.143604,-0.042701,-0.087287,-0.042946,0.144795,-0.134212,0.124637,0.09837,-0.082265,0.045777,-0.006102,0.019752,0.086835,0.026139,-0.149201,0.092341,-0.078404,-0.066725,-0.109418,-0.028982,0.138687,-0.049795,-0.034986,-0.099009,0.016958,-0.01115,0.083578,-0.029831,0.116775,-0.157911,-0.025638,-0.020629,0.15799,0.12088,-0.133984,0.101217,0.084685,0.044205,0.011035,-0.223966,-0.003551,0.135424,0.114971,0.077432,-0.040365,0.027794,0.089802,0.141085,0.102491,0.105659,-0.021852,-0.053094,0.003084,0.137256,0.073329,-0.076813,-0.060226,0.012235,-0.085791,-0.044835,-0.028939,0.068145,0.017919,-0.091201,0.015222,-0.04155,0.087331,0.070347,0.021559,0.131332,0.030695,-0.000822,-0.074829,-0.076826,-0.022634,-0.108243,0.181607,-0.075639,0.118953,0.072483,0.127361,-0.037874,0.032253,-0.030398,-0.114304,0.081062,0.022564,-0.108183,-0.003921,-0.139048,0.127232,0.123895,0.110224,-0.006919,-0.020834,0.080156,-0.002206,0.189641,0.175592,0.043664,-0.122503,-0.06493,0.146663,-0.077716,-0.084212,0.038409],[0.112537,0.046454,0.013439,-0.122642,0.117607,0.185706,-0.002692,0.068861,0.096074,0.109499,0.026232,0.065518,-0.06844,-0.028791,0.003369,0.0788,0.085895,0.229109,-0.011538,-0.001819,0.148781,0.095546,0.079727,0.029897,0.176482,-0.081166,-0.051208,-0.162105,0.104101,-0.057831,0.012634,-0.009541,0.009839,-0.016687,-0.070677,0.03489,0.091064,0.046491,-0.104464,-0.007005,0.138982,-0.182313,0.067863,-0.027857,-0.147745,-0.050481,-0.011328,0.172221,0.090786,0.151401,-0.024147,-0.149743,0.002418,-0.025053,0.075601,-0.050272,-0.216876,0.192291,0.073831,0.129784,-0.040583,-0.206709,-0.052908,-0.063169,-0.001848,0.131039,0.11314,0.004432,0.235039,0.109106,0.053314,0.079634,-0.072587,-0.026281,-0.094923,0.152566,-0.084217,-0.040694,0.008817,-0.14544,0.177695,-0.016353,-0.041623,-0.050555,-0.043913,0.030185,-0.159319,-0.004234,0.052011,0.043891,0.002297,-0.076519,-0.006805,0.031707,0.027501,0.083236,0.081161,-0.104009,-0.000497,0.027726,-0.088612,0.097481,0.140302,0.014934,0.019216,0.027334,-0.084854,0.076447,0.088781,0.047217,0.081929,0.080164,-0.023783,-0.193408,0.033391,-0.061807,-0.095558,0.00159,-0.076634,-0.011748,0.181913,0.057834,0.036282,-0.030293,-0.036607,0.137065,0.06365,0.147679],[0.168363,0.194331,-0.095694,-0.158465,0.119833,0.109085,0.143902,0.024601,-0.030096,0.125662,-0.072752,0.091865,0.108004,-0.007365,0.001802,0.050525,-0.157,0.091989,0.005716,0.107218,-0.015761,0.138322,0.032007,0.001921,0.100783,-0.168114,-0.09171,0.11336,0.268223,-0.000711,0.04616,-0.045803,-0.036536,-0.068874,0.03872,0.046971,0.068325,0.050745,-0.15352,0.096686,-0.072564,-0.083134,0.012138,0.092024,-0.110613,-0.111995,-0.16187,0.091432,0.051529,-0.102206,0.039628,-0.022991,-0.046268,0.039332,0.054633,-0.107833,-0.191367,0.188824,-0.010969,-0.008321,0.07934,0.104678,0.158984,0.061943,-0.122431,-0.04397,0.061456,0.067816,-0.066907,0.133746,-0.092654,0.026819,-0.160428,0.02359,-0.080703,-0.087791,-0.085775,0.058534,0.04064,-0.05645,0.1928,-0.054391,-0.115843,0.191614,-0.03701,0.155613,-0.171403,0.124804,-0.015241,0.033659,0.008803,0.176483,-0.166765,-0.009321,0.151762,-0.000288,0.054252,0.057065,-0.064885,0.003863,0.034629,0.109933,-0.053241,-0.074766,0.171207,0.07587,-0.066896,0.081745,0.085135,-0.068398,-0.077987,-0.078662,0.050372,-0.149519,0.136392,0.179637,0.064224,-0.043232,-0.018063,0.112431,0.108873,0.048851,0.070676,0.084931,0.102964,0.039874,0.031644,-0.01108],[0.125743,0.181742,-0.206274,-0.212812,0.086819,0.122468,0.179692,-0.032935,-0.001604,-0.01413,0.086724,0.085428,0.097907,0.010621,-0.011962,-0.125153,-0.182319,0.176885,0.093153,0.182976,0.202993,0.090524,0.038779,0.081334,0.126639,-0.125503,-0.031866,-0.176508,0.170788,0.009144,0.000376,0.023798,0.043892,-0.076628,-0.060324,0.05587,-0.002668,0.087213,4.4e-05,0.149505,0.096019,0.040337,0.190236,0.013745,-0.127208,-0.174284,0.062668,0.055658,0.06013,-0.089855,-0.083069,-0.213682,-0.049608,0.014024,0.000284,0.002525,0.062271,-0.00777,0.004367,0.13125,-0.073778,-0.012376,0.165396,0.178818,-0.087495,0.174028,0.051892,-0.061345,0.040523,0.176917,0.01096,-0.01004,-0.012239,-0.003114,-0.052749,-0.080134,-0.070488,-0.050825,-0.02592,0.013091,-0.049728,-0.077914,0.118513,0.032744,0.050432,0.050094,-0.140517,-0.139985,-0.10882,-0.084538,-0.108709,-0.087382,-0.213497,-0.06667,-0.092353,-0.035745,0.035981,0.04601,-0.073402,0.073647,0.061137,-0.091381,0.134663,0.086446,-0.074481,-0.129396,0.020617,0.094542,0.069483,0.009018,-0.050523,-0.046347,0.066505,-0.104349,0.008712,0.119533,-0.115761,-0.126904,0.077149,0.173912,0.037931,0.026596,-0.159888,-0.062218,0.019097,-0.061728,-0.013278,-0.010729],[-0.094924,0.010199,-0.239019,-0.095266,-0.072492,0.19726,0.080401,0.112929,0.055808,0.037472,-0.181571,0.017361,0.005772,0.079401,-0.022832,-0.133902,-0.12723,0.015499,0.041064,0.044956,-0.011674,0.254625,0.059082,-0.001921,-0.09331,-0.147711,-0.146668,-0.155702,0.129443,-0.003761,0.027967,0.110724,-0.061578,-0.009535,0.050624,0.109007,-0.113052,-0.03303,0.102903,0.101631,0.067692,-0.040512,0.025913,0.062629,0.12545,-0.016552,-0.003661,-0.0154,0.020331,-0.211901,-0.034216,-0.051435,-0.066812,-0.037809,-0.069379,-0.034035,-0.121695,0.125991,-0.039351,0.026904,-0.031597,-0.085247,-0.036048,-0.085794,-0.197937,0.224411,-0.062945,0.120467,-0.08469,0.106407,0.032683,0.07889,-0.056136,0.04599,0.059446,0.196034,0.129546,0.178141,-0.061107,0.057425,0.208587,-0.096981,-0.164669,0.167283,0.004445,0.184969,-0.176566,0.163089,-0.15322,-0.098082,-0.117324,0.13574,-0.123987,-0.004455,-0.105652,0.078447,0.056896,0.051361,0.027052,-0.079603,0.020661,-0.014377,0.135173,-0.031232,-0.022472,0.12143,-0.092134,0.095948,0.101021,0.036321,-0.072627,0.1227,0.10069,-0.095203,-0.053433,0.116807,0.009362,-0.079293,0.193175,0.12382,-0.065699,0.001251,-0.134894,0.048709,-0.113924,0.102521,0.17538,0.144166],[-0.001329,0.149625,-0.13026,0.114379,-0.040218,0.03983,0.107599,0.049759,-0.021144,0.063472,-0.003087,0.030385,0.03416,0.055816,-0.018584,-0.068188,-0.178881,0.190217,0.036799,-0.042468,0.039849,0.160477,-0.103506,-0.030945,0.013206,-0.010096,-0.104719,0.077061,0.13364,0.060977,0.092708,0.108331,0.113908,-0.160411,0.058689,0.127446,-0.024992,0.090566,0.048787,0.131477,0.017001,-0.178279,0.155551,0.112937,-0.11911,0.084073,0.103313,-0.00797,-0.019708,-0.097837,-0.037916,-0.045687,-0.032537,-0.045271,0.032384,0.000589,-0.057312,0.194211,-0.098811,-0.005404,0.052817,-0.033175,-0.01364,0.008591,-0.131086,-0.037712,0.00382,-0.003914,0.13,-0.012126,-0.017652,0.069063,-0.155714,0.071661,-0.048277,0.164424,-0.04773,0.059877,0.00403,0.145621,0.056282,-0.082357,-0.186514,0.139013,-0.077786,0.164146,-0.110773,-0.089533,-0.162496,-0.054612,-0.02824,-0.105766,-0.120088,-0.047846,0.054407,-0.054033,0.017426,-0.000578,-0.065962,-0.139629,0.13571,0.178737,0.03557,-0.06708,0.05722,-0.041959,-0.176717,-0.027445,0.069416,0.009868,-0.013446,-0.113496,-0.046587,0.014451,-0.075299,-0.066943,0.153629,-0.164751,0.05299,-0.046551,-0.052139,-0.06236,0.020287,0.089591,0.117577,-0.025293,0.063913,-0.089655],[0.004947,0.162419,-0.119704,-0.180209,0.024211,-0.077507,-0.078043,0.110752,0.022053,0.093069,0.054113,-0.004762,-0.077548,-0.026115,-0.027761,-0.088821,-0.059544,0.00669,-0.019927,-0.029692,-0.008966,0.165303,0.049095,-0.108712,0.114579,-0.03007,0.132065,0.074673,0.125414,-0.023762,-0.014537,-0.020415,0.069773,-0.103261,-0.061337,0.173012,0.161169,0.059197,-0.107848,0.057908,-0.089373,0.109818,0.030067,-0.011197,-0.034288,-0.041474,0.015955,0.086531,-0.111164,-0.181158,-0.112186,0.043296,-0.024699,0.094329,0.072589,0.09245,-0.181425,0.159385,-0.115911,0.010883,0.002581,-0.195194,-0.103501,0.075191,-0.2174,0.066082,-0.047166,-0.039741,-0.031957,-0.03422,-0.018945,-0.037673,-0.008673,0.001242,0.086683,0.156893,0.089099,-0.048051,-0.059568,-0.024821,0.06728,-0.086341,-0.019396,0.066023,-0.06582,0.126917,-0.174632,-0.138639,-0.088644,-0.066559,0.083631,0.008898,-0.209506,0.078886,0.134972,0.021068,-0.031441,0.04146,-0.013228,-0.170227,0.140549,-0.093602,0.198542,-0.045578,-0.067216,0.034073,0.059843,0.108756,0.046305,0.023748,0.026028,0.08626,-0.045727,-0.0178,-0.116459,0.162213,0.206887,-0.164656,0.095322,0.186707,-0.05399,-0.017742,0.073412,-0.127837,0.112889,-0.013334,0.17142,0.156276],[0.160498,-0.02657,0.081681,0.070068,-0.010449,0.132975,-0.098583,0.111854,-0.045965,-0.031795,-0.199981,0.01186,-0.07526,0.121796,-0.051488,-0.087651,-0.02214,0.104534,-0.098698,0.057062,0.171467,0.023916,-0.115625,-0.167823,0.130174,-0.207875,0.114034,-0.034349,0.223481,0.068908,0.123413,-0.078772,0.130359,-0.015728,0.03853,0.162573,0.114239,0.150886,0.040662,0.020473,-0.007171,0.082831,-0.095551,-0.065798,-0.050883,-0.103592,-0.106377,-0.038683,-0.181284,-0.195856,0.059678,-0.144749,-0.103302,0.071206,-0.109605,0.230135,0.039418,-0.125244,-0.069233,0.168725,0.123756,-0.135284,0.027818,-0.085074,0.134697,-0.061077,0.197103,0.06667,0.058476,0.006917,-0.143958,-0.050955,-0.139539,-0.12579,0.040188,-0.086302,-0.077304,0.156604,0.149131,0.082202,0.210119,-0.140371,-0.069754,0.139685,0.103064,-0.002207,0.04006,-0.099885,-0.207423,-0.12485,-0.007108,0.037053,-0.239782,0.076511,-0.075802,-0.135119,0.140482,0.131656,0.137162,0.070347,0.082694,0.025436,-0.047037,-0.056873,-0.045213,-0.085032,-0.005599,0.03342,0.065501,-0.073131,-0.005086,-0.210514,0.100073,-0.038373,-0.125143,0.058404,0.163376,-0.060803,0.026377,0.046804,-0.071216,-0.007812,0.048708,0.029515,0.087831,0.073925,0.05031,0.098512],[0.130836,0.041952,-0.07564,0.065366,0.009379,0.16153,0.183169,-0.020853,0.097483,-0.040898,-0.107034,0.098599,-0.104283,0.112614,0.274419,-0.016827,-0.172404,-0.044873,0.028943,0.157008,0.064682,0.050726,0.098663,0.082062,0.088686,-0.157322,0.10613,-0.028658,-0.032042,0.055058,0.053594,0.160947,-0.055426,0.143281,0.081742,-0.023841,-0.087081,0.070104,-0.139967,0.039537,-0.020833,-0.004139,0.017399,0.159263,0.114525,0.121193,0.064748,0.066249,0.088938,-0.21199,0.102334,-0.062881,-0.018645,0.123743,0.143364,0.054593,-0.103604,0.150345,-0.011544,0.028029,-0.124208,0.074156,0.119882,-0.076356,-0.142198,0.105944,0.05168,-0.060745,0.213584,-0.089539,0.052809,0.167311,-0.001135,0.083513,0.031354,-0.038721,0.187135,0.067253,0.126303,-0.10588,-0.074464,-0.019632,0.030644,-0.002526,0.111336,0.028084,0.099491,-0.078506,0.127528,0.042803,0.050613,0.137805,0.014504,0.003468,-0.026009,-0.091684,0.148983,0.01658,0.107749,-0.028886,-0.078011,-0.083519,0.079192,-0.05018,-0.065865,-0.063192,-0.138661,0.093352,0.102242,0.137418,-0.046185,-0.045742,-0.065426,-0.179019,0.025831,0.022356,0.005352,-0.082143,0.100283,0.146964,0.137512,0.062941,-0.076004,-0.107485,0.001897,0.227657,-0.060488,0.01693],[0.07772,0.044066,-0.09542,-0.197647,-0.027509,0.046676,0.027996,-0.046545,-0.077013,-0.042927,-0.085184,-0.047095,-0.001692,0.096336,0.166579,-0.137254,-0.109808,-0.110996,0.011753,0.065627,-0.030305,0.161061,0.014587,0.04273,0.036592,0.106914,0.090349,0.056252,-0.024881,0.082339,-0.051605,0.118888,0.056946,0.096991,0.012784,0.032837,-0.027187,0.087324,-0.133695,-0.020932,-0.018515,-0.100142,0.103382,-0.03538,0.197689,-0.02028,-0.134983,0.226642,0.037874,-0.03231,0.123674,0.015135,-0.050622,0.228519,0.241879,0.125474,-0.153774,0.093391,-0.004657,-0.076652,-0.086914,0.02569,0.15518,0.070332,0.04111,0.061607,0.03244,0.022646,0.170214,-0.141086,0.122844,0.067966,-0.024892,0.052583,0.027692,0.154269,0.177358,0.063757,0.014334,0.022335,0.153488,0.013422,0.033228,0.038252,0.096264,-0.084974,-0.027919,0.135728,0.06941,-0.051137,0.06088,-0.068499,0.078087,-0.047629,0.041648,0.119605,0.051277,0.025313,0.002247,0.009248,-0.07382,0.023143,0.213992,-0.123151,0.082786,-0.089523,0.006228,-0.010834,0.091075,-0.000764,-0.014753,-0.163944,-0.02223,-0.019701,0.078371,0.13645,-0.013355,-0.14508,0.055072,0.120419,-0.046221,0.068188,-0.185468,0.031934,0.077486,0.03321,0.250546,0.077962],[0.076218,0.169739,-0.074823,-0.178321,-0.037744,0.02269,0.09386,0.116305,-0.093143,-0.087305,-0.066359,0.139179,-0.100761,0.001428,0.114257,-0.130213,0.113948,0.209516,-0.155613,0.140906,0.093612,0.172421,0.04574,0.10617,-0.020561,0.048185,-0.138259,-0.203568,-0.023783,0.086575,-0.036685,0.042526,0.200902,-0.154454,0.076102,-0.013512,0.112784,-0.02411,0.023692,0.069342,0.166861,0.023306,0.098624,0.049329,0.028853,0.003906,-0.202133,0.160668,0.068482,-0.021939,-0.011882,0.041437,-0.038037,0.137837,-0.000706,0.040387,0.090347,-0.083819,0.089338,0.016689,0.083013,0.033632,0.108749,0.098266,0.090342,0.07193,0.023893,0.029308,0.160452,0.116516,0.022957,0.010448,0.134225,-0.061288,0.023905,-0.111866,-0.019114,0.015161,0.013091,0.012593,-0.01676,-0.062631,-0.120209,-0.019938,-0.056628,-0.072376,0.028751,0.078423,0.052145,0.013254,-0.085091,0.171076,-0.022206,-0.049267,-0.085763,-0.06922,0.027815,0.004591,0.040975,-0.030875,0.044541,0.11668,0.125148,0.012818,0.201355,-0.158381,-0.08446,-0.047137,0.109409,0.131217,-0.043711,0.093371,-0.031911,0.125822,0.052093,-0.057257,0.060567,-0.041567,-0.026187,-0.024293,0.167392,0.067877,-0.10748,-0.041651,0.058118,-0.009239,0.040415,-0.091319],[-0.045978,0.153903,-0.144846,-0.016639,0.120778,0.078593,0.068462,-0.039311,0.082911,0.038666,0.044365,0.033548,-0.185312,0.08279,0.244169,0.026033,0.060484,0.111698,-0.104978,-0.106868,0.055767,0.04828,0.14557,0.113829,-0.0664,-0.119108,0.09482,-0.111546,-0.015504,-0.039097,0.049812,-0.154522,0.025429,-0.025776,-0.013129,-0.001251,0.083081,0.074067,-0.099348,0.005815,-0.040628,-0.000162,0.073993,0.007603,-0.175902,-0.033757,0.013204,0.094692,0.161177,-0.143558,0.045884,-0.035333,-0.066753,0.091122,0.076976,0.15275,-0.154844,-0.14669,0.077157,0.048734,-0.082697,-0.055284,-0.076531,0.129779,-0.053979,-0.016051,-0.047203,-0.046866,0.043458,-0.01587,-0.176837,0.123921,-0.04735,0.041135,0.088225,0.110997,0.065533,0.090983,-0.050884,0.017603,0.191382,0.095802,-0.023479,0.054241,-0.004794,-0.019104,-0.005767,0.120618,0.007007,0.067091,-0.147878,0.029467,-0.042908,-0.050675,0.100394,-0.018225,0.016988,0.084907,0.140026,-0.131166,-0.010296,-0.086302,0.163499,0.104168,0.037278,0.09937,-0.005161,0.067359,0.046966,0.123881,-0.066147,0.074491,0.064466,0.04635,0.149936,-0.015309,-0.054298,-0.025456,-0.023446,0.168831,0.094719,0.035975,-0.073014,0.031622,0.0889,0.040544,0.136523,-0.004491],[0.195252,0.054332,-0.104346,0.095718,-0.020092,0.138787,0.019477,0.054988,0.133508,0.137513,0.077516,-0.041984,-0.141685,-0.023614,0.162133,0.003702,-0.059861,0.144228,0.000462,0.114664,0.00352,0.102277,0.166113,0.073054,0.017987,0.073842,-0.121291,-0.035586,-0.027479,-0.144262,0.006416,-0.149243,-0.07238,-0.156203,0.192198,0.035955,0.129913,-0.01418,-0.039303,3.3e-05,-0.011713,-0.163372,0.087741,-0.062199,-0.002111,0.040713,-0.145104,-0.035646,0.059828,-0.039424,-0.089142,0.096799,-0.050481,0.121953,0.177762,-0.020553,-0.176076,-0.09804,0.081265,-0.080769,0.059482,-0.036496,-0.010927,0.152724,0.01036,0.094667,-0.004808,0.019599,0.017708,-0.02269,-0.23923,0.151705,-0.055433,-0.139602,0.060388,0.033534,0.120383,0.117039,0.119614,-0.161625,-0.018056,0.084957,-0.167644,-0.040878,0.071604,-0.06136,-0.037317,-0.020164,-0.069919,-0.140231,0.102558,0.120721,0.097867,-0.028586,-0.051553,-0.063435,0.060573,0.06397,-0.073532,-0.033239,-0.080148,-0.012447,0.131537,-0.107984,0.023927,-0.08248,-0.063961,0.130624,0.014001,0.183903,-0.005459,-0.080151,0.08344,-0.041588,-0.025367,0.141689,-0.021658,0.121315,0.015853,0.062757,0.08922,0.057019,0.019385,0.001736,-0.060297,0.061086,-0.016138,0.068055],[-0.022859,0.293502,-0.226735,-0.165019,0.138625,0.01092,-0.112122,-0.063022,0.119335,0.068673,-0.097297,-0.094216,-0.094579,0.140413,0.132324,-0.152287,-0.113401,-0.039691,0.073462,0.084716,-0.005208,-0.024676,-0.081214,0.081653,-0.06196,0.084399,0.029215,-0.107547,-0.023575,-0.164592,0.053237,0.096648,0.046718,0.01556,-0.135008,0.107028,0.084441,-0.062422,0.115474,0.038287,0.053342,0.011487,0.161224,0.059957,-0.204,-0.097074,0.13858,-0.187203,-0.038145,-0.029468,-0.090316,0.029656,-0.016638,0.022444,-0.021767,-0.123262,0.074756,0.025816,0.016184,0.138508,0.098283,0.106075,0.158942,-0.090737,0.047958,0.016582,0.174427,0.081185,0.15592,0.054946,-0.194161,0.039484,0.163972,0.12635,-0.086911,-0.032814,-0.043964,0.225682,0.131963,-0.147276,0.039918,0.151632,0.037835,0.026368,-0.054783,-0.092609,-0.093805,0.064496,0.035536,0.041529,-0.013217,0.107677,-0.063858,-0.038768,-0.047535,-0.154518,0.027773,0.174818,-0.092303,-0.063754,0.146445,-0.072397,0.024142,0.147679,0.095268,-0.170686,-0.068794,0.163287,-0.117784,-0.087017,-0.011049,-0.186399,0.05456,-0.093735,0.263918,-0.002448,-0.069382,-0.176349,-0.0225,0.151677,0.242919,0.007113,-0.088065,0.027669,0.119695,0.09495,0.06612,-0.029194],[0.081386,-0.01956,-0.034518,-0.087957,0.18458,0.001078,0.028431,-0.057388,0.070142,-0.120312,-0.04069,0.025766,-0.053924,0.017279,0.139383,0.073577,-0.135661,0.134937,-0.012423,-0.068509,-0.09076,0.000311,0.088725,0.08471,0.119303,-0.00025,-0.05928,-0.157052,-0.025816,-0.081076,-0.017239,-0.118748,0.041518,0.036098,0.202356,0.104173,0.032287,-0.012341,-0.013917,0.034226,-0.029577,-0.057501,0.111497,-0.020438,-0.044799,-0.032583,-0.146483,-0.012062,-0.052579,-0.199803,-0.071487,0.047848,-0.069537,-0.035408,-0.004311,0.113211,-0.155552,0.041487,0.079386,0.134189,-0.124204,0.068047,0.005018,0.003243,-0.140173,-0.073009,0.085385,0.013724,0.051248,0.078725,-0.06349,-0.039821,-0.011308,-0.057278,0.078252,0.071602,0.185408,-0.082947,-0.017584,-0.115715,-0.057122,0.20257,0.100781,-0.143103,-0.061437,0.072203,-0.100707,0.110397,-0.04941,0.004051,-0.176765,-0.079554,0.077222,-0.143773,0.023352,-0.077646,0.018519,0.112288,-0.063587,0.023809,0.17924,0.056672,0.166766,-0.21737,-0.005053,-0.079386,0.009889,0.18818,-0.160306,0.036139,-0.031603,0.007127,0.025909,0.126405,-0.041676,-0.006704,-0.028456,-0.004511,-0.032836,-0.055762,0.12824,-0.038936,-0.057226,-0.0823,0.093865,0.043605,-0.018433,0.067583],[0.09263,-0.029492,-0.047753,-0.03227,0.03973,0.124453,0.085804,0.027966,0.022288,-0.060973,0.009056,0.003569,-0.129596,-0.017305,0.165244,-0.029133,-0.219996,0.072235,-0.109658,-0.074855,-0.064818,-0.107651,0.035852,0.057846,-0.075223,0.11997,0.095724,0.080013,-0.020928,-0.006492,0.185099,0.092355,-0.071632,-0.18243,-0.00137,0.140027,0.026283,-0.000704,-0.171965,-0.037453,0.129244,-0.096848,0.040095,0.113708,-0.176111,0.001302,-0.098926,-0.015992,0.040251,-0.010529,-0.047627,0.063386,-0.023775,0.092383,-0.127875,0.111607,0.036609,-0.030184,0.085809,0.129166,-0.104864,0.126463,-0.059275,-0.045708,-0.162427,0.124058,0.032851,-0.037937,-0.040726,0.018931,-0.227321,0.119771,0.072034,-0.05345,0.116918,-0.008477,0.153219,0.005971,0.098226,-0.170442,0.129025,0.185058,-0.170249,-0.148313,0.061246,0.108808,0.007781,0.117361,-0.16079,-0.012579,-0.139053,0.125673,0.034299,-0.004758,0.062514,-0.106092,0.055252,0.069914,0.005796,-0.076539,-0.028528,0.106903,0.019952,-0.116887,0.045396,0.061845,-0.168832,-0.063876,-0.210391,0.019051,-0.026464,0.06102,0.031065,0.001723,-0.080551,0.111272,0.009584,0.125348,0.042379,-0.136628,0.06575,-0.055792,0.000642,-0.181578,-0.050351,0.068133,-0.073225,0.104839],[-0.013688,-0.017604,0.017741,-0.037909,-0.074046,0.011508,-0.185922,-0.040168,0.157025,0.110168,0.047808,0.078037,0.045173,0.09906,0.252819,0.098495,0.015286,0.011596,-0.113823,-0.012183,0.014558,0.097082,-0.020725,-0.106285,0.147635,-0.160544,-0.056838,-0.209451,-0.023381,0.098696,-0.057946,0.122264,-0.038372,0.126496,0.082423,0.183458,-0.139432,0.163613,0.004405,-0.069841,0.118479,-0.053456,0.089976,-0.007977,0.065937,-0.02487,-0.167178,-0.023159,-0.144555,-0.007359,-0.054024,0.113152,-0.085806,0.044618,0.077999,-0.075383,0.071853,0.1095,0.02115,0.07316,0.094196,0.029209,-0.186913,-0.080437,0.053023,-0.107953,0.105068,0.189866,0.172127,-0.018032,-0.25062,0.132438,0.015157,-0.117334,-0.049995,0.145602,0.083448,0.075041,0.174757,-0.018235,0.054068,0.160995,-0.112044,-0.023989,0.118793,0.139353,0.042691,0.072159,-0.075567,-0.010594,-0.008298,0.089747,-0.019915,-0.044572,-0.087121,-0.086225,0.043058,0.033891,0.18732,-0.002195,0.141833,0.04405,0.120225,-0.06281,-0.031458,-0.097508,-0.034949,-0.014056,-0.255675,-0.08569,0.065729,-0.092828,0.040954,-0.181541,0.052386,-0.014501,-0.096406,-0.0027,-0.126326,-0.134497,-0.045704,-0.064713,-0.173216,-0.06606,0.102658,0.00459,0.009951,-0.089841],[0.187586,-0.006447,-0.216033,-0.022464,0.000685,-0.060609,0.071677,0.13414,0.056911,0.056932,0.158904,-0.054175,-0.052456,-0.026584,-0.034881,-0.096525,0.058799,0.066891,-0.021714,-0.054537,0.139358,0.187711,0.16023,-0.018011,0.045161,-0.177647,-0.090213,-0.193244,-0.019296,0.107365,-0.049552,-0.042408,0.047471,-0.085748,-0.044134,-0.202564,0.048607,-0.075268,-0.045847,0.062057,0.161091,-0.029585,0.091661,-0.001027,0.004625,-0.136352,0.001338,0.178338,0.033704,0.084842,0.21727,-0.13063,0.037826,-0.032408,0.032949,-0.049335,-0.220772,0.070011,-0.030575,0.043326,0.018575,0.029625,-0.001063,0.070788,-0.077807,0.133929,0.064015,0.098875,0.052754,0.009252,0.059485,-0.013389,-0.095876,0.122635,-0.011739,0.130628,0.134271,0.155153,0.175418,-0.082611,-0.024083,0.054406,-0.054634,0.080986,-0.028751,0.109621,-0.105946,-0.086241,0.017605,0.161855,0.057532,0.008452,0.034379,-0.188937,0.08765,0.041964,0.042451,-0.102105,0.019367,-0.086828,0.064182,0.073285,0.058779,-0.152006,0.184079,-0.043542,-0.000263,0.00444,0.075767,-0.060129,0.115556,0.127071,0.031671,-0.124628,-0.011532,-0.001691,-0.020127,-0.224436,0.058391,0.024549,-0.025401,0.171904,-0.162373,0.150735,-0.005465,0.144013,0.07191,0.093278],[0.122986,-0.023467,0.087089,-0.098393,0.021294,-0.013708,0.014436,0.001747,0.006972,-0.000247,0.050588,0.147888,-0.025804,-0.076703,-0.036537,-0.107647,-0.194258,0.026975,-0.110944,0.15265,0.069986,-0.012567,0.084933,-0.001017,-0.006873,0.022114,-0.011444,-0.087567,-0.013639,0.119084,0.07712,0.006528,0.077704,-0.139012,0.0479,-0.154885,-0.043939,0.034483,-0.043088,0.163807,0.148651,0.062893,0.102032,0.106501,-0.131081,0.018861,-0.156725,0.075353,-0.049466,0.112658,0.187988,-0.140966,-0.014004,0.158751,0.057137,0.117041,-0.033716,0.004873,-0.003025,-0.030848,0.081992,0.03739,0.034053,0.01709,-0.0151,0.160216,0.226285,-0.014855,0.115326,0.078526,-0.014956,0.188544,-0.112866,-0.090568,0.140081,0.018129,0.126194,0.103945,-0.00493,0.099906,0.014544,0.014521,0.028259,0.111031,-0.058429,0.065546,0.006654,0.070288,0.074974,-0.072323,-0.10614,0.007002,0.0862,-0.103244,-0.063221,0.151639,-0.095225,0.115959,0.088397,0.071256,-0.027969,-0.09978,0.131297,0.051099,0.100085,-0.14934,0.058281,0.145279,0.017342,0.090988,0.114579,0.018568,-0.049258,-0.065172,0.121115,0.015216,0.032156,-0.214454,-0.048383,-0.087341,0.086202,0.138589,-0.169617,0.150036,-0.006197,-0.018437,0.00087,-0.007423],[0.078513,0.048779,-0.158128,-0.144241,-0.034238,-0.076143,0.031445,0.067027,0.110375,0.156221,-0.104192,0.125266,-0.082998,0.024422,-0.013661,-0.007227,0.075358,0.066366,-0.019826,0.049706,-0.06851,0.165144,0.025929,-0.001973,0.049969,0.01245,-0.122302,0.010504,-0.020676,0.047444,0.121964,0.086105,0.065021,-0.038274,-0.052557,-0.073599,-0.086976,0.006118,-0.022442,-0.033756,0.051132,-0.177049,0.137131,-0.007229,-0.089908,-0.000283,-0.202285,0.043816,0.009109,-0.180092,0.03655,-0.156743,-0.051519,0.129355,0.017296,0.026972,-0.112222,-0.005616,0.09742,-0.013789,0.087416,0.093637,0.044349,0.174264,-0.05761,0.192472,-0.044686,0.080664,0.030781,1.6e-05,0.022142,0.095594,-0.178706,0.045074,0.004742,0.09672,0.199362,0.139919,0.163292,0.001477,-0.024047,-0.002359,0.071751,0.042505,-0.110591,0.00849,0.100559,0.037902,0.038955,-0.023608,-0.200694,-0.00778,-0.02355,-0.174634,0.038212,-0.063501,0.170544,0.059755,0.011324,0.022273,-0.01597,0.167662,-0.054264,0.018503,0.067404,-0.108609,-0.172224,0.089038,0.037606,-0.040876,0.119905,-0.021592,0.112874,-0.119507,0.135186,-0.00787,-0.059238,-0.199005,-0.038709,0.03284,-0.015427,0.175917,-0.181611,-0.020706,-0.042225,-0.085233,-0.020992,-0.02029],[0.041937,0.020081,-0.026396,0.012428,0.033555,0.075571,0.211815,0.043375,0.083852,-0.024216,0.010141,0.123025,0.019594,0.1388,-0.040887,-0.200921,0.026172,0.118217,-0.168695,-0.066704,-0.073352,0.056626,0.113351,0.029773,-0.063801,-0.048739,-0.154874,-0.12103,-0.009035,0.19321,0.124489,-0.168611,0.135279,0.074082,0.096769,-0.180962,-0.04363,-0.058398,-0.120259,-0.099033,0.004495,0.040838,0.077042,0.050039,-0.172164,0.11689,0.127979,0.11675,0.157231,-0.023877,0.121898,-0.093017,-0.071194,-0.079544,0.037466,-0.023646,-0.006175,0.100047,0.045734,-0.103326,0.092827,0.027163,0.011824,0.060181,-0.101523,0.015287,0.17708,-0.058571,0.033629,0.138046,0.043632,-0.082122,-0.111601,-0.015178,6.3e-05,0.024824,-0.088823,0.226437,0.014613,-0.108006,0.016939,-0.012907,-0.131542,-0.078942,0.055623,-0.033356,-0.035331,-0.006457,0.009208,-0.066905,-0.050599,-0.065384,-0.136969,0.071331,0.214181,0.083031,0.094774,-0.005082,0.128931,-0.142565,0.185113,0.188717,0.061957,0.116213,0.083871,-0.122575,-0.062844,0.053242,0.032156,-0.007602,0.231339,-0.072067,0.105994,0.105999,0.1208,0.187284,0.013745,0.154388,0.095907,-0.076335,0.041118,0.098772,-0.13971,0.073282,0.018475,-0.061803,0.060965,0.070374],[0.047619,-0.003441,-0.210838,-0.083734,0.172614,-0.120771,0.066888,-0.040666,0.015343,0.097352,0.017804,-0.069462,-0.038403,-0.126221,-0.020203,0.012967,-0.150697,-0.012405,-0.078209,0.137134,0.185502,-0.071663,0.104668,0.004686,-0.053051,0.083394,0.12217,0.107545,-0.014136,0.056785,0.113738,-0.106145,0.046002,-0.077831,0.100054,-0.15416,-0.092694,0.143994,-0.048931,-0.062678,-0.00952,-0.146704,-0.162333,-0.09755,0.055997,-0.06523,0.137739,0.006717,0.007591,0.034421,-0.116553,-0.038658,-0.055161,0.017579,0.159848,0.197683,0.075221,0.000817,0.118301,0.021832,-0.050407,-0.03185,0.073656,-0.085148,-0.098329,0.14469,-0.002293,-0.022924,-0.054352,0.151531,0.000382,0.019004,0.106491,0.102114,0.007608,0.081994,0.087719,0.063095,-0.00541,0.095655,0.055791,-0.110943,-0.041849,-0.074875,-0.073341,0.04527,-0.205161,0.012485,0.022978,-0.112691,0.160951,-0.04365,-0.185617,-0.096537,0.06365,-0.236924,0.082955,0.111665,-0.076217,0.022477,0.114294,0.139632,0.05367,-0.089911,0.009825,0.025806,0.034253,-0.045897,0.003154,0.090422,0.126938,0.161347,0.088682,-0.102715,-0.012387,0.080053,-0.095534,0.023019,0.091842,-0.046111,0.1114,0.072639,0.075173,-0.224313,-0.088564,0.076386,-0.029333,0.061639],[0.078354,-0.086302,-0.047064,-0.025202,0.017178,0.242041,0.165211,0.051857,0.210521,-0.004617,0.087347,0.138199,0.034021,0.131378,-0.042059,0.044492,-0.161178,-0.004637,-0.109892,0.170715,0.180811,0.095392,0.064856,0.045985,0.130006,-0.000722,-0.063847,-0.149764,-0.022233,0.135421,-0.028458,-0.149,0.159243,-0.191209,0.086783,-0.02025,-0.052834,-0.0421,0.04487,0.004324,0.031857,0.091054,-0.16608,0.111456,0.05726,0.097718,-0.153058,0.111207,0.011994,-0.042893,-0.131956,0.019581,-0.04834,0.02681,0.0606,0.068869,0.003626,0.060835,0.054385,0.073301,0.048395,0.072069,0.140752,-0.149348,0.058233,-0.048092,0.078874,-0.02029,-0.018834,-0.051003,0.029579,-0.011183,0.027874,0.030876,-0.013492,0.085122,-0.037963,0.065324,0.116389,-0.100749,-0.104897,-0.055563,0.133021,0.006513,0.005155,-0.024054,-0.136293,0.028197,0.125507,-0.167535,-0.132439,-0.057225,-0.110263,0.132528,-0.018154,-0.035858,-0.09818,0.063387,-0.035264,-0.063557,0.145013,0.152059,0.004214,-0.086663,0.032309,-0.084887,-0.101337,0.071684,0.014951,-0.080723,0.2178,0.120326,0.095024,-0.168792,-0.161569,0.20804,-0.029743,-0.173492,0.064277,0.088206,0.077274,-0.157135,-0.178037,0.15175,-0.015502,0.123807,0.221847,0.05394],[-0.001271,-0.010703,-0.087462,0.084598,0.176645,-0.023139,-0.100487,0.093823,0.176317,0.174501,-0.143978,0.041921,0.004214,0.078386,-0.026733,-0.176683,-0.020205,-0.078311,-0.064638,0.154398,0.020272,0.088568,-0.068825,-0.056092,0.130899,-0.097496,-0.20485,-0.069766,-0.025099,0.056516,0.112556,-0.02372,-0.01571,-0.073207,0.10225,-0.178821,-0.012467,0.033689,0.017746,-0.137294,0.074645,-0.125613,-0.097575,0.201445,0.040811,-0.15948,-0.104858,0.036063,-0.058603,-0.138921,-0.068671,-0.038944,-0.029762,0.007162,0.091657,-0.007789,0.089754,0.13765,0.072394,0.139193,0.134059,0.034947,-0.044271,0.049803,0.038018,0.116092,0.099361,-0.139024,-0.028731,0.110202,-0.020547,0.041934,-0.095262,0.024977,0.123801,0.030298,0.089002,0.004327,0.10949,-0.12197,0.086159,-0.115336,-0.040507,0.040686,0.086662,-0.082493,0.055588,-0.043194,0.003232,-0.13748,-0.132182,0.022048,-0.093358,-0.051231,0.136185,-0.194549,0.137847,0.024955,0.027744,-0.117525,-0.048543,-0.053823,-0.017142,-0.139795,0.075234,0.092607,0.039053,0.033423,-0.085046,-0.033546,0.109161,-0.089198,0.02541,-0.033434,-0.013735,-0.003594,0.109037,0.094321,-0.062249,0.166713,0.129587,-0.175095,-0.08523,-0.027958,0.119455,0.095715,-0.058222,-0.038822],[0.040497,0.017507,-0.004372,0.078905,0.101233,0.037537,0.173222,0.070546,0.044916,0.090901,-0.091439,0.039966,-0.11907,0.056017,-0.055368,-0.127045,-0.190482,-0.06503,0.052842,0.096438,0.023048,-0.034651,-0.034815,-0.07595,-0.050998,0.118845,-0.086026,-0.10296,-0.036783,-0.056522,0.008321,0.012563,-0.003699,-0.189858,0.065034,-0.199395,-0.064217,0.132609,-0.031488,-0.0946,-0.023629,-0.062869,0.05293,0.119121,0.074075,-0.092031,-0.026734,0.005098,0.082003,-0.070426,-0.069485,-0.177776,-0.014145,-0.058708,-0.061766,0.033,0.011661,-0.011913,0.041451,0.159409,-0.018238,0.049473,-0.025453,-0.068664,0.056124,-0.044408,0.049039,-0.031578,-0.009617,0.04958,-0.046397,-0.084133,0.055824,0.03166,0.059145,0.091944,0.128317,-0.037932,0.006869,0.066318,0.006378,-0.125133,0.103152,0.038273,0.017182,-0.031048,-0.104554,0.114873,0.065893,-0.204324,-0.110087,0.15201,-0.1259,-0.029752,0.085348,-0.198659,0.080045,-0.042301,0.002151,0.072031,-0.015212,0.174639,0.070778,-0.116398,-0.114639,-0.004253,-0.09839,-0.061342,-0.028414,-0.001859,0.117685,0.048656,0.094416,-0.209407,-0.086849,0.083167,0.075554,-0.230822,0.047261,0.090803,-0.023423,-0.355848,0.045624,0.040941,0.035768,0.064702,0.113787,0.032446],[-0.05949,0.020332,0.11495,0.043875,-0.069846,-0.152785,0.113943,0.071026,0.225738,0.082462,-0.016392,0.025725,0.070352,0.094869,-0.064369,-0.120535,-0.058346,0.088623,-0.114838,-0.093422,-0.038845,-0.068423,-0.137822,-0.231006,0.119506,-0.022849,-0.073767,-0.194015,-0.030104,-0.009161,0.02564,0.054554,0.113959,-0.131721,0.078968,-0.16545,0.164329,0.044809,-0.12347,-0.105346,-0.091743,0.092044,-0.031403,0.061485,-0.079599,-0.000715,0.095863,0.091766,0.107655,-0.144296,-0.199614,-0.014946,-0.059608,-0.002041,-0.047255,0.075352,-0.209667,0.132644,7.1e-05,0.061251,-0.164271,0.146223,-0.055872,0.118357,0.096332,-0.034644,0.216154,0.153514,0.157408,0.110401,-0.050985,0.044609,-0.180982,-0.140396,0.078172,-0.091182,0.12576,0.076582,0.162372,0.084202,-0.040428,-0.128304,-0.067121,-0.208944,-0.089196,-0.038424,0.050025,0.053281,0.031821,0.051898,-0.101886,-0.112769,-0.040381,-0.00879,0.115213,-0.20479,0.120214,-0.024768,0.030281,0.00442,0.129253,0.04313,0.062404,0.116419,0.088668,-0.033317,0.004756,-0.039135,-0.033581,0.003048,0.208632,0.14103,-0.026434,-0.045655,-0.173959,0.213156,0.1982,0.029007,0.051177,0.101292,0.049219,-0.36717,-0.064754,0.07973,0.040326,-0.065285,0.09759,-0.107166],[0.047892,0.070552,0.047105,0.006804,-0.064112,-0.002533,0.137967,-0.092411,-0.042049,0.092604,-0.038616,0.019224,0.090703,-0.044739,-0.037084,0.08065,-0.008694,0.063976,0.099018,0.081349,0.205747,0.062699,0.061754,0.014858,-0.097322,0.000256,-0.079075,0.111955,-0.027123,0.014101,-0.045444,-0.189744,-0.061028,-0.029356,-0.062499,0.012104,0.117357,0.171751,0.063841,0.069639,0.140048,0.068035,-0.03701,0.092912,-0.070816,0.084723,0.160691,-0.053548,0.119498,-0.00901,0.183837,0.034259,0.196041,0.002382,0.023951,-0.038066,0.110578,0.149726,0.201722,0.209503,-0.115561,-0.051595,-0.019857,-0.007379,-0.099732,0.021337,-0.02978,-0.00227,0.031949,-0.08805,0.187156,0.124899,0.142748,0.05596,-0.045516,0.116892,-0.010377,0.038114,0.009907,-0.130186,-0.040608,0.001984,0.021894,-0.034929,-0.197487,0.078894,-0.161832,0.012582,0.144253,-0.128701,-0.195709,0.030854,0.054964,-0.00231,0.140456,-0.14945,0.08356,-0.015136,-0.005753,0.020747,-0.054085,0.037458,-0.041654,-0.035397,-0.017307,0.033991,-0.103226,0.053073,0.118544,0.062167,-0.027517,0.038455,0.118612,0.082502,0.014851,0.059852,0.175544,0.136232,0.137091,-0.004272,-0.009688,0.079088,0.029865,-0.089168,0.055211,0.166519,0.019802,0.112568],[-0.003804,0.011295,-0.050434,0.043973,0.074803,0.027338,0.149419,-0.188511,0.057927,0.002892,-0.045704,0.036709,-0.079932,0.062789,-0.073845,0.013839,-0.151876,0.014314,-0.156634,-0.064351,-0.053583,0.005755,0.107637,0.036536,0.092069,0.140241,-0.038242,-0.170154,-0.050297,0.09432,0.012789,-0.183683,0.040969,0.097289,0.121247,-0.019096,0.038508,-0.005658,-0.097736,0.087316,-0.076473,-0.160819,-0.086117,0.083495,0.090097,-0.01305,0.072416,-0.04885,0.012143,-0.056783,0.140238,-0.036025,0.161134,-0.053805,0.039936,-0.038661,-0.138594,0.147665,0.050233,0.013481,0.062599,-0.067802,0.022918,-0.005603,0.002394,0.17574,0.097903,0.027881,0.1484,-0.081711,-0.094403,-0.064271,-0.026887,0.049889,-0.015378,0.127556,0.0234,0.027129,0.003842,-0.214055,0.05426,0.003156,0.067232,-0.021846,-0.078794,0.000788,-0.14378,-0.090851,0.150284,-0.084237,-0.013222,-0.046105,0.034525,-0.052845,0.083156,-0.026451,0.076882,-0.076157,0.102617,-0.130941,0.047548,0.030447,0.150541,-0.070326,-0.052472,-0.15417,0.021508,0.056098,0.042402,0.030417,-0.038264,-0.160468,0.187611,0.044043,0.099107,-0.047543,0.065152,0.062837,-0.042818,0.133575,0.208855,0.075761,0.014596,-0.11178,-0.007417,0.187256,-0.035141,0.095205],[0.116085,0.020723,0.137749,-0.108579,0.083913,-0.135052,0.049227,-0.10039,-0.009661,0.054515,0.103497,-0.017341,-0.031062,0.132267,-0.02693,-0.165336,-0.148964,0.085981,-0.115986,0.15641,0.012513,0.080454,0.041232,-0.003505,0.063827,0.052774,0.078336,-0.032186,-0.007784,0.136708,0.135935,-0.193904,-0.077384,-0.147419,0.076208,0.028375,-0.055567,0.152219,0.048313,0.045085,-0.027114,0.092221,0.000372,0.01152,-0.039159,-0.077709,-0.063761,0.110471,-0.064611,0.060736,0.043369,-0.05186,0.119301,-0.015943,0.11292,0.032146,-0.172824,-0.029229,0.042012,0.150624,-0.037266,-0.024193,0.088654,0.190868,0.047971,0.07527,0.047107,0.10394,0.026349,-0.050434,-0.066229,0.121842,0.060251,-0.088517,6.8e-05,0.063171,-0.117423,0.127627,-0.005638,-0.154458,0.041539,-0.011272,-0.165329,0.068602,-0.048055,-0.066002,-0.151151,0.02799,0.049074,0.070637,0.080342,0.214197,-0.005503,0.14096,0.001787,-0.054041,-0.086833,-0.082189,0.113866,-0.059821,-0.095374,0.068299,-0.03971,-0.026513,0.002365,0.09261,0.05805,0.023255,0.072575,0.049417,0.001017,-0.066188,0.03933,-0.161759,0.056116,0.033916,0.010913,-0.074685,0.009905,0.110535,0.1246,0.03746,-0.046784,-0.109286,0.08184,-0.097076,0.196981,0.065143],[0.046611,-0.087198,0.001735,-0.059774,0.05415,0.081431,0.177646,-0.021238,-0.03893,-0.121986,-0.047416,-0.025549,0.011009,0.145061,-0.033244,-0.201139,-0.10558,0.072489,-0.082936,0.103647,0.124629,0.1214,0.033212,0.010919,-0.111998,-0.040284,-0.053358,0.009414,-0.027276,-0.02463,0.045662,-0.14536,-0.069678,0.086571,-0.066472,0.001838,-0.125117,0.132806,0.062122,-0.046127,0.030089,0.017879,0.091225,-0.147259,0.120201,0.09256,0.145459,0.036245,0.068717,-0.018972,0.075634,0.01746,0.257683,0.008124,0.098775,0.156853,-0.163703,0.116405,-0.040608,0.123482,-0.041017,-0.027882,0.183614,-0.006725,0.097811,0.054086,0.015359,-0.099416,0.082894,-0.068386,0.008493,-0.025217,-0.201217,0.166015,0.132648,0.021459,0.092654,-0.014192,0.118548,0.075246,0.176096,-0.049543,0.070807,-0.049245,0.214246,-0.113459,0.006122,0.017574,0.087293,-0.019483,0.132431,-0.051573,0.110258,-0.110797,-0.042642,-0.009515,0.01227,-0.102516,-0.04873,-0.069697,0.0977,0.153031,-0.077361,-0.029721,-0.03352,-0.21632,3e-05,0.075675,-0.02117,-0.003128,-0.108013,0.062068,0.181807,-0.148011,0.029985,0.153019,0.121315,-0.099348,-0.072333,-0.118402,0.057092,0.102081,-0.191951,-0.009797,-0.05779,0.147629,0.010904,-0.100187],[0.094112,-0.00977,0.168107,-0.039619,0.121163,0.141603,-0.008396,0.073722,0.032115,-0.001493,-0.172073,-0.006979,0.075037,0.100414,-0.002078,-0.110898,0.040461,0.145913,-0.155905,-0.005309,0.007982,0.093829,-0.009374,0.024104,0.06273,-0.132029,-0.062114,-0.055772,-0.021568,-0.060377,-0.008204,-0.155776,0.025142,0.087401,0.115758,-0.002608,-0.134942,-0.037265,-0.109688,-0.102657,0.049678,-0.188958,-0.09961,-0.033839,0.054188,-0.133862,0.032256,0.021283,0.085419,0.102899,-0.088562,-0.136859,0.116001,-0.05834,0.069878,0.068682,-0.002979,0.116038,-0.165971,-0.090828,0.086126,-0.073928,0.068655,-0.018811,-0.153678,0.175701,-0.033912,0.111376,0.137843,0.082298,0.001961,0.023189,0.099988,-0.12309,0.007684,0.053689,-0.032637,-0.032782,0.024611,-0.039898,0.131628,-0.091877,0.126079,0.024407,0.077557,-0.013204,0.045083,-0.11172,0.026009,-0.097202,0.075321,0.165884,0.069511,-0.131517,0.026377,-0.072214,0.117469,-0.104358,-0.118165,0.138159,0.022952,0.137332,-0.059267,0.037438,0.030954,0.037009,0.005286,-0.003284,-0.029133,-0.029473,-0.016776,-0.097726,0.091442,-0.14451,0.033515,0.09273,-0.054743,-0.182948,-0.005588,0.020744,0.116122,0.093165,0.011859,-0.141247,0.069153,0.131507,0.004129,-0.005867],[-0.208396,-0.038571,-0.021579,-0.177593,0.208458,0.048315,0.035137,-0.091187,-0.016038,0.013895,0.098849,-0.097583,0.076657,0.103831,-0.040855,-0.040669,-0.140164,-0.020852,0.008541,-0.061766,0.197071,0.028922,-0.021222,0.0026,-0.084069,-0.009641,0.066855,0.103725,-0.017173,0.083359,0.077426,0.11454,0.006726,-0.246392,-0.012825,0.044379,0.028544,0.081277,-0.041331,-0.17109,0.03229,-0.065397,0.038991,0.084753,-0.001505,-0.206816,-0.145156,0.135279,0.106755,0.055578,-0.085766,-0.103555,0.177632,0.128926,-0.039685,-0.172673,-0.004105,-0.043299,-0.198536,-0.099905,-0.030414,0.014296,0.213306,0.063709,-0.09866,-0.017971,0.057884,0.044211,0.097051,-0.034862,-0.00114,-0.049438,0.004502,-0.284811,-0.047891,0.158092,0.048615,-0.044674,0.213982,0.129079,0.107702,-0.05593,-0.101798,-0.066255,-0.114933,0.099037,-0.009832,0.003789,-0.009402,0.036342,-0.078512,0.064078,0.09821,0.026465,-0.027731,0.118602,-0.019674,0.036043,0.120728,-0.143173,-0.10507,0.003946,-0.011899,0.018931,0.183748,-0.030608,-0.175033,0.240318,-0.062197,-0.052164,-0.013778,-0.008066,-0.009165,-0.16482,-0.100047,0.121181,0.109396,-0.191433,0.097079,0.115436,-0.126957,0.061171,0.04773,-0.09428,0.068409,0.10839,0.116176,0.110843],[0.042984,0.081576,0.051582,-0.002478,0.13095,-0.045291,0.048571,-0.076448,-0.041111,0.10641,-0.206575,-0.019401,-0.180678,0.100211,-0.05743,-0.111721,0.009017,0.017252,0.037771,-0.013193,0.002748,0.093642,-0.071346,-0.039681,0.040453,0.133985,-0.071137,-0.19488,-0.042028,-0.019053,-0.06946,-0.004203,0.182615,-0.050795,-0.014908,0.048331,-0.14772,0.0977,-0.044288,-0.132188,0.08267,-0.010156,0.065751,-0.041028,0.037698,0.05186,0.055211,0.140125,-0.059924,-0.03213,-0.052334,-0.011886,0.11258,-0.038159,-0.045674,-0.017671,-0.187679,0.103923,-0.230044,-0.128246,-0.011774,0.013473,0.141195,0.012424,-0.055374,0.131255,0.076159,-0.164191,0.052993,0.092772,0.006207,-0.030164,-0.081161,-0.194359,-0.054009,0.074163,-0.11145,0.073825,0.144098,0.014303,0.144309,-0.121791,-0.048259,0.027728,0.082136,0.07789,-0.1005,0.159865,-0.013759,0.11576,0.110928,-0.053571,0.027063,-0.197128,-0.009998,-0.012607,0.043429,0.110633,0.066565,-0.035659,0.112267,0.175929,-0.073985,0.125461,-0.034443,0.087245,-0.077989,-0.092606,-0.124491,0.075285,-0.070234,-0.166753,0.03221,0.084383,-0.035965,-0.018181,0.085065,-0.156218,0.065485,0.132082,0.012274,0.028802,0.029642,-0.004055,0.088515,-0.007766,0.051618,0.029472],[-0.018457,0.061691,0.01071,0.016723,0.053771,-0.009605,0.027271,-0.191351,-0.116569,0.020877,0.064157,-0.004642,-0.181518,0.059498,-0.066057,-0.084299,-0.173288,0.001643,-0.148948,-0.026401,-0.059071,-0.044675,-0.021278,-0.069541,0.027047,0.0731,-0.102625,-0.028347,-0.041935,-0.082786,0.02634,-0.008523,0.149109,-0.005043,0.170794,0.1205,-0.135207,-0.11746,-0.172337,-0.070788,0.078156,-0.107855,0.204548,0.193319,-0.037409,-0.197167,-0.111994,-0.004425,-0.101988,0.008613,-0.054211,-0.1164,0.170362,0.137211,0.114027,-0.021483,-0.117596,0.067117,-0.209617,-0.106833,0.026827,0.032819,0.015365,0.058034,-0.045834,-0.08498,-0.004104,-0.131413,0.011019,0.137616,0.05576,0.083266,-0.087788,-0.084813,-0.088345,-0.053549,-0.068913,0.098479,0.102948,0.028022,0.018723,-0.069603,-0.19003,-0.092492,-0.03006,0.100797,0.102098,-0.008662,0.030766,0.063878,-0.112005,-0.009969,-0.053182,0.11282,-0.078054,0.050328,0.005804,0.110039,0.07671,0.003747,0.112467,0.145299,0.115416,-0.213998,0.052345,-0.112952,-0.073241,0.025293,-0.166172,0.073847,0.079977,-0.165363,0.07966,-0.077812,-0.132027,-0.042594,0.187007,0.063615,0.087862,0.152957,-0.045758,0.048513,-0.010184,-0.053627,0.031526,-0.099404,-0.003174,0.034067],[-0.104365,0.029828,-0.01866,-0.041444,-0.059323,0.08781,-0.08098,-0.121925,0.153672,0.057464,-0.100998,0.012022,-0.068425,0.169253,-0.075505,0.01198,-0.080112,-0.072096,-0.100593,-0.012989,0.071478,-0.054819,-0.127593,-0.246678,0.020723,-0.13934,0.045167,-0.198954,-0.045181,-0.018382,-0.103495,-0.086499,-0.05885,0.035117,0.08755,0.108033,-0.026047,0.121274,-0.132339,-0.23182,0.147288,0.007827,0.101184,0.072259,0.100226,-0.06097,0.10004,0.203462,-0.024171,-0.150027,-0.08292,-0.145061,0.147975,0.019776,-0.016485,0.096857,-0.066149,0.080386,-0.228517,-0.051297,-0.117179,0.037626,-0.080205,-0.024112,-0.051881,0.113694,-0.077504,0.083591,0.079676,0.102904,0.159529,-0.094827,-0.099847,0.022234,0.057357,-0.003692,0.126251,0.131061,0.176305,0.165965,0.126374,-0.147173,0.072681,-0.12352,-0.09062,0.116118,-0.107935,0.010842,-0.0736,0.045778,-0.062208,0.061437,-0.04795,0.052789,0.034115,-0.060152,0.007524,0.093097,0.276703,0.03284,0.198519,-0.01232,0.1712,0.041762,0.115443,0.131676,-0.071439,-0.068808,-0.230845,0.063303,-0.062484,-0.140861,0.003396,-0.113039,-0.15606,0.108669,0.128189,-0.142086,-0.03073,-0.04822,-0.039954,0.040634,0.075954,-0.100966,0.101156,0.105714,0.104711,-0.070669]],"b":[0.212424,-0.008689,-0.096979,-0.212567,0.112097,-0.100478,-0.059165,-0.067036,0.163117,0.153058,-0.128031,0.136881,0.104268,0.11919,-0.10466,0.033318,0.109267,0.105949,-0.088879,-0.002158,0.102423,0.044633,-0.123795,-0.049063,0.111044,0.115019,-0.156959,0.12802,-0.10487,0.065973,0.11905,0.094805,0.214471,-0.099473,0.178174,-0.1402,0.061501,0.098605,0.035692,-0.10986,0.176368,-0.185857,-0.130126,0.119728,-0.029375,0.096847,-0.069808,-0.066051,0.119449,-0.012651,-0.11284,0.017918,-0.004833,0.103048,0.052108,0.195136,0.063553,0.112622,-0.151915,0.168591,0.046845,0.057734,-0.018805,0.164241,0.046858,-0.10254,0.0106,0.163954,-0.120947,0.174274,0.052552,0.084618,-0.10887,-0.083402,0.192918,-0.051918,0.138396,0.0082,-0.082951,-0.228647,0.049632,0.179635,-0.084203,-0.041317,-0.066233,0.040353,-0.08132,0.170287,0.023501,-0.025426,-0.186209,0.21701,-0.130384,-0.202178,0.090252,0.0086,0.001829,-0.042156,0.157821,-0.152107,0.144324,0.089228,0.019258,-0.058355,-0.059586,0.069415,-0.058972,-0.020199,0.039865,0.213795,-0.03746,0.133038,-0.026672,-0.216229,-0.092337,0.006905,-0.074465,-0.229739,0.170994,0.156564,0.131055,-0.113791,-0.213795,-0.1917,0.10839,0.184426,0.018515,-0.147154]},{"W":[[-0.001012,-0.035018,-0.060535,0.01148,0.053565,-0.115626,-0.185533,0.158258,-0.062625,-0.171497,-0.128104,-0.181884,-0.06301,0.092099,-0.10925,0.0251,0.038951,-0.015677,0.108599,0.170736,-0.190358,0.065656,0.022936,0.140131,-0.00409,0.122776,0.074727,-0.075119,0.000647,0.14366,0.110149,-0.139136,0.07316,-0.057488,-0.193859,-0.037591,-0.036679,0.095041,-0.074637,0.096136,-0.194783,-0.093723,-0.106967,-0.109297,-0.169865,-0.078056,0.035189,-0.087257,-0.04368,-0.004059,0.136135,0.124999,0.002528,-0.071645,-0.153311,0.175293,-0.174259,-0.0628,-0.087244,-0.090799,-0.108568,0.205832,-0.146822,0.006678],[-0.088101,-0.113572,0.129293,-0.217338,0.127559,0.05291,-0.140763,0.146733,-0.025484,0.113701,-0.13476,0.10473,-0.183597,-0.009971,0.080725,0.25396,0.122986,0.092198,0.120931,-0.096933,-0.092666,-0.086814,-0.040991,-0.070733,-0.007184,-0.058209,0.053939,-0.114594,-0.078696,-0.038583,0.086998,0.108559,0.029399,-0.098987,0.00264,-0.09637,-0.052735,-0.04819,-0.177478,-0.09684,0.138047,0.133867,-0.064403,-0.174985,-0.130417,0.016361,0.167891,-0.140692,0.077114,-0.144827,0.149588,-0.05948,0.104855,-0.066273,0.028784,-0.092251,-0.146025,0.139588,0.132686,0.142916,0.045909,0.232782,-0.163608,-0.102113],[0.0,0.049693,-0.063089,-0.092486,-0.001038,0.091118,-0.01257,-0.14435,-0.062825,-0.102142,-0.083319,0.034301,0.024865,0.054882,-0.077845,0.076399,-0.120283,-0.020858,0.089279,-0.088153,-0.146095,0.111797,-0.05285,0.041631,-0.0,0.060557,-0.076778,-0.141773,0.027401,-0.062675,-0.046416,-0.115423,-0.120403,-0.062677,-0.152172,0.084426,-0.131412,-0.01994,-0.145864,-0.07041,0.138571,-0.090013,0.143044,-0.117124,0.069693,-0.075925,0.164635,0.006571,-0.003279,-0.058238,-0.075451,0.135598,-0.068407,-0.031745,0.073817,-0.05123,0.142922,0.074804,0.019732,0.10334,-0.143848,-0.108199,-0.024149,-0.131172],[-0.0,0.159277,-0.036131,-0.040965,0.175124,-0.024551,-0.020718,-0.065331,0.129424,0.014171,0.077964,0.094305,-0.063421,-0.034843,0.146925,-0.026926,0.093973,0.119114,0.028656,0.120667,0.090352,0.101233,0.000427,-0.17491,-0.0,0.103561,-0.047927,0.088314,-0.059758,0.056233,-0.114752,0.058802,0.01422,-0.106337,-0.078497,0.220719,-0.022999,-0.111626,0.150633,0.058765,0.147004,-0.036362,-0.018539,0.126076,-0.005515,0.031234,-0.069175,-0.02205,-0.144899,-0.065245,-0.125344,-0.172471,0.145832,-0.006801,0.042383,0.099696,0.002765,-0.102798,0.068344,0.025396,0.072061,0.057472,0.157435,0.014035],[-0.0,-0.020351,-0.155575,0.11501,-0.135072,-0.135808,0.098282,-0.055098,-0.180076,-0.012463,0.123989,-0.113967,0.036048,-0.15479,-0.028785,0.214259,-0.129456,-0.001323,-0.13695,0.032119,0.000933,-0.010306,-0.031481,-0.101387,-0.013116,-0.106735,0.004848,0.071338,0.028708,-0.098739,0.120782,0.041859,0.107738,-0.016029,-0.137873,-0.085519,-0.002847,-0.159727,-0.137026,0.003876,0.041502,-0.009836,-0.0,-0.0,0.021171,0.099611,-0.070609,0.104462,0.022403,-0.024907,-0.054106,-0.002018,0.057099,0.028887,0.031485,0.016082,-0.142282,0.138235,-0.129546,-0.036899,-0.091877,-0.03935,-0.034732,0.208337],[0.0,-0.054477,0.003771,0.021046,0.103486,0.064043,-0.043701,-0.074264,-0.031211,-0.173994,-0.043351,-0.072179,0.147855,-0.186253,-0.022461,0.007395,-0.026578,-0.152996,0.14217,-0.002143,0.022467,-0.106361,0.118871,-0.058614,-0.009236,-0.06438,0.13281,-0.046399,-0.120392,0.014329,0.075317,-0.156784,0.039597,-0.130704,-0.181132,-0.08713,0.150056,-0.151926,-0.177183,-0.037276,0.122912,-0.076076,-0.039584,-0.176209,-0.037756,0.061352,0.032261,-0.068423,-0.086014,-0.102537,0.129412,-0.154998,0.103798,0.048189,0.156409,0.056626,0.01569,0.045028,-0.091172,0.048102,-0.019781,0.127304,0.065632,-0.059167],[0.0,0.13822,-0.176568,-0.005635,0.105332,0.017613,-0.007483,-0.104345,-0.0069,0.110152,-0.005687,-0.014932,-0.158878,-0.185231,0.099098,-0.049135,0.012434,-0.166884,0.041773,0.17474,0.010766,-0.155399,0.016062,0.057475,-0.009654,0.068554,0.012196,0.120724,0.032083,-0.126753,-0.082019,-0.089728,0.145557,0.084009,0.042385,-0.041919,-0.05591,0.071075,-0.035857,-0.115,0.017064,-0.185877,-0.072157,-0.027349,-0.143281,0.105495,-0.107696,-0.139039,-0.122837,0.102039,0.007003,0.003125,-0.186405,-0.167473,-0.027358,0.11819,0.110561,-0.127108,-0.00218,0.175611,-0.049819,0.072411,-0.143936,0.15499],[0.0,0.057668,0.043174,-0.086717,0.04923,-0.095117,-0.010718,0.05804,0.015784,0.137846,-0.122151,0.088083,0.06538,-0.167463,-0.010151,-0.079991,-0.079511,0.148707,0.033823,-0.0583,0.149432,-0.0501,0.207069,-0.062128,-0.000758,-0.019275,0.171527,-0.084273,-0.072581,0.095887,-0.053069,-0.058623,-0.03096,0.071036,-0.106031,0.027984,-0.121317,-0.026036,-0.130712,-0.071077,-0.050578,-0.154295,0.016426,0.119481,-0.139264,-0.01093,0.016861,-0.042457,0.054636,-0.040007,-0.10762,-0.186906,0.047249,0.046582,-0.148052,-0.072034,0.143904,-0.042467,-0.01241,0.079715,0.057413,0.030548,0.085365,0.114361],[-0.0,0.002138,-0.059617,0.180454,0.092427,-0.11819,0.148878,-0.022258,-0.152801,0.00353,-0.050488,0.114083,-0.125185,0.100277,-0.015307,-0.150135,0.139794,-0.01598,-0.093914,-0.002204,0.109506,-0.094846,-0.058189,-0.159164,-0.00868,0.100567,-0.008786,-0.071631,-0.130869,-0.092862,0.141219,-0.0498,0.158682,-0.014185,-0.141789,0.215753,-0.025666,0.057209,0.149627,-0.176832,-0.152999,0.048618,-0.092002,-0.126505,-0.180517,-0.095794,0.107659,-0.144402,-0.031184,0.041246,-0.02729,-0.186192,0.110093,-0.178989,0.080201,0.148719,-0.046425,0.035624,-0.022736,-0.04024,0.135841,0.17496,-0.079065,0.05063],[0.138552,0.179046,-0.011937,-0.011635,-0.032138,0.163827,-0.103077,0.012533,-0.062075,-0.090875,-0.051465,0.158245,-0.176025,0.013635,-0.152139,-0.087411,-0.047093,-0.018416,-0.102745,-0.072523,-0.162623,-0.088655,0.194737,0.127763,-0.009332,0.051793,0.111802,-0.154806,0.097946,0.129764,-0.15588,-0.113509,0.149881,0.001619,-0.193796,0.100166,-0.052587,0.051875,0.064532,0.156339,-0.092599,-0.015669,-0.000429,-0.048163,-0.133344,0.126654,0.145395,-0.015912,0.017586,-0.0802,0.044881,0.0501,0.002929,0.157834,0.027338,-0.067127,0.07624,-0.102525,-0.056264,-0.056266,-0.026948,0.038164,-0.019437,0.089093],[0.018374,-0.042792,0.094081,-0.083645,-0.06999,0.046221,-0.058223,-0.188194,0.046507,-0.008381,-0.03416,0.149159,0.007001,0.11386,-0.11439,-0.044416,0.108054,0.00969,0.058344,-0.053976,-0.159812,-0.02238,-0.029471,0.09943,-0.0,0.008197,0.130641,-0.022003,-0.063572,0.10161,0.169578,0.011981,-0.057419,0.006633,0.046317,0.00574,0.019256,-0.172517,-0.173102,-0.058515,-0.065123,-0.055275,-0.018279,-0.076001,-0.125314,0.041281,0.189802,-0.044535,-0.037071,0.013463,0.117773,-0.106436,0.081476,0.06515,0.025879,-0.097451,0.046827,-0.103831,0.020008,0.068331,-0.089972,-0.002079,-0.166725,0.062453],[-0.016851,-0.058979,-0.144966,0.175275,-0.109799,-0.106865,-0.065565,0.02781,0.04424,-0.145571,-0.090831,-0.108701,-0.11447,-0.04604,0.040311,-0.062314,-0.069179,-0.056792,0.150862,0.115122,0.089067,-0.102994,-0.168232,-0.09183,-0.005245,0.023686,0.073409,0.13408,0.109738,-0.064599,0.050329,-0.046194,-0.161669,0.067226,-0.19103,0.037394,0.004528,0.05124,0.076351,-0.086483,0.095972,-0.095942,-0.033304,0.066573,0.051305,0.171925,-0.077503,0.04249,0.022705,0.154318,-0.076801,0.070923,0.015733,-0.085861,-0.021652,-0.064634,0.009482,0.131533,0.010401,0.04769,0.003218,-0.08172,-0.108514,0.012712],[-0.066598,-0.060316,-0.013022,-0.059695,-0.030577,-0.008796,-0.029057,0.135614,0.090719,0.060125,-0.156229,0.082046,0.095772,0.080758,-0.087613,0.099142,0.096669,0.006218,0.033718,-0.043753,-0.005062,-0.173513,0.046289,-0.174302,-0.000552,-0.041733,-0.016811,-0.073099,0.056073,0.082272,-0.121804,-0.02863,-0.127073,0.132606,-0.007819,0.018445,-0.072463,0.038185,0.113995,0.095878,0.033456,-0.164982,-0.144955,-0.173148,-0.101714,0.041163,-0.045661,-0.055129,0.138054,-0.008538,0.120529,0.055907,-0.137501,0.069101,-0.089372,0.09941,-0.072465,0.149827,-0.097655,-0.111594,0.143426,0.127753,0.062378,0.069957],[0.105827,0.172216,0.148797,-0.145868,0.113137,0.060978,0.095331,-0.147327,0.049836,0.156662,0.123179,-0.040985,-0.183017,-0.063145,0.083972,0.098126,-0.038545,-0.178256,-0.045879,0.000162,0.134439,0.020639,-0.037545,-0.023179,-0.010957,0.138291,-0.040176,0.006468,-0.063514,0.043125,0.041124,0.084264,-0.096024,-0.073863,-0.157438,0.056547,-0.176415,0.016815,0.108855,0.118077,-0.034887,-0.041896,-0.16383,0.043519,0.094972,-0.020154,-0.012614,0.101892,0.112784,-0.076673,0.018037,-0.126981,-0.14372,0.128285,0.098782,0.103065,-0.180317,0.128167,-0.037624,-0.067945,0.014121,-0.041394,0.070948,0.018972],[-0.0,-0.066156,-0.126897,-0.097014,0.048403,0.022424,-0.096827,-0.155222,-0.037973,0.095014,-0.078837,-0.066731,0.01905,-0.095028,-0.075647,0.230605,0.029258,0.022025,0.067167,-0.248144,-0.114695,-0.051487,-0.154675,-0.149918,-0.000612,-0.006372,-0.009037,-0.032814,-0.110321,-0.187066,0.096564,-0.028788,0.04584,0.077062,0.040325,0.268071,-0.075651,0.0708,0.097886,-0.056178,0.040047,-0.079556,0.13943,-0.172136,0.011096,-0.016721,0.012991,-0.065289,-0.112195,-0.159668,-0.003397,-0.115035,-0.079573,0.0,0.039278,0.105514,-0.144212,0.015527,-0.110074,-0.089278,0.063345,0.146868,0.066635,-0.079724],[0.0,-0.015727,0.152869,-0.062707,-0.056238,-0.045029,-0.073277,-0.10169,0.041643,-0.089498,0.122884,-0.152764,0.038533,0.129019,-0.022729,0.137687,-0.032375,0.134455,0.044295,-0.129036,-0.119339,-0.062372,-0.022138,-0.15086,-0.0,-0.115949,0.048621,-0.037686,-0.139853,0.008451,-0.104674,-0.081009,-0.106503,0.12806,0.088431,0.047684,0.040308,-4.1e-05,0.046561,0.044704,0.032436,-0.057044,-0.157614,-0.027306,0.121774,-0.002756,0.124732,0.155228,-0.132567,0.028869,0.065245,0.144343,0.166826,0.047212,-0.095075,0.0797,-0.153,0.124458,0.130069,-0.062,0.037815,-0.074396,-0.034291,-0.100157],[0.0,0.141494,0.13967,-0.10772,0.104514,0.075601,-0.002953,-0.166244,-0.068116,0.132456,0.029669,0.062186,-0.099601,0.063342,-0.130312,-0.04312,0.030612,-0.130611,0.097949,0.030481,0.037732,-0.039596,-0.029808,-0.168642,-0.0,0.163347,-0.036485,0.07961,0.163638,-0.113534,-0.096585,0.057651,0.149584,0.138489,-0.014333,-0.057094,-0.101112,0.151457,0.148302,-0.134523,-0.084235,-0.151304,-0.082763,0.09514,-0.059849,-0.074122,-0.043687,0.154337,0.031731,-0.010456,-0.121774,0.15486,0.101018,-0.087181,-0.144589,-0.107997,-0.14772,-0.002639,0.13868,-0.021319,0.112581,0.064816,0.053877,0.039372],[-0.0,-0.02233,0.029416,-0.160843,-0.05591,0.016709,0.131683,-0.024964,0.134156,-0.037617,0.082733,0.013385,0.119408,-0.046252,0.000536,0.057606,-0.051543,-0.144345,-0.162783,-0.076384,0.114432,-0.1121,-0.093654,0.049776,-0.006411,0.016762,-0.152588,0.148158,0.111103,0.08715,-0.051629,0.118476,-0.137511,-0.17538,-0.189526,-0.019661,0.00887,-0.012603,-0.193744,-0.04701,0.058891,-0.048689,0.062534,-0.109814,0.092252,-0.002088,-0.087218,-0.108012,0.030988,0.127122,0.007098,-0.105854,0.123151,0.04168,-0.031099,0.028985,-0.122142,0.052412,-0.064955,0.16814,-0.009725,0.02237,0.005025,0.095929],[-0.0,0.025919,0.06481,0.023309,-0.007958,-0.068089,-0.067891,-0.103296,0.163387,-0.066358,0.144929,-0.001115,0.035137,0.003559,-0.117163,-0.08925,-0.148318,0.02373,-0.033222,0.055929,-0.104822,-0.100806,-0.023294,0.127202,-0.0,-0.135482,0.004497,-0.114595,0.159191,0.035112,-0.074323,0.073905,-0.106708,0.154546,-0.111227,0.030244,-0.066006,0.062535,0.082464,0.037601,0.028595,0.114336,-0.076806,-0.072034,-0.103095,0.064679,-0.008416,0.045635,0.049977,-0.021235,0.001887,-0.089163,-0.021981,-0.019271,-0.0,0.205827,0.147335,-0.005145,-0.070043,-0.212193,0.040092,0.121827,-0.111017,-0.096543],[0.090175,0.055485,-0.175325,0.043274,-0.094512,0.010953,0.057352,0.094041,-0.02973,0.143736,-0.051189,0.077694,-0.027047,0.126238,0.068378,-0.073607,0.12948,0.09405,0.083599,-0.014649,0.090285,0.093709,-0.009597,0.130124,-0.002267,-0.112269,0.059636,0.028157,0.039919,-0.178514,0.151378,-0.118606,-0.12131,-0.16824,0.005478,0.108828,0.036361,0.097555,-0.188628,-0.003768,-0.0289,-0.019463,-0.161689,0.049768,-0.015394,-0.004418,0.014413,-0.137917,0.036752,-0.068721,0.128032,0.023172,-0.109807,0.149269,-0.006804,-0.063535,0.027471,-0.045979,0.091779,0.077399,0.170768,0.02955,-0.02346,0.127921],[-0.0,0.046896,-0.005304,-0.138295,-0.005713,0.158842,0.143813,-0.161047,-0.065945,-0.098838,0.107956,-0.148471,0.050427,-0.156235,0.05789,-0.006226,0.075598,-0.112135,0.025334,-0.036932,0.060207,0.094632,-0.008264,0.09246,-0.016532,0.022617,-0.047492,-0.05306,0.057887,0.041774,-0.150574,0.009519,0.136718,0.143591,-0.03436,0.092275,0.014354,-0.055362,0.10177,-0.023068,-0.035528,-0.027313,0.102618,0.100321,-0.052887,-0.000485,0.037702,0.009281,-0.114809,0.105449,0.025725,-0.082978,-0.143709,-0.100365,0.142839,-0.028341,-0.133907,0.010023,-0.084953,-0.160347,-0.067366,-0.053439,0.001498,-0.104542],[-0.02585,0.181511,-0.061283,-0.102304,-0.07743,0.011451,0.088572,-0.119253,0.099677,-0.182473,-0.048383,0.079386,-0.069464,0.007517,-0.112426,0.038266,-0.180862,0.101469,-0.126677,0.153494,-0.069228,0.049351,-0.06814,0.111696,-0.009362,-0.1534,0.022878,-0.127279,-0.119475,0.120095,0.151248,-0.030301,0.135321,0.012721,-0.102802,-0.0194,0.034964,0.154519,-0.099243,0.040859,-0.175646,-0.158916,-0.177994,0.159388,0.088108,0.135412,0.023357,-0.087205,-0.142909,-0.034652,0.015689,0.069056,0.005573,-0.161117,-0.179049,-0.090149,-0.047492,0.173967,0.031779,0.073591,-0.015475,0.012143,-0.155603,0.070334],[-0.0,-0.065485,-0.01519,-0.051188,0.030184,0.162399,-0.036268,-0.001892,-0.090361,-0.166024,-0.135076,-0.183572,0.060324,0.061807,-0.152969,0.097352,-0.151245,-0.086918,-0.114165,-0.019867,-0.100122,-0.007276,-0.043288,0.130733,-0.011818,-0.088085,-0.158379,-0.006899,-0.166656,0.037189,-0.003658,0.023067,0.011858,-0.121634,-0.140426,-0.002679,0.019765,-0.120719,-0.161995,0.14422,-0.187763,0.077349,0.085031,-0.08567,-0.148259,-0.059655,0.063406,0.03734,0.078011,0.082831,0.044923,-0.151305,-0.080348,0.10633,-0.106728,-0.037512,0.035665,-0.036377,0.132467,0.06333,-0.151023,0.102133,-0.108235,-0.081175],[0.0,-0.053771,-0.023707,-0.190392,0.033429,0.000351,0.071517,0.091616,-0.025549,-0.055373,-0.071174,-0.136213,0.060749,0.057515,-0.122568,0.088709,-0.152434,0.0296,-0.149236,0.061876,0.090762,-0.035532,0.038373,0.116419,-0.002417,-0.039572,-0.058274,0.088514,0.041756,-0.037327,0.094918,0.045191,0.162033,-0.091143,-0.011251,0.154463,0.006241,0.020545,-0.133932,0.084217,0.050976,-0.116252,-0.02541,-0.111523,-0.073825,-0.036866,-0.099754,0.017087,0.017767,0.03278,0.100588,-0.113986,-0.110301,0.088447,-0.063012,0.069748,0.0942,-0.054474,0.153971,-0.14921,-0.052159,0.225793,-0.061946,0.197674],[-0.150359,0.036348,0.01512,0.033111,-0.071231,-0.035864,0.08181,-0.123095,0.058344,0.00919,0.077507,0.058438,-0.116835,0.00961,0.121327,-0.084986,0.142326,-0.03636,-0.143334,-0.024287,0.142755,-0.08732,0.155484,0.10607,-4e-06,-0.099054,0.033861,-0.040048,0.086942,-0.055136,-0.015859,0.0847,-0.055157,-0.02443,-0.06616,0.062163,-0.002305,0.092512,-0.064479,-0.009564,0.047063,-0.103132,-0.091483,0.138524,0.061769,-0.002576,0.073625,-0.179418,0.025002,0.014335,0.037446,-0.067387,-0.148532,-0.114803,0.144356,-0.009305,-0.027928,-0.117679,-0.17775,0.05494,0.004115,-0.080217,-0.095886,0.057869],[-0.118808,-0.026038,-0.029679,-0.103703,-0.015446,0.050869,0.084418,0.098187,0.00844,-0.164285,-0.096364,0.151385,0.01296,0.059535,-0.147022,0.009981,-0.181775,0.005664,0.12988,0.011602,-0.003277,-0.027617,0.053364,0.029474,0.0,-0.012067,-0.092333,-0.021605,-0.026662,0.004085,-0.06301,-0.023636,0.004034,0.107531,0.042659,-0.030489,0.134737,0.128823,-0.122483,-0.179679,0.061213,0.091939,0.150874,0.122058,0.018509,-0.025728,-0.139504,-0.103246,-0.030344,0.004656,0.060999,0.069601,-0.076185,0.008054,-0.1512,0.06273,0.066123,0.040371,0.156822,-0.091104,0.007471,0.036389,-0.034494,0.128859],[-0.0,0.082202,-0.116768,0.112682,-0.143818,0.063086,0.027007,-0.084891,-0.024334,0.141017,-0.176165,-0.067835,0.099362,-0.052764,-0.105449,0.035386,-0.059854,0.112951,0.066098,0.05085,0.158586,-0.035277,-0.117211,-0.108341,0.0,-0.026992,0.046173,0.031752,-0.088887,0.010816,0.067684,0.000508,0.108078,-0.021955,0.051779,0.115471,0.010079,-0.146697,-0.153619,0.003944,-0.094447,-0.184579,0.060163,-0.177195,0.013908,-0.051641,0.172567,-0.020805,-0.176967,0.007795,0.055881,0.154766,-0.031626,-0.061151,0.113307,-0.142816,0.01875,-0.013667,-0.178008,-0.008835,-0.088092,0.000277,0.137027,-0.056677],[0.096392,-0.084187,0.001903,-0.109974,0.139004,0.124571,-0.037729,0.09907,-0.00341,0.152435,0.056552,0.131077,-0.006148,-0.147652,0.006155,-0.080768,0.019642,-0.020401,0.024867,-0.045674,-0.119598,-0.022396,0.178764,-0.063105,-0.0,0.010617,-0.056427,-0.055012,-0.041244,-0.108739,0.159611,-0.026389,-0.047631,-0.156839,-0.116492,-0.050186,-0.020337,-0.161538,-0.024009,-0.186052,-0.162195,0.093606,0.081316,0.131504,0.109257,0.005661,-0.113744,0.086673,0.109202,0.068758,-0.014949,-0.109982,0.114413,0.06518,0.148811,0.063177,-0.112079,-0.058686,0.087729,-0.11894,-0.130883,0.029983,-0.171886,0.096026],[-0.044929,0.162519,0.004439,0.179828,0.185831,-0.146164,-0.039056,-0.103768,0.168204,0.123318,-0.029555,0.018873,-0.122777,0.093576,0.113293,0.007616,-0.022699,-0.162259,0.00195,-0.135085,-0.140829,-0.042845,0.017927,-0.017355,-0.00227,-0.019502,0.107731,0.043585,-0.05884,-0.176471,0.083773,0.080389,-0.092804,-0.062577,-0.136797,0.139471,-0.086381,-0.067062,0.053619,0.003323,-0.055143,-0.037516,0.004277,-0.18757,-0.165427,0.143455,-0.103895,0.058044,0.13128,-0.006481,-0.013285,0.005788,0.133083,0.144373,0.070791,-0.06661,0.044916,0.011611,-0.024428,-0.142851,-0.110552,-0.016738,-0.022421,-0.119185],[-0.041963,0.125589,0.072634,-0.065102,-0.094436,-0.109504,0.136425,0.012049,0.024591,0.021034,-0.060132,0.091971,-0.008615,-0.149837,-0.10757,-0.023904,0.129936,-0.084249,0.111438,0.079283,-0.104646,-0.171738,-0.116041,0.053422,-0.004836,-0.024378,-0.04515,0.104862,-0.147207,-0.047681,-0.018454,-0.008383,0.110907,-0.123541,0.084413,0.022771,0.042987,0.052994,-0.046739,-0.142932,0.046227,-0.007971,0.035083,-0.070544,0.12638,0.046089,-0.139074,-0.032126,0.069806,0.090746,0.009773,0.116779,-0.092914,-0.038707,0.126897,0.083927,0.04931,0.128042,-0.158722,0.099031,-0.068708,-0.077006,-0.105036,-0.092365],[-0.087841,-0.029333,-0.143285,-0.042373,-0.022253,-0.022023,-0.071808,0.071598,0.114001,0.077651,-0.077013,0.06698,-0.144789,-0.143603,-0.076401,0.142178,-0.115256,-0.168889,-0.147037,0.066065,0.030103,-0.110241,0.026824,-0.014847,-0.003329,-0.1204,0.09148,-0.070434,0.056104,-0.176782,-0.059346,-0.025763,0.012614,-0.166505,0.074196,-0.058646,0.079919,0.090481,0.005193,0.065878,0.036488,-0.07318,0.091881,-0.08528,0.008763,0.075341,-0.032568,-0.081334,-0.030673,0.090001,0.11515,-0.000735,0.050444,0.126113,-0.151669,-0.036666,0.054639,0.112641,0.11213,-0.03536,-0.148718,0.037612,-0.11004,-0.065063],[0.084479,-0.110121,0.103251,-0.031243,0.022091,-0.101447,-0.095689,-0.16023,0.08932,0.096056,-0.028247,-0.111782,0.141101,-0.068786,-0.151592,-0.066235,0.135166,-0.193008,-0.10919,-0.069214,-0.131695,-0.145251,0.066389,0.104914,-0.0016,0.100267,0.085004,-0.075979,0.162475,-0.062337,-0.088901,0.06998,-0.067866,-0.147553,-0.194938,0.015108,0.036931,0.009729,0.159933,-0.087854,-0.094722,-0.131897,-0.129292,-0.0891,0.086135,0.112866,0.182499,-0.108469,0.114386,-0.036991,-0.042371,0.112943,0.049231,-0.106422,-0.034828,-0.038084,0.069029,0.03033,0.157858,-0.140392,-0.051883,0.036595,-0.013873,-0.075629],[0.069004,0.123174,0.131691,0.071399,0.082737,0.039909,0.125511,-0.088957,-0.053212,-0.078082,-0.035302,-0.093249,0.127546,-0.082009,-0.132302,-0.005015,-0.175704,-0.150121,-0.12005,-0.011799,-0.040741,0.075836,0.104677,-0.065952,-0.006864,-0.117701,0.052079,-0.105188,-0.183154,0.051587,-0.022964,-0.08766,-0.102536,0.138333,0.100292,-0.012404,-0.011452,-0.013622,0.136895,0.143576,-0.122409,0.077551,-0.1189,-0.115758,0.041845,0.004415,0.153779,-0.159418,-0.019283,0.124232,0.100742,-0.143957,-0.054398,0.035279,-0.126388,0.188635,0.122889,-0.094391,-0.150469,-0.090741,0.141899,-0.03345,-0.040366,-0.016545],[0.0,-0.121598,-0.109675,0.174689,0.13357,0.086154,-0.061395,-0.073811,0.028491,-0.090222,0.125724,0.030689,-0.164525,0.129538,0.153038,-0.088812,-0.000839,-0.075439,-0.053256,-0.051069,0.012684,0.139329,0.175621,-0.164718,-0.0,-0.006357,0.089176,0.000794,-0.120149,-0.119597,0.092077,-0.092451,0.085231,-0.086211,-0.078701,-0.000666,0.230918,0.137675,-0.11833,-0.036341,-0.13585,-0.010907,-0.026413,0.126248,0.135556,0.004766,0.055503,0.126637,0.095206,-0.094182,0.032606,-0.0421,-0.077053,-0.085334,-0.169578,0.081016,-0.101461,-0.134877,-0.10812,0.092609,0.121877,0.026697,-0.032237,0.178683],[-0.09174,-0.088197,-0.093749,-0.112506,-0.05306,0.130084,0.007022,-0.047418,0.107055,-0.172916,-0.122417,0.002221,0.016191,-0.177777,-0.054775,0.023547,0.042607,0.024469,-0.082604,-0.104738,-0.042035,-0.143162,0.16154,-0.042574,-0.006228,0.077241,-0.016658,-0.050153,0.096466,0.116625,0.046769,-0.152388,0.011575,0.083336,-0.153044,0.002521,0.128071,-0.187108,0.066086,-0.028426,-0.034513,-0.197057,0.097767,-0.065548,-0.004607,0.022218,0.082742,0.142421,-0.010674,-0.014735,0.198198,0.029801,-0.079795,-0.140769,0.107806,-0.053336,0.029237,0.000215,-0.122415,0.019082,-0.167457,0.031124,-0.001841,-0.012314],[0.072187,0.128404,0.075487,-0.173389,-0.101579,-0.019697,0.054584,0.104868,-0.002639,-0.081476,-0.045019,-0.028944,-0.133302,-0.180291,0.132998,-0.134172,-0.109814,-0.166201,0.128081,-0.025349,0.042801,0.126345,-0.048641,0.017223,-1e-06,0.054166,0.141473,0.047774,-0.061927,-0.061157,-0.005263,-0.200846,-0.109211,-0.109364,-0.107895,0.17774,-0.06302,-0.124054,-0.021582,0.106776,-0.102103,-0.167987,-0.055763,0.07188,-0.000769,0.026923,0.134525,0.085533,0.024218,-0.009852,-0.12074,0.147831,-0.040443,-0.108913,0.045226,-0.082279,0.013029,0.037656,-0.03589,0.108424,-0.082839,0.09718,-0.006591,0.07752],[0.034893,-0.008495,0.036074,-0.083725,0.157761,0.061685,0.054565,-0.18372,-0.040892,-0.017536,0.117976,-0.006404,0.1394,-0.020119,0.049037,-0.088627,0.08702,-0.106963,0.123425,0.024499,0.138215,-0.013983,0.135852,0.071865,-0.004262,-0.023358,-0.042316,0.046922,-0.132778,-0.144126,-0.061036,-0.01249,0.030108,-0.140039,-0.018654,-0.095327,0.001709,0.031676,0.005655,0.064654,-0.077033,0.076372,-0.038152,-0.019709,0.035306,-0.1571,0.072876,0.028418,-0.081218,-0.021613,-0.067268,0.133716,0.072685,-0.138693,-0.064958,0.067349,0.103378,-0.087707,-0.106181,0.117409,-0.161322,0.009995,0.147013,0.00576],[-0.072879,-0.125088,-0.18175,-0.057893,0.109602,-0.017495,0.04449,0.131656,-0.044366,-0.121938,-0.009116,0.125623,0.091659,-0.167137,0.087368,0.014114,0.119194,-0.15014,-0.007209,0.061186,-0.048142,-0.033116,-0.103818,-0.103052,-0.0062,0.172035,-0.09746,0.009745,0.048654,-0.132661,-0.016612,0.099763,0.125971,0.03587,0.032309,-0.102926,0.131765,-0.145528,0.078256,-0.100064,0.135328,0.050717,0.075423,-0.114177,-0.037096,0.008364,0.114264,-0.152864,0.144408,0.14332,-0.067809,0.094019,-0.005167,-0.026962,-0.076488,0.060194,0.062301,-0.015408,0.030365,0.078717,0.068506,-0.120785,0.114331,-0.061391],[-0.083443,-0.074045,-0.028125,0.111453,-0.013868,0.013117,-0.077482,-0.024119,0.116464,0.081447,-0.12086,-0.020703,-0.112591,-0.045935,0.069765,0.090071,-0.118359,0.123698,0.009333,-0.003234,-0.016214,0.016281,0.00212,-0.036337,-0.0,0.05627,0.025936,-0.039442,-0.140396,0.065168,0.131889,0.095576,-0.044892,-0.131912,-0.012498,0.000642,0.126431,-0.127809,-0.106539,-0.052865,-0.055105,0.076916,-0.021567,-0.133941,-0.100594,0.074007,-0.098723,0.019001,0.002972,0.032315,0.141555,0.125514,0.151894,-0.096909,-0.138843,0.005887,0.117784,0.142391,0.111247,-0.159745,0.15231,0.039948,-0.188728,-0.007977],[-0.144195,0.08503,-0.079219,-0.025709,-0.015148,0.09811,-0.037146,-0.040844,0.064303,0.126266,-0.150623,-0.009379,-0.090414,-0.176146,-0.004572,0.067331,-0.140619,0.088189,0.10174,0.107352,-0.101397,0.127461,-0.035966,-0.021746,-0.000988,-0.042704,0.071262,0.010504,-0.097022,-0.117453,0.039442,-0.105966,0.08998,-0.151485,-0.109716,-0.011657,0.073328,-0.072178,-0.087575,0.141893,0.038956,-0.147577,-0.029377,0.115595,-0.08909,-0.16743,0.111629,0.015631,0.009667,-0.124112,-0.0159,0.025927,-0.103759,0.00158,0.003126,-0.058591,0.138594,0.093716,0.062055,-0.10362,-0.142137,0.063804,-0.132514,0.176141],[-0.121294,0.000294,-0.064036,0.050287,-0.076598,-0.013289,-0.003245,0.118302,-0.10015,0.131526,0.097317,-0.086593,0.080095,-0.180671,0.135257,0.037801,-0.09535,-0.069586,-0.174083,0.14737,-0.180399,0.026461,0.030096,0.123305,-0.010053,0.04163,0.033851,0.090077,-0.164306,-0.128394,-0.118969,0.083093,-0.104376,0.012607,-0.122442,0.135688,0.127596,-0.011879,-0.069751,-0.112863,-0.175347,-0.106369,0.037996,-0.006009,0.138241,0.002303,0.102646,-0.021423,-0.017814,-0.045667,0.009411,-0.030496,0.065344,0.131692,-0.071323,-0.155438,-0.014522,0.017821,-0.132984,0.03941,0.169687,0.126099,-0.130664,0.075025],[-0.0,-0.003226,-0.002423,0.152352,-0.011365,-0.022421,0.017551,0.013405,-0.082588,0.127325,0.046205,0.029011,-0.152475,0.022418,-0.161479,-0.043118,-0.006364,-0.046306,0.011276,-0.021842,-0.041172,-0.12993,0.189041,-0.0048,0.0,-0.007533,-0.10746,0.156937,-0.08355,-0.018978,0.049937,-0.151514,0.103996,-0.002178,-0.091359,-0.201716,-0.115797,0.123476,0.047688,-0.100573,-0.167746,0.053038,0.016946,-0.047421,-0.063299,-0.110457,0.081523,0.149242,-0.127521,0.072173,-0.01228,-0.032972,-0.083263,0.092415,-0.016604,0.052217,-0.085335,-0.101307,-0.157236,0.06673,-0.097739,0.13788,-0.048579,-0.042791],[-0.012781,0.002744,-0.158371,-0.036723,0.076876,0.071011,-0.066469,-0.029665,0.000503,-0.114233,-0.190353,0.119196,-0.11941,-0.111212,-0.026554,-0.073755,0.028601,-0.136066,-0.148394,0.008688,-0.073074,0.045475,0.110126,-0.116485,-0.007636,-0.033854,-0.025091,-0.017589,-0.09309,-0.013433,0.110479,0.145056,0.017463,-0.042486,-0.115787,-0.017799,-0.063456,-0.065222,0.121717,-0.058113,-0.063553,-0.063074,0.100263,0.037513,0.02063,-0.048544,0.139928,-0.179755,0.100009,0.011122,-0.007485,-0.023656,0.064907,-0.169838,0.124254,-0.031246,-0.078844,-0.107512,-0.03775,-0.004074,-0.023324,-0.003781,-0.050389,0.050795],[0.025604,0.125545,-0.155516,-0.007205,-0.017735,0.020852,0.114216,-0.164807,-0.10883,0.10922,-0.123578,0.040682,-0.000189,0.102818,-0.179702,-0.100677,-0.004599,0.133599,-0.050195,-0.019975,0.020889,0.127339,0.08617,0.14342,-0.007955,-0.141445,0.019448,0.105976,-0.087436,-0.095347,0.0815,-0.131683,-0.061667,-0.006469,0.001962,0.168231,-0.032753,0.02156,0.009055,-0.002611,0.026615,-0.104277,-0.158358,-0.15042,-0.115447,-0.043547,0.126959,0.053532,0.083599,-0.04549,0.005542,-0.054778,-0.113424,-0.154863,0.01851,0.143703,-0.139121,-0.164857,0.083644,-0.111956,0.113034,0.071632,0.135086,0.004594],[0.0,-0.006334,0.030268,-0.019855,-0.076907,0.019035,0.009141,0.094871,0.07677,0.045325,-0.152174,0.061728,-0.020515,0.125577,0.095527,0.005689,0.090124,-0.176441,-0.064573,0.046749,-0.138948,0.063741,-0.10195,-0.143665,0.0,-0.045076,0.093067,0.080574,0.048913,-0.038061,-0.178708,-0.147756,0.016568,0.055131,-0.047809,0.062708,-0.001569,-0.164209,-0.126021,0.102681,0.064534,0.119559,-0.135684,0.155923,-0.119656,-0.093167,0.187815,-0.089366,0.043269,-0.078811,0.048802,0.125559,-0.065987,0.043522,-0.116119,0.006841,-0.073883,-0.058497,-0.080712,-0.102914,0.135433,0.032977,-0.096292,0.036468],[-0.055101,0.012657,0.148366,-0.003591,0.02308,0.022263,-0.083291,0.052733,-0.022664,0.038854,0.11903,-0.039924,0.122013,0.074184,-0.046479,0.041319,-0.076993,0.152285,0.038773,0.009924,-0.077352,0.014682,-0.027699,-0.193572,0.0,-0.091677,0.029634,-0.055459,-0.128462,0.075208,-0.000996,-0.083781,-0.066029,0.026215,-0.164863,0.029848,-0.022579,0.09338,0.068548,0.071484,0.061704,0.034272,-0.020129,0.034549,-0.17923,-0.001982,0.103771,-0.011841,-0.064142,-0.038143,0.017543,0.052101,0.122371,-0.06402,0.081207,0.004081,0.120402,0.004899,-0.008391,0.010083,0.087062,0.08861,-0.157813,-0.177061],[0.0,0.051102,0.025812,-0.024014,-0.051659,0.063611,0.091687,-0.079842,-0.061157,0.105518,-0.168111,0.117832,-0.099331,0.019801,0.114017,0.037367,-0.04678,0.048296,-0.072381,0.021673,0.15886,0.066026,-0.041816,-0.074894,-0.0,-0.106374,-0.064456,0.06803,0.002716,0.090947,-0.166986,-0.06634,-0.091018,-0.022711,-0.168943,0.03143,-0.054259,0.133329,-0.047009,0.154575,0.00777,0.125784,-0.175913,0.072698,0.125827,-0.062616,-0.119988,-0.036679,0.140465,-0.006631,0.065177,-0.140767,-0.167841,0.092012,-0.150694,0.054577,0.130574,-0.090793,0.045028,-0.096607,0.036638,-0.080086,0.074791,-0.071805],[-0.017606,0.039177,-0.135091,0.063205,-0.082369,0.051957,-0.070348,0.050529,-0.081408,-0.03948,-0.104307,0.068222,-0.108975,0.119423,0.164166,-0.072647,0.020999,-0.153913,-0.058026,0.12251,0.038932,0.024724,-0.059002,-0.083351,-0.006861,0.045885,0.003644,0.127129,-0.099275,-0.087636,-0.077786,-0.142138,-0.035828,0.091448,0.117201,0.002323,-0.018285,-0.18578,0.109989,-0.185353,0.128659,-0.02573,-0.066275,0.134638,-0.18573,0.060178,0.054239,-0.112684,-0.045242,0.074279,0.079913,-0.192936,0.152215,-0.106923,-0.094635,-0.040564,-0.179074,-0.134827,0.154714,-0.095197,-0.123383,-0.109106,0.059652,0.080227],[-0.067829,-0.138649,-0.112842,-0.146262,-0.085072,-0.000711,-0.041762,-0.009692,-0.035761,0.142184,0.122629,0.007198,-0.066611,-0.056139,-0.057445,0.09052,-0.038105,0.105618,0.138659,-0.020811,0.004459,-0.154841,-0.112741,-0.057012,-0.014116,0.136627,-0.134841,0.002624,0.026174,0.047343,-0.053829,0.127023,0.024549,-0.018695,-0.169248,-0.038803,0.123293,0.023718,0.100104,-0.019283,-0.151202,-0.195036,-0.084829,0.054672,0.08516,0.043429,0.023394,-0.042798,-0.048224,-0.064604,-0.051626,-0.121079,-0.154213,-0.117611,-0.180318,0.020327,-0.083473,0.176789,-0.122872,-0.064687,-0.044679,-0.022572,0.101683,-0.133866],[0.0,0.138132,0.001699,-0.002332,0.029927,-0.004101,0.045285,-0.175348,-0.063804,-0.028111,-1.6e-05,0.120358,-0.160019,0.099573,-0.129505,-0.034564,-0.07035,-0.030543,-0.140274,0.031528,0.092018,-0.028158,0.012537,0.088775,-0.0,0.085578,-0.057506,0.130704,0.014314,-0.092929,-0.090634,0.0598,-0.130608,0.155955,-0.137771,-0.018144,-0.124726,-0.019537,0.120165,-0.037973,-0.000671,-0.125951,-0.167383,-0.102532,0.047027,-0.069731,-0.138466,-0.04411,0.034617,0.07768,-0.128014,-0.158155,0.144098,-0.065761,0.096706,0.104126,0.080481,-0.112736,0.097064,0.064404,0.033607,-0.17413,-0.095088,-0.163886],[0.0,0.020939,-0.065627,0.045328,-0.04887,0.149507,0.033397,-0.134718,0.007399,-0.138253,0.015891,0.057444,0.116875,-0.09232,0.165349,-0.038,0.010102,-0.142075,0.112655,0.132289,0.040924,0.083057,-0.052467,-0.189736,-0.002876,-0.085331,-0.045668,-0.001704,0.020088,-0.140654,-0.097901,-0.007063,-0.042216,0.127594,0.134094,0.043039,-0.027263,0.123231,-0.017761,-0.123479,0.092805,0.059957,0.067887,0.05658,-0.122569,-0.080765,0.025839,-0.105562,-0.03941,0.034489,0.04786,-0.047635,0.084985,0.097177,0.043622,-0.07708,-0.116989,-0.098666,-0.153435,-0.07059,-0.104874,0.011751,0.120338,-0.141154],[0.060132,0.070398,-0.160593,0.143848,0.016537,-0.029825,0.044523,-0.100648,0.031087,-0.174464,0.102937,-0.037086,0.028066,-0.112456,0.052296,0.046936,-0.024759,0.021386,-0.034235,0.167055,-0.017108,0.095241,0.092605,-0.055678,0.0,-0.110415,0.108913,-0.068989,-0.003999,0.07862,-0.048989,0.050003,-0.088117,-0.138821,0.084984,-0.325923,-0.107983,0.110966,-0.070925,0.146741,0.152978,-0.091631,-0.164829,0.056701,-0.034833,-0.11625,0.075407,-0.171318,0.116889,-0.102319,-0.099637,-0.129845,0.169176,0.06152,0.091113,-0.054166,-0.073774,-0.073051,-0.022343,0.013438,0.04054,-0.012143,0.150691,-0.09097],[0.147661,-0.161425,-0.02123,-0.033488,0.024713,0.002163,0.045247,-0.045263,0.126701,0.052184,0.100646,-0.103474,0.026061,0.01655,-0.024438,0.03145,-0.085183,-0.146822,-0.118049,-0.103844,0.048658,0.027296,0.150144,0.050821,-0.006397,0.134014,0.057464,-0.013438,0.01888,0.132383,-0.001799,0.141996,-0.198637,-0.110006,-0.03884,-0.003084,0.069537,0.156164,-0.054648,-0.173104,0.082181,0.015571,-0.117527,-0.017905,0.069413,0.152126,0.023154,-0.083998,0.151867,0.006833,-0.047764,-0.091377,0.081322,-0.102889,-0.116321,0.023835,-0.092045,0.047962,-0.149142,0.04276,-0.071329,-0.171665,-0.14963,0.11392],[0.110508,-0.06991,0.078407,0.070058,0.164938,-0.000308,-0.010019,-0.169778,0.006751,0.146949,-0.012366,-0.096111,-0.165663,0.055558,0.013841,-0.051415,0.132969,-0.183177,-0.089483,0.186983,-0.07725,-0.112905,0.027154,0.088419,-0.008974,0.137505,0.052375,-0.042496,0.060904,-0.099306,-0.051363,0.086407,0.156643,-0.135057,-0.058687,0.019517,-0.062783,-0.06532,-0.174653,0.045481,-0.063216,-0.109632,0.093135,0.090747,-0.023669,-0.007645,0.060821,-0.086842,-0.116063,0.101165,-0.142042,-0.162298,-0.153401,-0.118933,-0.138355,0.126167,-0.100516,-0.114947,-0.108526,0.081975,0.014874,-0.048366,0.114125,-0.036251],[-0.0,-0.081293,-0.061693,-0.036502,0.043905,-0.046208,-0.033529,-0.168942,-0.079258,-0.044644,0.130037,-0.065807,0.037104,-0.101949,-0.124955,-0.100858,-0.090919,-0.131676,-0.136159,0.16039,-0.176442,-0.010219,-0.020279,-0.031755,-0.004645,0.052865,-0.051956,0.089343,0.117009,-0.171951,-0.154225,0.149562,-0.069559,0.026295,-0.076059,-0.072624,0.007706,-0.006905,-0.122234,-0.036088,0.084148,0.007928,-0.154805,-0.000239,0.052441,0.110659,0.053035,-0.135427,0.04819,0.092322,-0.102998,-0.058465,-0.048184,0.043842,-0.097765,0.029136,0.106929,0.096304,0.129225,0.132732,-0.175792,0.106456,-0.049242,0.083468],[-0.074826,0.164699,0.017657,0.078222,-0.158195,-0.094556,0.035103,-0.185192,0.139272,-0.185578,0.034667,-0.064976,0.007916,0.052838,-0.052132,-0.105958,-0.176081,0.01028,-0.016105,0.109205,-0.012782,-0.058534,0.005137,-0.193955,-0.005323,0.125151,0.140417,-0.037935,0.017303,0.123044,-0.034555,-0.164853,-0.122332,-0.009822,0.132765,0.1529,-0.083761,-0.126411,0.067959,0.101874,0.018343,0.023514,-0.180413,0.099115,0.083182,-0.115854,0.068371,-0.116004,-0.18125,-0.068164,-0.082993,-0.078281,-0.035861,-0.006974,-0.013905,-0.117084,-0.194951,0.044929,-0.054347,0.002218,0.127019,0.155966,0.106259,0.031611],[-0.10876,0.084382,-0.115178,-0.025819,-0.080209,0.109751,-0.043127,0.125415,0.072276,-0.025041,0.070812,0.029313,0.081726,-0.03755,0.10534,-0.017698,0.13162,-0.022492,-0.030737,0.047812,0.097148,-0.001838,0.010165,-0.035755,0.0,-0.041912,0.060397,-0.096626,-0.02193,0.036468,0.109552,-0.116508,0.142607,0.001821,-0.124654,0.222883,-0.016516,-0.004831,-0.174201,-0.125694,0.09881,-0.143066,-0.0845,-0.029767,-0.010681,0.029678,0.024595,0.089049,0.024599,-0.077134,-0.057303,-0.037884,-0.040423,0.080651,0.014933,-0.047999,-0.129528,-0.054825,0.013099,-0.041323,0.002431,-0.044456,0.050551,0.16464],[-0.089893,0.016745,0.150182,-0.053516,0.029079,-0.128299,0.038803,-0.160517,0.148417,0.062627,0.081064,0.053818,0.016159,-0.032325,0.105178,0.144265,-0.025425,0.130336,0.009047,0.020838,-0.032218,-0.133408,-0.150622,-0.121958,-0.006853,-0.004534,-0.025684,0.18547,-0.065423,-0.046067,-0.140862,-0.133199,0.083198,0.018501,0.066597,-0.076473,0.023116,-0.104685,-0.117055,-0.188847,-0.144112,-0.097157,-0.146931,0.155188,-0.08548,-0.147398,-0.084534,0.01673,-0.173041,0.136545,0.178597,-0.11111,-0.022156,-0.175015,0.037409,0.031132,-0.099975,-0.075926,0.03857,-0.02719,-0.121045,0.061646,0.009011,0.102508],[-0.0,0.146772,0.039933,-0.152703,0.000446,-0.061767,-0.020041,-0.142993,0.078946,-0.055307,0.138039,-0.083494,0.133034,0.125069,-0.115594,-0.075354,0.142737,-0.075658,-0.044067,0.115965,-0.09034,-0.148151,0.01783,-0.101673,-0.000237,0.061518,-0.043819,0.085637,-0.156617,0.055474,0.029201,0.055634,-0.174116,-0.100505,0.122564,0.13319,0.038627,0.073169,-0.165975,-0.013491,-0.106463,-0.133215,0.093084,-0.139169,-0.030116,-0.001399,-0.086127,0.157294,0.153367,0.072789,-0.091154,-0.091032,-0.048403,-0.078324,-0.07962,0.083173,-0.154037,0.095848,-0.191177,0.06688,0.131231,0.026619,-0.123832,0.038668],[-0.0,0.071567,-0.085597,-0.100119,0.164954,0.131396,-0.05392,0.104927,0.008144,-0.041158,-0.138026,-0.048018,-0.00862,-0.183836,-0.066112,0.094273,0.036362,0.026374,0.121586,-0.073129,0.002666,0.07027,0.016934,-0.095716,-0.01047,0.122395,-0.069902,0.113699,0.015841,0.051878,0.087757,0.044122,-0.053749,-0.000864,0.077057,-0.044834,0.027398,-0.160908,0.123974,-0.164779,0.032248,-0.058731,-0.045713,0.046599,-0.171098,-0.012015,0.103647,0.098095,-0.133537,0.149067,0.062642,0.112842,-0.016244,-0.00205,0.13236,0.127628,-0.046758,-0.077804,-0.053546,-0.030076,-0.081513,0.0169,0.108981,-0.16772],[0.052177,-0.045006,-0.070623,-0.146257,-0.005945,0.090777,0.055564,-0.112944,-0.025915,-0.0232,0.114136,0.076415,-0.014977,0.046393,0.071328,-0.095917,-0.055407,0.123044,0.068745,-0.0383,-0.0076,-0.07082,0.036818,0.030886,0.0,0.015055,0.008976,-0.083935,-0.028885,-0.062208,0.055332,-0.015912,0.028432,0.129845,-0.050176,-0.04534,0.158935,-0.156085,-0.109762,0.139843,0.151587,-0.161508,-0.17795,-0.132726,0.158482,-0.08238,0.031243,0.108373,-0.185617,0.007174,-0.009346,0.109134,-0.072636,0.053769,0.047778,-0.097863,-0.178436,-0.01433,-0.088473,0.102126,0.106286,0.015745,0.03285,0.04548],[0.100474,-0.022775,-0.094383,-0.045732,-0.023728,-0.039632,0.028605,-0.159715,0.056315,-0.114762,-0.122225,-0.048572,-0.116448,0.015472,-0.088614,0.032502,-0.007153,-0.119228,-0.139088,-0.059637,-0.0402,-0.050907,0.010583,-0.027323,-0.0,0.00736,0.06893,-0.060133,-0.09756,0.104091,0.138362,-0.120057,0.014333,-0.116154,-0.168562,0.00555,-0.039462,0.056744,-0.007117,-0.139789,-0.188554,0.085958,-0.125248,0.022617,-0.074449,-0.036075,-0.044927,-0.158176,-0.113765,-0.052061,0.04407,0.03973,-0.088015,-0.171381,-0.007914,-0.027969,0.146053,0.035602,-0.024868,0.012047,0.155361,0.06681,-0.078921,-0.046726],[-0.080481,-0.018493,0.064555,-0.020383,-0.129098,0.098991,0.154755,-0.091056,0.062884,-0.040815,0.107358,0.100165,-0.027336,0.052924,0.071186,0.066995,-0.086444,0.065699,-0.120025,0.040664,0.114839,0.046887,-0.014288,-0.133323,-0.003938,-0.045232,-0.087639,0.056167,-0.098417,-0.057774,-0.0536,0.103043,-0.032536,-0.152174,-0.169952,0.084417,-0.02606,-0.047137,-0.049528,-0.175215,-0.020607,-0.029279,-0.12454,-0.156868,-0.150875,-0.047766,0.047702,-0.122741,-0.107072,-0.091137,0.169629,0.106973,-0.070912,-0.073312,-0.106811,0.008128,-0.190017,0.102368,-0.009989,0.091556,-0.110063,0.050109,0.09042,-0.055606],[-0.038047,-0.081529,-0.101595,-0.157913,-0.047003,0.000973,0.079216,-0.145974,0.135434,-0.107294,0.077431,-0.076207,-0.139671,0.111929,-0.104453,-0.055126,0.000482,-0.030758,-0.017836,0.094206,-0.163508,0.037102,0.102378,-0.181299,-0.005635,0.014572,-0.048246,-0.00099,-0.138363,-0.040381,-0.143955,0.045209,0.078165,-0.072188,-0.022617,-0.019424,0.010368,0.103453,-0.046167,0.075837,-0.18787,-0.150551,-0.118723,-0.047902,0.105039,-0.04973,0.06247,0.060454,0.010901,-0.05533,0.064923,-0.073732,-0.13731,0.156659,-0.138008,-0.070605,0.110761,-0.049381,0.038355,-0.100342,-0.038481,0.04191,-0.06558,-0.074838],[0.010473,0.032775,0.139197,-0.153961,0.016119,0.033736,0.016506,-0.173705,0.002587,0.111401,-0.10288,0.112178,-0.184203,0.067983,0.11074,0.002865,-0.043446,-0.173459,0.130286,0.035635,-0.182127,0.04142,0.016953,-0.155759,0.0,-0.064469,-0.058717,0.047198,-0.010301,0.090976,0.119204,-0.021752,-0.172497,0.072354,-0.048957,-0.102289,0.013756,-0.068911,0.130461,-0.144493,0.042905,-0.190455,0.137374,-0.150019,-0.159689,-0.121731,-0.035617,-0.113221,0.012044,0.007445,-0.082352,-0.080527,0.108311,0.050007,0.065772,0.014994,-0.085156,-0.103783,-0.095222,0.086924,0.16451,0.010175,-0.16461,-0.138329],[0.0,0.019311,-0.164609,0.102756,-0.023913,0.111198,0.057367,0.072788,0.046279,0.029576,0.022984,0.028104,-0.004481,0.155631,0.0361,0.094101,0.098021,-0.119544,-0.16709,0.032489,-0.013475,0.094761,-0.05994,-0.003688,-0.007236,-0.084315,-0.008048,0.094818,-0.132184,-0.011816,0.013966,-0.117987,-0.131924,0.159349,-0.065112,-0.070096,-0.105118,0.040122,0.016203,0.031559,-0.146484,0.107997,-0.052054,-0.084096,-0.032136,-0.042948,0.105927,0.135645,-0.087664,0.078195,0.119298,0.126566,-0.088871,0.008451,-0.09745,0.045918,-0.194818,-0.010041,-0.074507,-0.080356,0.046345,0.057198,0.014867,0.110489],[-0.063287,0.018037,-0.039136,-0.119289,-0.016022,0.03851,0.043819,0.064261,0.042108,-0.167078,-0.154586,0.009216,-0.102693,-0.163106,-0.118191,0.038761,-0.082913,0.057742,0.027539,-0.096951,0.072388,0.020605,0.073779,-0.017746,-0.01101,0.035696,-0.087092,0.135946,0.09827,-0.006421,-0.10443,-0.102914,-0.078034,-0.016114,-0.104201,-0.0083,-0.006405,0.148146,-0.163316,0.130419,0.124561,-0.018647,0.059591,-0.038323,0.02695,-0.088841,-0.049816,0.010239,-0.020766,0.027279,-0.110911,-0.068754,-0.151543,-0.146545,-0.100985,-0.057123,-0.160122,0.138038,-0.177851,0.0132,-0.083538,0.118,-0.01588,-0.088891],[0.0,-0.029017,0.00706,-0.115833,0.17268,-0.033511,-0.032669,0.06043,-0.041888,0.1049,-0.033694,0.057965,-0.148344,0.10897,0.018108,-0.076625,-0.146666,-0.085118,0.151839,-0.041993,-0.031913,-0.170446,0.007944,-0.002924,0.007733,0.099512,0.060569,0.024661,-0.172916,-0.085639,0.011771,0.137465,0.100426,-0.095547,-0.115408,-0.168594,0.098324,0.108616,0.084142,-0.055428,-0.013431,-0.036941,-0.096263,-0.012318,-0.181959,-0.055447,0.156166,0.070949,-0.043026,0.016916,-0.051542,0.067811,0.098958,0.075689,0.065108,-0.123518,-0.074168,-0.017355,-0.072807,0.089755,-0.060848,-0.028561,-0.053015,0.112855],[-0.047446,0.045264,-0.04083,-0.154704,0.002016,0.097039,0.039726,0.11654,-0.0286,-0.159139,0.135287,-0.060489,0.018818,0.08811,-0.12402,0.056766,-0.150784,-0.08834,-0.144073,0.098514,-0.115291,0.042963,0.130695,-0.020131,-0.00897,0.065609,-0.087879,-0.00344,0.024112,0.132566,0.138549,0.136001,0.114577,-0.012524,0.036564,0.026974,0.010941,0.143629,-0.045603,0.018169,0.061668,0.12759,-0.100225,0.07207,-0.010519,-0.070749,0.1208,0.004445,0.037568,-0.060717,-0.024473,0.021596,-0.03729,-0.10466,0.150052,0.029638,0.067179,-0.020674,-0.06611,-0.029303,-0.034845,0.009044,0.000388,-0.08808],[-0.123643,0.016784,-0.133498,-0.131336,0.148151,0.032744,0.044165,-0.050601,0.130748,0.035449,0.076653,-0.063673,0.139892,0.09894,0.106014,-0.059716,-0.103841,-0.095429,-0.098089,0.086585,-0.183005,-0.16822,-0.032341,-0.136333,-0.009851,0.08856,-0.003756,-0.145475,-0.037128,-0.053571,-0.151547,0.084046,0.064714,0.064771,0.058883,-0.031554,0.156802,0.094168,0.121586,-0.187743,0.137879,0.080862,0.104262,-0.157906,0.067064,0.136401,0.072977,0.008752,0.137833,-0.0082,0.065878,-0.025622,0.148278,-0.159446,-0.011908,0.029606,0.08251,0.031159,0.129568,0.169125,-0.155276,0.033628,-0.183845,-0.035894],[0.004298,0.126049,0.107261,-0.169275,-0.087493,0.038801,0.056679,-0.097218,0.13324,0.137506,-0.050067,0.12471,-0.060659,0.068346,0.110383,-0.131817,0.126918,-0.033593,0.063886,0.135726,-0.184755,-0.120829,0.030764,0.04077,-0.001382,0.033839,0.102196,0.094034,-0.013556,0.140402,-0.012892,-0.008996,-0.103351,-0.070655,-0.175665,0.229526,0.019547,-0.08581,0.075842,-0.074302,-0.100723,-0.132705,0.079629,-0.14553,-0.034228,-0.005312,0.087933,0.032984,0.091889,-0.100913,0.032872,-0.092218,-0.132614,-0.074005,-0.07223,-0.031939,0.039562,-0.016734,0.062117,-0.060742,-0.07215,-0.023006,-0.180684,-0.107055],[-0.034009,0.137937,0.061842,-0.070187,0.091244,0.086674,0.00675,0.094899,-0.031299,-0.112737,-0.020481,-0.005678,-0.005931,0.007812,0.094867,0.129689,0.100312,0.090649,0.13435,-0.05911,-0.100424,-0.025364,0.058692,-0.031435,-0.005584,-0.11568,-0.022491,0.024237,-0.130682,-0.066676,-0.098504,0.008556,0.065358,-0.049655,-0.001152,-0.115854,0.10212,-0.064294,0.033078,0.060298,-0.126302,0.110178,0.025475,-0.042528,-0.130248,0.0402,0.077107,-0.118555,-0.074946,0.102784,0.054518,0.070458,-0.017225,0.05985,-0.049318,-0.038145,0.020632,0.13282,-0.083995,-0.048721,0.053417,0.006732,0.098631,0.041546],[-0.0,0.07011,0.06772,0.099589,0.000854,0.047458,-0.059943,-0.074201,0.032461,-0.117432,-0.172758,0.084131,0.074807,-0.134721,0.067857,-0.020367,-0.026957,0.091173,-0.054581,-0.035372,-0.089998,-0.01395,-0.011314,0.065535,-0.0,-0.070894,0.113557,-0.130229,-0.164948,0.154671,-0.159235,-0.088503,0.080374,-0.05003,0.127237,-0.087056,-0.120167,-0.086763,0.002851,-0.060588,0.003466,0.106141,0.115769,-0.097909,-0.032583,-0.04378,0.131362,0.153649,-0.111831,0.086776,-0.083111,-0.185891,-0.159331,-0.002828,-0.013878,-0.183041,0.032568,-0.090325,0.0044,-0.060078,-0.12892,0.033949,-0.114597,0.081524],[0.0,0.024656,-0.12864,0.008832,0.046047,-0.047936,-0.075957,-0.161802,0.063823,-0.09413,-0.01907,-0.018691,0.141958,0.002899,0.080894,-0.040336,0.168564,0.066523,-0.097178,0.007982,-0.033976,0.076174,0.015506,-0.1382,-0.0,0.057649,0.021925,-0.058625,0.065446,-0.135386,-0.188361,0.064186,-0.120521,-0.138902,-0.112642,0.024183,0.022757,-0.168686,0.141519,0.056195,-0.086274,-0.083698,-0.019526,0.023753,-0.142522,0.031339,0.046248,-0.087374,-0.056131,0.036099,-0.034989,-0.077519,0.077822,-0.133259,0.034297,-0.017128,0.086865,0.061754,0.129782,0.106765,0.003333,0.104812,-0.043008,0.050028],[0.098125,-0.094631,0.129803,0.132748,0.125815,0.128076,-0.093979,-0.154246,-0.086036,-0.087563,0.023961,0.088111,0.123134,0.02883,-0.163466,-0.06857,-0.161584,-0.066224,-0.018624,-0.09313,-0.072278,-0.13739,0.090239,-0.03785,-0.004511,0.021136,0.115877,-0.107305,-0.006839,0.088093,0.003056,0.110933,-0.052885,-0.023726,-0.169495,-0.085269,-0.042682,-0.136832,-0.003338,-0.007326,-0.170614,0.045081,0.027785,-0.125893,-0.02853,0.080158,0.022996,-0.050889,-0.079827,0.063303,0.154697,0.04663,-0.167174,-0.029869,0.124252,-0.162094,0.150445,0.152825,-0.163819,0.118873,-0.052143,0.143638,-0.04764,-0.040615],[0.037504,0.117225,-0.182964,0.034461,-0.063617,-0.043616,-0.003985,-0.02691,-0.012401,-0.151729,-0.14495,-0.181532,-0.028309,0.145175,-0.085764,0.11139,0.054429,0.025647,0.029599,0.136278,-0.153096,-0.022724,0.076368,0.002889,-0.0025,-0.127681,0.052568,0.035449,-0.054843,-0.089714,0.031185,0.1264,-0.020518,0.105923,-0.063929,-0.040211,-0.145764,-0.175632,-0.0624,-0.076203,0.057678,0.054903,-0.171125,-0.114706,-0.098318,0.066062,-0.090132,-0.146789,0.13447,0.142816,-0.049,-0.054342,-0.06186,0.088515,-0.006985,-0.092492,0.061486,-0.006311,-0.10099,-0.05908,-0.010796,-0.066104,-0.109285,-0.059678],[-0.153873,0.102823,-0.132628,-0.140711,0.062979,0.102806,0.083213,-0.018357,-0.064075,0.069954,0.051194,-0.108296,0.123433,-0.155334,0.160611,0.091811,0.038265,0.132821,0.057637,-0.043222,-0.037735,-0.17762,-0.029061,0.059546,-0.007509,-0.018117,0.014205,0.131417,-0.172048,-0.04861,-0.134035,0.03866,-0.143763,0.049595,-0.102186,-0.0376,0.162992,-0.186208,-0.04289,-0.187214,-0.025746,-0.027406,-0.078082,-0.146255,-0.062285,0.001059,0.1159,-0.005349,0.01078,-0.059177,-0.019873,-0.137272,-0.103205,-0.107547,-0.004604,0.007794,0.133014,-0.085945,0.034064,0.078973,0.016424,-0.099081,-0.105058,-0.170485],[-0.072329,0.093957,-0.176577,-0.088065,0.10503,0.086443,-0.008151,0.05295,0.00998,-0.132747,-0.055773,0.006686,0.134118,-0.165701,-0.054199,-0.012816,-0.022112,-0.18573,-0.085445,0.113734,0.001308,-0.039918,-0.034193,-0.103712,-0.009351,0.062175,0.126509,-0.019559,-0.048721,0.098015,-0.042126,0.000218,-0.102134,0.075056,-0.012604,0.12478,0.088224,-0.118972,0.05748,0.085703,-0.072946,-0.137463,-0.183233,-0.034395,-0.070334,0.021192,-0.097593,0.109837,-0.102916,-0.081873,-0.008446,-0.020587,-0.103403,-0.092444,-0.12816,0.04673,0.078548,-0.007374,0.059667,0.084934,-0.125746,0.15804,0.095668,-0.137991],[-0.0,-0.118853,-0.144697,0.128813,0.011098,0.07683,0.026536,0.020128,0.038166,-0.181951,-0.085376,0.025162,-0.188761,-0.17749,0.131535,0.002866,-0.104366,0.044323,0.084575,-0.121714,-0.174387,0.121355,-0.02746,-0.173512,-0.006471,0.115595,-0.081918,-0.022821,-0.102422,0.124187,-0.121716,0.039576,0.140054,-0.136374,0.134641,0.05594,0.06371,-0.117844,0.031917,0.072173,0.150195,-0.129029,0.065677,-0.07276,-0.132319,0.013144,0.084744,-0.027053,-0.008174,0.106298,-0.02977,0.014788,-0.050822,-0.04708,0.065152,0.095093,-0.002064,0.0533,-0.158587,-0.091764,-0.007342,-0.128759,-0.11008,-0.066787],[-0.150768,-0.050637,-0.01073,0.029836,0.093797,0.038104,-0.081701,0.136181,-0.014021,-0.116528,-0.143363,0.048008,0.008325,0.088805,0.145967,-0.031005,0.150671,-0.002071,-0.153196,0.000906,-0.10126,0.075198,0.142981,0.048064,-0.0,0.004601,-0.050654,-0.009701,0.038379,0.063127,0.05342,-0.052952,0.002197,0.087941,-0.030864,-0.013463,0.040723,0.041396,-0.052409,0.128016,-0.135874,0.14894,-0.134442,-0.180191,0.119382,-0.028087,0.08209,0.091091,0.104261,0.101526,-0.064297,0.055832,-0.14636,-0.036482,0.111224,-0.011728,0.016942,-0.014819,0.036872,0.150698,-0.154185,0.042978,0.1168,-0.03055],[-0.137682,0.037846,-0.078406,-0.077518,0.120746,0.012529,0.126678,0.092239,0.080596,-0.18775,-0.048759,-0.127268,0.124605,-0.129552,-0.072265,0.073877,-0.105699,-0.123594,0.016313,-0.116128,-0.172758,-0.072346,0.112804,-0.008371,-0.007503,0.028083,-0.049339,0.153088,-0.170038,0.030407,0.120287,0.112983,-0.127322,-0.080484,0.047193,-0.044864,0.086767,0.059909,0.061016,-0.158418,0.056214,0.035693,0.09832,-0.179074,-0.186846,-0.03311,-0.116804,0.002797,0.128035,-0.026369,0.139658,-0.196624,-0.119083,-0.179006,-0.073517,0.133084,-0.162684,0.035585,-0.034312,0.147645,-0.132763,-0.086968,-0.186065,-0.046579],[-0.075659,0.155961,0.023405,0.301424,-0.073775,-0.126303,-0.033148,0.163676,0.095901,0.126414,0.0963,-0.155199,-0.113898,-0.188022,-0.018098,-0.023762,-0.012087,0.040543,0.116473,0.114199,0.138373,-0.142797,0.057142,0.029748,-0.007059,-0.048063,-0.016648,-0.008634,-0.004561,-0.046474,-0.004483,0.084022,-0.087207,-0.072006,-0.131349,0.252183,0.036054,0.07454,0.046843,-0.105786,0.012743,0.019569,-0.019728,0.003908,-0.017758,-0.039439,0.125037,-0.150173,0.070556,-0.044055,-0.164374,0.153935,0.177599,-0.151262,-0.018995,-0.062654,-0.02113,0.139987,0.144776,0.039289,-0.030437,0.004359,-0.080723,0.087413],[0.0,0.066597,-0.077511,-0.108944,-0.056571,0.10956,0.018441,-0.076014,-0.024982,0.099436,-0.151449,0.112652,0.121956,0.143336,-0.02764,0.04063,-0.062614,-0.069713,-0.132573,0.000852,-0.023183,0.103686,-0.159086,0.02518,0.0,0.02075,0.039176,0.089375,0.139086,-0.076541,-0.000735,-0.076838,-0.154658,-0.107161,-0.156847,0.047487,-0.041745,-0.18027,0.123816,-0.165944,0.071517,-0.141723,0.13103,0.124235,0.038215,-0.026468,-0.143062,0.15941,0.116835,0.087874,-0.002181,-0.069277,0.127922,-0.075363,0.007164,-0.047317,0.131737,-0.094695,-0.11024,-0.023199,0.09313,-0.106098,-0.106465,-0.142479],[0.077286,0.137452,0.088062,-0.047724,0.088057,-0.00597,-0.083181,-0.022974,0.001817,0.082625,-0.019498,-0.084882,-0.105014,-0.178519,-0.044387,-0.100301,-0.146399,0.030368,0.041552,0.017753,-0.013564,0.115414,0.174867,0.086104,-0.007395,-0.050528,0.117894,-0.113505,-0.113839,-0.028999,-0.177071,0.050336,0.004625,0.010891,0.027989,0.026904,-0.147507,0.018882,0.048208,-0.048211,0.066455,-0.119959,-0.068506,-0.132591,-0.063891,0.061893,0.066783,-0.060583,0.005963,0.095976,-0.124951,-0.138842,0.149899,0.03478,0.150655,-0.106339,0.04232,-0.061198,-0.101655,0.00572,-0.069105,-0.08855,-0.100799,-0.12131],[-0.0,-0.00458,-0.158051,-0.016007,-0.081997,0.027888,-0.101057,0.074696,-0.136307,-0.100303,0.116095,0.058815,-0.166817,0.099723,-0.061653,0.148717,0.013918,0.043444,0.155484,-0.09182,0.02669,-0.040083,-0.244479,-0.199541,-0.0,-0.030774,0.048898,-0.017038,-0.176095,-0.034629,0.138645,-0.069435,0.035636,0.09583,0.076914,-0.070925,0.041465,-0.053506,0.121486,-0.107018,-0.089812,-0.167355,0.086276,-0.046472,-0.112515,0.004821,0.133597,0.102186,0.001164,0.030257,0.017028,-0.054984,0.143637,-0.130036,-0.038929,-0.088916,-0.018597,-0.021801,-0.008532,-0.100707,0.000269,-0.089675,-0.124795,-0.1332],[0.079363,0.006865,0.030028,0.089903,0.029833,0.006434,-0.049137,-0.059208,0.024894,-0.013965,0.104995,0.117096,-0.132125,-0.141852,0.128593,-0.060736,-0.183942,0.116502,-0.115007,0.037307,0.064267,0.073509,0.034719,-0.1259,-0.007091,-0.041103,0.004557,0.005398,-0.128776,-0.125472,0.088046,-0.028505,-0.148919,0.026981,0.147715,0.055448,-0.145362,0.008948,0.122567,0.093,0.026395,-0.08359,0.006488,-0.15887,0.04616,0.011016,0.187021,-0.09807,-0.186774,0.02879,0.111982,0.079513,-0.112709,-0.053102,-0.000789,0.058389,0.113717,0.004256,0.090793,0.051787,0.084384,-0.064103,0.099397,-0.122985],[0.00784,-0.086853,-0.023353,-0.058255,-0.046842,0.141236,-0.063483,0.085066,0.173598,-0.181778,0.051186,-0.103791,-0.175802,-0.048459,0.159023,-0.097703,0.00831,-0.017354,0.114965,-0.077643,0.047325,0.039926,0.090986,0.131921,0.0,-0.073941,-0.042787,-0.040975,-0.079506,-0.028553,-0.051284,-0.037201,0.164402,-0.141084,0.127946,0.07299,0.040422,0.100592,-0.065397,-0.038662,-0.046205,-0.059544,0.134453,0.099957,-0.155724,-0.103704,-0.004269,-0.155141,0.023148,-0.112873,0.055625,-0.188517,-0.076518,0.046328,-0.020736,0.119217,0.112498,-0.058614,-0.173548,0.100657,0.138333,0.015618,-0.148115,0.187117],[-0.058899,0.090526,0.123525,-0.001951,0.091273,-0.088227,0.062595,-0.092297,0.175521,-0.169976,0.054149,-0.011844,-0.035064,-0.111685,0.033897,-0.067949,-0.00114,-0.100987,0.140459,-0.057309,-0.122546,-0.112472,-0.020372,-0.122819,-0.011185,0.056685,0.031936,0.037077,-0.154451,0.075589,-0.138465,0.115921,-0.098516,-0.041017,-0.07448,0.062799,-0.105577,0.005218,-0.151852,0.055014,0.115565,-0.04884,-0.022069,0.134888,-0.01014,-0.013937,0.013308,0.043026,-0.15609,0.108045,-0.023334,-0.169707,0.097626,-0.050653,-0.121264,0.004428,0.106944,0.106721,0.144375,0.11535,-0.171724,0.089048,0.092449,-0.016797],[-0.0,0.019699,-0.068078,0.132482,-0.008746,0.051984,0.093272,-0.018352,-0.054586,-0.009783,0.082628,0.082028,0.071117,0.057863,-0.131427,-0.01292,0.115478,-0.12652,-0.152178,0.171786,0.114616,0.099231,0.016912,-0.026847,-0.00674,0.108545,-0.07706,0.092196,-0.010877,0.041135,-0.009961,-0.003617,-0.160612,-0.080804,-0.122379,-0.067629,0.095626,-0.138672,-0.101049,0.01275,0.006414,-0.13977,0.09138,0.082267,-0.109818,-0.129771,0.115117,0.098255,0.0528,-0.134185,-0.016831,0.000592,-0.107965,-0.019583,0.023518,-0.027969,0.069426,0.112813,-0.078482,0.087919,-0.145968,0.171182,-0.138632,-0.109572],[0.0,0.007863,0.130041,-0.03045,-0.036724,0.011846,-0.011406,-0.070332,0.001271,0.078207,0.108734,0.145912,-0.092879,0.063004,-0.037921,-0.008402,-0.027352,0.165313,0.065461,0.110232,0.098546,0.120266,0.04439,-0.044041,-0.00178,-0.051669,-0.182316,0.022188,-0.009665,-0.019381,0.147665,0.104872,-0.136409,-0.055858,-0.051855,0.12209,0.022034,-0.008946,0.006297,0.106391,0.080365,-0.146455,0.059688,-0.034795,-0.088756,0.031597,-0.009917,-0.064079,-0.105451,0.01372,0.081687,-0.10995,-0.160153,0.103293,-0.174373,0.132312,0.024069,-0.060577,-0.104525,-0.146753,-0.094599,-0.077168,0.016657,-0.132965],[-0.0,0.029282,-0.085176,-0.148952,-0.132822,-0.126171,0.034654,-0.078438,0.137432,-0.035488,-0.03659,-0.014909,0.054419,-0.094129,-0.162263,0.049578,-0.07617,-0.031228,0.034079,0.009391,0.026071,-0.013934,0.018146,0.043037,-0.0,-0.069876,0.132895,-0.014608,-0.041082,0.051984,0.020628,-0.100143,0.124602,-0.158844,0.064288,-0.002955,0.122227,-0.172525,0.019612,-0.042667,-0.074688,-0.159185,0.013582,-0.023632,-0.155644,-0.010873,0.073606,0.08085,0.129523,-0.060564,0.132265,0.109201,-0.061612,-0.126458,-0.030352,-0.037866,0.010944,0.04324,0.070553,-0.014148,-0.130997,0.077648,-0.068234,0.117138],[-1.9e-05,0.161625,-0.160159,-0.084201,-0.129237,0.046149,0.127474,-0.038165,0.138697,0.017902,0.021627,0.100811,-0.091149,-0.065623,0.080388,0.172381,0.140045,0.117737,-0.150999,0.119393,-0.049233,0.149833,-0.067441,-0.0147,-0.008103,-0.097881,-0.111492,0.095995,0.095203,-0.118395,0.079241,0.047,-0.046992,-0.098369,0.101712,0.097726,-0.014913,0.021078,-0.162538,-0.02826,-0.126241,-0.129703,0.042428,0.129305,-0.051619,-0.114143,0.040523,0.11275,0.067774,0.130174,0.050618,0.069485,-0.130804,-0.069578,-0.053419,-0.02545,0.125885,0.100889,-0.144688,-0.099568,-0.055486,0.021955,0.017254,0.175671],[0.131371,0.10018,0.102441,0.012685,-0.022014,