{"mode_names":["trump_oben_0","trump_oben_1","trump_oben_2","trump_oben_3","trump_unten_0","trump_unten_1","trump_unten_2","trump_unten_3","oben","unten","slalom","misere","allesTrumpf","elefant","molotof","schafkopf_0","schafkopf_1","schafkopf_2","schafkopf_3"],"layers":[{"W":[[0.053455,0.144376,0.032019,0.055725,-0.14559,-0.093761,-0.100352,0.05571,0.04059,0.04541,-0.028304,0.077261,0.165212,-0.049163,0.079486,-0.101577,0.092706,0.137372,0.158262,-0.051793,0.144325,-0.055968,-0.100916,0.059084,0.000756,0.103587,-0.199617,-0.024226,0.141454,-0.150377,0.019092,-0.074549,-0.709652,0.136958,-0.059803,0.052819,0.080398,-0.01533,0.083695,0.051671,-0.03636,-0.136492,-0.019716,0.082032,0.024961,0.13501,0.010626,0.051603,0.038758,0.03031,0.022397,-0.082331,0.138822,0.037628,-0.168187,0.09404,-0.01651,-0.170969,-0.093525,-0.049797,-0.173744,-0.051864,0.026032,-0.04112,-0.038101,-0.030662,-0.008593,0.087142,-0.074734,0.099192,0.130288,-0.044142,-0.187437,0.085566,0.058894,0.056094,0.002969,-0.041885,-0.038363,-0.06413,0.053649,0.025642,0.062989,-0.316442,-0.112273,-0.040996,-0.038179,-0.001084,-0.105876,-0.018888,-0.099335,0.055994,-0.031402,0.03339,0.024538,0.021623,-0.023282,-0.037671,-0.184002,-0.059959,-0.13928,0.01374,0.010572,0.057249,-0.066902,-0.014596,-0.153619,0.018554,-0.052063,-0.15239,-0.0812,0.005916,0.184666,-0.031698,0.087797,0.05984,0.082286,-0.16497,0.110173,-0.079576,0.06596,0.003386,0.033751,-0.040855,-0.050554,0.005004,-0.019126,0.027505,-0.201871,-0.029414,-0.054367,0.015509,-0.099293,-0.104539,0.004537,0.02236,-0.056449,0.025486,-0.037353,0.146014,0.096113,-0.10401,0.001058,-0.004725,-0.290946,-0.022251,0.117345,0.051407,-0.351138,-0.000581,0.032973,-0.212844,-0.601455,0.061351,0.138284,0.216512,-0.066319,0.005483,0.053394,0.118827,0.045741,0.038257,-0.076796,-0.043928,0.083543,-0.1254,0.04455,0.016883,-0.282313,0.054326,-0.001692,0.018026,-0.124781,-0.247388,0.060059,-0.051369,0.106063,-0.087539,-0.15789,0.04246,-0.210473,0.0966,0.047612,0.223215,-0.222292,0.042977,0.14459,-0.084124,-0.102027,-0.01274,0.017973,0.13537,0.175846,-0.070539,0.075895,0.104353,0.123766,0.0763,0.030016,-0.049248,0.073067,-0.113092,-0.367032,0.086277,-0.103036,-0.075643,-0.102042,0.112322,-0.031414,-0.018417,-0.112133,-0.000925,-0.290961,0.059013,0.180963,-0.029508,-0.107479,0.053137,-0.076651,-0.119772,-0.105996,-0.019961,-0.164368,-0.327822,-0.143424,0.116528,0.483962,0.008235,0.044627,0.105127,-0.017203,0.011056,0.011341,0.116434,0.051094,0.022971,0.01858,-0.000465,0.135625,-0.064045,0.071405,0.106645,0.15992,-0.034094,-0.124472,0.166946,-0.001568,0.093417,0.102188,-0.009442,0.032306,0.044116,0.108506,0.013285,-0.153267,-0.017497],[0.078279,0.09329,-0.027756,-0.117454,-0.147652,-0.038243,0.013685,0.043234,-0.024394,0.055938,0.058276,0.122299,0.060628,-0.022555,0.178899,-0.095646,0.085259,0.122263,0.151274,-0.027209,0.046956,0.015001,0.024311,0.024416,0.058768,0.109264,-0.031083,-0.007186,0.180337,-0.062002,0.010792,-0.022077,0.243495,-0.007694,-0.019364,-0.037809,0.026488,-0.036679,0.000228,0.103901,0.049728,-0.137916,0.075195,0.004444,-0.084591,0.094312,0.002506,0.06008,0.089468,-0.018126,0.006077,-0.107882,0.084767,-0.067996,-0.184462,0.006625,0.094608,-0.006832,0.082566,0.088026,-0.326957,-0.068879,-0.169259,0.026941,-0.01287,0.068504,0.003162,0.01886,0.026039,0.029911,0.052537,-0.040491,-0.114636,-0.125271,0.130922,0.069415,-0.074719,-0.091433,-0.005562,-0.040182,0.046026,-0.03317,0.02634,-0.250197,-0.009628,-0.050317,-0.026632,-0.065486,-0.095555,-0.063887,-0.007843,-0.04248,-0.03448,0.076094,0.093069,-0.008889,0.046928,-0.081888,-0.053657,-0.050372,-0.109037,0.008393,0.023439,0.020957,-0.138174,0.00026,-0.145067,0.075552,-0.026507,-0.144673,0.060982,0.131297,-0.105867,-0.477968,0.088223,-0.000222,-0.0328,-0.07427,-0.018027,-0.071661,0.080486,-0.017241,0.080877,-0.024936,-0.042128,0.032698,-0.054364,0.074967,-0.103286,-0.080361,-0.095447,-0.013471,-0.122932,0.016976,0.049315,0.001062,-0.027002,0.054318,-0.059114,0.116642,0.056467,-0.039801,0.032842,0.073686,-0.267223,0.07282,0.177454,0.118671,-0.100418,0.051271,0.004771,-0.159489,-0.055999,-0.012551,-0.093355,0.071159,-0.024847,0.066326,0.077669,0.153445,0.063409,-0.001495,-0.079479,0.100083,0.088259,-0.120993,-0.09193,0.014655,-0.226681,0.133794,-0.088193,0.112564,-0.222073,-0.196712,-0.009266,0.024328,0.142886,-0.192944,-0.161723,0.036741,-0.013908,0.005423,0.085329,0.096129,-0.256579,0.074721,0.147025,-0.100409,0.00179,0.047682,0.151856,0.023342,-0.066445,-0.124897,0.094018,-0.005049,0.002376,0.160463,-0.02863,-0.007996,-0.274123,-0.090505,-0.363624,-0.014547,-0.094821,0.037933,-0.087057,0.102537,-0.009775,-0.020174,-0.100606,0.046805,-0.018699,0.05135,-0.214391,0.156795,-0.058681,0.127442,-0.038643,0.011057,-0.060752,-0.066181,0.025416,0.005153,0.015928,0.035882,0.245027,0.035085,-0.003375,0.157218,-0.069614,-0.010423,-0.00534,0.110682,0.006833,0.01215,0.006732,-0.055815,-0.010756,-0.024643,0.04776,0.027837,0.128665,0.0416,0.109207,0.075897,-0.125587,0.094335,0.009974,0.003119,-0.056074,0.066695,0.12103,0.042976,-0.027894,-0.003725],[0.06835,0.100494,-0.037006,-0.044942,0.15213,-0.019181,0.102793,0.029829,-0.018855,-0.02507,0.095275,0.089786,0.110065,-0.010938,0.02448,0.147545,-0.034445,0.15067,0.116634,0.096102,0.046401,-0.057586,0.111923,0.122474,0.043414,-0.055325,-0.016369,-0.03405,0.244874,0.070422,-0.001538,0.044344,0.159097,-0.04357,-0.009518,-0.018593,0.030573,-0.083951,0.117016,0.068222,-0.162956,0.20776,0.00928,-0.006261,-0.043772,-0.015517,0.063836,0.021112,0.082771,-0.01161,-0.018856,-0.155476,-0.096784,-0.001236,0.151954,0.04194,0.082184,-0.138792,0.038068,0.099291,-0.027335,-0.014771,0.009442,-0.022062,-0.093525,0.016692,0.045339,0.064742,-0.004177,0.104619,0.018909,-0.041637,0.108182,-0.17966,-0.168501,0.014258,0.043964,-0.017088,-0.03417,-0.036106,-0.085975,-0.02307,0.058138,-0.013293,0.043037,-0.029806,0.003367,-0.011388,-0.080616,-0.016161,-0.011776,-0.098992,-0.064996,-0.04451,0.052409,-0.010468,-0.010653,0.169319,-0.039703,-0.044652,-0.09518,-0.064074,0.097946,0.044428,-0.170565,0.011336,0.175937,0.028464,-0.111377,0.15636,-0.11413,-0.064958,0.071853,-0.234065,-0.011347,0.088242,-0.049502,-0.058505,0.078166,0.084013,0.103586,-0.044846,-0.172643,-0.051653,0.029626,-0.015286,-0.05145,0.029111,-0.050714,-0.025284,-0.035069,0.118777,-0.124258,0.042785,-0.003111,0.108509,0.051891,0.061906,-0.021352,0.080867,0.096757,0.167675,-0.014175,-0.081039,-0.133608,0.059327,0.19422,-0.024628,-0.061616,0.109795,0.049064,-0.151817,0.193671,-0.041162,0.067544,0.086171,-0.045347,0.039841,0.023773,0.187403,0.001009,0.03167,0.068858,0.103084,-0.047637,-0.129546,0.098135,0.058138,0.102821,0.012081,-0.118741,0.112727,0.137277,-0.196517,-0.049496,-0.087758,0.038653,-0.052863,-0.197342,0.112234,-0.014703,0.029871,0.023845,0.152105,-0.300409,0.060685,0.164223,-0.150615,0.038087,0.01192,0.003018,-0.044008,-0.103499,-0.040819,0.065419,0.150126,0.026646,0.044015,0.062851,0.169037,-0.019947,-0.105495,-0.251419,0.182887,0.166892,0.109722,-0.048578,0.134241,0.111858,-0.051405,-0.081259,0.035192,-0.144488,0.02456,-0.230571,-0.145532,0.048609,-0.018952,0.018136,-0.077533,0.078922,0.005565,-0.07633,0.156259,0.060152,0.102056,0.090575,-0.051657,0.000174,0.036258,0.045276,0.020272,0.006594,0.078217,0.177143,0.086641,0.088715,0.00112,0.009325,0.021122,0.028438,0.022451,-0.041999,0.07801,0.039975,0.017466,0.060907,0.098486,-0.049011,-0.066104,0.005572,0.127303,-0.077225,0.028221,0.00662,0.002281],[0.035164,0.047744,-0.105231,-0.05108,-0.165414,-0.073332,-0.011511,0.054563,-0.034913,0.079057,0.062603,0.035991,0.103787,-0.005511,0.026087,-0.10892,-0.083142,0.098241,0.177147,0.039615,0.012946,0.059039,-0.157235,-0.028191,0.034043,-0.08027,-0.019478,0.094588,0.08418,0.022798,0.012827,0.050507,0.128887,0.013128,-0.032969,0.035687,0.036598,0.031171,0.347434,0.074554,0.027848,-0.13438,0.093179,0.104705,0.02076,0.034729,0.029475,0.014873,0.052142,-0.005728,-0.071687,-0.121943,-0.021677,-0.093111,-0.18341,0.030301,0.048765,0.154096,-0.078314,-0.024088,0.093109,0.06518,-0.223818,-0.009094,-0.000496,-0.020468,-0.015471,0.093871,0.084355,0.045263,0.02032,-0.021768,-0.050021,-0.048923,-0.255259,0.170471,-0.01132,0.018929,-0.104584,-0.044726,0.033604,-0.07022,0.01367,0.072548,0.027149,-0.046304,0.00303,-0.081651,-0.112232,0.00777,0.032264,0.017397,-0.043272,0.077293,0.034695,-0.024449,0.020524,0.015854,0.01148,-0.062574,0.017485,0.078968,-0.088527,-0.033071,-0.020128,0.06103,-0.143747,-0.064306,-0.01964,-0.141348,-0.09402,-0.016466,-0.157144,-0.075865,-0.254969,-0.082248,0.035493,-0.092035,0.113783,-0.058303,0.072835,-0.005387,-0.040176,0.066606,0.119124,0.031296,-0.013501,-0.002555,-0.137963,0.003358,-0.019622,-0.043232,-0.135871,-0.14871,-0.005871,0.035259,-0.019309,-0.029925,0.048092,0.010351,0.033752,0.08687,0.05933,-0.012596,0.00237,-0.017587,-0.291582,0.029197,-0.085106,0.113075,0.047902,-0.118231,0.185804,0.073685,0.072861,0.045865,-0.073066,-0.067763,0.047101,0.1848,0.083351,-0.049323,-0.03729,0.030504,0.093647,-0.08757,0.02422,-0.014901,-0.317598,0.136769,-0.155531,-0.071951,-0.059713,-0.171718,0.128604,0.001562,0.074875,-0.048768,-0.159936,0.044071,-0.01287,-0.076809,-0.032333,0.078769,-0.186991,0.339723,0.114441,-0.129249,-0.094265,-0.038688,-0.202838,0.044684,-0.058833,-0.004485,0.107866,-0.046937,-0.030695,0.06112,0.06105,0.136501,-0.013553,-0.100038,-0.248816,0.052854,0.095385,-0.032884,-0.042603,-0.161135,-0.05795,-0.054207,-0.167584,-0.083079,0.028831,-0.029388,-0.034471,-0.115473,0.145311,-0.004972,-0.002856,0.032107,0.002226,0.10532,0.024291,0.002347,-0.0409,-0.109011,0.006825,0.069467,0.031125,-0.062964,0.030068,0.049214,0.186703,0.112008,0.021593,-0.006652,0.07038,0.04841,0.064746,0.051332,-0.049368,0.046581,-0.094825,0.054851,0.059332,-0.069529,0.070606,0.068055,-0.098607,-0.0185,0.008339,0.056275,0.003088,-0.019503,-0.024562,-0.005381],[-0.019669,0.017746,0.164045,-0.139011,-0.174751,-0.053605,0.011779,0.085827,-0.05918,-0.114837,-0.026316,0.032939,-0.044038,0.018808,-0.048864,-0.096131,-0.016712,0.097089,0.212615,-0.110596,-0.118005,0.036745,-0.114244,-0.031954,0.118963,-0.113029,0.044967,0.057607,0.112397,0.078509,0.074606,0.042865,0.180767,-0.09717,-0.075198,-0.03243,0.067695,0.056734,0.1539,-0.006326,-0.084213,-0.13684,-0.004575,-0.036905,0.023985,-0.042702,-0.067437,0.089828,-0.016187,-0.06961,0.120685,-0.129714,0.011491,0.04099,-0.187072,0.056271,0.030748,-0.335598,-0.069195,0.091513,0.136082,0.056242,-0.184935,-0.105962,0.010453,-0.100917,0.061261,-0.000281,0.052615,0.032073,-0.027131,-0.087462,0.039611,-0.079644,0.030451,-0.024049,-0.070811,0.124126,0.081805,-0.05013,0.034952,-0.021142,-0.031904,0.028112,0.092104,-0.051455,0.069174,-0.054738,-0.098393,0.041283,0.053698,-0.050217,-0.067897,-0.026921,-0.023243,-0.00285,0.001085,0.034792,0.033978,-0.027141,-0.006407,-0.010617,-0.08188,0.066545,-0.080904,0.079997,-0.143462,0.008114,-0.029521,-0.131932,0.059942,-0.032461,-0.029015,-0.042567,-0.132143,0.01541,0.119872,-0.067352,0.051715,0.030513,0.046999,0.03348,-0.002717,0.077897,0.055944,0.092704,-0.015142,0.06744,-0.209282,0.098725,0.133472,0.038681,-0.099952,0.038585,0.179485,-0.005646,0.02439,-0.062015,0.041156,0.055649,-0.045441,0.124615,-0.016758,-0.003283,-0.157687,0.02269,0.003421,0.107869,0.017885,-0.024619,0.04363,-0.054652,0.119333,-0.053981,-0.001055,0.018146,-0.03515,-0.010271,0.078265,0.249075,0.027209,0.038882,0.121539,-0.080698,0.057661,-0.101208,-0.044884,0.011907,-0.084675,-0.041811,-0.176191,0.042024,0.207294,0.070365,-0.031585,-0.072315,0.057224,-0.034114,-0.166321,-0.019958,-0.165793,0.082076,-0.033787,0.124144,-0.151784,0.200006,0.173204,-0.108644,-0.075133,0.03077,-0.110782,-0.003233,0.063408,-0.032395,0.107967,-0.098672,0.08969,-0.065066,-0.067291,0.141531,-0.144881,-0.089183,-0.262506,-0.021228,0.128027,0.005175,0.126516,-0.14226,0.048093,-0.048466,-0.089519,-0.007639,-0.028276,0.035601,0.123742,-0.253279,0.148699,0.049124,0.102362,0.08465,0.160128,0.015851,-0.064504,-0.31722,0.045713,-0.068714,0.096387,0.058432,-0.098763,-0.141534,0.02079,0.014212,0.076361,-0.029259,-0.020356,-0.101636,0.050483,0.073972,-0.027662,0.00155,-0.044953,0.019909,-0.010412,0.040358,0.075846,-0.198496,0.024231,0.071512,0.10654,-0.08607,-0.079499,-0.004787,-0.044106,0.100082,0.010653,-0.012702],[0.074764,0.035252,-0.013718,-0.119762,-0.1578,-0.168626,-0.022584,0.053738,-0.068322,-0.224977,0.008372,-0.051447,-0.013719,0.108509,0.082688,-0.102733,-0.182797,-0.199921,0.171137,0.045614,-0.165248,0.140926,-0.13988,0.068369,0.151161,-0.121335,-0.034894,0.080613,-0.007839,0.031787,0.038128,0.103835,0.128264,0.101094,-0.092334,0.084338,0.033608,-0.038771,-0.073273,-0.058544,-0.180432,-0.143642,0.07536,-0.010479,0.197611,0.021728,-0.053108,0.099451,-0.029683,-0.081798,0.022896,-0.098437,-0.053837,-0.028043,-0.18527,0.121171,-0.044678,-0.068078,-0.052935,0.076213,-0.205855,0.023295,0.085483,-0.06439,0.054715,-0.124667,0.076513,-0.023608,0.182327,-0.058431,0.062316,0.074277,-0.093976,0.038536,-0.157299,0.12902,0.106989,-0.038486,-0.022639,-0.003605,0.174215,-0.100871,0.028551,0.076926,0.057973,-0.047161,0.091144,0.120732,-0.156751,-0.064288,0.117179,-7.9e-05,-0.05846,-0.000955,-0.084807,-0.003125,-0.066334,0.000484,-0.022484,-0.089452,-0.095344,-0.034084,0.096792,-0.19438,0.05707,-0.195325,-0.139607,-0.120201,-0.00964,-0.144449,-0.012821,-0.281674,-0.228649,-0.081129,0.038126,0.085431,-0.009141,-0.03159,0.00685,-0.022058,0.120887,-0.087985,-0.122048,0.054047,0.244099,0.046752,-0.017855,-0.026079,0.046763,0.045101,-0.047283,-0.045761,-0.160628,-0.249832,0.123521,0.121729,-0.083176,0.023952,0.199234,0.177807,-0.066944,-0.034643,-0.174726,-0.112304,-0.029742,0.103592,-0.456042,0.081494,-0.016268,0.115233,0.036863,-0.022156,0.151008,0.020031,-0.078987,0.025468,-0.101248,0.074244,0.025072,0.208516,0.007929,-0.071572,-0.045582,-0.051852,0.088464,-0.084459,0.054801,0.092147,0.102804,-0.04429,0.057936,0.057488,0.11612,0.053858,-0.168765,0.111581,0.026354,0.050388,-0.197209,-0.124663,-0.298282,0.083891,-0.049375,0.206329,0.071828,-0.397853,0.175395,-0.075599,-0.057666,0.027646,-0.153841,0.051646,0.294802,0.067378,-0.004978,-0.108649,0.05518,0.094506,0.083418,0.298704,-0.068592,-0.094446,-0.241697,-0.133283,-0.112761,0.031857,-0.139135,-0.141915,-0.042563,-0.064121,-0.177338,0.030199,0.113419,-0.091451,0.108817,-0.182255,0.075552,-0.074916,0.048265,0.164821,0.092821,0.002874,-0.103027,-0.199185,-0.074914,-0.136973,0.008898,0.068846,0.049311,0.028183,0.082931,0.070929,0.591497,-0.14188,0.074479,-0.031529,-0.102807,0.076215,-0.063816,-0.017438,-0.259167,0.06991,-0.087621,-0.130753,-0.028896,-0.335451,-0.266893,0.009853,0.069224,-0.122553,-0.072465,0.017192,0.080645,0.04112,-0.130004,-0.09766],[0.015722,0.030364,-0.212288,-0.154879,0.141738,-0.05799,0.04308,-0.016906,0.11513,0.037377,0.148226,0.069613,-0.103072,0.118815,0.010629,0.168095,-0.059583,0.058044,0.080327,0.154861,-0.089717,0.045242,0.018858,0.026983,0.032336,-0.078892,0.043156,0.021636,0.048655,-0.035461,0.050101,0.007501,0.106808,0.138224,-0.05944,-0.223908,0.05247,0.013814,-0.061197,-0.019497,-0.098997,0.237775,0.042872,0.067302,-0.046415,0.024527,0.025872,-0.006964,0.119952,0.175273,0.029222,-0.087379,0.03461,0.085083,0.148806,0.119318,-0.040478,-0.03691,0.22583,0.027094,-0.005221,-0.046148,-0.029886,0.018327,-0.177574,-0.067279,0.009069,-0.093081,-0.066587,0.071975,-0.055404,0.046861,-0.046958,0.049097,0.121888,-0.004068,0.031419,-0.070296,0.04639,-0.009598,0.091981,0.044261,-0.003836,0.005869,0.070887,-0.099413,0.086903,-0.008439,-0.112793,0.01917,0.044172,-0.010615,-0.109116,0.048626,0.118804,-0.01743,0.021114,-0.023759,0.095414,-0.038613,-0.071523,0.017028,0.090894,0.172797,-0.111969,0.182788,0.208994,0.053612,0.006006,0.200239,-0.151788,-0.040789,0.114058,-0.046998,0.008804,0.002873,-0.018008,-0.004554,-0.023643,0.212874,0.065121,-0.014969,0.018231,-0.026755,0.133482,-0.011786,-0.012998,0.14497,0.101062,0.116814,-0.039694,0.050986,-0.134826,0.048759,0.073689,0.145881,0.086251,0.03,0.079317,-0.01903,-0.087459,-0.108908,-0.083039,-0.060921,-0.098927,0.154378,0.161052,-0.014665,-0.239321,0.066446,0.042736,0.035627,0.064322,0.022204,-0.091742,-0.006841,-0.078483,0.010137,0.04349,0.163494,-0.005585,0.016847,0.184713,0.027175,0.05362,-0.123457,0.065663,0.107834,0.206363,-0.193689,-0.042019,0.093201,0.069694,0.147949,0.007215,-0.039873,-0.01667,-0.107461,-0.227067,0.082926,-0.228766,0.177524,0.128551,0.200246,-0.103701,0.054854,0.16987,-0.124754,-0.01419,-0.043556,-0.183662,0.097966,0.169292,0.153159,0.000837,0.133639,0.032163,-0.05837,-0.098575,0.125819,-0.036439,-0.096191,-0.265713,0.078704,0.050754,0.098006,-0.090821,-0.136231,0.050923,-0.008216,-0.09509,-0.126475,0.016646,0.036056,-0.038196,-0.192958,-0.033613,-0.032294,0.132244,-0.001138,0.282212,-0.057503,0.015069,0.096266,-0.077742,0.10076,0.029054,0.004992,-0.090024,-0.011927,0.141053,-0.037708,0.03156,-0.049955,0.004718,0.103428,-0.052024,0.088974,-0.025641,0.045591,-0.043877,0.002453,-0.061466,0.033626,0.000901,0.168854,-0.0757,0.080399,0.09194,-0.113304,-0.031511,-0.050196,-0.075071,0.043526,-0.044397,0.02852],[0.028013,0.013597,-0.081068,0.017273,-0.16688,-0.025369,0.045661,0.01267,0.050913,-0.083525,0.013025,-0.038295,-0.024397,0.064946,0.251493,-0.118405,-0.078453,0.087732,-0.001736,-0.03266,0.026005,0.038607,-0.034461,0.069491,-0.045004,0.07064,0.011759,0.048145,0.0545,-0.042122,0.080979,0.041259,0.074751,-0.022874,-0.07875,0.39575,0.060867,-0.055225,0.095774,0.005622,0.060887,-0.134985,0.106481,0.110069,0.057938,-0.022674,0.092513,-0.024563,-0.039445,-0.023616,0.01068,-0.142801,0.082682,0.083247,-0.183309,-0.03579,0.081034,-0.14987,-0.020924,0.041023,0.031375,0.12647,0.109144,-0.091848,0.076266,-0.082407,0.045555,-0.043106,0.090723,0.014801,0.02272,-0.009049,0.066808,-0.052686,-0.142206,0.000678,-0.004852,0.097698,-0.010853,-0.045942,-0.009564,0.040108,0.041661,0.001296,0.070925,-0.019266,0.042971,-0.058848,-0.097659,0.068424,0.075362,0.02591,-0.072532,0.001262,-0.014109,0.013511,0.063475,0.077275,0.065527,-0.035118,0.038318,-0.066993,0.066632,0.043236,-0.152048,0.224199,-0.141338,0.11751,0.002744,-0.121335,0.011717,-0.183681,0.032232,-0.106338,0.220921,-0.019351,-0.028733,-0.05736,-0.081602,0.024955,0.039069,-0.021532,0.014416,0.015714,0.042238,-0.026357,-0.028666,-0.001356,0.153086,-0.159802,0.042013,0.073729,-0.138529,-0.034596,0.099851,0.032328,0.08184,-0.147598,0.081569,0.032943,-0.000158,-0.029036,-0.00941,0.096742,-0.253335,0.073694,0.125684,-0.013655,-0.060404,0.017415,0.006625,0.05678,0.199142,-0.029135,0.052855,-0.093418,-0.064395,-0.028178,-0.008102,0.204264,0.004186,0.083824,0.143565,0.003234,-0.028453,-0.106482,0.002651,0.03771,-0.248318,-0.149256,0.075369,-0.010533,-0.059753,-0.051374,-0.018294,0.001051,-0.053642,0.001011,-0.185153,0.064627,-0.052952,-0.019199,-0.0302,0.289121,0.001904,0.096806,0.181475,-0.121936,-0.113791,0.027164,-0.386674,-0.067644,-0.013606,-0.037602,0.0874,0.025032,-0.043658,0.001441,-0.072177,-0.0653,-0.010731,-0.088073,-0.196204,0.049805,0.201816,-0.038244,-0.155042,-0.236468,-0.073247,-0.05855,-0.089775,-0.085496,-0.008583,0.107671,0.166869,-0.114527,0.039632,-0.023825,0.073487,-0.004051,0.161367,0.043357,-0.025757,0.050031,0.038494,0.050096,0.018281,0.067833,0.097397,-0.025852,0.020618,-0.060729,0.034809,-0.130989,0.057526,0.06898,-0.037841,0.086244,0.009134,-0.1097,0.017309,0.061663,-0.001519,-0.063587,-0.116173,0.025814,-0.076666,0.020663,0.084146,-0.042344,-0.102459,-0.062081,0.08907,0.049773,4.3e-05,-0.043007],[-0.027574,-0.143003,-0.015356,-0.121946,-0.175593,-0.002268,0.049406,0.062771,0.006652,-0.026202,0.083444,-0.006983,-0.109506,-0.003889,0.207249,-0.09695,-0.140334,0.16718,-0.16929,-0.054033,-0.118586,-0.083619,-0.017563,-0.049232,0.064611,0.081538,0.122664,0.137892,-0.180209,-0.011214,-0.018677,0.052228,0.048969,-0.209445,-0.053433,0.216799,-0.001556,-0.061962,0.013681,0.073954,0.189511,-0.137723,0.057156,0.179243,0.027888,-0.083787,-0.100101,0.086344,-0.088212,0.077239,0.014499,-0.127451,0.198773,0.087834,-0.199703,0.070867,0.072,-0.403573,0.07797,0.17933,-0.039148,0.160299,-0.412634,-0.182049,-0.192846,-0.051251,-0.041982,-0.124543,0.005079,0.006154,-0.03534,0.035408,0.058358,0.034036,0.005069,0.028957,0.037635,0.043417,0.03235,-0.058929,0.13679,0.039755,-0.034563,-0.240755,0.009946,-0.028014,0.064161,0.139333,-0.132779,0.208156,0.030274,0.02849,-0.086953,-0.05364,0.076034,0.015866,0.000422,0.179242,-0.050421,0.022075,0.036307,-0.013349,0.062355,-0.012966,-0.057265,0.302284,-0.140939,0.055722,-0.128371,-0.136898,-0.031848,0.016658,0.012002,-0.042029,-0.140288,-0.053151,0.002463,0.103436,0.016351,-0.104397,0.029733,-0.069257,0.041283,-0.001726,0.010815,0.02811,-0.052491,0.146776,0.01438,0.038063,0.073961,-0.10696,-0.214375,0.042436,-0.324741,0.037223,0.071605,0.179718,0.113369,0.04201,-0.008299,0.012097,0.021274,0.208649,-0.047798,-0.035028,-0.081219,0.01449,-0.10876,0.066179,0.042529,0.079692,0.123295,-0.107555,0.041606,-0.244792,-0.000977,0.017276,0.029426,0.237351,-0.095246,0.232476,0.178104,0.057982,-0.02988,-0.100956,0.020038,0.003045,-0.087164,-0.038525,0.257116,-0.134383,0.040101,-0.051872,-0.211268,-0.077543,-0.079611,-0.10495,-0.167548,0.058834,-0.16031,-0.162725,0.076758,-0.577395,0.070597,0.277331,0.15478,-0.095271,-0.029417,-0.029632,-0.141637,-0.086084,0.228076,-0.022764,-0.040266,0.165296,0.03726,0.053299,-0.159305,0.031429,-0.124659,-0.095795,-0.093034,0.028846,-0.020228,0.064481,0.144649,-0.220419,-0.034801,0.0126,-0.174255,-0.056892,0.063945,0.130028,0.165007,-0.087423,-0.082406,0.053386,-0.002924,-0.056302,-0.258708,-0.087897,-0.164426,-0.168542,-0.051471,-0.12777,0.15278,-0.014933,0.06336,-0.135133,-0.006207,-0.078455,0.12618,-0.103293,-0.068381,-0.130938,-0.083535,-0.006663,0.101758,0.081852,0.037338,0.00461,0.075487,-0.020764,-0.165993,-0.099855,-0.27558,-0.101648,-0.005665,-0.147164,-0.182536,-0.086667,0.05192,0.03576,0.094354,-0.001261],[0.127307,0.001971,-0.179369,0.041848,-0.157569,-0.043454,-0.118959,0.133111,0.039343,-0.010064,0.086516,-0.061126,-0.100838,0.004887,-0.006183,-0.115203,0.116244,-0.133803,-0.121864,-0.029968,0.12836,-0.024232,0.08476,-0.20561,0.023958,-0.076216,-0.011857,-0.023023,-0.174172,0.062846,0.014499,0.069001,0.072598,-0.021497,-0.116292,-0.065536,0.060212,-0.017797,-0.094496,-0.02216,0.07905,-0.137297,-0.153668,0.056203,-0.033224,-0.168035,0.046815,0.055843,0.040317,0.025884,0.047037,-0.11628,0.048155,0.048412,0.137296,-0.132162,-0.04439,0.069397,-0.016503,-0.059715,-0.229002,0.018014,-0.129648,0.03299,-0.098285,0.132597,0.003627,0.045307,0.042822,0.163189,0.060721,0.004869,-0.136047,0.116707,-0.185025,0.052121,0.16144,0.110363,0.110371,-0.008316,0.017415,0.065208,0.039907,-0.05526,0.069921,-0.075057,-0.088045,-0.115564,0.042242,-0.087295,0.06546,-0.023518,-0.050792,-0.250882,0.032201,-0.052777,0.032675,0.059597,-0.121595,-0.033371,0.018866,-0.001921,-0.092856,-0.101416,-0.034911,-0.031043,0.140521,-0.054142,-0.079574,-0.144284,-0.048385,0.223192,-0.073515,-0.158488,-0.173566,-0.026485,-0.052421,-0.168733,0.171233,0.018846,0.079532,0.182332,-0.135976,0.020098,-0.018691,0.05936,-0.077052,0.002655,0.119171,-0.112736,0.088896,0.058542,-0.120692,0.083478,-0.030224,-0.027639,-0.006248,-0.024129,0.021118,0.11339,-0.022662,-0.244117,-0.070616,0.05372,-0.173782,0.029374,0.065633,0.062674,-0.077998,-0.040526,0.046761,-0.203874,-0.087201,0.029624,-0.084353,0.2295,0.163093,0.112718,0.165708,-0.101983,-0.018349,0.014581,-0.159107,-0.105476,-0.057616,0.183524,-0.107076,0.021194,0.050352,0.139852,0.060414,0.088192,-0.029128,0.087941,-0.000346,0.099989,0.011336,0.096824,0.146364,-0.016334,0.160482,0.007767,0.043958,-0.029917,-0.014275,-0.014796,-0.077985,-0.093123,0.017947,0.011225,0.03322,-0.037311,-0.034648,0.040262,0.194046,-0.0422,0.163374,0.066839,-0.002332,0.113671,0.033934,-0.082786,0.048503,-0.007826,-0.014667,0.02493,-0.236613,0.088653,-0.160069,-0.00108,0.053437,-0.055443,-0.349024,0.10591,-0.075249,0.118316,0.05541,-0.138764,-0.114374,-0.13111,0.024418,-0.027071,0.081903,0.174467,-0.037366,0.090028,-0.089176,0.096259,0.07796,-0.019639,0.056968,0.28753,-0.102961,-0.147868,0.027749,0.10901,0.092295,0.065068,0.082955,-0.108113,0.050079,0.045043,-0.067827,0.000706,0.015461,-0.038926,0.00087,-0.170725,0.074089,0.025447,-0.029805,0.06526,-0.032006,0.043796,-0.270819,-0.000979],[0.102781,0.029525,-0.247999,-0.003372,-0.158661,-0.019372,-0.047514,0.099081,0.036791,0.011459,-0.016597,0.086362,-0.030762,-0.039519,-0.010499,-0.087526,0.132073,0.015006,-0.120007,-0.025302,-0.036421,0.054739,0.066823,-0.129096,0.009816,-0.097382,-0.10992,0.050046,-0.114094,0.036259,0.057044,0.047537,-0.024168,-0.142842,-0.131779,-0.075,0.084077,-0.031489,-0.046113,-0.044971,-0.049183,-0.138288,0.067891,-0.038932,-0.083293,0.012838,-0.065136,-0.059721,0.067144,-0.026349,0.060063,-0.125959,0.099175,0.023838,0.142045,-0.050914,-0.098382,0.039148,0.059564,-0.019002,0.199677,0.093561,-0.035253,0.105712,0.046131,0.14139,-0.02333,0.100771,0.057035,-0.042091,0.097805,0.047716,-0.125135,-0.12938,0.072863,0.046936,0.088313,0.052009,0.05927,-0.012374,-0.062461,-0.102013,0.056817,0.021951,-0.167042,-0.030242,0.087459,-0.09595,0.048516,-0.09481,-0.026914,-0.027818,-0.068082,-0.279179,0.023171,-0.064421,-0.014359,0.08017,-0.022468,-0.041009,-0.051456,0.111399,-0.053745,-0.042994,0.100517,-0.043872,0.143675,0.032898,-0.094363,-0.141934,0.012524,0.087651,0.008519,0.010947,-0.043993,0.018944,-0.013642,-0.087997,-0.029725,-0.01733,0.083878,0.138709,-0.367033,-0.060616,0.023208,-0.058916,-0.060845,-0.036744,0.088159,-0.105914,-0.04948,0.033786,-0.115761,0.050964,-0.03365,-0.02209,-0.027174,-0.006378,0.031866,0.057996,-0.057763,0.152158,-0.05961,-0.014809,0.004079,0.065326,0.067628,-0.040005,-0.166589,-0.057469,0.124972,-0.117683,-0.063962,0.048578,-0.098278,0.085841,0.214995,0.070496,0.082378,-0.090312,0.069094,0.003962,-0.006604,-0.059831,0.066181,0.188489,-0.129941,0.037039,0.01809,0.136304,-0.060852,0.07328,-0.230103,0.143132,0.027178,0.119762,0.043871,0.021481,0.14116,0.129045,0.104107,0.01132,-0.049425,-0.000301,-0.076767,-0.022371,-0.062484,-0.133079,-0.030355,-0.014246,0.080466,0.001693,-0.170601,-0.051773,0.250106,0.019485,0.050224,0.136287,0.009295,0.079745,-0.043809,-0.08832,0.049939,-0.009718,-0.07303,0.041982,-0.046434,-0.01283,-0.001385,0.019697,0.091625,-0.015916,-0.033018,0.048144,0.008315,0.053064,-0.114963,-0.164049,-0.119257,0.007679,-0.062629,0.050887,0.090351,-0.01813,0.040501,0.062131,-0.082124,0.035063,0.047591,0.078697,-0.026963,0.222329,-0.087704,-0.095056,0.035781,0.096191,-0.073479,0.047626,0.085863,-0.145035,0.02247,0.033486,0.0156,0.089645,0.030281,-0.131132,0.038703,-0.163017,0.006941,0.027151,-0.028539,-0.006811,0.049127,0.023317,-0.096937,0.048962],[0.078278,-0.049613,-0.175758,0.051444,0.147664,-0.041584,0.024622,0.003257,0.053444,-0.018576,0.040764,-0.076382,-0.026447,-0.045505,-0.017493,0.145574,0.057745,-0.193104,-0.105469,0.122853,-0.050563,-0.063319,0.188115,-0.138456,-0.008593,0.027114,0.045957,0.084758,-0.125183,-0.018979,0.028455,-0.025685,0.00937,-0.112887,-0.133992,-0.111537,-0.057605,-7.3e-05,-0.139103,0.001923,-0.106592,0.200252,0.059528,-0.053403,0.047055,-0.094781,0.066224,0.024405,0.00059,0.002603,-0.055426,-0.141893,0.062466,-0.020777,0.165842,0.079876,0.071816,-0.001944,0.042427,-0.181031,-0.097189,-0.073438,-0.092616,0.132796,-0.169526,0.010436,-0.004924,0.102065,-0.021307,0.011247,0.015771,-0.021263,0.004277,0.152039,-0.005693,0.02228,0.0608,-0.018587,-0.075124,-0.033622,-0.084777,-0.001369,0.002584,0.065817,-0.237284,-0.057168,-0.026803,0.040839,0.067355,-0.08062,0.161371,-0.026631,-0.040686,-0.057901,-0.024883,-0.040853,0.050584,0.044151,-0.053652,-0.061326,0.011494,0.042944,-0.040975,-0.002473,-0.051334,-0.024941,0.17481,0.055773,-0.16484,0.16232,0.048063,0.132019,-0.017464,-0.193362,-0.060614,-0.044235,-0.008785,-0.136375,0.05284,0.091296,0.059982,0.09107,-0.022642,0.0595,-0.045025,-0.016836,-0.030061,0.053932,-0.023467,-0.086327,-0.061458,0.011785,-0.118788,0.040425,-0.016019,0.096435,0.026487,0.000899,-0.026131,0.033711,0.023569,0.006701,-0.04469,-0.112902,-0.036575,0.061235,0.032948,0.149497,-0.028429,0.087553,0.115685,-0.029096,-0.12399,0.065442,-0.085596,0.059612,0.22634,0.126207,0.000181,-0.059539,0.128489,0.0027,0.036279,0.026588,0.037711,-0.131053,0.039481,0.107809,-0.04837,0.017657,-0.086459,0.099184,0.000192,0.067418,-0.046427,0.070015,0.044028,-0.041354,-0.198756,0.124518,0.116526,-0.004791,0.081365,-0.02451,-0.028593,-0.003203,-0.081022,-0.161006,-0.002369,0.046552,0.160771,-0.033154,-0.085393,-0.145092,0.086792,-0.081692,-0.024827,-0.010166,0.099441,0.021817,0.007397,-0.095774,0.008176,0.066495,-0.008322,-0.023202,0.066273,-0.038301,-0.129388,-0.018348,0.164244,0.026738,-0.080916,0.1042,-0.116287,-0.240746,0.056101,-0.259759,-0.072864,-0.088428,-0.047815,0.039613,-0.008674,-0.136515,-0.101459,0.121221,-0.139028,0.035445,0.056552,0.08057,0.026809,0.035115,-0.091831,-0.204125,-0.024038,0.038854,-0.024494,-0.015105,0.11778,0.172173,-0.026893,-0.004416,-0.057235,0.117968,-0.019163,-0.080326,-0.014996,-0.055174,0.069895,-0.052345,-0.123277,0.080264,-0.02637,0.071724,0.143706,0.017215],[0.016845,-0.058463,-0.021611,0.15552,-0.163872,-0.099629,0.052487,0.109557,0.038234,0.027721,-0.051815,0.032636,0.014092,-0.056937,-0.111545,-0.105189,-0.066633,-0.057152,-0.051833,-0.009702,-0.263281,0.074618,-0.056766,-0.210117,0.174406,-0.103928,-0.103687,-0.030766,-0.095246,0.079111,0.043804,-0.035457,-0.026075,-0.009174,0.289216,-0.038179,0.026448,-0.007205,-0.07091,0.06547,0.074052,-0.139675,-0.138606,0.156798,0.106861,-0.287509,0.024651,-0.020868,-0.054908,-0.051366,-0.037455,-0.116821,0.068764,-0.016783,0.108058,0.027684,0.145952,0.012197,0.041547,0.107245,0.148274,-0.058872,-0.122862,0.164297,-0.133624,0.110473,0.023466,0.058403,0.049866,0.089976,0.095592,0.034844,-0.067295,-0.307287,0.109495,-0.017333,0.078135,-0.069517,-0.020877,-0.010904,0.05064,-0.011121,0.039785,0.047151,-0.199534,-0.035812,0.081822,-0.127607,0.166725,-0.087913,0.040668,-0.004023,-0.040875,-0.009513,0.093482,0.011083,0.054096,-0.126147,0.07322,-0.066837,-0.092259,-0.025825,-0.103888,0.045559,-0.007652,-0.125499,0.155831,0.138369,-0.097447,-0.1291,-0.074386,-0.091438,-0.095545,0.0054,-0.152914,-0.048313,0.068305,-0.004387,0.054506,0.064084,0.04876,0.040801,-0.033743,0.061596,0.052054,0.044933,-0.10489,-0.021755,0.254503,0.006441,-0.025952,0.088105,-0.10991,0.039147,0.054678,-0.024053,-0.022267,0.057002,-0.04096,0.037953,0.025441,0.004222,-0.02331,-0.070033,0.023704,-0.004455,0.047974,0.007281,-0.22206,-0.087783,-0.075127,0.011011,-0.107444,0.139969,-0.026709,0.039844,0.133029,-0.054745,0.080953,-0.07998,-0.150704,-0.011124,-0.071089,0.063496,-0.051097,0.178192,-0.001435,0.008887,0.162514,0.047715,-0.12835,0.006933,-0.0416,0.012989,0.072613,-0.029193,0.161404,-0.049042,0.139797,-0.231767,0.095316,-0.046876,-0.068498,0.034055,0.035373,-0.021368,-0.080955,-0.104254,-0.115806,-0.056483,-0.201475,-0.089234,0.034443,-0.200862,-0.033468,-0.046107,-0.002089,-0.04292,-0.080265,-0.066581,0.018907,-0.078102,0.032801,0.088209,0.053395,-0.014204,0.014084,0.129055,-1.4e-05,0.020879,0.244045,0.047152,0.02972,0.003198,-0.070369,0.099563,0.067334,-0.161819,0.031679,0.027726,-0.089008,0.049802,0.110597,-0.13738,0.061429,-0.111852,-0.084104,0.036078,-0.065427,0.098279,0.031379,-0.038142,-0.11215,-0.041169,0.063004,-0.033927,-0.068278,0.011517,0.084364,0.056512,-0.006568,0.026443,-0.165122,0.064411,0.02559,-0.090519,0.062646,0.103224,0.073755,-0.099136,-0.025092,0.001169,0.134338,0.032948,0.270687,-0.03244],[-0.065908,0.036181,0.060075,0.124102,-0.170744,-0.060422,0.105422,0.056321,0.100571,0.006364,-0.009788,-0.00616,0.02111,0.005793,-0.043419,-0.090125,-0.003135,-0.155169,-0.094859,-0.048625,-0.241839,-0.018061,-0.036944,-0.104053,0.13249,0.119329,-0.0081,-0.051598,-0.113046,0.005084,0.019826,0.005651,-0.080773,0.033398,0.011388,-0.06384,0.048162,-0.024512,-0.337805,-0.022425,-0.017536,-0.135088,-0.02817,0.055029,0.049268,-0.180648,-0.004687,0.036979,0.090721,-0.020249,-0.009614,-0.141919,-0.025055,0.037148,0.110898,-0.024706,-0.14805,0.203936,-0.014011,-0.059625,-0.105256,-0.058932,-0.276453,0.295786,0.090775,-0.072589,0.121727,0.070962,0.064881,0.049447,-0.090796,-0.011256,-0.144225,-0.153994,0.165123,0.008145,0.042719,0.029873,0.069061,0.093302,-0.059121,-0.116486,0.032962,0.037362,-0.205159,-0.037789,0.118242,-0.053382,0.138154,0.01182,0.025704,-0.063174,-0.047544,0.101692,-0.002527,-0.043438,0.063992,0.164864,0.087701,-0.064188,0.098391,0.033651,0.059592,0.108211,0.052408,-0.086541,0.148211,-0.000925,-0.058408,-0.130581,0.112258,0.159828,-0.03172,-0.251174,0.065807,0.083339,0.052923,-0.060033,0.062726,0.082311,0.030759,-0.051105,0.011769,0.078761,-0.019391,-0.014006,-0.046045,-0.021055,0.135579,0.028661,-0.037539,-0.010501,-0.119087,0.012461,-0.016123,0.059584,-0.030216,0.062443,-0.00323,0.046797,0.09134,-0.069107,-0.065304,-0.065059,-0.006124,-0.007419,0.062138,0.031567,-0.033871,0.043853,-0.04634,-0.015546,-0.081447,0.058543,-0.072605,-0.00692,0.21849,0.027245,0.008841,-0.045372,-0.05264,0.009329,-0.002299,-0.033511,0.16527,0.199059,0.030791,-0.004686,-0.02281,0.003474,-0.136762,0.021277,-0.01768,0.042027,0.065508,-0.121107,0.060672,0.019376,0.143882,-0.262805,-0.012444,-0.0516,-0.005966,-0.024412,0.098962,0.002413,-0.086942,-0.139463,-0.036988,-0.013266,-0.115392,-0.01071,-0.064473,0.063757,-0.008816,-0.015533,-0.079311,-0.010266,0.235126,-0.028946,0.152171,-0.092053,-0.014645,0.083277,-0.106077,-0.050504,-0.264324,-0.165321,-0.144927,-0.022031,0.23409,0.005008,0.022023,0.054318,-0.116976,-0.0309,0.123387,-0.015137,0.095505,0.083157,-0.040606,0.024839,0.136562,-0.23691,-0.039933,-0.034854,-0.139405,-0.00064,-0.03177,-0.010077,-0.090928,0.049001,-0.097453,0.07044,-0.02983,-0.117378,0.0445,-0.019647,0.080366,0.081829,-0.012409,0.022635,-0.173738,-0.004552,0.139425,0.049729,0.082946,0.031692,-0.080698,-0.102155,-0.034853,-0.019283,0.019031,0.041444,-0.063007,-0.014015],[0.039512,-0.019888,-0.102347,0.190915,-0.171081,-0.078299,0.087183,0.079483,0.038133,-0.004347,-0.030815,0.078305,-0.015805,0.007901,-0.021988,-0.0857,-0.16824,-0.098086,-0.094156,0.032171,-0.175626,0.123379,-0.075829,-0.11995,0.217194,0.235463,0.008565,-0.021686,-0.017366,0.022529,0.009415,-0.042678,-0.036078,0.101758,0.384791,-0.091451,0.059608,-0.015604,-0.014121,0.104121,-0.046692,-0.137532,-0.219664,0.271198,0.132686,-0.143438,0.094797,-0.135383,-0.029459,-0.008788,-0.102773,-0.109425,0.107766,-0.134796,0.086351,0.014613,-0.018822,0.232855,-0.07905,0.009752,-0.067172,0.032768,-0.107928,-0.143158,-0.043898,0.162398,0.049531,0.027244,-0.004725,-0.045765,-0.11481,0.003591,-0.147702,0.075908,0.004643,0.016848,0.060053,-0.038998,-0.132455,-0.038955,-0.058688,-0.000358,0.185086,0.112135,-0.149675,-0.051143,0.083538,-0.196664,0.402188,-0.133226,-0.073997,-0.025789,-0.077853,-0.148324,0.039626,-0.013466,0.119428,0.085668,0.216344,-0.06027,0.132908,-0.070206,0.097625,0.026359,-0.094441,-0.068516,0.187757,0.049733,0.060087,-0.166971,-0.001538,-0.142093,0.038474,-0.20022,0.053823,-0.050389,0.024479,0.033103,-0.000135,0.173081,0.095743,0.110516,0.074791,0.01542,-0.067255,0.198655,-0.131067,-0.018766,0.079804,0.026471,0.18678,-0.042147,-0.156031,0.047927,-0.051624,0.009528,0.022589,0.161815,0.13138,-0.043503,0.033646,0.035985,-0.144288,-0.167602,0.013355,-0.002203,0.021499,0.084628,-0.09698,0.071103,0.038163,-0.035473,-0.06892,0.11273,0.007881,-0.006586,0.410841,0.045269,0.095493,-0.066357,-0.196406,0.022108,0.024903,-0.046244,0.041451,0.186967,0.090614,0.029804,-0.136814,0.004733,0.061341,-0.017068,-0.065417,-0.058459,-0.056497,0.025175,-0.057968,0.107816,0.14067,-0.078192,-0.052949,-0.034009,-0.101386,-0.079762,-0.226583,-0.025383,-0.108254,-0.10457,-0.125494,0.20432,-0.004131,0.261818,-0.029334,-0.008756,-0.047851,0.014954,-0.089516,0.020791,-0.1705,0.027454,0.119977,-0.087873,0.043754,0.031615,-0.169069,0.200476,-0.281211,-0.079557,0.062687,0.244664,-0.344077,0.02955,0.103903,-0.135844,-0.025831,0.176007,0.113361,0.165565,0.073459,0.161021,-0.049617,0.079465,0.221344,-0.118601,0.027334,-0.079258,-0.08598,0.075064,0.002194,0.000868,0.045296,0.072981,-0.242845,-0.07398,0.112296,0.042707,-0.130071,-0.068935,0.093409,-0.091596,-0.261443,0.039441,-0.01037,-0.019397,0.020323,-0.180658,-0.1777,0.217483,0.132713,-0.219229,-0.031023,0.050051,0.104265,-0.06993,0.187662,0.025354],[0.028441,-0.054427,-0.04151,0.096728,0.148202,-0.037967,0.22455,0.000856,-0.017698,-0.052987,0.034658,-0.088735,0.055581,0.049207,0.049305,0.17522,-0.04145,-0.03008,-0.074313,0.159741,-0.235188,0.038398,0.005917,0.016071,0.009723,0.16844,0.137194,0.013479,-0.015889,0.014548,0.035179,-0.037772,-0.038713,-0.046708,-0.162418,-0.083159,-0.055053,-0.013987,0.068353,-0.019102,-0.121531,0.228394,0.087874,-0.021708,0.070116,-0.171873,0.022956,0.103071,0.074092,0.065533,0.019895,-0.127123,-4.2e-05,0.043423,0.159476,0.025862,-0.296446,0.192952,0.070969,0.090088,-0.113548,-0.052734,0.082145,0.139101,0.100733,-0.013743,0.000492,-0.091468,0.046847,0.070788,-0.075746,0.019635,-0.175084,0.13395,0.096508,-0.05377,-0.015077,0.067664,-0.016962,0.1138,0.081943,-0.072864,0.009628,0.010665,-0.057407,-0.074717,0.064374,0.032343,0.061502,0.086013,0.108983,-0.001127,-0.061454,-0.075597,0.083908,0.041539,-0.021409,-0.044623,0.011802,-0.043615,0.09796,0.221781,-0.097617,0.065027,-0.104613,-0.122885,0.20722,0.076084,-0.097655,0.174523,-0.048789,0.067278,-0.007185,-0.096145,-0.021254,-0.014664,0.103887,-0.103999,-0.094415,0.120263,0.044547,-0.006811,-0.080321,-0.016961,0.01242,0.059334,-0.033922,-0.03621,-0.046957,0.079696,0.020529,-0.016355,-0.137631,0.061055,-0.0416,0.178464,0.009177,0.010821,-0.006074,0.010988,0.026765,0.046879,-0.047559,-0.041193,0.135685,0.114934,0.050892,0.045514,-0.135072,0.106942,-0.111986,-0.016757,-0.063773,-0.065205,0.100588,-0.033162,0.190325,-0.03114,0.010185,-0.047345,0.061565,0.053333,0.078297,-0.026265,-0.000731,-0.137207,-0.007215,0.055263,0.186849,-0.103657,-0.063811,-0.072044,-0.038149,-0.076938,-0.005627,0.062345,0.054258,0.047724,-0.224909,0.074538,-0.074642,-0.007484,0.109018,-0.117958,0.107863,0.003694,-0.090053,-0.141773,-0.007785,-0.012382,0.007435,0.070282,-0.134399,0.061619,0.052843,0.12614,0.098513,0.075522,-0.08856,-0.000322,0.070735,-0.083628,0.05038,0.045041,-0.096931,0.019197,-0.191897,-0.093899,0.0248,-0.003708,0.062093,0.0279,0.006073,-0.052402,0.065584,-0.234064,0.074859,0.140722,0.137892,0.068011,-0.080983,-0.080306,0.133324,-0.080619,0.074895,0.109195,-0.10213,0.141094,0.037792,0.054349,0.016706,0.088363,-0.074225,0.016305,0.081682,0.042203,-0.075422,0.028563,-0.028458,0.07169,0.002793,0.063415,0.034064,0.036345,-0.023946,-0.002111,-0.21002,0.023594,0.09298,-0.170243,0.055398,-0.019903,0.00459,0.130439,-0.079897,0.039369],[0.048394,-0.08888,-0.074393,0.067985,-0.166742,-0.022992,0.101798,0.02843,-0.015731,0.033512,0.129253,-0.062448,0.146302,-0.035456,-0.03982,-0.120732,-0.127743,-0.049211,-0.015676,-0.087523,0.255242,0.097268,-0.003847,0.087221,-0.012036,0.081247,0.160719,0.112113,0.061821,0.082686,0.064619,0.085036,-0.068859,-0.108104,-0.171986,-0.113479,0.034141,-0.027498,0.065214,0.008501,-0.041665,-0.138611,0.023069,0.062158,0.086158,-0.218548,-0.013363,0.055767,0.042118,0.066993,-0.125687,-0.132183,0.138689,0.040047,0.137962,-0.016556,-0.001068,0.027343,-0.056934,-0.126114,-0.062154,0.03241,0.102206,0.212361,-0.012709,-0.072999,-0.017319,-0.064327,0.069392,-0.020424,-0.086024,-0.071109,0.006196,-0.191441,-0.012377,0.019026,-0.028388,-0.014816,0.108403,0.116141,-0.00319,0.080236,0.005949,0.061033,-0.125443,-0.033273,-0.039868,0.018346,0.074837,0.129479,0.01378,0.002585,-0.053929,0.04962,0.007354,-0.055382,0.023585,0.07251,-0.086703,-0.01901,-0.17777,0.039931,-0.041149,-0.053621,-0.007817,-0.076513,0.155295,0.079513,0.003919,-0.119146,-0.01115,-0.02161,-0.079043,-0.053435,-0.031097,0.03167,0.032227,-0.073346,0.034132,0.102958,0.020434,0.003845,0.010317,-0.04647,0.018316,0.014293,-0.005854,0.123923,-0.015376,0.045308,-0.034477,0.092607,-0.117695,-0.04968,0.072209,0.026445,0.094264,0.058652,-0.038672,-0.011108,-0.053798,0.077179,-0.055484,-0.03094,0.032156,0.002688,0.061236,-0.038051,-0.076481,0.127924,-0.029162,0.008708,-0.041154,-0.047937,-0.016079,-0.063826,0.141924,0.034304,-0.008153,-0.0423,0.076672,0.036989,0.126691,-0.046491,-0.134319,0.192415,0.000508,-0.116685,0.016767,-0.180881,-0.01808,-0.078562,0.001173,0.050746,-0.039996,0.079912,-0.060853,-0.11865,0.142503,-0.039511,0.023154,-0.068025,0.027835,-0.123308,0.106784,-0.031353,-0.061793,-0.131071,-0.116035,0.087729,0.040412,0.005337,-0.07507,0.124953,0.056712,-0.210975,-0.028442,0.102327,0.033815,-0.006423,-0.093802,-0.061488,0.034245,0.081749,-0.218903,0.079342,0.061516,0.017108,-0.000556,-0.030271,0.133634,-0.049362,0.077457,-0.035103,-0.005053,0.151464,-0.075702,0.133905,0.094738,-0.071575,-0.10701,-0.117621,0.071314,-0.105364,0.022427,0.043204,-0.019164,0.029153,0.101094,0.058775,-0.037706,0.044454,-0.100663,0.00933,0.061939,-0.052726,-0.055632,0.024041,-0.073532,-0.213956,-0.010245,0.082446,0.016558,0.064027,0.071936,-0.237516,-0.312707,-0.092047,0.074565,-0.165683,0.047664,0.025285,0.116362,-0.019799,0.099956,0.067731],[0.017259,0.028404,0.023665,-0.057271,-0.168825,0.069776,0.00109,0.069159,-0.107646,0.00954,-0.002172,-0.020164,-0.129518,0.02178,-0.220311,-0.100507,-0.334263,-0.262388,-0.119961,0.03127,-0.071777,-0.037032,0.055836,0.184352,0.004934,0.011574,-0.065604,-0.000675,-0.012659,-0.06757,-0.029764,0.073583,-0.088624,-0.081161,0.230527,-0.149869,-0.026812,-0.088567,-0.193148,0.051396,0.000136,-0.128512,0.155044,0.169987,0.12208,-0.296307,-0.085195,0.050306,-0.020196,0.053109,-0.154816,-0.117617,0.161724,0.062563,0.129383,-0.058018,-0.151704,-0.094498,-0.056762,-0.235579,-0.01638,0.040679,-0.111863,0.300795,-0.028759,-0.068346,0.057143,-0.090989,-0.097925,0.077632,0.015359,0.069282,-0.113318,-0.112452,-0.058749,0.014829,-0.055569,0.04625,0.061257,0.031119,-0.032579,0.102834,-0.157679,0.006293,-0.145622,-0.026756,0.215651,-0.093024,0.379497,0.095789,-0.000768,-0.075559,-0.101916,0.187512,-0.141391,0.021357,-0.074753,0.109145,-0.069258,0.019215,0.067131,-0.018491,0.061087,-0.095466,-0.098939,-0.186981,0.143077,0.040813,-0.068736,-0.130966,0.102424,-0.044769,-0.094436,-0.033272,-0.069755,0.038999,0.150528,0.034113,-0.043141,-0.035039,0.00127,0.017249,-0.01436,-0.087561,-0.00156,0.024334,-0.072409,0.116861,-0.033353,0.019626,0.000198,0.02754,-0.181857,0.037192,-0.078904,-0.027978,0.156417,-0.006384,0.055007,0.011527,0.000333,0.071898,0.078629,-0.026098,-0.046345,-0.098512,0.020413,-0.093225,-0.069628,0.085937,-0.115574,-0.032219,-0.018965,-0.209889,0.124452,-0.262574,-0.047994,0.116296,-0.000947,-0.014284,-0.143781,0.128538,-0.035376,-0.067888,0.026976,0.18898,-0.056921,-0.058101,0.005782,-0.070517,0.15207,0.006769,0.062965,-0.005005,0.037163,0.008825,0.011298,-0.299726,0.151993,-0.195205,-0.234552,-0.053183,0.059868,-0.107294,0.073381,-0.004668,-0.142289,-0.129022,-0.074231,0.069544,-0.635407,-0.035586,-0.428986,0.170569,-0.015687,-0.006075,0.092554,0.08181,0.102792,-0.063456,-0.080284,-0.096728,0.082284,0.024579,-0.004104,0.048728,0.16772,0.130916,0.056819,-0.002411,0.391128,-0.098826,0.115803,0.087309,0.007035,0.059724,-0.057361,0.176491,0.059217,0.064907,0.015995,-0.006944,0.094879,-0.153697,-0.065508,-0.037299,-0.084325,0.079276,0.155732,-0.054326,0.038558,0.018157,-0.101637,0.254677,-0.073871,-0.111072,0.107018,0.045106,0.050632,0.050904,0.063987,0.010304,-0.002173,0.03909,0.049931,-0.240272,0.011952,-0.033544,-0.037418,-0.108044,0.128573,-0.012924,-0.000778,0.066933,0.199848,-0.153013],[0.111821,-0.034915,-0.030593,0.036683,0.141648,0.057123,-0.07987,-0.336398,0.04114,0.052817,0.003275,0.058507,0.059874,0.059704,-0.124277,0.132609,0.139083,-0.018739,-0.035714,-0.034718,0.011711,0.049636,-0.136009,0.089132,0.024052,0.091596,0.015182,0.081378,-0.138736,0.046229,0.046256,-0.028105,0.095725,-0.045989,-0.012903,-0.028017,0.081994,0.036,-0.051565,-0.004118,0.171066,-0.135813,-0.023858,0.049665,-0.022797,0.209015,0.04096,-0.011819,0.066838,-0.012299,0.020272,0.529127,-0.047909,0.097808,-0.191534,0.046786,0.13216,0.01393,0.042319,-0.0314,-0.060316,0.050163,-0.110058,0.028578,0.008371,-0.060155,0.030206,0.115802,-0.100522,0.095802,0.073373,0.119403,0.018824,-0.072061,-0.007013,0.011331,0.072888,-0.012924,0.031738,-0.11566,-0.03002,0.106554,0.023721,0.055529,-0.07205,-0.046149,-0.013669,0.154544,-0.080947,0.087391,-0.051296,0.220849,0.118344,0.061953,-0.031009,-0.033654,-0.004765,0.047037,-0.044558,0.139356,0.059483,-0.014744,0.047893,-0.006936,0.092998,0.009117,-0.142075,-0.020571,0.077612,0.110435,-0.009258,0.229109,-0.005069,-0.280364,-0.077849,-0.180904,-0.090741,-0.233245,0.116867,-0.010995,0.118992,-0.147935,-0.052451,-0.095583,0.024005,0.151236,-0.000171,-0.029489,-0.214443,-0.071778,-0.052054,0.082203,-0.005036,-0.039015,-0.016017,0.070041,-0.037564,-0.057597,-0.022773,-0.076458,-0.009632,9.7e-05,-0.004623,-0.062422,0.131676,-0.052139,0.061857,0.143735,-0.241018,0.086692,0.00395,0.016541,-0.105187,0.085993,0.032759,0.182279,-0.046013,0.075414,0.162565,-0.097701,0.067074,-0.011392,-0.244948,-0.11126,-0.222212,0.174772,-0.015806,0.139969,0.07441,0.089548,0.045876,-0.044805,-0.07085,-0.201915,0.00605,0.016292,0.004404,0.160164,0.144439,0.022713,0.179013,-0.029407,-0.101974,-0.042283,-0.176594,-0.037697,-0.048256,-0.121191,-0.059771,0.052947,0.013226,0.053441,-0.118487,0.05784,0.155724,-0.237619,0.193163,0.018289,-0.094675,0.073517,-0.145111,-0.105331,0.088047,0.110189,-0.294666,-0.029687,0.073055,0.081716,0.121155,-0.018082,-0.074787,-0.017705,-0.380337,0.002564,-0.011375,-0.031667,0.002185,-0.056758,-0.01936,-0.122491,-0.063142,-0.109322,-0.012544,0.025658,0.104796,-0.084674,-0.112773,-0.030568,0.023628,0.031005,-0.176563,0.026333,-0.094517,0.026935,-0.012857,-0.05538,-0.08901,-0.087117,0.176539,-0.093931,0.102903,-0.430376,0.096967,-0.116684,0.052132,0.004375,-0.053263,0.017275,0.013418,0.101798,0.114398,0.020947,0.030239,0.064928,-0.194699,-0.043761],[0.089414,0.063371,-0.027702,0.010844,0.138848,0.016073,-0.057478,-0.211388,-0.010123,0.045014,-0.049515,0.046425,0.053977,0.17656,-0.071328,0.12677,0.00869,-0.005988,-0.041707,0.01979,0.016262,-0.01888,-0.017093,0.010495,-0.025581,0.04651,-0.031385,-0.049166,-0.092158,0.005009,0.015461,-0.039797,0.051949,0.020059,-0.032234,-0.064012,0.021279,0.019261,-0.258487,0.009678,0.142005,-0.143497,0.059311,-0.018506,0.037139,0.098071,0.137261,-0.077452,0.047846,0.00332,-0.057563,0.309161,-0.089802,-0.005562,-0.189864,0.029074,0.08538,0.091057,0.023682,0.108825,-0.001048,0.006,-0.034238,-0.012793,0.140083,-0.003449,-0.041182,0.035056,0.009755,0.073383,0.047847,-0.045314,0.04254,0.031021,0.081113,0.059895,0.037093,-0.053429,0.023047,-0.051183,0.00721,-0.014163,0.040767,0.044752,0.013852,-0.027125,0.038579,0.078511,-0.097488,0.007441,0.022048,0.149677,0.12409,0.062968,-0.078878,-0.044766,0.037228,-0.04399,-0.056783,0.178763,0.093292,-0.051081,0.0471,-0.014474,0.156552,-0.083375,-0.139326,0.083003,0.148935,0.135285,0.0768,0.042239,-0.099766,-0.283409,-0.200115,-0.130805,0.03559,-0.354285,0.056075,-0.034124,0.088963,-0.130204,0.065176,-0.073761,0.044813,0.072745,-0.008157,0.072957,-0.230939,-0.011754,-0.036902,0.127737,-0.001069,-0.00784,0.025917,-0.016056,0.035735,0.066608,0.026505,0.013137,0.096166,-0.22709,0.087713,-0.071281,0.043004,0.005237,0.056001,0.091389,0.147956,0.025924,-0.056603,0.038409,-0.136538,-0.060843,-0.010943,0.080092,-0.024093,-0.010634,0.258706,-0.099137,0.07901,0.004194,-0.18112,-0.101392,0.02762,0.186302,-0.052207,0.02309,0.054119,0.051349,-0.122609,0.004279,0.021835,0.050823,0.071616,0.024882,-0.022021,0.037062,0.14386,0.108899,0.128146,-0.101321,-0.019707,0.00507,-0.192528,-0.033996,-0.063279,-0.120058,-0.079409,0.02817,0.064844,0.057641,-0.048749,0.062682,0.082919,-0.087583,0.101378,0.058051,-0.067918,-0.022609,0.075402,-0.093866,0.002516,-0.08079,0.122613,-0.040591,-0.056511,0.123642,-0.060024,-0.006327,-0.095754,-0.010709,-0.041853,-0.033316,-0.040155,-0.018309,-0.11666,-0.011125,-0.014313,-0.29731,-0.110098,0.131819,-0.00067,-0.137218,0.029809,-0.062202,-0.170602,-0.005317,0.063022,-0.041091,-0.21733,-0.006454,-0.105654,0.012201,-0.007877,-0.086347,-0.128834,0.017131,0.060319,0.098102,0.084571,-0.279734,-0.081018,-0.149148,-0.007873,0.149525,0.092381,0.095012,0.049125,0.064775,0.003998,-0.011562,-0.052773,0.114501,0.014897,0.066347],[0.065954,0.065267,0.032785,0.036416,0.147206,0.041316,-0.203317,-0.243842,-0.04783,-0.022484,0.108376,0.029122,-0.044131,-0.026456,-0.038484,0.159131,0.003567,-0.027256,-0.013599,0.095847,0.013822,-0.030354,0.012488,0.046016,0.062225,0.023877,-0.025784,0.090962,-0.146928,0.004081,-0.00431,-0.083367,-0.006878,0.052128,-0.021394,-0.064465,0.060263,0.002806,-0.093469,-0.024843,0.096354,0.19152,-0.001158,-0.049593,-0.026829,0.098076,-0.046061,-0.016537,-0.003372,0.020348,-0.105935,0.039668,-0.118218,0.041534,0.163665,0.092465,0.15114,-0.107681,0.005616,0.109944,0.051375,0.041627,-0.27976,0.025093,0.092863,0.060468,0.064633,0.095527,0.075322,-0.013594,0.02494,0.092354,-0.037842,0.083228,-0.008773,0.0457,0.084123,0.045559,0.035448,-0.054747,-0.071925,0.058147,-0.009626,0.016881,0.106179,-0.075102,0.028059,-0.058886,-0.098048,0.096536,0.08085,0.057431,0.12767,0.014506,-0.043546,0.041226,0.072633,0.010498,-0.01395,0.176111,0.008574,-0.081974,0.021613,-0.016144,0.071961,0.006821,0.168475,0.07416,0.15822,0.149165,-0.016629,0.083794,-0.021241,0.016286,-0.068221,-0.071356,0.046224,0.031633,-0.048287,0.045952,0.076695,-0.040938,0.0287,0.129449,-0.005911,0.057413,-0.006432,0.039596,-0.082595,-0.039782,-0.046352,0.035606,0.034442,0.009754,-0.050937,0.02564,-0.085131,0.036408,-0.116716,0.058157,-0.088949,0.032835,0.034374,-0.249033,0.169092,-0.016244,0.037868,0.071129,0.153879,0.031168,-0.040395,0.071451,-0.11644,0.077924,0.084269,0.040594,-0.046798,-0.007308,0.141947,-0.043898,-0.008449,-0.047172,-0.143523,0.129013,0.05641,-0.137895,0.119559,-0.177448,-0.090797,-0.028609,-0.069665,0.019787,-0.156848,-0.211437,0.047233,-0.064497,0.024641,0.101236,-0.177119,0.039897,0.069554,-0.126209,0.00856,-0.02602,-0.190577,0.001327,-0.105683,-0.138457,0.024254,0.062016,0.022157,-0.00844,0.079152,0.124638,0.014053,-0.115082,0.000755,0.045778,-0.02374,0.024641,0.020035,-0.089295,0.013789,0.114296,-0.058137,-0.009374,-0.024358,0.02566,-0.074151,-0.023639,-0.097018,-0.057366,-0.117425,-0.020484,0.044897,0.233414,-0.073295,-0.109304,-0.024304,-0.321648,-0.057175,0.101006,0.02728,-0.089855,0.104317,0.00118,-0.17058,0.024978,0.039307,0.125567,-0.059811,-0.002961,-0.100298,-0.023868,-0.01146,-0.028327,-0.284886,0.10316,0.140743,0.086188,0.117379,-0.162996,-0.247652,0.02567,-0.016296,0.249954,0.134225,0.002192,0.030317,0.068161,-0.010246,-0.004133,0.009728,0.072656,-0.103152,0.125123],[0.02708,-0.068218,0.096863,0.004975,0.10657,-0.037768,-0.173025,-0.264154,0.089609,0.135079,0.060257,0.126682,-0.021762,0.126837,-0.099728,0.141016,-0.001267,0.050019,-0.029172,-0.037853,-0.092611,-0.001704,-0.043822,0.055606,0.025622,0.003027,0.047629,-0.05259,-0.084858,0.084469,0.054242,-0.108331,-0.002041,-0.091653,-0.016294,-0.079634,0.025164,-0.017818,-0.180278,-0.012932,0.075464,-0.137482,0.08088,0.075516,-0.058039,0.065998,0.064864,0.057361,0.068468,-0.047694,0.046522,0.074126,0.029655,0.033057,-0.195006,0.050879,0.015666,-0.137322,0.043565,-0.003129,-0.158953,0.103923,-0.071361,-0.063835,-0.023944,0.017987,-0.126191,0.06418,-0.06584,-0.072403,-0.01869,0.101495,0.101185,-0.032383,-0.065644,0.020785,-0.054997,-0.041912,-0.016804,0.01047,0.051571,0.023324,0.1901,0.070532,0.060368,-0.053993,-0.080026,0.077547,-0.100524,-0.03211,0.077303,0.068322,0.150154,-0.016572,-0.028566,-0.003333,-0.066432,-0.017728,-0.055689,0.067031,-0.118962,0.051765,0.033028,-0.014158,0.137206,-0.080871,-0.147202,-0.002465,0.2004,0.120263,0.002478,-0.032569,-0.005493,0.15714,-0.204955,0.130271,0.069863,-0.014956,-0.027559,-0.085967,0.043379,-0.019494,-0.066048,0.089403,0.029303,0.011848,-0.02832,-0.154774,-0.079887,-0.014889,-0.036457,0.01497,0.008747,-0.001997,-0.092074,0.097628,0.132484,-7.5e-05,0.045052,0.061628,0.040584,0.076746,-0.137936,-0.016609,0.116463,-0.070701,0.052838,0.020321,0.246774,-0.089603,-0.062531,-0.047274,-0.093926,-0.041698,0.023091,0.077024,-0.048911,0.05774,-0.078886,-0.055927,0.100654,0.148924,-0.09508,-0.024626,-0.076346,0.180626,0.071815,0.032106,-0.152031,0.0378,-0.126418,-0.084741,-0.021422,-0.245322,-0.018833,-0.051686,0.12309,-0.055186,0.143894,-0.031475,0.121116,0.047262,-0.135687,-0.033321,0.014087,-0.029009,-0.079868,-0.112742,-0.046203,-0.044433,0.045599,0.049051,-0.028027,0.036314,0.125805,-0.209486,-0.015873,-0.034652,0.129296,-0.034529,0.087345,-0.094846,0.050986,-0.029475,-0.090589,0.050138,0.000305,0.054951,0.021638,-0.002176,-0.176741,-0.116746,-0.001248,-0.001604,-0.177125,-0.160651,-0.049577,-0.044591,-0.068436,-0.14594,-0.063116,0.154727,0.043707,-0.048012,0.065735,-0.10284,-0.142778,0.081517,-0.053476,0.05425,0.0524,0.043547,-0.115915,-0.07971,-0.084754,0.118324,0.040123,0.000916,-0.03475,0.16469,0.032811,-0.083267,-0.247591,-0.070029,-0.034933,0.241641,-0.122901,0.035622,-0.086537,0.070864,0.050335,-0.042191,0.067081,-0.142559,0.050682,-0.058427],[-0.101615,-0.04553,-0.082305,0.103694,0.117175,0.019726,-0.321224,-0.346372,-0.009668,-0.024879,-0.016464,-0.002042,-0.049869,-0.029174,-0.188431,0.149736,0.000562,-0.031462,-0.022825,-0.002627,-0.270231,0.008485,-0.010836,0.009588,0.066563,0.024341,0.028532,0.011882,-0.101633,-0.053147,0.064184,-0.07294,-0.098236,0.06871,-0.057749,-0.065696,0.056739,-0.04359,-0.069621,0.000822,0.058587,-0.133708,0.030083,0.07776,0.003446,0.008423,0.051096,-0.015518,-0.03693,0.089197,0.024442,0.073177,-0.048263,0.108605,-0.192968,0.099014,-0.135129,-0.09851,-0.082537,-0.027413,0.188614,0.062391,0.073206,-0.047516,0.076015,-0.042717,0.108827,0.074751,0.003346,-0.032092,0.079386,-0.11402,0.090308,-0.036569,0.09571,-0.048019,0.027207,0.135203,-0.030089,0.035458,-0.00294,-0.013982,0.026169,0.107643,0.135783,-0.050684,0.015146,0.015841,-0.118727,0.042429,0.063493,-0.229775,0.094045,0.074859,-0.104527,0.063338,-0.0299,0.034822,-0.008228,0.163228,-0.011563,0.028308,0.104125,-0.002705,0.093033,-0.102772,-0.139558,0.008873,0.18954,0.118058,-0.012649,0.124794,-0.037222,0.173982,0.02897,0.166941,0.100575,0.121723,-0.035904,-0.015586,0.037094,0.08612,0.180296,0.057752,0.063253,-0.046855,-0.037048,-0.07189,-0.105189,0.079315,0.082399,0.046418,0.075406,0.080112,0.132263,-0.007421,-0.041016,0.060071,0.013496,0.019486,-0.005659,0.078389,-0.037499,-0.1566,0.027477,-0.021039,0.059519,0.005467,0.252809,-0.073,-0.02895,-0.010752,-0.015064,-0.036364,-0.018322,-0.007734,-0.063089,-0.028295,-0.003255,-0.011642,0.134327,0.057442,-0.070872,-0.006518,-0.123503,0.181815,0.044101,0.027264,-0.117506,-0.18178,-0.139207,0.057256,-0.02609,-0.143618,-0.013794,0.01766,0.03338,0.087342,0.150955,-0.037917,0.125351,-0.06361,0.008931,-0.094436,-0.037176,0.011728,-0.083568,-0.106253,0.021343,-0.083496,0.097306,0.009486,-0.070338,0.011152,0.113696,-0.033019,-0.001429,-0.10076,0.083184,-0.057433,0.104047,-0.082444,0.017046,0.003474,-0.013269,0.002235,0.002002,-0.071279,-0.0845,-0.022795,-0.159617,-0.113159,-0.014157,-0.046036,-0.068153,0.09643,-0.074024,-0.046543,-0.060921,-0.141549,-0.027363,0.11024,-0.022433,0.138413,-0.150461,-0.290873,-0.147955,0.127476,-0.004581,0.059168,-0.063634,0.010127,-0.100268,-0.012001,0.077863,-0.039484,0.102177,0.094193,-0.021391,-0.107414,0.05288,-0.028643,-0.093404,-0.050909,0.1156,-0.062309,-0.051484,0.009378,-0.057388,0.168383,0.020134,0.076857,-0.017331,-0.023243,0.057684,0.078007],[0.060188,-0.035546,0.04463,0.118972,0.087111,-0.187467,-0.119482,-0.260988,0.250025,0.016529,0.078876,0.041598,0.050904,0.051043,-0.178361,0.177633,-0.161086,0.033645,-0.044993,0.053061,-0.260575,-0.249662,-0.009125,0.019931,0.100765,-0.061602,0.032169,-0.09178,-0.014675,0.057462,0.035066,0.013175,-0.023083,0.134262,-0.022266,-0.044317,0.010221,0.014471,0.023915,0.077859,-0.01169,-0.142861,-0.034544,-0.027122,0.008195,0.081372,0.030108,-0.02248,0.01099,-0.210271,-0.081311,0.034933,-0.11729,-0.012712,-0.189454,0.194279,-0.013204,-0.082651,-0.072517,-0.219097,-0.070641,0.118147,-0.158561,-0.000492,0.079306,-0.02416,-0.228382,-0.000603,0.005355,0.029893,0.141394,0.067551,-0.140975,-0.012428,-0.20184,-0.038852,-0.030531,0.082247,0.083446,-0.091801,0.153878,0.100263,0.107041,0.02898,0.013728,-0.043272,-0.059141,0.210653,-0.119665,-0.126518,-0.01073,-0.052787,0.213631,0.008783,0.217229,0.04449,-0.049393,-0.215804,0.000829,0.35213,0.182562,0.03021,-0.139517,0.018433,0.151544,-0.107338,-0.150434,-0.075406,0.213638,0.158793,-0.101874,-0.08485,0.176126,0.083048,0.167973,0.175519,-0.142503,0.199087,-0.01373,-0.037471,0.092883,-0.012967,0.08928,0.123857,0.22599,0.067334,-0.031731,-0.02543,-0.110855,0.058451,0.032329,-0.165433,0.0922,0.073509,0.206132,-0.121353,0.001638,-0.040252,0.16291,-0.062855,0.019404,0.066657,-0.068334,0.041097,0.163242,-0.145091,0.044064,-0.059755,0.07033,0.116658,-0.116732,-0.003142,-0.077814,-0.211002,-0.006596,0.039333,-0.076276,0.078702,-0.129852,-0.045827,0.144586,0.302807,0.055915,0.146758,-0.052357,0.175705,0.036725,0.103398,0.009153,-0.115554,0.098776,0.071591,-0.082018,-0.055289,0.022928,0.036029,-0.04457,0.169026,0.148527,-0.060911,0.037912,-0.104593,0.197805,-0.057788,0.070879,-0.015044,-0.097575,-0.111288,-0.101885,0.112847,-0.138222,0.051514,-0.092259,0.047283,0.020145,-0.026926,-0.07286,-0.046543,0.088995,-0.007079,0.142989,-0.093796,0.00964,0.183366,-0.168316,0.021986,-0.290621,0.041161,-0.089713,0.024993,-0.148448,-0.008176,0.151928,-0.094873,-0.134492,-0.027906,-0.067334,-0.112294,-0.037683,-0.182582,-0.099019,0.184117,0.115549,0.055903,0.096964,-0.017722,-0.133056,0.30859,-0.038636,0.003174,-0.116038,0.029516,-0.219409,0.015712,-0.130716,0.081671,0.092161,0.110566,-0.048923,-0.119626,-0.525405,-0.042515,-0.165599,0.013324,-0.029084,-0.291761,-0.151053,-0.051055,0.017183,0.121392,-0.007817,-0.003462,-0.020829,0.063681,-0.245464,0.011929],[0.038305,-0.026132,-0.05581,0.082304,0.153352,0.015667,-0.116694,-0.228235,-0.044469,-0.045297,0.014173,-0.011682,0.016974,0.049062,-0.073062,0.160573,-0.022703,-0.033457,-0.091056,0.162358,-0.373985,0.00903,-0.081451,0.155527,-0.027049,-0.157669,-0.020502,0.093004,-0.222698,-0.020418,0.024,0.075854,-0.034406,0.188362,-0.055097,-0.066398,0.017579,-0.051892,-0.273141,0.055955,-0.140219,0.221785,0.007894,-0.026134,-0.04502,-0.055775,0.055054,0.076618,0.061491,0.219433,0.090418,0.038393,-0.134234,0.087823,0.15869,0.034751,-0.001641,-0.054391,0.114748,-0.12639,-0.311298,0.085952,0.120788,0.005275,0.004708,-0.026278,0.053015,-0.089988,0.044865,0.004837,0.026347,0.0264,-0.086097,0.005937,-0.00619,-0.08207,0.150844,0.092603,-0.073076,-0.153507,-0.059327,0.002162,-0.034119,0.051591,0.090961,-0.10413,0.095553,0.015595,-0.107645,0.056913,0.059109,0.036972,0.099728,0.016884,0.135454,0.006778,0.082653,-0.092307,-0.042721,0.178193,0.026482,0.038551,-0.000988,0.067114,-0.001912,-0.087315,0.194607,-0.011592,0.030626,0.185063,0.075893,0.000651,0.046818,0.035076,0.110594,-0.109494,-0.067788,0.143892,0.008952,0.144874,0.048384,-0.053826,0.019107,-0.0819,0.003609,0.037169,-0.018571,0.045985,-0.040846,0.040819,0.030712,0.072279,0.075892,-0.026817,0.045867,0.027507,0.012427,0.054642,0.073667,0.076311,-0.01559,-0.065572,0.181492,-0.214457,0.154775,0.012153,0.050575,-0.004542,0.165051,-0.032903,0.068753,0.042167,-0.079611,-0.00664,0.072421,-0.021062,-0.075378,-0.035755,0.022509,-0.031457,-0.000585,-0.021948,-0.01938,0.09125,-0.047393,-0.135879,0.022251,0.024613,0.078832,-0.17258,-0.109872,0.015902,0.111079,0.033494,0.056752,-0.062314,-0.003881,0.101329,-0.218146,0.0875,-0.133765,-0.072118,0.062422,-0.146864,0.024611,-0.020885,-0.098485,-0.118821,-0.036979,0.089952,-0.097598,0.053965,0.092609,-0.005791,0.008092,-0.084419,0.02302,0.036428,-0.02258,0.027101,0.077911,-0.077207,0.005296,0.123806,0.1046,0.041306,-0.126503,-0.01665,-0.067015,-0.010717,-0.10901,0.074005,0.05453,-0.121687,-0.030463,0.056769,-0.07785,-0.189592,0.080224,-0.086692,-0.002459,0.040865,0.01891,-0.201544,0.073636,-0.006185,-0.057751,0.044026,0.089252,0.101724,-0.002219,-0.072739,-0.079152,0.121071,0.090301,0.073861,0.15497,-0.02566,-0.05712,-0.107843,0.024795,0.000648,-0.032373,0.079563,-0.036773,-0.009861,0.023753,0.021584,0.045626,0.2009,0.143493,0.052606,0.012945,-0.043801,-0.168102,0.154692],[0.05928,0.022813,0.075292,0.012119,0.132849,0.077634,-0.201536,-0.156044,0.026286,0.010204,-0.119759,-0.032298,0.012538,0.003134,-0.132463,0.151768,-0.137005,0.082277,-0.017686,-0.037551,0.088987,0.066494,-0.107796,-0.094405,-0.026599,-0.133962,0.106796,0.057891,-0.004546,0.036412,0.098771,0.026803,-0.059781,0.072517,-0.08842,-0.096709,0.013059,-0.045259,-0.122509,0.069267,-0.000698,-0.133304,0.090007,0.006362,0.08118,0.01546,0.115441,-0.028997,-0.020963,0.154333,0.071971,0.053755,-0.168852,-0.023857,-0.178455,0.01499,-0.049489,-0.054663,-0.092927,-0.166306,-0.063864,0.040168,0.014887,0.010377,0.118149,-0.127547,0.015575,-0.042406,0.110315,-0.048471,0.032299,0.061601,0.014185,0.117227,0.035121,0.021433,-0.028965,0.118904,-0.020483,-0.131891,-0.009573,0.028761,0.010997,0.063793,-0.005329,-0.072384,0.113425,-0.036032,-0.115042,0.088537,0.07983,0.027626,0.162707,-0.00052,0.071088,0.004648,0.013132,-0.104317,-0.000969,0.141445,0.017969,0.035255,0.024497,-0.042518,-0.254265,-0.055099,-0.143304,0.012566,0.204648,0.116422,-0.051302,-0.001293,0.130689,0.217983,-0.037842,-0.057112,0.082628,0.112083,0.056846,0.055881,0.048804,-0.024431,0.070868,-0.011277,-0.049378,0.065586,-0.058616,0.124111,0.104997,0.047409,0.12287,0.095622,0.19318,-0.030114,-0.210278,-0.034728,0.018798,0.040009,0.061305,0.054368,-0.026563,-0.069172,0.161064,0.088282,-0.06561,-0.045079,0.045923,0.05744,0.138039,0.010811,0.064064,-0.014175,-0.029259,-0.058369,0.081416,-0.076073,-0.071078,-0.069509,0.044568,-0.033576,0.006698,0.02855,-0.187627,-0.018245,-0.052008,0.186598,0.020317,0.027284,-0.006861,-0.080916,-0.082897,-0.268299,-0.044255,0.04922,-0.009308,0.050182,0.088794,-0.00831,0.149396,-0.034889,0.01846,0.036023,0.071946,-0.123096,0.069265,-0.0051,-0.067765,-0.103111,-0.030103,-0.043896,0.224848,-0.035026,0.077415,0.007622,0.041082,-0.093273,-0.025734,-0.054714,0.014907,0.046454,0.005421,-0.07087,0.02382,0.092382,-0.012753,-0.061493,-0.041728,-0.098258,0.059282,0.006653,-0.11959,-0.018667,0.064299,-0.094809,-0.050912,-0.061953,-0.049694,-0.064085,0.118935,-0.035355,-0.065399,0.01906,0.072661,0.068375,0.045477,-0.203177,-0.085753,0.08539,0.117758,0.103657,-0.100423,-0.071662,-0.117234,0.074916,0.008079,-0.020931,0.108357,0.031025,-0.086547,0.039622,0.072314,0.000877,0.105912,0.09208,-0.008167,0.022275,0.127521,0.012668,-0.065284,0.133677,-0.16962,0.058595,-0.041815,-0.075531,-0.132543,0.082569],[-0.02669,0.001373,-0.024293,-0.060789,0.117869,0.040561,-0.10795,-0.115474,0.019028,0.052886,-0.025711,0.003623,-0.015331,-0.211236,-0.109108,0.121881,-0.219138,0.035333,-0.112765,-0.001072,-0.16774,-0.005478,-0.016388,0.072707,0.011854,0.019531,0.122044,0.07466,0.144699,-0.084183,-0.052455,0.070559,-0.077016,-0.075793,-0.05707,-0.076613,0.120532,-0.088147,-0.081188,0.107072,0.075197,-0.135873,0.121831,0.118096,0.050887,0.077016,-0.042101,-0.106624,-0.120523,0.133795,0.169534,0.054598,-0.11765,0.128783,-0.192182,-0.017643,0.095844,0.021132,0.138655,-0.30671,-0.159195,0.009634,-0.104634,-0.066866,0.127576,-0.15477,0.055947,-0.061972,-0.003689,-0.243844,0.006483,-0.090286,0.141434,0.124035,0.007504,0.040055,0.093098,0.01308,-0.042873,0.052191,0.091108,-0.016947,-0.095239,0.088787,0.050365,0.012354,0.13956,0.149723,-0.135617,0.055887,0.004303,-0.180699,0.379179,-0.105551,-0.073826,0.024362,-0.107835,-0.149891,-0.132445,0.1051,-0.026207,-0.032852,0.077825,-0.033362,-0.30281,-0.230157,-0.134974,-0.060869,0.024369,0.12282,0.057297,0.042478,0.165954,0.07409,-0.185785,0.130591,0.127288,-0.181412,0.054978,-0.244699,0.018774,-0.039782,0.153407,-0.097673,-0.01497,-0.019184,-0.116034,-0.131437,0.167896,0.054576,0.08954,0.010872,0.638843,0.025496,-0.004364,0.06276,-0.059059,-0.065973,0.068459,-0.086518,-0.027668,0.022101,-0.215657,0.084116,-0.100328,-0.04446,0.016614,0.01145,0.14676,0.072847,0.14855,-0.051168,-0.003125,-0.053816,0.069613,-0.267791,-0.032675,0.081544,-0.079341,0.00633,-0.080909,0.047517,0.006484,-0.072824,0.03377,0.203049,0.118158,0.148426,-0.08876,-0.071528,-0.003438,-0.167162,0.007785,-0.045516,0.210342,-0.108627,-0.006253,-0.019977,0.142993,-0.011586,-0.356291,0.209111,-0.081958,-0.164142,0.212632,-0.005412,-0.162727,-0.107261,0.08458,-0.052718,-0.03152,-0.030708,-0.096907,-0.110768,-0.011147,0.07181,0.058804,0.022281,-0.036176,-0.095635,-0.143122,-0.098543,0.079876,0.076403,-0.016138,0.127926,0.226693,-0.128994,-0.026317,0.046429,-0.151498,0.101028,0.124954,0.138138,-0.078161,-0.159479,-0.005493,0.091407,0.003146,-0.222853,-0.077759,-0.09385,0.068761,-0.737736,0.087166,-0.249825,-0.084377,0.003095,0.085385,0.019304,-0.009099,-0.041462,-0.102502,0.010341,0.025379,0.015623,0.112337,0.066235,0.001576,0.090789,0.174589,0.008439,-0.06998,0.027153,-0.08921,-0.017408,-0.171847,-0.004404,0.022853,-0.025215,-0.138335,0.012302,0.025637,-0.001745,0.011286,0.165606],[-0.33747,0.044347,-0.045416,0.090844,-0.156287,0.100192,0.029563,0.04086,0.058046,-0.171327,-0.057566,0.018169,-0.030894,-0.034631,-0.016494,-0.109722,0.148066,-0.018683,-0.097949,-0.026262,0.100116,-0.077608,0.159057,0.000988,-0.050143,0.085734,-0.010059,-0.024569,-0.062722,0.106677,0.187722,-0.022692,0.070728,-0.128939,-0.060593,-0.053245,0.209143,-0.097426,-0.047271,0.090937,0.044019,0.163494,0.093125,0.011507,0.001828,0.098058,0.076363,-0.006935,0.100477,-0.018477,0.123312,-0.065358,-0.000114,-0.020999,-0.186003,-0.044188,-0.033198,-0.026751,-0.061574,-0.00272,-0.145896,-0.077933,-0.128078,-0.034035,0.055564,0.075806,0.068935,0.058016,0.069107,0.011963,0.113096,0.029561,0.153103,0.047078,-0.009396,0.0036,-0.000743,-0.124668,0.090657,0.018485,0.008461,-0.06398,0.147084,0.014063,0.063186,0.074116,-0.043847,-0.159013,-0.102059,-0.054834,0.050024,0.097217,-0.038022,0.069658,0.008483,-0.29588,0.025063,-0.006096,-0.01508,-0.032901,-0.129714,-0.029681,-0.038586,0.049807,0.010895,-0.041267,-0.141236,0.010171,-0.036333,-0.122286,0.044835,-0.033924,-0.076907,-0.222272,-0.056561,0.116952,-0.008841,-0.65356,0.085967,-0.166518,-0.054861,-0.003228,-0.068599,0.080478,0.000503,-0.016598,0.075265,-0.021698,0.047329,-0.012164,-0.013806,-0.153542,-0.11148,0.000199,-0.041691,-0.024738,-0.020911,0.055707,0.079908,0.023946,0.120307,-0.083716,0.010468,-0.093306,0.020581,0.048539,0.0804,0.103308,-0.054736,-0.008299,0.018524,0.204574,-0.083607,0.013836,-0.115055,0.204818,-0.064738,-0.077169,0.022348,-0.049204,0.009417,-0.066191,-0.020039,-0.199476,0.010141,0.169686,-0.015318,0.12121,-0.12982,0.125579,0.005159,0.046494,-0.1453,-0.305582,0.045755,0.083572,-0.06749,-0.270451,0.148654,0.15051,0.093054,0.057504,-0.071348,0.026138,0.135545,-0.040698,-0.06901,0.548226,-0.187666,0.070545,0.084665,-0.007716,-0.061935,-0.054849,0.05648,0.091096,0.129622,0.021647,0.069394,0.033863,-0.117954,0.045789,0.075447,0.088577,0.101954,-0.066179,-0.008419,0.137048,0.090722,0.04109,-0.095288,0.008109,-0.433479,-0.074421,-0.24389,-0.084289,-0.147682,0.134157,-0.151551,0.063439,-0.043646,-0.134577,-0.067601,-0.016061,0.148297,0.200861,-0.120117,-0.003801,0.179154,0.009614,0.022038,-0.059494,-0.105906,0.069801,0.059141,-0.053198,0.109067,0.009112,0.135322,-0.002855,0.055066,0.099913,-0.10824,0.154038,-0.031905,0.102982,-0.005699,0.061579,0.071951,0.038955,0.019564,0.113119,0.069608,0.043038,0.052015,-0.028995],[-0.249323,-0.074918,-0.027597,0.043341,-0.16693,0.125457,0.034078,0.067507,0.065826,-0.179281,-0.126779,-0.012061,0.043427,-0.027211,0.079024,-0.088681,0.143757,0.012639,-0.11133,-0.059964,0.183531,0.034131,0.133585,-0.016908,0.011666,-0.193101,0.040738,-0.038253,0.039392,0.058466,0.145551,0.129644,-0.036986,-0.059332,-0.046129,-0.087811,0.159761,-0.039366,-0.118624,-0.028583,0.040835,0.170081,0.070504,0.100402,0.032058,0.086028,-0.008722,0.066104,0.040648,0.028836,0.119128,-0.122809,0.030322,-0.187353,-0.172587,0.008821,0.005031,0.133918,0.054494,-0.057813,0.137028,-0.015817,0.084155,-0.01319,-0.070556,0.075171,-0.024569,0.084542,0.044717,-0.003128,0.120476,-0.01247,0.023003,0.146484,-0.060071,0.0233,-0.06752,-0.135225,0.031273,0.040387,-0.022006,0.080026,0.073239,0.031087,0.018979,0.115987,-0.04823,-0.071097,-0.097111,-0.01916,0.109605,0.065675,-0.064366,0.044867,0.04003,-0.154145,0.048138,-0.032584,-0.039784,-0.038024,-0.09149,-0.007024,-0.037744,0.041008,0.064287,-0.088518,-0.141296,0.038317,-0.085229,-0.141698,0.064011,-0.008724,0.073261,-0.273262,-0.151633,0.033624,-0.043074,-0.292412,-0.002593,-0.072483,0.07066,0.02905,-0.097996,-0.036723,0.015212,0.014526,0.082267,0.005163,-0.127998,-0.070134,-0.042875,-0.058417,-0.126109,0.039486,0.011131,0.076043,-0.11377,0.06717,0.06903,0.012446,0.064807,-0.006178,0.027864,-0.052308,-0.033111,-0.034759,0.059244,0.053019,-0.099696,0.122881,-0.064988,0.080426,-0.072705,0.034828,-0.154911,0.086961,-0.068947,-0.095388,0.034368,-0.05258,0.055602,0.035648,0.048748,0.087754,0.077714,0.175487,-0.053835,-0.028039,-0.165933,-0.008895,-0.074538,0.019128,-0.150554,-0.244786,0.08467,0.081471,-0.109862,-0.262085,0.145257,0.083819,0.061472,0.075042,-0.018753,-0.027186,0.070552,-0.011158,-0.08793,0.273271,0.253594,0.09473,-0.111767,0.050457,-0.030193,0.008929,0.080752,0.083851,0.003461,0.120279,0.078472,-0.041848,-0.065649,0.068263,0.041705,-0.008152,-0.120162,0.001645,-0.124458,0.000671,0.004192,0.027816,-0.104102,-0.150599,0.039391,-0.057395,0.082641,-0.023158,0.011793,0.164447,-0.166727,-0.016951,-0.028293,0.032362,0.028509,-0.138063,0.045969,0.073959,-0.125216,-0.049346,0.009386,0.061862,0.017248,-0.057966,-0.066534,0.025343,0.081777,-0.060529,-0.050595,0.007871,0.142972,0.103656,-0.042983,0.064807,0.059666,0.118346,0.065531,0.110095,0.007076,0.041845,-0.000156,-0.002574,0.012969,0.055297,-0.053362,-0.012541,-0.030659,-0.029127],[-0.216874,-0.042871,-0.192362,-0.005805,0.137311,0.060446,-0.028446,-0.00016,0.006322,-0.194238,-0.159996,0.147283,-0.025291,-0.055781,-0.07706,0.142443,0.097326,0.052069,-0.092098,0.031659,0.170493,0.074516,0.057203,-0.007331,0.07008,-0.161469,0.001836,-0.008358,-0.228963,0.017857,0.125347,0.144892,-0.039767,-0.089334,-0.040651,-0.129556,-0.039935,-0.020418,0.04846,0.004466,0.01188,0.180256,0.083285,0.009593,-0.041502,-0.025352,0.056783,-0.108807,0.093275,-0.009347,-0.007724,-0.129862,0.036411,-0.252333,0.153201,-0.013615,-0.121223,-0.028656,-0.017937,-0.042588,0.046897,0.04569,0.008775,-0.031366,0.000995,0.030927,-0.138785,0.061518,-0.03875,0.049757,0.055657,-0.058781,-0.264743,0.110046,-0.164237,0.008433,-0.010664,-0.004676,-0.068078,0.155092,-0.036645,0.08052,0.039663,0.015756,0.06357,0.114131,0.05619,0.074122,-0.106379,0.054721,0.039437,0.069081,-0.0529,-0.069303,0.094036,-0.230412,0.097133,0.09324,0.037896,-0.035845,-0.057271,0.072737,0.101841,-0.077038,0.103636,-0.073972,0.16174,-0.024461,-0.120122,0.131599,0.016478,0.037204,0.070262,-0.127422,0.041668,-0.033772,0.059038,-0.127008,-0.005703,-0.039315,0.079481,-0.065496,0.140888,-0.054166,0.036418,0.064732,0.178939,-0.08902,-0.082484,-0.063944,0.003724,0.027304,-0.140142,0.096197,0.060463,0.071236,-0.018005,-0.029802,-0.042129,0.051957,-0.001767,0.065773,0.072992,0.03774,0.068647,-0.050235,0.050419,0.020804,-0.091681,0.063419,-0.126875,0.013914,-0.090607,0.107715,0.03806,0.083432,-0.043015,-0.010791,0.000648,-0.054675,0.009762,0.000394,-0.174051,0.088976,0.01336,-0.125214,-0.032385,0.02058,0.003719,0.039244,-0.131929,0.080789,-0.319775,-0.209739,0.077477,0.01006,-0.029938,-0.05412,-0.175687,0.12857,0.039569,0.116207,-0.032994,-0.026561,0.038739,-0.012418,-0.084337,0.050533,0.14033,0.005541,0.034649,-0.022907,-0.122562,0.146511,0.062515,-0.018442,0.136453,0.009299,-0.025517,-0.005778,-0.22916,0.093218,-0.034297,0.026276,0.086245,0.005526,0.015871,0.033177,-0.053134,0.020942,-0.113798,-0.18148,-0.107311,-0.004816,0.031895,-0.130253,0.014481,0.054676,-0.030988,-0.107043,-0.107164,0.000332,-0.001885,-0.048564,0.049648,0.073399,-0.117842,-0.005369,-0.126014,0.080756,0.087929,0.004037,-0.087063,-0.000943,0.052281,0.025647,-0.180977,0.026421,0.055825,-0.057328,-0.045893,0.035906,0.151806,0.101623,-0.04409,-0.070364,-0.020903,0.04507,0.093168,0.01996,-0.036844,-0.01855,0.099574,0.021693,-0.01923,-0.13268],[-0.066909,0.060316,0.093105,-0.054928,-0.158108,0.113634,0.028909,0.056975,0.011139,0.108515,-0.020191,0.113814,-0.026013,-0.086471,0.05119,-0.075111,-0.044023,-0.058368,-0.074328,-0.04816,0.100542,0.088905,0.059593,0.057899,-0.073426,-0.060275,0.012379,0.040833,0.064188,0.156489,-0.08919,-0.003437,-0.130022,0.012045,-0.041015,-0.03992,-0.035669,0.253124,-0.158272,0.085801,0.036406,0.167635,-0.058336,0.007737,0.038446,0.074645,0.023099,-0.039575,0.074688,-0.007558,0.138165,-0.098044,-0.090238,0.13109,-0.191562,-0.044391,-0.014628,-0.079818,0.037635,-0.088327,-0.091959,-0.078501,0.136092,-0.003003,-0.113993,0.035131,-0.041543,0.149815,-0.039756,0.005444,-0.012092,0.034569,-0.002056,-0.06429,-0.113151,0.071029,-0.00901,0.117287,0.026057,-0.174745,0.029808,-0.042732,0.005738,0.086945,0.149387,0.085951,-0.034126,-0.017253,-0.096263,0.079059,0.056628,0.005869,-0.071757,-0.023253,0.041798,-0.170321,-0.107042,0.072115,0.066406,-0.054931,-0.074625,-0.056344,0.038758,0.018235,0.109668,-0.083956,-0.140748,0.079727,-0.045743,-0.15128,-0.053781,-0.104903,-0.170759,0.033987,0.128823,-0.07977,0.135101,0.05088,0.01458,0.020915,-0.345857,-0.065701,0.118303,-0.023312,0.00164,-0.042376,0.12322,0.036075,-0.052499,-0.124007,-0.035434,-0.179605,-0.126979,0.046604,0.022917,-0.00467,-0.075652,0.036426,0.06596,0.065721,0.041386,0.005323,-0.011164,0.064155,0.008627,0.095696,0.05587,-0.007674,-0.076751,0.011976,-0.038125,0.141449,-0.09293,0.131851,-0.07392,0.05318,-0.052554,0.032693,0.072177,-0.06615,0.08958,0.031397,-0.115922,0.041916,0.073322,0.191433,0.06002,-0.016276,-0.058103,0.028887,-0.04774,0.175361,0.001744,-0.089427,0.058294,0.000442,0.002036,-0.091634,0.148728,-0.024377,0.001236,-0.00326,-0.045496,-0.057435,-0.06227,-0.024033,-0.096578,0.053054,0.093044,-0.080597,0.119642,-0.022492,0.012252,0.023009,0.0656,-0.061622,-0.035107,-0.10333,0.08052,-0.133325,-0.03208,0.193494,0.042971,0.052955,-0.087183,0.096017,-0.066929,0.036686,-0.020832,-0.048132,-0.12349,-0.18371,0.033851,-0.101906,-0.108174,0.082681,0.029096,0.052801,-0.031083,0.132738,0.012465,-0.088582,-0.110422,-0.053934,-0.150878,0.101406,-0.079736,0.121195,-0.064719,-9.2e-05,0.061478,0.003586,-0.122528,-0.026903,-0.023236,0.010958,0.053868,-0.048018,-0.051285,-0.052935,-0.09644,0.055937,-0.131902,-0.223978,0.070628,-0.160971,0.175108,0.060596,0.043525,-0.02346,0.123636,0.04697,0.007273,-0.011888,-0.023839,-0.106863],[0.024604,0.02422,-0.131883,0.005525,-0.179995,0.113322,0.0044,0.051818,-0.010901,0.055538,0.042117,0.115536,0.068092,-0.074066,0.008111,-0.089431,0.016995,-0.029666,-0.073009,-0.05125,0.016885,0.090336,-0.067731,-0.027952,0.070357,-0.213285,-0.070194,0.009288,0.031038,-0.058348,-0.129752,0.04906,-0.091959,0.042041,-0.020608,-0.0706,-0.105589,0.190998,-0.210832,-0.081081,0.020803,0.17346,0.068171,0.027326,-0.045761,0.016016,0.031558,0.004395,0.013073,0.029517,0.037585,-0.136242,0.000105,-0.020201,-0.189473,0.039921,-0.076374,-0.067569,-0.018892,0.044522,-0.678413,0.01972,0.147329,-0.048306,0.046841,0.097661,-0.059516,0.08703,0.037746,-0.029125,-0.009721,-0.015232,0.009137,-0.022644,0.145712,0.030126,-0.002362,-0.081928,0.03116,0.118101,0.029359,0.080387,-0.026474,0.121863,0.043873,0.185455,-0.006372,-0.133589,-0.090026,-0.026158,0.09198,-0.091754,-0.032767,0.042565,-0.073778,-0.074904,0.027856,-0.032589,0.138949,-0.066568,-0.020168,0.121123,-0.015355,0.032359,0.162638,-0.061161,-0.146832,-0.002561,-0.048339,-0.129831,0.02849,0.042433,0.026597,-0.068912,-0.015507,-0.054929,0.024746,0.069423,0.022752,0.073912,-0.050981,0.034148,-0.038766,0.030765,-0.005906,-0.03624,0.252405,-0.005858,-0.012112,-0.074318,0.020748,-0.138404,-0.156106,-0.037922,0.058203,-0.024227,0.031127,-0.005327,-0.084412,-0.008189,0.031124,-0.012852,-0.003369,0.035916,-0.105746,0.002205,0.071777,-0.097886,-0.086844,0.021665,0.032244,0.051631,-0.024622,0.109348,0.023767,-0.006522,-0.047165,0.162922,0.065563,-0.053974,0.005552,-0.021835,-0.293913,0.047566,0.153453,0.190329,0.057374,-0.032735,-0.035644,-0.096052,-0.096402,-0.043485,0.005158,0.199149,0.006044,-0.106798,0.067407,-0.057721,0.146131,0.048846,-0.015082,0.03234,0.032064,-0.067048,-0.181201,-0.025025,-0.094929,0.065408,0.15356,-0.077922,-0.152405,0.044464,-0.059493,-0.052179,0.004988,-0.04839,0.046401,-0.121991,-0.048039,-0.00564,-0.098175,0.181789,-0.01459,0.045424,-0.145251,0.068302,0.038767,-0.025444,0.130142,0.014198,-0.088085,-0.214089,-0.035578,-0.114236,-0.178942,-0.060325,-0.033946,0.150236,0.075147,0.037355,-0.067301,-0.041098,-0.037579,0.1156,0.088103,0.085783,-0.135273,0.024525,-0.099154,0.062571,-0.111265,-0.11161,-0.117581,-0.094495,0.048414,-0.031245,-0.000371,0.045199,0.05133,-0.048985,-0.054286,0.01296,-0.003984,-0.101804,0.048643,-0.164405,-0.2475,0.012932,-0.020044,-0.097947,-0.003134,0.021699,0.017216,-0.079691,-0.067449,-0.085694],[-0.18052,-0.116552,0.003547,-0.097199,-0.171423,-0.576794,0.081727,0.044644,-0.042258,-0.021725,0.096833,0.01994,0.061084,-0.072668,-0.306418,-0.098772,-0.206922,-0.104358,-0.054579,0.013665,-0.171682,0.178315,0.032678,-0.082536,0.021498,-0.186543,-0.078074,0.167129,-0.001073,-0.040336,-0.185676,0.055602,-0.053769,0.03899,-0.024826,-0.037786,-0.013966,-0.140296,-0.216132,0.113283,0.027916,0.223032,-0.012959,-0.020151,0.110073,0.06442,0.067849,-0.095332,0.051553,0.055491,-0.09413,-0.095801,-0.039545,0.13409,-0.205319,-0.035981,0.036619,-0.160632,0.131317,0.118697,-0.306102,0.046054,-0.078813,0.017424,-0.087058,0.04824,0.070432,0.132008,-0.091902,-0.228216,0.080331,-0.103658,0.130922,-0.086556,-0.062792,0.083726,-0.044718,0.07517,0.041811,-0.035292,-0.133374,-0.024139,-0.048356,0.072823,0.117326,0.328607,-0.077534,-0.187056,-0.145597,0.098523,0.169832,0.015588,-0.073316,0.060582,-0.111733,-0.053289,-0.05787,-0.054183,0.179242,-0.060548,-0.097438,-0.07864,0.036436,0.010359,-0.005525,-0.079686,-0.139129,0.075963,0.044526,-0.130704,0.169139,-0.1791,-0.036385,-0.218682,-0.083437,-0.018742,-0.086724,0.06169,0.007845,-0.117836,-0.403831,0.027854,-0.041566,-0.166197,0.198968,-0.018174,0.186857,-0.008972,-0.119609,0.039429,-0.015826,-0.028257,-0.149436,0.030413,-0.089281,0.128265,0.036758,0.152205,0.13611,0.105343,0.086381,-0.007349,0.034464,0.052179,0.075338,-0.002621,0.041419,0.042208,-0.054081,0.053342,-0.019427,0.045389,-0.05445,0.016589,-0.019459,0.013547,-0.071424,0.023269,0.144593,-0.059212,0.093589,0.116309,-0.118042,-0.052599,0.10255,0.181502,-0.089363,-0.076794,-0.002574,-0.13766,0.159465,-0.014808,-0.032413,0.100757,0.008584,0.137851,0.176504,-0.092593,0.155011,-0.081481,0.004226,0.113393,0.033252,-0.072155,-0.16565,-0.020102,-0.090983,0.048968,0.159378,-0.113817,-0.023984,0.066309,-0.068217,-0.025019,0.165731,-0.012364,-0.029253,-0.073142,-0.017818,-0.190338,0.079402,0.44233,0.011652,0.161879,-0.109516,-0.027579,-0.029851,0.022242,0.021512,0.313784,-0.114373,0.061859,0.055317,-0.246693,-0.117121,-0.086865,-0.00333,-0.129818,0.0849,0.262111,-0.011398,-0.083384,-0.226179,-0.233945,0.161249,-0.100441,-0.094973,-0.056291,0.066185,-0.055095,0.050737,-0.102828,-0.240724,-0.008134,-0.050549,0.140683,0.122049,-0.045725,-0.058192,-0.047094,-0.117514,0.036713,0.047835,-0.093597,0.07434,-0.074529,0.006188,0.01889,-0.034511,-0.098783,-0.016487,-0.135522,-0.026183,0.107633,-0.080083,0.048349],[-0.152842,-0.034445,-0.041625,-0.085126,0.147661,0.07846,0.120559,-0.024388,-0.020956,-0.158164,0.115425,-0.052397,0.080651,0.000787,-0.023809,0.1533,0.070722,-0.015335,-0.081601,0.0881,-0.173466,-0.002041,-0.019068,-0.043079,0.001413,-0.195304,0.111391,0.130315,0.023272,0.031431,0.007824,0.121436,-0.050294,-0.097351,0.004471,-0.071308,0.040625,0.049116,-0.009229,0.042456,0.003959,0.212719,0.041654,0.01859,0.027624,-0.061803,-0.033285,0.051543,0.131246,0.089105,0.002394,-0.128703,-0.009534,-0.073097,0.162343,0.098253,-0.116999,-0.125498,-0.033741,-0.082859,0.166159,-0.047949,-0.171719,-0.038214,0.110516,0.074609,-0.013665,-0.028433,0.108735,-0.033409,-0.011266,0.098227,0.098011,-0.011089,-0.047615,-0.049871,0.02117,-0.134932,-0.034997,0.117557,-0.005957,0.034053,0.058379,0.018999,-0.076253,0.162448,0.01537,-0.02367,-0.082047,0.085537,0.112904,-0.024296,-0.106389,0.002246,-0.031642,0.008706,0.099736,-0.149181,0.10959,-0.039428,-0.065867,0.010452,0.044835,0.033174,-0.069913,-0.055915,0.177838,0.063324,-0.010767,0.156715,0.018731,-0.000163,-0.041157,0.022538,-0.050169,-0.009827,-0.036352,0.082132,0.055962,0.184294,0.085574,-0.023203,0.024749,0.039208,-0.037563,0.018162,0.14749,-0.069716,-0.069714,0.004088,0.038741,-0.027128,-0.140687,0.053822,0.017658,0.027125,-0.012338,-0.011727,0.043791,0.100569,0.049831,-0.033397,0.115231,-0.134899,-0.053185,-0.014869,0.049533,0.05663,-0.207299,-0.065054,-0.017432,0.002171,-0.001764,0.042949,0.015815,-0.024407,-0.051426,-0.033388,0.036912,-0.044582,0.03571,0.083606,-0.11696,0.095361,0.093134,-0.13989,-0.064928,0.057231,0.118945,-0.167654,-0.05268,-0.043766,0.18385,-0.146171,0.073646,0.035892,0.018717,-0.08887,-0.203752,0.11195,-0.171022,0.003021,0.04532,-0.10902,0.054832,-0.025871,-0.089069,0.011502,0.177831,-0.065656,-0.187855,0.037265,-0.124371,-0.009367,-0.028534,0.070702,0.021504,-0.011124,0.017014,-0.007464,-0.273427,0.112535,-0.032128,-0.024684,-0.148227,0.029577,0.119384,-0.110085,0.000549,-0.009071,-0.074511,0.192616,0.029617,-0.082906,0.019721,-0.500647,-0.009334,-0.046466,0.085546,-0.05653,0.019014,0.028467,0.04943,-0.139313,0.066341,0.119103,-0.105223,-0.025001,0.003896,0.061786,0.053182,-0.070025,-0.107496,0.057378,0.014249,0.093203,-0.004317,0.041924,-0.042315,-0.312289,-0.038389,-0.007787,0.031022,0.01905,-0.030459,-0.162946,-0.075283,0.072426,0.110887,-0.101325,-0.036711,-0.010872,-0.021475,0.053467,-0.014255,-0.066622],[-0.120321,0.015393,0.166944,0.022101,-0.165891,0.071082,-0.013518,0.07205,0.072243,0.008812,0.11437,0.116437,0.035168,0.007921,-0.154781,-0.085014,-0.076747,0.029906,-0.08011,-0.071729,0.050514,0.015468,-0.036382,-0.047213,-0.043486,0.012775,-0.042472,0.11058,-0.100291,-0.00775,-0.079905,0.112472,-0.060109,-0.109482,-0.073354,-0.080056,-0.041624,0.176824,-0.197882,-0.038333,0.076839,0.169967,0.047015,0.036706,0.088312,-0.044323,-0.01867,0.064271,-0.033242,0.096035,0.044246,-0.118896,-0.138572,-0.162047,-0.186128,-0.012382,-0.16296,-0.12701,0.047173,0.10585,-0.307408,0.003771,0.174803,-0.058374,-0.172263,0.014556,-0.0107,-0.118943,0.026837,-0.060833,0.135168,-0.054778,0.0796,-0.0553,0.046709,-0.023745,-0.114135,0.003898,0.065261,0.148328,-0.000833,0.053457,0.046824,0.035831,0.006576,0.185118,0.085747,0.002811,-0.09691,0.055529,0.00414,0.014331,-0.069221,-0.051334,-0.088601,0.07029,0.139926,-0.164212,-0.042836,-0.033686,-0.014835,0.090864,0.04464,0.058193,-0.159164,-0.085453,-0.147446,-0.057349,0.068481,-0.141259,0.092996,-0.122677,0.036451,-0.042414,0.078302,0.005616,-0.09873,0.110541,0.010145,-0.015561,0.042422,-0.066133,0.023894,-0.012803,0.003433,-0.024772,0.17295,-0.072991,0.056905,-0.001977,0.065568,-0.078335,-0.144876,0.03653,-0.038405,-0.018109,0.033202,0.071288,0.067299,0.042761,-0.032836,0.126678,0.053112,0.10719,-0.106602,-0.105361,0.052653,0.060456,-0.142139,0.006641,0.039865,-0.105165,-0.059606,-0.053192,-0.001344,-0.046582,-0.036497,0.041681,0.096002,-0.036134,-0.008532,0.071897,-0.235651,-0.044265,-0.029546,0.180697,0.163539,-0.046822,-0.038459,-0.078042,-0.068334,-0.17614,-0.21816,-0.012396,-0.032435,-0.020396,-0.010757,0.023956,0.145582,0.019395,0.042013,0.023552,0.066496,0.005154,-0.120436,-0.025839,-0.075401,0.037276,0.165557,0.061411,-0.291957,-0.050741,-0.156995,-0.07227,-0.059416,0.017375,-0.008256,0.128651,0.059432,0.035764,-0.16825,0.13183,-0.039642,0.027773,-0.083269,0.074155,0.05408,0.020246,0.105573,-0.007907,-0.051669,0.114968,0.025825,0.053177,-0.051533,-0.137465,0.018841,-0.120485,0.112545,-0.050796,-0.041476,0.042041,0.102546,-0.04793,-0.004149,0.14301,-0.11502,-0.039673,-0.04404,0.071536,0.0826,-0.005776,-0.09089,0.014877,0.051706,0.10462,0.015652,0.024309,0.009004,0.140505,-0.048166,0.023222,0.015999,0.167456,-0.02617,0.063277,-0.10611,-0.050452,-0.041153,-0.151181,-0.065658,0.00736,0.029145,0.057693,-0.079386,0.09414],[-0.111843,-0.099909,-0.022328,-0.025727,-0.168305,0.18427,0.010446,0.070115,-0.038021,-0.014154,-0.063857,0.070593,0.005419,-0.045623,-0.174942,-0.098581,-0.255609,-0.006932,-0.077583,0.053319,-0.025015,-0.125882,0.143354,-0.026221,-0.010839,-0.182065,0.016419,0.096332,0.012215,-0.003518,-0.148145,-0.090352,-0.053102,0.008429,-0.051138,-0.095751,-0.16749,0.279748,-0.308978,0.179791,0.028792,0.169122,0.076654,0.104938,0.130885,-0.066075,-0.047323,0.077112,-0.000662,0.075549,0.085334,-0.132401,-0.087539,-0.269055,-0.199176,-0.011214,-0.135076,-0.048378,-0.004365,0.150573,-0.086881,0.031189,0.174882,-0.037454,-0.052851,-0.064782,-0.125381,-0.291165,0.045109,-0.006253,0.040411,-0.004966,-0.131323,-0.053476,-0.030465,0.086218,-0.084956,0.019915,0.041304,-0.239313,-0.057555,0.00542,0.035025,0.007531,-0.06296,-0.743195,0.004252,-0.020998,-0.139116,0.080706,0.041725,-0.059791,-0.105956,-0.118105,0.049747,0.405867,0.021186,-0.282785,-0.107294,0.013894,-0.024333,0.095711,0.06486,-0.037433,-0.136011,-0.184106,-0.141781,-0.043953,-0.099883,-0.12546,0.121381,-0.060376,-0.127694,0.034161,0.020427,0.002891,-0.061165,0.130986,0.013125,-0.051074,0.022136,0.009777,-0.28063,0.16061,-0.00447,-0.082278,0.081315,0.064362,-0.087644,0.065038,-0.009641,-0.191438,-0.197159,0.055752,-0.138899,0.060522,0.000744,-0.066111,0.058371,-0.110541,0.005875,0.092439,-0.115641,0.109775,-0.248287,-0.038669,0.009752,0.002595,-0.065289,0.04074,0.184696,-0.15588,-0.056369,-0.071166,-0.031528,-0.253177,-0.022152,0.040246,0.013568,-0.007064,-0.04215,0.179045,-0.176757,0.088857,0.044105,0.188843,0.066669,-0.037702,-0.045232,0.086344,-0.017157,0.165915,-0.010463,0.01451,0.02146,-0.045733,0.049873,-0.04858,0.149824,0.081343,-0.26677,-0.250353,0.101331,-0.049445,-0.051725,-0.041974,-0.137022,0.041823,0.194636,0.062222,-0.13264,-0.055683,-0.21977,0.08824,-0.050359,-0.031487,0.054882,0.050392,-0.068883,-0.007667,-0.053152,0.32154,0.021357,-0.061246,0.060178,0.147138,-0.094204,-0.011314,-0.001476,0.016727,-0.13912,0.081216,0.139022,-0.020332,-0.081378,-0.467144,-0.007161,-0.162707,0.03537,-0.228381,-0.018958,0.032294,0.044606,-0.007367,-0.080443,-0.011899,-0.076699,-0.037211,0.149604,-0.005743,-0.072652,-0.207393,-0.090255,0.013094,0.001066,-0.104335,0.009478,0.125885,0.05078,-0.249481,0.074415,0.003744,0.113714,0.004686,0.04511,-0.297468,-0.133872,0.076638,0.020941,-0.129758,0.163671,-0.004177,-0.057067,-0.124744,-0.086296,-0.045655]],"b":[0.002038,0.113159,0.095241,-0.076215,-0.142291,-0.001603,-0.005796,-0.049072,0.114701,0.088433,-0.014188,0.12447,-0.031482,0.0653,-0.033961,-0.101403,0.101387,-0.028897,0.04894,-0.039723,-0.187784,-0.110165,0.008903,0.044844,-0.01785,0.024378,0.060414,0.081251,-0.031815,0.132017,-0.008613,-0.009198,-0.097741,-0.066581,-0.162725,-0.003886,-0.05429,-0.070839,0.033806,-0.006696,-0.076512,-0.074825,0.089012,-0.034793,0.044253,-0.010876,0.059523,0.056221,0.09804,-0.106951,-0.064306,-0.122296,-0.116283,-0.057778,-0.106084,0.036556,0.018088,-0.087219,0.078687,-0.066465,-0.109605,0.014252,-0.177451,-0.118346,-0.041446,0.113307,0.069227,-0.095661,0.109799,0.057272,0.057221,0.09377,-0.046915,-0.101924,-0.021076,0.025614,0.016254,0.02038,0.128343,0.104815,0.096389,0.082458,0.140296,-0.104838,-0.076839,-0.02233,0.125197,-0.011164,0.065828,-0.086229,-0.045129,0.069701,-0.087378,-0.042228,-0.072172,-0.048932,0.071076,-0.043662,0.025658,-0.104927,0.064162,-0.037619,0.04089,0.057694,-0.11264,0.0937,0.048324,-0.020242,-0.087965,0.117854,0.059732,-0.097433,-0.07157,0.035316,0.051496,0.075725,-0.016735,0.032312,-0.019991,-0.095314,0.060531,0.143131,-0.079752,0.000463,0.085021,0.019057,0.088184,0.05924,-0.153756,0.131213,0.073326,0.110383,-0.008038,0.113596,-0.14218,-0.001716,0.114029,-0.088978,-0.098511,0.094562,0.101623,-0.11769,0.089707,0.042202,-0.019043,0.106802,0.020692,-0.086571,-0.100612,0.013794,0.011237,0.084755,0.048377,0.020443,0.074365,-0.039049,-0.146975,0.109348,-0.065181,-0.059386,0.070398,0.018979,0.069512,-0.080454,-0.130565,-0.017988,0.02838,-0.023082,-0.024556,0.085601,0.104617,-0.060091,-0.053356,-0.027191,0.13502,0.142932,-0.074412,0.048539,0.004383,-0.141167,-0.156263,-0.004808,0.006375,-0.160385,0.034662,-0.057869,0.017531,-0.115813,-0.112965,-0.010062,-0.11818,0.013289,-0.129269,0.003228,-0.04141,0.038995,0.073592,-0.117089,-0.020826,-0.114583,-0.014237,-0.060634,-0.029227,0.015728,0.089183,0.020698,-0.014027,-0.048277,0.116068,0.132778,-0.127438,0.066102,-0.047022,0.083101,0.072627,-0.15233,0.070342,-0.06877,-0.054587,-0.112683,0.052454,-0.085215,-0.13479,0.005367,-0.092873,-0.128541,-0.123731,0.035648,0.000473,-0.131759,0.116373,0.07012,-0.113581,-0.06508,0.012531,0.040821,-0.103761,-0.076123,0.123261,-0.087154,-0.049867,0.106779,0.02902,-0.050067,0.059688,-0.159622,0.016099,-0.006535,0.103271,0.101734,0.106096,0.109782,0.00345,-0.033812,-0.028658,0.037526]},{"W":[[-0.022612,-0.0,0.102731,0.12043,0.000288,-0.026154,-0.174212,-0.004729,-0.052271,-2e-06,-0.002779,0.282462,0.099578,-0.15245,-0.0,-0.188507,0.003665,-0.070726,0.259967,-0.001385,-0.218819,0.007977,-0.052686,-0.001869,-0.0,-0.025244,0.03347,-0.022047,0.068645,-0.127471,0.371735,0.005083,0.109569,-0.001637,-0.20563,0.0,-0.038271,0.024546,0.091564,-0.094898,-0.113113,0.000525,0.0,0.055407,0.033727,0.033353,0.001803,0.269397,-0.017895,-0.020561,-0.001727,-0.080307,-0.026612,0.017581,-0.001126,0.0141,0.124091,-0.041461,0.074781,0.094003,0.0369,0.001417,-0.090029,0.046578,0.149425,0.004878,-0.000305,0.002357,-0.148467,0.005433,-0.039577,0.134529,-0.072406,0.110171,-0.063786,0.210961,-0.015421,0.123055,-0.0,0.004752,0.123774,0.002554,8.8e-05,-0.042076,0.089969,-0.077931,8.7e-05,0.049086,0.19214,-0.032038,-0.146514,0.013488,-0.003391,-0.008229,0.028775,0.115031,-0.038584,0.009942,-0.015423,-0.200423,0.067263,-0.003925,0.042171,0.061046,-0.005221,-0.134068,-0.780138,0.018255,-0.027477,-0.306376,-0.347471,-0.014127,6.6e-05,0.077074,-0.063279,0.045705,-0.0,-0.041438,-0.0126,-0.126386,0.022935,-0.0,-0.084553,0.014865,-0.009116,0.088831,-0.00324,-0.053317],[-0.298492,0.0,-0.064311,-0.077965,0.007696,0.003298,0.071053,-0.105644,-0.011738,0.000224,-0.003385,-0.0607,0.107427,0.033552,0.000299,0.056711,-0.019519,0.024534,0.0446,-0.013587,0.095266,-0.136895,-0.003502,-0.140722,-0.000331,0.011998,-0.000961,0.059275,-0.031622,0.00762,-0.139216,-0.003314,-0.171269,0.079352,-0.092664,-0.0,-0.012877,-0.223577,-0.021164,-0.068941,-0.057781,-0.010406,-0.0,-4.8e-05,-0.067175,0.027374,0.084634,-0.027832,0.003681,0.011547,-0.002651,-0.203476,-0.011856,-0.043966,-0.009984,-0.001806,0.133652,-0.115226,0.113708,0.051551,-0.01835,-0.030772,-0.057606,-0.075324,-0.103455,0.011496,-0.002109,-0.030035,0.046183,0.033837,-0.036369,0.060907,0.03842,-0.128656,0.008946,-0.004149,0.054217,-0.066471,-0.0,-0.015312,-0.006072,-0.052727,-0.003981,0.05686,-0.039675,-0.08605,-0.002279,-0.031978,-0.013167,0.006339,0.061762,0.007159,0.067391,0.127706,-0.058045,0.067026,-0.0523,0.055169,-0.019337,0.115241,0.090275,-0.02147,0.057917,0.040954,-0.011385,-0.07421,-0.041599,-0.079597,-0.031664,0.008609,0.007495,0.00836,-0.000131,-0.030298,0.000934,0.001693,-2e-06,-0.075485,-0.002918,0.071379,0.07409,-1.1e-05,0.055068,-0.022993,-0.062647,0.101526,0.010261,-0.047083],[0.304174,-0.0,-0.017913,-0.033018,0.023379,-0.005835,-0.125874,0.207132,0.083058,-0.0,-9.8e-05,-0.391914,-0.079879,-0.013792,-0.0,0.129927,0.050693,-0.038038,0.297469,-0.002724,-0.105535,0.118308,0.273603,0.313061,-0.0,0.030294,0.025069,0.080111,0.032491,-0.112988,0.284909,-0.01195,0.144333,-0.248373,0.078659,0.0,0.099021,-0.379423,0.018735,0.13128,-0.035778,-1.2e-05,0.0,-0.074251,0.017013,-0.260684,0.058054,-0.026521,-0.000134,-0.112674,0.165697,0.245427,0.057907,0.064159,-3.4e-05,0.072008,0.001075,0.092053,0.205444,-0.000964,-0.020733,-0.000249,-0.00658,0.056072,-0.09055,-0.000845,-0.001395,1.1e-05,0.055182,-0.025233,0.04967,-0.004772,0.073844,-0.407342,-0.043781,0.109217,-0.018258,0.004528,0.0,-3.7e-05,0.072523,-5e-06,-0.0,0.04791,-0.04415,0.06825,1e-06,0.026937,-0.169624,-0.014167,0.007064,-0.117655,-0.000749,0.11619,-0.031578,-0.012881,-0.008782,0.038148,-0.002772,0.084469,-0.006295,3e-06,0.006776,-0.0486,-0.0,0.002812,-0.081765,0.069012,0.075296,-0.062724,-0.262614,0.000439,0.0,0.016008,-0.078167,-0.083178,-0.0,-0.069632,0.000856,-0.043327,0.01766,-0.0,0.031987,0.090557,-0.033195,-0.035222,0.000421,0.008423],[-0.020139,-0.0,0.318772,-0.014887,0.075675,0.11696,0.115048,-0.043578,0.027429,-0.000115,-0.0,0.193438,0.03282,-0.289588,-0.0,0.146987,0.097898,-0.140777,0.132699,-0.000114,-0.085492,-0.02789,-0.086929,0.101263,-0.0,-0.002917,-0.162455,0.089869,-0.076205,0.184626,0.058281,-7e-05,-0.020353,0.025602,0.023455,-0.0,0.252994,0.134714,-0.005726,-0.021699,0.053635,0.000529,-0.0,-0.01506,-0.030735,0.294446,-0.122251,0.039377,-5.2e-05,0.248725,0.074933,-0.091703,-0.022812,0.04587,-0.003635,0.206801,-0.073134,0.222595,0.03581,0.047517,0.021479,-4e-05,-0.15021,0.181699,-0.054804,0.007642,-0.00016,0.0,-0.101639,-0.061413,-0.017622,0.003527,-0.041819,-0.029837,0.04073,0.353569,0.011078,-0.009499,-0.0,-0.0,-0.035938,0.004167,0.0,0.066965,-0.085824,-0.022959,-0.0,-0.003245,0.043116,-0.030613,0.043483,-0.066773,-0.110086,-0.085814,-0.037206,0.079848,-0.068003,-0.074649,-0.081171,-0.225024,0.093319,-0.000121,0.033822,-0.011143,-0.0,0.006152,-0.110721,-0.090917,-0.012565,-0.055143,0.023579,-0.002139,0.0,-0.102699,-0.014557,0.121448,-0.0,-0.04679,-0.016363,-0.021385,0.025257,-0.0,0.096431,0.276657,-0.717557,0.028887,-0.007393,0.025978],[0.10815,0.0,0.107744,0.057546,-0.050669,-0.16924,-0.069265,0.058001,0.459599,-0.0,-0.000187,0.0,0.222759,0.202192,0.0,0.100272,-0.094772,0.061348,-0.0,-0.02933,0.224382,0.082473,-0.016964,-0.269283,0.0,0.069102,-0.103852,-0.132154,0.402238,-0.096018,-0.229176,3e-06,-0.575164,-0.132691,-0.001498,0.0,-2e-06,-0.340141,-0.041094,-0.027003,-0.150113,0.0,-0.0,0.125697,-0.024889,-0.273543,-0.170276,-0.198703,0.0,0.088439,-0.12847,0.048098,0.042948,0.259744,1.2e-05,-0.203461,-0.087673,0.070234,0.211563,0.109542,0.146717,-0.0,-0.015834,0.109042,0.049977,-0.002984,-0.000216,-0.0,-0.083945,0.074763,0.109861,-0.229181,0.030768,-0.050828,-0.146487,-0.0,-0.3767,0.146187,-0.0,-0.0,-0.129578,0.008099,-0.0,-0.183744,0.088197,0.0,0.0,0.137932,-0.239646,-0.004872,0.267302,-0.158084,0.279544,0.212863,-0.316176,0.104684,-0.058979,0.166843,-0.130504,-0.0,-0.198165,7.4e-05,0.240575,-0.017882,0.0,-0.419342,0.137328,-0.308896,-0.159905,0.057535,0.218409,-0.007206,0.0,-0.283115,-0.130744,-0.053638,-0.0,0.137609,0.012686,-0.270607,-0.05519,-0.0,-0.087813,-0.024086,0.366508,-0.127872,0.0,-0.26633],[0.14693,-0.0,-0.050213,-0.040091,-0.170592,-0.060168,-0.004122,-0.193799,-0.045904,-9.7e-05,-0.000183,0.188049,-0.062168,0.030999,-4e-06,0.125802,-0.168705,0.115312,0.001225,-0.017894,0.215587,0.026713,-0.184558,-0.14342,-0.002655,0.03912,0.107828,0.019502,0.009482,0.064074,-0.028837,-0.006663,0.073206,-0.07969,0.140962,-0.0,0.142329,-0.052378,0.089931,-0.019218,-0.046493,-0.024592,0.0,-0.109199,-0.042945,-0.276153,0.089677,0.162029,-0.002775,0.113021,-0.035795,0.047959,0.054514,-0.031766,-0.002927,0.036877,-0.070809,-0.05537,0.163938,-0.055086,0.204694,-0.012505,0.02296,0.039788,0.122496,-0.022998,0.002084,0.021285,-0.01406,0.051402,0.088016,-0.05186,0.04189,-0.040378,0.015658,0.017991,0.074679,-0.035054,0.0,-0.008214,-0.068506,0.015131,-0.001945,-0.037291,-0.026392,0.171803,-0.004803,-0.108824,-0.057644,-0.047456,-0.110428,-0.030672,0.009801,-0.141925,-0.03443,-0.031782,0.033091,0.026237,0.083801,0.021138,-0.061374,-0.00149,0.191435,0.102347,0.002075,0.155941,-0.060829,-0.185129,0.024119,0.05269,0.060675,-0.014721,-0.000547,0.055439,0.033206,0.023266,-1e-06,-0.109333,-0.00682,-0.075493,0.074982,-0.0,0.021134,0.013331,-0.196876,0.012307,0.012214,-0.026558],[0.00673,0.0,-0.103361,-0.185824,-0.056572,0.127045,-0.130371,0.14265,0.029618,-7.2e-05,-0.001167,-0.011536,-0.146973,-0.077039,3e-06,-0.035053,0.186721,0.038205,0.127504,0.0105,0.22102,-0.058344,0.203714,-0.231674,0.000103,-0.003232,0.067843,-0.045686,0.061774,-0.31613,-0.329229,-0.001056,0.043523,-0.0016,0.02336,-0.0,-0.178815,0.088252,-0.049578,-0.071712,0.063111,-0.003922,0.0,-0.139552,-0.047003,-0.096661,-0.009935,0.00685,0.004746,-0.115566,0.147433,-0.062062,-0.078909,0.032045,-0.001358,0.095151,0.065184,-0.101026,0.038311,-0.113337,0.14238,0.015774,-0.014902,-0.047131,-0.077993,0.004481,0.002331,-0.022213,0.086748,0.030751,-0.035435,0.165098,0.035691,-0.068727,-0.022821,-0.010524,-0.103515,-0.183705,0.0,-0.010737,0.024522,-0.001008,0.001182,-0.147441,-0.095703,-0.079369,-0.002006,-0.132842,-0.012115,0.001124,0.036799,0.027322,-0.131549,0.022661,-0.1234,0.124531,0.059487,0.086882,-0.04372,-0.119181,-0.088557,-0.001066,-0.018345,0.047082,0.00415,-0.120881,0.084694,0.042014,0.016123,0.082787,-0.227551,0.006437,-0.0,-0.105825,0.045009,0.098125,0.0,0.022832,-0.003122,0.00019,0.073205,0.0,0.087521,0.116766,0.258685,-0.049759,0.007337,-0.022337],[0.047302,-0.0,-0.100801,-0.038685,0.020875,0.087947,0.097832,-0.031651,-0.053814,-0.0,-0.001143,0.415826,0.093045,-0.351829,-0.0,0.117896,-1.205715,0.258836,-0.168996,-0.02076,0.129369,0.143004,0.03427,-0.011683,-0.0,0.097482,0.075285,-0.058982,0.025301,-0.005213,0.237208,-0.012785,-0.032889,-0.126995,-0.183187,-0.0,0.223163,-0.004948,-0.058268,0.196161,-0.097604,0.006082,0.0,0.244966,0.012375,0.219897,-0.024826,-0.084888,0.0,-0.364275,-0.006296,0.058842,0.089177,-0.02875,-0.004117,0.125353,-0.003972,0.169589,0.181401,-0.030309,0.004015,0.0,-0.119134,0.01216,0.159711,-0.00656,-0.000107,-0.0,-0.097715,0.111576,-0.007408,-0.194428,-0.127125,0.042314,0.07421,0.025957,0.034021,-0.013773,0.0,0.0,-0.031409,-0.000267,0.0,-0.249561,-0.009587,0.20811,-0.0,-0.035591,-0.210669,-0.025781,0.284934,0.006669,0.01114,-0.101365,-0.001589,0.04245,-0.144432,0.060554,-0.133454,0.149835,0.084142,4e-06,0.003942,-0.027691,0.000107,0.123202,-0.205889,-0.010876,0.081806,-0.008537,0.036224,0.0,0.0,0.119277,-0.059975,0.061014,0.0,0.049162,0.009954,-0.14826,0.005036,-0.0,0.027858,-0.013367,-0.026125,-0.00724,-0.013324,-0.19923],[-0.055092,0.0,0.00355,-0.04673,-0.109088,-0.139372,0.056823,-0.04963,0.064035,-0.0039,-0.021748,0.023175,0.089123,-0.100282,-0.00046,0.052215,-0.11861,-0.000514,0.040868,-0.008079,0.029841,0.004977,0.053633,0.123724,-0.002423,-0.010028,0.071851,0.00204,-0.023029,0.143863,0.053133,-0.04909,0.080727,-0.141274,0.015932,0.000448,0.055825,-0.051775,0.03783,0.012163,-0.041754,-0.042974,0.0,0.127502,-0.081086,-0.013253,0.036451,-0.017971,0.058458,-0.061813,0.113586,0.017031,-0.015878,-0.074792,-0.018365,0.041274,0.032904,-0.057462,0.038421,-0.123686,-0.08619,0.035029,-0.060938,0.046945,-0.048391,0.067281,-0.010152,-0.046671,-0.104961,0.031665,0.093219,0.046113,0.102613,-0.032397,0.036577,0.042751,-0.023554,-0.066254,1e-06,0.038604,0.13043,0.033675,-0.007437,0.085309,-0.077503,0.017531,-0.007269,0.040916,0.00272,-0.058136,-0.085989,0.089339,0.006846,-0.042268,0.048252,0.052898,-0.014506,-0.055289,0.126466,0.093694,0.017942,-0.000751,-0.105957,0.012329,-0.009529,-0.043282,0.04411,0.111947,-0.036572,-0.084347,0.049016,0.024598,0.001067,0.096318,-0.019987,0.022655,-9.3e-05,-0.043411,-0.012779,0.020054,0.115743,0.002187,-0.081509,-0.038388,-0.207024,-0.13357,-0.001822,0.142752],[0.034818,0.0,0.121275,-0.033748,-0.132206,0.002053,0.010033,-0.064481,0.034653,-0.002943,-0.005408,0.145634,-0.043545,0.015806,0.00026,0.018158,-0.152572,0.066255,0.047942,-0.001811,-0.145084,-0.024703,-0.073669,0.101534,0.007668,-0.038502,0.095478,0.064168,0.175462,0.015667,-0.067862,0.03824,-0.005606,0.157392,0.043774,1e-06,0.021937,-0.019739,0.047599,