{"mode_names":["trump_oben_0","trump_oben_1","trump_oben_2","trump_oben_3","trump_unten_0","trump_unten_1","trump_unten_2","trump_unten_3","oben","unten","slalom","misere","allesTrumpf","elefant"],"layers":[{"W":[[0.072842,0.08143,-0.048827,-0.033703,0.050359,0.011463,-0.070863,-0.056491,0.059524,0.066895,-0.133973,0.074463,0.098496,-0.071865,0.001224,-0.002709,0.028768,0.065048,0.01707,0.054625,0.107976,0.019086,-0.037525,0.059019,0.036554,-0.03026,-0.063763,-0.044914,0.049196,-0.046027,0.030261,-0.126275,0.03504,-0.003558,0.005338,0.070698,-0.006092,-0.255039,0.103419,-0.051344,0.000859,-0.039577,-0.081531,0.047347,-0.01604,-0.016496,0.082957,0.020674,0.033555,0.035943,0.033023,0.088378,0.12274,0.071213,0.029997,0.188352,-0.142428,-0.063041,-0.069243,-0.080116,-0.099382,-0.005621,-0.050981,-0.060197,-0.253889,0.042697,0.00376,0.042886,0.018598,0.150217,0.078288,-0.071344,-0.335876,0.041201,-0.034905,0.053758,-0.033265,-0.159686,-0.03318,-0.009179,0.050078,-0.029958,-0.006524,-0.144677,0.047158,0.08674,0.015381,0.080557,-0.01138,-0.150435,-0.168886,-0.047216,-0.012156,0.000848,-0.045717,-0.044337,0.010666,0.051687,-0.122279,-0.113234,-0.18601,0.01469,0.033952,-0.046307,0.034762,0.013179,-0.090561,0.033423,-0.186977,-0.052212,-0.001538,0.022398,0.045872,-0.070546,-0.023502,0.041449,0.036768,-0.065627,0.143723,-0.015794,0.017279,0.090154,-0.0028,0.064855,-0.024499,0.018726,0.055151,0.037395,-0.318555,0.002977,0.002478,0.027791,-0.060486,0.03875,0.114241,-0.040753,0.007504,-0.08398,0.007439,0.128351,-0.014796,0.037586,0.057612,0.08711,0.016839,0.007616,-0.031987,-0.003337,0.02269,-0.026589,0.119463,-0.183928,0.160308,-0.101041,0.042053,0.042967,0.026597,-0.036087,-0.0097,0.071423,-0.01698,0.013046,0.052141,0.004844,0.12041,0.107525,-0.096858,-0.033775,-0.167907,0.050973,-0.072775,0.076847,-0.065952,-0.017106,0.032777,0.001564,0.041401,-0.113228,0.16376,-0.066652,-0.088879,-0.091489,0.030898,0.04313,-0.20291,0.116877,0.122132,0.015196,-0.081527,0.01236,-0.054294,0.039185,-0.032496,-0.003878,0.072552,-0.09368,0.028471,0.079472,0.061137,0.046447,-0.017727,-0.092564,-0.010233,0.121471,-0.008577,-0.104014,-0.050147,0.05269,-0.040905,-0.022848,0.041469,-0.009247,0.013771,-0.063982,-0.064926,-0.074605,0.052228,-0.039765,-0.000362,-0.009372,-0.101981,0.055791,-0.03386,0.043575,-0.071919,0.019248,0.150003,0.062016,0.073195,0.060727,0.027675,0.020149,0.025255,0.029862,0.043565,0.021436,-0.04923,-0.194459,0.009874,-0.017194,-0.024539,0.070467,0.083511,0.033167,-0.027122,0.076935,0.02475,0.089333,0.112998,-0.010888,-0.050457,-0.005312,0.100046,-0.054679,-0.087952,0.047378],[0.092877,0.041189,-0.06332,-0.04767,-0.118397,0.021565,-0.170791,-0.045545,0.105002,0.082944,0.050569,0.063706,0.029004,0.019662,0.048086,-0.008821,0.018058,0.082702,0.026439,-0.047053,0.177933,-0.072086,-0.030863,0.064939,-0.001547,-0.100456,-0.057247,-0.11332,0.048239,-0.041901,-0.085471,-0.037458,0.041015,0.067849,-0.081832,0.053809,0.069818,-0.094285,-0.011274,-0.026009,0.031856,-0.027006,-0.010181,0.072241,-0.071825,0.111455,0.031681,0.006046,0.016773,0.05069,0.090259,0.061569,0.120356,-0.140809,-0.176668,0.136611,-0.169721,0.029961,0.066743,-0.003775,-0.059647,-0.020203,-0.019326,-0.065665,-0.211053,-0.003375,0.048205,0.022891,0.024484,-0.034429,0.018949,-0.013247,-0.139046,-0.10964,-0.06781,-0.020093,-0.086487,-0.103244,-0.06349,0.02265,0.069164,-0.026428,-0.023876,-0.432634,0.027836,-0.007824,-0.022262,0.031976,-0.018715,-0.088873,-0.04955,-0.064374,-0.046521,-0.008354,0.115435,0.046263,0.02418,0.017156,-0.177943,-0.055625,-0.086572,0.068522,0.040588,0.03297,-0.067212,0.042661,-0.024618,0.06611,0.064204,-0.069199,0.05897,0.13881,0.001001,-0.003358,-0.009712,-0.043641,-0.071114,0.002081,-0.039416,-0.120892,0.0723,0.126187,0.02884,0.107802,0.006652,0.008482,0.025325,0.026562,-0.118732,-0.008778,-0.012517,0.046049,0.008603,0.010142,0.059089,-0.087437,-0.058106,0.068475,-0.100352,0.069652,0.087092,-0.015285,0.043228,0.059355,0.011542,0.014751,-0.041342,0.004189,-0.032277,0.086938,0.073008,-0.3298,0.145854,-0.077446,-0.027248,0.061408,0.024272,-0.007156,-0.019851,0.018942,-0.006209,0.030338,0.048572,-0.000369,0.094697,0.049851,-0.077222,-0.009817,-0.16524,-0.008576,-0.086617,0.05818,-0.007492,-0.003855,-0.089319,0.012128,0.035671,-0.033374,0.093842,0.063567,-0.112511,0.087111,0.125042,-0.09006,-0.198855,0.004537,0.063934,-0.042301,-0.055999,0.147082,-0.048052,0.057367,-0.04052,0.066044,0.0453,-0.073904,0.008879,0.090707,-0.103237,-0.013315,-0.032305,-0.08646,-0.044348,-0.036603,-0.018078,-0.060387,0.017766,0.015731,0.100463,0.005144,0.117302,0.023283,-0.039289,0.036104,-0.126233,0.087827,-0.133752,0.03975,-0.104755,-0.014221,-0.035344,0.022485,-0.016827,0.07621,0.029031,0.062886,0.060383,0.054648,-0.015206,0.022084,-0.001515,0.052963,0.044454,0.05326,0.116349,-0.006611,-0.065103,-0.032779,-0.005204,-0.022758,0.067359,-0.022851,0.104276,0.099791,0.064454,0.05435,0.016075,0.071181,0.069549,-0.034649,0.011269,0.058631,0.065629,-0.064699,-0.009315,0.06895],[0.139166,0.055814,-0.055628,-0.035793,-0.340805,0.046622,0.192619,0.008056,0.068742,-0.025176,0.022969,0.087565,-0.0089,-0.091651,-0.041105,-0.042166,-0.110653,0.130637,0.029638,0.018805,0.091323,0.004719,-0.021056,0.104739,0.106042,-0.073081,0.012043,0.001777,0.062649,0.017876,-0.040896,-0.066157,0.058826,0.02109,-0.12465,0.067176,0.026731,0.044677,-0.104641,0.057204,0.05973,-0.041417,0.012837,0.072442,-0.003998,-0.06308,0.064614,0.024173,0.077068,0.036616,-0.070432,-0.006945,0.012391,-0.066729,-0.033451,0.089239,0.005253,-0.01239,0.039816,0.100694,-0.128282,0.013231,0.085698,0.061882,-0.239341,0.128948,0.029305,-0.041297,-0.012128,0.084889,0.034454,-0.083505,-0.019116,-0.02365,0.029691,-0.203441,-0.10012,-0.035516,-0.02849,0.051739,-0.037086,-0.025869,0.04339,-0.144199,-0.011216,-0.029228,-0.084944,0.031499,-0.001705,-0.134949,-0.026231,-0.002353,-0.031613,-0.063483,-0.011285,-0.043931,0.053242,0.056597,-0.150043,-0.009105,-0.04824,-0.021804,0.08267,0.038264,-0.023694,0.018439,-0.067155,-0.008393,-0.227006,-0.05266,0.028356,-0.010087,0.033673,-0.044074,-0.024197,0.048462,-0.115691,-0.079722,0.054436,-0.011159,0.019576,0.015536,-0.00162,-0.033443,0.003915,-0.017184,-0.054329,-0.027499,-0.188776,-0.032552,-0.03007,0.093031,-0.013175,-0.037146,0.025048,0.011957,0.053256,-0.023851,-0.033333,0.052955,0.021395,0.026206,-0.009769,0.039379,0.029963,-0.035562,-0.048875,0.027306,0.05151,0.159323,0.075888,-0.186491,0.127638,-0.117592,-0.107311,0.053101,-0.0044,-0.034942,-0.02181,0.055544,0.024138,0.004762,0.060279,0.076274,0.089545,-0.007423,-0.02236,-0.027794,-0.17416,-0.025091,-0.065327,0.044573,0.13111,-0.002866,-0.121978,-0.065817,0.078622,0.002397,0.013001,-0.049882,-0.088058,-0.071044,-0.063115,-0.102174,-0.094291,-0.113887,-0.040326,-0.007052,0.047788,-0.179772,-0.030361,-0.02792,-0.07452,0.117075,0.04624,-0.046823,-0.025227,0.057485,0.011493,0.032143,0.009954,-0.024708,-0.023961,0.088668,-0.053359,0.117629,-0.011557,0.017605,0.069856,-0.001599,-0.06283,0.009466,-0.060468,0.029192,-0.200012,0.033763,-0.113738,0.068729,0.076586,0.050321,0.018038,0.105038,-0.023118,0.104121,0.075266,0.042865,-0.037027,0.049633,-0.018561,0.031364,0.134165,0.06276,0.002359,0.069754,-0.054397,0.026254,-0.065502,-0.131949,-0.047257,0.145709,0.024035,-0.023077,-0.016308,0.174152,0.083798,0.091181,0.135995,0.113046,-0.01184,-0.043167,-0.062031,0.039712,-0.008468,-0.02858,0.003908,0.084148],[0.081352,0.075454,-0.050498,-0.040046,-0.213459,0.048847,-0.037754,-0.021806,0.0304,0.04197,0.111642,0.063226,0.049397,-0.043423,0.028328,-0.028735,0.003487,0.087053,-0.065478,-0.038454,0.083047,0.127992,-0.014025,0.00439,0.095933,-0.048485,-0.011783,0.020447,0.146936,0.053522,-0.028508,-0.043155,0.020357,-0.105002,0.096834,0.075168,0.01569,0.000252,0.149985,0.059353,0.038374,-0.064181,0.13135,0.076703,-0.008031,0.157511,0.100273,0.008593,-0.042497,-0.010706,-0.378143,0.053303,0.028322,-0.321222,-0.085351,0.082673,-0.113975,0.107539,0.012686,-0.003021,0.006254,-0.015387,0.000189,0.083819,-0.106417,-0.03687,0.102273,0.00241,-0.014907,-0.059709,0.082958,0.100502,-0.189137,0.043521,-0.101486,0.130745,-0.033969,0.030735,-0.000295,0.046015,0.071124,-0.011573,-0.087556,0.100496,-0.032842,-0.047066,0.039559,0.010839,-0.054513,-0.180199,-0.021537,-0.03829,0.217749,0.031569,-0.121678,-0.017977,0.001998,0.017035,-0.071464,-0.269814,0.064734,0.113643,-0.017747,0.010578,0.086688,0.018412,-0.116265,-0.081129,0.056823,-0.059214,-0.057909,-0.093247,0.044464,9.9e-05,0.000507,-0.028098,0.103231,-0.001268,0.04527,-0.021792,-0.018733,-0.006193,0.01745,0.08486,0.0873,0.016536,-0.039454,-0.04463,-0.098503,0.048907,-0.042051,-0.040702,0.01821,-0.102597,0.017645,0.097425,-0.035673,0.112947,0.040424,0.029817,-0.048028,-0.018423,-0.024204,0.019891,0.012387,0.198609,-0.016011,-0.022937,0.009082,0.123152,0.08852,0.022151,0.104439,-0.046795,0.028845,0.140414,0.021159,-0.092183,-0.023024,-0.022196,0.116762,-0.009376,0.012492,0.016515,0.347774,0.05334,-0.036353,0.006627,-0.13233,0.120543,-0.079236,0.054609,-0.075442,0.056176,-0.018494,0.040502,0.076575,0.013968,-0.045386,0.057214,-0.095246,0.120895,-0.02891,-0.014824,-0.187204,0.118494,0.110713,0.018607,-0.029385,-0.120461,-0.054143,0.090422,-0.115889,0.066254,0.004622,-0.054292,-0.06061,-0.0193,0.020893,-0.021949,0.004432,-0.099906,0.019487,0.070504,-0.005236,-0.026671,-0.017493,-0.130455,0.011705,0.019144,0.025748,0.054178,0.026461,0.039856,-0.086662,-0.071468,0.162502,0.061922,0.024858,0.006706,-0.022735,0.061373,-0.018764,0.083912,0.032283,0.039871,-0.056441,0.014223,0.03106,-0.04928,0.096773,0.046521,-0.214067,0.05845,0.184849,0.012047,-0.071308,-0.045306,0.049183,-0.002431,-0.229336,0.013962,0.028096,0.070338,0.122534,0.094062,0.04218,0.077948,-0.017484,-0.073317,-0.031254,-0.067408,0.009243,-0.037896,0.022421,0.085352],[0.10245,0.091564,-0.026505,-0.059865,-0.177539,0.079062,0.010773,-0.04145,-0.008144,-0.075272,-0.149725,-0.020572,-0.065251,0.020462,0.04249,-0.038408,-0.026904,0.070207,-0.066042,-0.085767,-0.008974,-0.269828,-0.042562,-0.010089,0.176625,-0.012044,0.06026,-0.081456,0.08349,0.058345,-0.072758,-0.091029,0.170192,0.024158,0.067187,0.070841,0.081486,0.070973,0.150242,0.019234,0.033178,-0.043863,0.013938,0.053914,-0.017849,-0.168938,-0.026859,0.016181,-0.076476,-0.00616,0.026225,-0.135864,-0.024366,0.087796,-0.256771,0.142598,-0.043933,0.026239,-0.028693,0.093874,0.103777,-0.019184,0.053739,0.008495,0.02419,-0.026136,0.267966,0.058081,0.021679,-0.053936,-0.067885,-0.082005,-0.148012,-0.037848,-0.00598,0.043582,-0.150761,0.01964,0.0606,0.087154,0.120157,-0.095333,0.049504,0.002634,0.032154,-0.22638,0.061607,0.040117,-0.028273,-0.239047,0.003255,0.024542,-0.307063,0.167522,-0.084947,-0.112646,0.027722,0.052644,-0.014811,0.020673,0.088604,0.021789,-0.068185,-0.007134,0.015214,0.048341,-0.071353,-0.028834,-0.058109,-0.057493,0.039774,-0.151335,0.021341,-0.017044,-0.001891,0.038621,0.047789,0.017212,0.032296,0.007229,-0.058425,0.046175,-0.003874,0.013459,0.079434,-0.003933,0.101561,0.053122,0.058651,0.042203,0.009368,0.018785,-0.08516,0.105678,0.003512,-0.099742,0.042414,-0.034015,-0.106095,0.008976,-0.101268,0.002176,0.022334,0.014893,0.051918,0.048094,-0.019328,0.098139,0.078621,-0.019912,0.100988,-0.104833,0.153626,-0.147409,0.063296,0.066029,0.051314,-0.047728,-0.015147,0.083277,-0.107761,0.041493,0.110704,-0.055602,0.163423,0.04904,-0.019712,0.050384,-0.208296,0.015827,-0.107796,0.097385,0.202966,0.067975,0.092377,0.020877,0.062528,-0.10103,-0.484507,0.018649,-0.073056,0.104658,0.048748,-0.060652,-0.248281,0.103513,0.011934,0.050436,-0.074919,0.077979,-0.021255,-0.046422,-0.058668,0.026034,0.07672,-0.088444,0.068705,0.030809,-0.012931,0.139129,0.056339,-0.117777,0.020404,0.014517,-0.024905,-0.030958,0.051463,-0.08366,-0.028034,-0.022443,-0.082805,0.037341,0.031777,0.01189,0.142398,0.035564,0.005874,0.111735,-0.156426,0.087412,0.013514,0.090844,-0.017152,0.04089,0.089189,0.02941,0.001111,0.04104,-0.078199,-0.095817,0.025542,0.047948,-0.291091,-0.003004,-0.239727,0.059054,-0.055168,-0.016104,-0.080953,0.093932,-0.245301,-0.170656,-0.114703,0.107683,0.014319,0.065901,0.002809,0.08854,0.027463,-0.097279,0.038402,-0.05937,-0.123203,0.0286,-0.249952,0.036618],[0.043682,0.110589,-0.024982,-0.031117,-0.278299,0.031372,-0.107839,-0.004592,-0.015579,-0.07653,-0.029423,-0.067786,-0.087031,-0.00822,0.01856,-0.145561,-0.029191,-0.152282,-0.008307,-0.078886,-0.12512,0.044804,0.009372,0.058386,0.037796,-0.022099,0.107254,0.008901,-0.039164,0.089407,-0.20886,-0.002719,0.067367,0.182099,0.089534,0.142779,0.047191,0.101672,-0.187064,0.050595,-0.123582,-0.035699,0.036542,0.076627,-0.03524,-0.066571,0.02472,0.034018,-0.066735,0.052398,-0.089936,-0.07992,-0.030218,0.175653,-0.045822,0.062803,-0.182631,0.0922,-0.043736,-0.02632,-0.147816,-0.007208,0.16149,0.131401,-0.021556,-0.014272,0.097402,0.043101,0.076722,-0.194132,0.134181,0.00201,-0.111024,-0.01766,-0.015306,0.130172,0.140594,-0.088566,-0.019284,0.026595,0.117549,-0.039271,-0.004357,0.061839,0.14897,-0.119755,0.02021,0.073727,-0.013014,-0.060537,0.157336,-0.131364,0.406936,0.063785,-0.398839,0.114401,0.03182,0.026508,0.036162,-0.189329,-0.01498,0.024553,0.146663,-0.044896,0.07337,0.039611,-0.133955,-0.098393,0.098523,-0.05703,0.017942,-0.028138,-0.067766,-0.034594,-0.022788,0.056941,-0.144621,-0.058872,0.16328,-0.018659,-0.060032,-0.096577,-0.054694,0.076675,0.114641,-0.024357,0.05152,0.099034,-0.178348,0.165069,-0.107645,-0.172682,0.096458,-0.027097,0.001283,0.0273,-0.074361,-0.05855,-0.051306,0.163828,-0.073712,-0.011314,-0.003202,0.040621,0.030305,0.237313,-0.104038,0.023641,0.070394,0.071188,-0.031613,0.054088,0.089183,-0.013227,0.021978,-0.118381,0.001805,-0.051414,-0.003637,0.024853,0.059982,-0.031504,0.074708,-0.000893,0.281133,-0.05177,0.126108,0.013469,-0.007416,0.16147,-0.097492,0.002701,0.104017,0.035422,-0.110615,0.013221,0.040846,0.107017,-0.405,0.087575,-0.068704,-0.15205,-0.076219,-0.14289,0.310777,-0.2528,0.315141,0.046383,0.024571,0.15312,-0.023794,-0.039077,0.078177,-0.049944,0.010358,0.069791,0.058801,0.009535,0.097015,-0.002251,0.051592,-0.312982,0.104158,-0.082633,0.002083,0.031225,0.004805,0.079253,0.012801,-0.002101,-0.265515,0.032319,-0.139534,-0.140735,0.02344,0.018077,-0.10102,-0.019349,-0.037486,0.101495,0.186981,0.030934,-0.00793,-0.085158,-0.046155,0.036025,0.068654,0.02743,0.038658,-0.041045,0.120536,-0.009017,0.289373,-0.047225,-0.136315,-0.091654,-0.098981,0.084817,-0.041634,0.09573,-0.290691,0.042085,-0.109574,-0.113119,0.032,0.04959,-0.127633,-0.044769,0.114652,-0.015383,0.027102,0.015732,0.06894,-0.028182,-0.249506,-0.083446],[0.013806,0.023389,-0.028204,-0.008215,-0.236285,-0.042099,0.15784,-0.033021,0.069413,-0.024658,0.036942,-0.006228,-0.127071,0.100275,0.100285,0.093944,0.089488,-0.009517,-0.075631,-0.155591,0.05982,-0.018531,-0.016668,0.162915,-0.025265,0.000983,0.08354,-0.060746,-0.006832,-0.019307,0.038688,0.046346,0.015199,-0.153181,-0.029682,0.005838,0.036185,0.044648,-0.147597,-0.003646,0.004102,-0.029364,0.041093,-0.005507,0.010057,-0.069986,0.004766,0.032686,0.056352,-0.058846,0.076542,-0.087253,0.030726,0.094061,0.01849,0.172258,-0.061765,-0.042649,0.049931,0.031401,-0.172637,-0.027565,0.058292,-0.018055,-0.049411,0.049731,0.109672,0.117687,-0.012793,-0.054813,-0.103018,0.015072,-0.000592,0.060523,0.122026,-0.01666,-0.007552,-0.042516,0.051354,0.053837,0.070811,0.080298,0.042372,0.055896,0.060281,-0.112716,-0.001194,0.22107,-0.006738,-0.033954,0.008637,-0.076918,-0.097167,0.147224,0.030406,-0.087293,0.00244,0.047439,0.002589,-0.032432,0.018164,-0.029979,0.088041,0.063951,-0.03298,0.047816,-0.116421,0.01526,-0.079859,-0.051127,-0.059169,0.002806,0.075887,-0.011393,-0.017534,0.007024,-0.042621,-0.034362,-0.05705,0.106671,0.017355,-0.071292,-0.023244,0.030155,0.004324,-0.019362,0.076251,-0.014139,0.00962,0.073973,-0.008028,0.05487,0.048999,-0.057711,-0.078608,0.070401,-0.002308,-0.13643,0.05432,-0.005288,-0.068933,0.015051,-0.016544,0.026353,-0.003418,0.110294,-0.062133,0.063183,0.007536,0.047288,0.117591,-0.086956,0.078932,0.015063,0.048052,0.007732,0.017916,-0.091279,-0.020583,-0.013773,-0.095772,0.008911,0.130046,-0.012507,0.211999,0.029874,0.003416,-0.017471,-0.031266,-0.033403,0.064837,-0.039911,0.068843,0.036772,-0.190102,0.013667,-0.029652,-0.016222,-0.256097,-0.03515,-0.03184,0.035775,0.224573,-0.164046,-0.132875,0.066215,0.048623,-0.041643,0.034178,0.055004,-0.022938,0.04373,-0.035784,-0.012727,-0.047783,0.062154,0.015616,0.034596,-0.091795,0.151588,-0.02122,-0.453093,0.005234,-0.000821,-0.012228,0.072666,0.06689,-0.079076,-0.062669,-0.029428,-0.075823,0.008569,-0.039375,-0.07455,0.004418,-0.008935,-0.215077,-0.074182,0.160543,0.085264,0.237027,-0.092226,-0.025824,-0.046531,-0.009202,0.080628,-0.019603,0.052389,0.090324,-0.085793,0.115071,-0.060099,0.048742,-0.010013,0.009583,-0.042005,-0.106776,0.152674,0.011153,-0.041029,0.020088,-0.095028,-0.146005,-0.010017,-0.133807,0.025155,-0.073106,0.019718,0.039483,-0.047664,0.011404,0.00012,0.001228,-0.040205,-0.295385,0.078998],[0.048784,0.064895,-0.038711,-0.009848,-0.149836,-0.042644,-0.081172,-0.023351,0.035431,0.037982,0.027051,-0.038126,-0.155194,0.053281,0.023406,-0.073253,-0.112198,-0.101856,0.010907,0.017103,-0.174289,-0.115023,-0.010182,0.122937,-0.141718,0.055237,0.020343,0.049636,-0.031357,-0.063427,-0.051835,0.047026,0.091323,-0.086406,-0.030461,0.0957,0.040326,-0.000403,0.148565,0.033137,0.061862,-0.029436,0.026242,0.025038,-0.025998,-0.22172,0.064947,0.031579,-0.045145,-0.045966,-0.1009,-0.046079,0.107107,-0.145759,0.004231,0.192994,0.06534,0.012355,-0.044223,0.044093,-0.054963,0.044988,0.088297,-0.15735,-0.06736,0.080439,0.1162,0.088222,-0.004029,-0.079095,-0.131094,0.04171,0.07521,0.082252,-0.191591,0.039609,0.02864,0.02714,0.042297,0.03458,-0.008816,0.108526,0.038133,-0.117234,0.022662,-0.07469,-0.043536,0.227203,-0.001668,0.072595,0.065817,0.053585,-0.153431,0.108204,-0.127402,0.007192,0.040668,0.050764,0.021159,0.031977,0.065486,-0.046393,0.044329,0.04072,0.060406,0.079311,-0.179049,-0.022646,0.009475,-0.046269,0.036082,-0.102625,0.073927,-0.024163,-0.036734,-0.016272,-0.094958,-0.022174,-0.020132,0.091074,0.092799,-0.067665,-0.085187,-0.014254,0.069368,0.006948,-6e-05,-0.044063,0.06194,-0.05026,0.081618,0.002361,0.114256,-0.113298,-0.003995,-0.040567,0.016008,-0.085101,0.125027,-0.011621,-0.00847,0.066438,0.008748,0.039815,0.007125,0.162127,-0.069788,-0.021343,-0.04569,-0.044525,0.06796,0.030766,0.083484,0.018908,0.126141,-0.039537,0.010394,0.038017,-0.036493,0.023624,-0.000175,0.045806,0.191191,0.076294,0.192104,0.027555,0.073954,0.100838,-0.060199,0.015486,0.141087,-0.046159,0.031931,0.031415,-0.369386,-0.088421,-0.076205,-0.091027,-0.220243,-0.001242,-0.060726,-0.092667,0.064739,0.217519,-0.18524,-0.011095,0.101977,-0.028816,-0.03381,0.098877,-0.052806,0.040928,-0.119651,-0.021551,-0.042378,0.0603,-0.020461,0.064106,-0.065777,0.032469,0.032962,-0.524003,0.028295,0.037608,0.038828,-0.030339,-0.005222,-0.074729,-0.076431,0.021575,-0.044672,-0.092314,0.001369,0.020395,-0.035879,0.017166,-0.048254,-0.060283,-0.074636,-0.02638,0.192776,-0.13764,-0.041214,-0.10032,-0.05916,0.083224,-0.0427,0.063451,0.127587,-0.120577,0.09664,-0.073546,0.007966,-0.03622,0.10671,-0.044095,-0.036194,0.131639,-0.046762,-0.096756,-0.14989,0.071094,0.032345,-0.140998,-0.072222,-0.001928,-0.177631,-0.039775,0.068734,-0.03305,-0.017387,-0.08044,-0.00861,-0.054731,-0.056579,0.078593],[0.010454,-0.00021,-0.055585,-0.052733,-0.092148,0.040853,0.189023,0.011605,-0.051711,-0.000493,0.115289,0.013441,-0.234514,-0.072174,0.003711,0.151337,0.009284,0.037332,0.02918,-0.108496,0.02839,-0.122607,0.013567,0.066527,-0.166916,-0.016313,0.052674,0.129115,-0.026448,-0.018436,0.000906,0.026537,-0.217199,-0.398538,0.026055,-0.047935,0.056301,-0.073349,-0.205982,0.111363,0.046213,-0.063635,0.107752,0.054728,-0.013183,-0.076058,-0.040831,0.014562,0.075963,-0.011164,0.01822,-0.045012,0.065309,0.008329,-0.191669,0.051371,0.168903,-0.007704,0.035497,0.104981,-0.162519,0.147122,-0.247797,-0.130098,-0.206898,-0.028472,0.171257,0.086365,0.046348,-0.050315,-0.166098,0.135881,-0.017174,0.087594,0.211925,-0.09281,0.078513,0.102479,-0.000892,-0.000424,0.093454,-0.00145,-0.018396,-0.169682,-0.007655,-0.067308,0.032172,0.159278,0.01629,0.058636,-0.072791,0.114,0.003701,0.187899,0.05803,-0.077218,-0.01739,0.097674,-0.118123,-0.077125,-0.063336,0.045285,-0.050148,-0.078921,0.019985,0.074097,-0.208796,-0.070323,-0.326798,-0.093458,-0.038573,0.051323,0.022753,-0.031775,-0.056013,0.105242,-0.098604,0.133801,0.0802,-0.19709,0.039738,-0.271083,-0.029265,-0.102492,-0.023262,0.039796,-0.085402,0.065158,-0.171831,-0.009914,0.101333,0.104908,-0.003314,-0.113263,-0.175634,-0.022245,0.037296,0.112139,0.214802,0.060271,0.069167,0.045378,-0.100195,0.071226,-0.025258,0.066959,-0.086735,0.003984,0.058766,0.039215,0.007487,-0.078532,0.288251,-0.118176,0.03694,-0.366144,0.019377,0.074205,-0.079543,0.127974,-0.059798,0.070033,0.096803,0.06194,0.200196,0.13444,0.048923,-0.020413,-0.062178,-0.02708,0.175503,-0.088689,0.071453,0.018116,-0.267411,-0.089719,-0.085615,0.03494,-0.203902,-0.06217,-0.037534,-0.188452,0.080506,-0.150444,-0.021071,0.1424,0.070353,-0.125192,0.060388,-0.278292,-0.024697,0.020759,-0.091987,-0.041636,-0.083412,0.141468,0.07152,-0.040205,-0.009652,0.137038,0.026425,-0.279232,-0.065378,0.031956,-0.047922,0.064833,0.155208,0.061588,-0.00785,0.05275,-0.009313,0.001408,0.039308,0.048385,0.004324,0.038795,0.079603,-0.041367,-0.066714,0.046887,0.116442,-0.028194,-0.048001,-0.004291,-0.004739,0.110028,0.147786,0.068032,0.133427,0.06132,0.112087,-0.02131,-0.343054,-0.0591,0.034666,-0.219949,-0.139728,-0.224661,0.125164,-0.104293,-0.271965,-0.209056,-0.010849,-0.054493,0.001436,-0.000199,-0.168,-0.033325,-0.029224,-0.08827,-0.006792,-0.033237,0.011833,-0.1797,-0.157149,0.006628],[0.132261,0.050859,-0.063799,0.139779,0.028313,-0.046788,-0.034216,0.193317,0.015409,0.102291,-0.011212,-0.058642,-0.093717,-0.008915,0.018786,-0.077825,0.187292,0.04363,0.058098,-0.007994,0.075118,0.078126,-0.020698,-0.099414,0.06286,0.001902,-0.027044,-0.14324,0.077836,0.050888,-0.303005,-0.06239,0.035785,-0.081397,-0.153631,-0.081637,-0.00226,-0.185183,-0.149951,-0.152254,0.165681,-0.040287,0.010344,0.060288,0.020039,-0.169665,0.080153,0.009268,-0.032511,0.084457,-0.091692,0.1301,-0.014189,-0.083527,-0.151796,-0.059039,-0.041091,0.024223,0.009519,-0.016283,0.134182,-0.028167,-0.033091,-0.085881,-0.004776,0.085736,-0.060517,0.003282,0.038932,0.019913,0.037867,0.034736,-0.054922,0.010699,-0.048527,0.088636,0.083548,0.087891,0.075786,-0.02,-0.073204,-0.088957,0.024193,0.029035,0.031721,0.038681,-0.114527,0.003497,-0.021118,-0.102874,0.063466,-0.065916,-0.030634,-0.132901,-0.064561,-0.081297,0.002635,0.022705,-0.167815,-0.094408,0.087929,0.026754,-0.00685,0.000164,0.097057,-0.052066,0.042761,-0.102592,-0.093343,-0.068054,0.015577,0.110528,-0.012491,0.043504,-0.046344,-0.022374,0.017763,-0.02351,0.036472,0.029154,-0.025735,0.006139,-0.045767,0.095105,-0.070233,0.120259,-0.026404,0.072186,0.059422,-0.021824,0.061087,0.081254,-0.029448,-0.047016,0.086433,-0.053182,-0.023045,0.006282,0.061628,0.056417,0.053009,0.030147,-0.039084,-0.18954,-0.00224,-0.096357,-0.009267,0.035172,0.039684,0.027483,0.002867,-0.122214,-0.065753,-0.004368,-0.048254,0.031489,0.216163,0.079131,-0.030019,0.033162,-0.037811,-0.041497,-0.064309,-0.031141,-0.012273,0.051525,-0.10898,0.059211,0.019335,0.028599,-0.043634,0.125808,-0.140859,0.01585,-0.004746,0.049248,0.051054,0.076449,0.03463,0.027227,-0.075518,0.053899,-0.111889,-0.035915,-0.026336,-0.025758,-0.00585,-0.042436,-0.061629,-0.07229,-0.071291,0.039433,0.010562,0.072313,0.070873,-0.03214,0.089537,-0.016524,-0.008872,0.13616,-0.069941,0.055848,0.018554,0.025798,-0.1156,0.047627,-0.060405,0.061236,-0.038967,0.045781,0.064474,0.005714,-0.015911,-0.017072,0.051329,0.063208,0.04521,-0.348749,-0.114195,-0.052917,-0.039611,-0.025925,0.110454,0.074631,-0.046904,0.068369,0.10852,0.071005,-0.014915,-0.044447,0.059817,0.030321,0.03978,0.020687,0.002762,0.023878,-0.061608,0.114428,0.08823,0.010856,-0.28985,-0.032364,0.016584,-0.05448,0.058191,0.048441,0.083665,-0.052681,0.088451,0.004291,-0.010429,0.113079,-0.007597,-0.009142,0.048556,-0.008645],[-0.031885,0.077467,-0.047166,0.111633,0.091091,-0.066611,-0.071706,-0.049949,0.075655,0.1177,-0.022714,0.034887,-0.059668,-0.092401,0.012625,-0.038386,0.111326,-0.002432,0.090903,0.013296,-0.087191,0.185912,-0.004567,-0.127268,0.016699,-0.004792,-0.030183,-0.074771,0.064199,0.036725,-0.020356,-0.018366,0.051966,-0.090031,-0.085695,0.09928,-0.014388,-0.07926,-0.069352,-0.098839,0.009127,-0.040402,0.064885,0.052093,-0.050136,-0.062717,-0.012021,0.041859,0.060771,0.014627,-0.088981,0.05527,-0.074271,0.00905,0.053843,-0.031268,-0.078017,0.021892,0.011265,-0.019523,0.105683,0.041775,-0.043529,-0.006866,-0.004897,0.09895,0.007087,0.069266,-0.03924,0.00894,0.07297,-0.014391,-0.084001,-0.057541,0.078622,0.013966,0.117008,0.006394,0.052266,-0.01329,-0.047246,-0.032643,0.010899,-0.065747,0.069862,0.002089,0.137607,0.028793,-0.006871,-0.079107,-0.020545,-0.010533,0.004615,-0.122243,-0.015934,-0.071951,0.041113,0.041045,-0.174134,-0.077502,0.032428,0.076262,-0.023419,0.019771,0.039368,-0.066416,0.04081,0.049027,0.013412,-0.059988,-0.025409,0.058787,0.086048,0.044093,-0.029616,-0.050142,-0.0127,-0.211571,-0.00939,0.042434,-0.053009,-0.037542,-0.03409,0.03668,-0.017666,-0.023197,-0.055803,-0.021761,0.056768,-0.043853,-0.028498,0.03596,-0.041885,-0.006878,0.061687,-0.068961,0.025012,-0.075951,0.076625,0.102322,0.014194,0.034909,-0.070252,-0.169467,0.018333,-0.068636,-0.004027,0.019441,-0.040098,-0.026435,0.067566,-0.132416,-0.080345,-0.010602,-0.02745,0.075809,-0.063338,0.056983,-0.01783,-0.04059,0.075112,-0.001378,-0.065189,0.071887,-0.026924,-0.036754,-0.143794,0.028816,0.049759,0.046818,-0.058064,0.024892,-0.044241,-0.037788,0.029432,0.021302,0.090088,0.036179,0.03049,-0.170565,-0.078465,-0.152591,-0.137407,-0.008628,-0.016664,-0.025309,-0.015217,-0.028764,-0.057368,-0.00682,-0.027795,-0.115498,-0.010753,0.005582,0.058901,-0.054106,-0.01313,0.01808,0.016181,0.003191,-0.086796,0.081036,0.029982,-0.010815,-0.086425,0.072901,0.033014,-0.071794,-0.0141,0.003705,-0.14323,-0.005671,0.207234,0.06191,0.001839,-0.015073,-0.05737,-0.233936,-0.069948,-0.012765,-0.067618,-0.019576,0.112026,0.082994,0.037667,0.052067,0.085993,0.057893,0.021801,0.040717,0.024701,0.020023,-0.012519,0.020156,-0.12663,-0.023308,-0.053834,0.034981,0.052213,0.019954,0.082184,0.070114,0.080737,0.086101,0.082465,0.053403,0.085829,0.002303,0.03047,-0.00624,0.000527,0.044945,-0.006588,0.004691,0.09725,0.021616],[-0.020143,-0.056276,-0.053735,0.097496,0.142319,-0.115754,-0.042641,-0.013968,0.005155,0.108007,0.00755,-0.089029,0.062719,-0.178907,0.032674,-0.075159,-0.038203,-0.147411,-0.120852,0.069176,0.160029,-0.054797,-0.011851,-0.090913,0.020213,-0.010257,0.063591,0.040463,0.017184,-0.044269,0.049237,-0.183179,0.0341,-0.080887,0.004253,-0.162907,-0.001117,-0.026904,-0.192404,-0.027264,-0.032591,-0.034495,-0.033436,0.084218,0.003584,0.040832,0.08424,0.037946,-0.019478,-0.08932,-0.056155,0.052829,0.006719,-0.028684,0.0922,-0.026025,0.059079,-0.008375,-0.002676,-0.025227,0.112021,-0.004811,0.055889,-0.084341,-0.006328,0.086966,-0.064766,-0.024901,-0.048,0.008333,0.081528,-0.095735,0.039323,0.094176,-0.014986,0.027264,0.069903,0.037321,-0.031313,0.031744,0.024323,-0.051876,0.011881,-0.118757,-0.011596,-0.026665,-0.088673,0.03406,-0.004163,-0.120847,0.137942,-0.094395,-0.027859,-0.077829,-0.082811,0.021375,0.024521,0.047381,-0.169402,0.133444,0.078668,0.101716,-0.03049,0.004231,-0.025964,0.009035,0.025643,-0.15213,-0.115526,-0.060875,0.05396,0.097233,0.085525,0.037458,-0.053237,-0.028484,-0.085426,-0.063841,0.049491,-0.094989,0.011338,0.047738,-0.001464,0.005379,0.030705,0.049647,0.002107,0.007166,0.032095,-0.00658,0.094652,-0.028555,-0.030885,0.098227,0.050509,-0.022201,0.00421,-0.078706,0.053843,0.030864,0.008229,0.04424,-0.053911,-0.151481,0.017913,-0.101699,-0.032427,0.051379,0.052258,0.03986,-0.019101,0.032638,-0.043726,-0.017945,-0.063513,0.00378,-0.109921,0.063461,-0.018623,-0.094236,0.077147,-0.003415,-0.030519,0.090179,-0.019305,-0.067851,-0.093879,0.07936,0.09338,0.052588,-0.113058,0.053064,-0.086637,0.008155,-0.014208,0.050296,0.063214,-0.006631,0.045928,0.188849,-0.095759,-0.076328,-0.26807,0.137882,-0.03455,0.037523,-0.056001,0.029041,0.082026,0.148392,-0.039994,-0.189482,0.07756,-0.011371,0.026626,-0.038255,0.046651,-0.022494,0.006471,-0.045024,0.005902,0.055373,-0.113321,0.076461,-0.014071,0.034153,0.017115,0.005186,-0.066086,0.035293,0.118934,0.052873,0.018801,-0.027256,-0.027275,0.083113,0.06824,-0.104828,-0.059837,-0.093213,0.006635,-0.01708,0.084604,-0.027874,-0.030447,0.042843,-0.066084,0.030757,0.013392,-0.004748,0.017347,-0.019018,-0.014215,0.004939,-0.084657,0.04369,-0.064494,0.020305,0.005821,0.171889,0.059944,-0.159457,-0.064599,0.100579,-0.065302,0.049605,0.061589,-0.010868,0.094126,-0.084064,-0.007366,0.037022,-0.034677,0.064275,-0.049761,-0.010045],[-0.026929,-0.032507,-0.032489,0.369892,0.099793,-0.195715,-0.097237,0.298106,0.062468,0.110848,0.133154,0.052014,-0.043443,0.010442,-0.056796,-0.232749,0.016002,-0.177978,-0.032951,0.15746,0.04389,-0.012624,-0.022304,-0.041076,0.109636,-0.012915,-0.020637,0.017222,-0.073092,0.059856,0.00275,-0.014481,0.066425,0.086513,0.104667,-0.104582,0.025415,0.005091,0.000679,-0.204742,0.100378,-0.044173,0.002008,0.07121,0.026265,-0.116001,-0.021108,0.04567,-0.158449,-0.103856,-0.268015,0.023746,-0.017574,0.074905,0.15136,-0.094992,-0.047245,0.090486,0.085084,0.00886,0.215451,-0.006277,-0.010857,0.116341,0.011201,-0.001919,-0.030541,-0.051733,-0.003294,0.094762,0.027718,0.01754,-0.110757,-0.130268,0.131515,0.0565,0.094405,0.055073,-0.012461,0.009824,0.020018,-0.010222,-0.012086,-0.047833,0.109629,-0.151134,0.058837,-0.012429,-0.011916,-0.117952,-0.176376,0.031614,-0.018358,-0.081802,0.144369,-0.09963,0.108406,0.043388,-0.099874,-0.043361,-0.052414,-0.023285,-0.059334,0.015015,0.014604,-0.066193,0.106842,0.042982,-0.17148,-0.035862,-0.002586,-0.050456,0.05966,0.000356,0.072627,-0.017787,0.084385,0.083514,-0.026335,0.04664,0.099057,0.075407,0.035081,0.076433,0.094647,0.034561,-0.000159,0.007408,-0.315712,-0.017676,-0.02764,0.054673,0.005095,0.080425,0.042244,0.076943,0.065624,0.059977,-0.060719,0.014116,-0.093293,0.010771,-0.051364,-0.113316,-0.002132,-0.104998,-0.018791,0.060169,-0.036004,-0.020204,-0.044175,-0.127695,-0.050998,0.120495,-0.015475,0.062846,-0.339338,-0.088282,-0.016235,0.113089,-0.082853,-0.061206,-0.006461,0.024725,-0.03687,0.051446,-0.012596,-0.050959,0.121899,-0.000441,-0.088689,0.036742,-0.103137,0.00679,-0.124339,0.026291,0.140272,0.026112,0.039626,-0.060719,-0.048245,-0.232491,-0.117393,-0.161657,-0.058588,-0.102626,0.048111,0.033972,0.086706,0.019013,-0.025818,-0.168227,0.126987,-0.068967,-0.002311,-0.060007,0.043732,0.020547,-0.050427,-0.062288,0.047884,0.065114,0.025299,0.040461,0.064436,0.049745,0.013349,0.136483,0.016733,0.018297,-0.066927,0.044406,0.136192,-0.089705,-0.037668,0.116166,0.023261,0.037118,-0.015425,0.018376,-0.086985,0.032693,0.092004,-0.135029,-0.049889,0.038568,0.001987,0.001481,-0.00546,-0.0267,-0.029466,0.018172,-0.003136,-0.04212,0.062017,-0.048029,-0.087845,0.051983,-0.012498,-0.086055,0.067237,-0.072165,-0.109404,-0.004415,0.040423,0.08214,0.032228,0.019106,0.033061,-0.059648,-0.021567,0.002757,0.0909,-0.003339,0.031283,0.008317],[0.008262,-0.015433,-0.032958,0.202079,0.029409,-0.423804,-0.010883,0.061591,0.045018,0.038417,-0.006377,-0.005994,0.12638,-0.044937,-0.073231,-0.225588,-0.005297,0.078614,0.032625,0.056011,-0.178653,-0.201898,-0.051877,-0.135626,0.084224,0.00289,0.009196,-0.072536,0.04237,-0.0076,0.237993,-0.058421,0.043183,-0.029822,0.016363,-0.191692,0.034837,0.095048,-0.094877,-0.182298,-0.047451,-0.053076,0.030061,0.041851,0.005879,0.067408,0.053412,0.048343,0.026034,-0.134038,-0.177767,-0.046171,0.053096,-0.054905,-0.151854,-0.032943,-0.017832,0.067812,-0.098029,-0.079159,-0.089721,0.035241,0.0868,-0.109655,0.020359,-0.081486,-0.035182,0.015988,0.053183,0.063361,-0.022862,-0.104739,-0.330074,-0.127635,0.1139,-0.004261,0.076055,0.00443,0.041745,0.031276,-0.039561,-0.12004,-0.021827,-0.14031,-0.001357,-0.07574,0.081741,0.037628,-0.033093,-0.140578,-0.086433,-0.028691,-0.00548,0.025973,0.097412,-0.022207,0.027698,0.032361,-0.051853,-0.072858,0.044543,0.007442,0.008585,0.067567,0.044085,-0.170816,0.133294,-0.004749,-0.227267,-0.074699,0.082228,0.007878,0.051419,0.038635,-0.421398,0.116173,0.032145,-0.07211,-0.007156,-0.05401,-0.027303,-0.046639,-0.060448,0.038295,0.044098,-0.007491,0.049561,-0.071537,0.099652,0.056256,0.018936,0.029104,-0.027543,-0.068775,0.019629,0.034697,-0.07974,0.063845,0.062502,0.025187,0.062516,-0.031587,-0.096052,0.032606,0.043911,-0.068575,-0.043821,0.070739,0.022581,-0.004551,-0.022784,-0.111327,-0.055112,0.034492,-0.04531,0.028178,-0.208574,-0.016858,-0.042865,-0.057091,-0.074074,-0.005985,0.037552,0.024629,-0.040987,0.077098,0.028199,-0.003314,0.124565,0.031501,-0.138025,0.060024,0.031254,0.056167,0.133308,-0.075271,0.152478,0.062452,0.050662,-0.037581,0.012738,-0.066457,-0.089532,-0.029794,-0.06506,0.062735,0.109734,0.072009,-0.140032,0.023175,-0.025615,-0.1317,-0.049311,0.020403,-0.005447,-0.068941,-0.044639,-0.05074,0.080207,0.030359,0.080407,0.08882,-0.000914,0.025222,0.041348,0.097089,-0.021039,-0.036314,-0.046765,-0.000295,-0.097122,-0.084812,-0.219728,0.063058,-0.098165,0.050296,0.107792,-0.125389,-0.099718,-0.046362,-0.041464,0.024214,-0.043137,-0.290277,0.01085,0.042323,-0.064004,0.078786,-0.071128,-0.007166,-0.125273,0.011761,-0.065159,0.103384,-0.10606,0.011889,-0.081602,-0.016584,-0.003572,-0.101074,0.006312,0.013885,-0.062723,-0.008992,0.085211,0.078409,0.043907,-0.013379,-0.036219,-0.075732,0.026195,-0.020824,0.03682,0.203488,0.100342,0.045178],[-0.040135,-0.072338,-0.044211,0.285723,0.003148,-0.215188,0.017279,-0.030747,-0.017664,0.07932,-0.033153,0.155757,-0.01377,0.02117,-0.040112,-0.046633,-0.181437,-0.021471,-0.021822,-0.020857,-0.232173,-0.259053,-0.015212,-0.074811,0.049382,-0.021639,0.014768,-0.087873,0.005434,0.139043,0.037976,0.013678,0.037819,0.086123,0.085691,-0.202848,0.03097,0.067016,-0.208728,0.138777,-0.065923,-0.053709,-0.074403,0.086441,0.044876,0.016915,0.081341,0.010777,-0.018697,-0.21379,-0.298141,-0.079625,0.075077,-0.20086,-0.118021,-0.070941,-0.021844,0.101426,-0.050405,-0.000248,0.051018,-0.039296,0.097423,0.079859,0.031765,-0.020609,-0.045045,0.021244,0.190779,-0.021593,-0.006363,0.009368,-0.093733,-0.065647,0.035561,0.143189,0.038617,-0.014529,-0.045629,0.026802,0.099826,-0.021392,0.137498,-0.013329,-0.0886,-0.082331,-0.016966,-0.021571,-0.023378,-0.009911,-0.008151,-0.006619,-0.031277,-0.049603,0.038719,-0.046566,0.101206,0.064216,0.029864,-0.257623,0.012386,0.010112,-0.034184,0.016399,-0.079056,-0.299869,0.239642,-0.017388,0.056522,-0.06081,-0.058255,-0.037995,0.137464,0.045356,0.417413,-0.061339,0.081815,-0.018442,-0.015488,0.210096,0.167711,0.063792,0.016637,0.00787,-0.010944,0.028063,-0.005738,-0.004123,-0.103545,-0.006946,0.058973,0.007599,0.026834,-0.153273,-0.078213,-0.063662,0.020277,0.053351,0.125536,-0.084054,-0.045593,0.019075,-0.062428,-0.219377,0.013224,-0.087053,-0.048579,0.181626,0.077532,0.012973,-0.123409,-0.04507,-0.018497,-0.033263,0.022675,-0.02089,0.15916,0.113696,-0.028642,-0.071611,-0.044676,0.031401,0.060201,-0.044611,-0.027195,0.082365,0.083251,0.190709,0.166,0.028473,-0.050842,-0.017709,-0.078114,0.044787,-0.139788,0.087648,-0.107603,0.10609,0.071187,-0.319284,0.028861,-0.058161,0.09027,-0.000552,-0.19327,-0.062307,0.177375,0.032133,0.028024,0.029466,-0.031302,0.059045,0.105264,0.062068,0.029974,0.081869,0.024185,0.016654,-0.002356,0.079597,0.166695,0.066527,0.075057,-0.091893,-0.083824,0.146634,-0.04327,-0.029305,0.071248,0.003211,-0.218956,-0.00318,0.047245,-0.14805,-0.087088,-0.111816,-0.056347,0.126774,0.062781,0.155414,-0.059354,0.069831,0.16619,-0.060896,-0.044053,0.045088,-0.075942,0.02705,-0.103078,0.059974,-0.144777,0.137274,-0.007884,0.078376,0.007052,0.036634,-0.100131,-0.029939,-0.03578,-0.075237,-0.061387,-0.087683,0.067221,0.071597,0.068473,0.04184,0.050924,0.043092,0.077451,-0.056478,-0.005835,-0.058241,0.108155,0.072164,0.106092,0.087381],[0.020295,-0.017672,-0.035433,0.160443,-0.041845,-0.101018,0.119303,-0.006419,0.034789,-0.017606,-0.076792,-0.020657,0.035666,0.20295,0.004424,-0.081534,-0.04561,-0.006956,-0.044508,0.080416,-0.021834,-0.07627,-0.03824,0.016694,-0.097146,-0.010701,-0.018406,0.048185,-0.025817,-0.055923,-0.192371,0.08674,0.046015,0.049728,-0.091966,-0.133778,-0.030065,0.036065,-0.016996,-0.199883,-0.022441,-0.023,0.063785,-0.016212,0.034855,0.118841,0.101095,0.036595,0.118529,-0.271959,0.062084,0.002914,0.037671,0.008478,-0.037457,-0.058541,-0.110982,0.079499,-0.047991,-0.073873,-0.054117,-0.018352,0.070467,-0.010156,0.057625,-0.050685,-0.046446,0.055039,0.000982,0.014078,0.013026,-0.136612,-0.1115,0.115484,0.028419,-0.10638,0.055213,-0.008951,0.063373,0.025374,0.042812,-0.07854,0.06517,-0.10552,0.050071,-0.029883,-0.029626,-0.000839,0.015299,0.034104,0.045442,-0.080835,-0.033785,-0.015408,-0.198244,0.045802,-0.014108,0.026646,-0.022321,-0.14383,0.090395,0.094306,-0.042381,-0.01278,-0.089624,-0.604691,0.18576,0.072206,-0.160086,-0.042577,0.014439,0.059367,0.058966,-0.006778,-0.1032,0.103447,0.111924,-0.024254,0.006089,0.001155,0.011891,-0.055351,-0.050796,-0.029716,0.004332,0.014723,-0.036824,-0.122393,0.097416,-0.005844,0.033398,-0.036286,0.031097,-0.039765,-0.025099,-0.037542,-0.07099,-0.078404,-0.004281,-0.041863,-0.073767,0.041289,-0.030334,-0.159257,-0.010239,-0.045218,-0.080084,0.008096,0.01582,0.064658,-0.04812,-0.287576,-0.031044,-0.03847,0.05945,-0.006109,-0.127626,-0.153161,-0.018903,-0.013796,-0.050099,0.010567,0.023989,-0.064193,-0.011518,-0.056783,-0.013419,-0.07284,0.189833,-0.007556,-0.055659,-0.033571,-0.017468,0.059185,0.017086,-0.035443,-0.036029,0.105687,-0.00781,-0.019018,-0.004837,-0.052517,-0.110478,0.048799,-0.02359,0.014503,0.041154,-0.037881,0.063113,-0.040318,-0.009476,-0.036247,-0.08054,0.106877,-0.056867,0.0659,0.080404,0.064418,0.042474,-0.015559,-0.015288,0.074339,-0.022353,-0.058217,-0.000637,-0.016453,0.009808,-0.003754,0.117386,0.009713,0.020457,-0.00741,0.086779,0.077659,0.069723,-0.201943,0.067355,0.020192,-0.104101,0.117547,-0.081355,-0.039576,0.311414,-0.132907,0.022528,0.090889,-0.108799,0.055379,0.062171,0.147926,-0.05317,0.034999,0.058272,0.102585,-0.115086,-0.026614,-0.114206,-0.042276,-0.025712,-0.191875,-0.064724,0.010447,0.02502,0.033526,0.023076,-0.001915,-0.030097,-0.080471,0.022689,-0.037522,0.042516,-0.001071,-0.00426,0.214076,0.115123,-0.005187],[-0.121326,0.006808,-0.038007,0.166171,-0.026434,0.088689,-0.070988,0.01106,-0.040262,0.074554,-0.000296,-0.013909,0.086993,0.164975,0.057403,0.094017,-0.075254,-0.291982,-0.052866,0.040462,-0.054758,-0.093426,-0.026938,-0.012524,-0.023652,-0.003644,0.063501,0.090103,0.007135,0.069127,-0.048901,0.034972,-0.009418,-0.012175,-0.004718,-0.215096,-0.024112,0.06564,0.002353,-0.207479,0.00531,-0.030838,0.094585,0.025814,-0.06474,-0.34965,-0.069696,0.050999,0.126043,-0.17628,-0.249921,-0.029017,0.075601,-0.096223,-0.029371,-0.111061,0.002723,-0.033502,-0.013918,-0.11214,0.016511,0.04151,0.023759,0.001537,0.054042,-0.102524,-0.055035,0.025412,-0.0012,0.024832,0.008055,-0.089575,-0.131046,-0.155566,-0.03094,0.112084,0.027556,-0.016176,0.112766,0.05858,-0.010203,0.041194,-0.034265,-0.058711,0.054286,-0.107847,-0.032214,-0.112596,0.042038,0.061282,-0.039303,-0.064706,-0.009546,0.105391,0.069072,0.170485,0.003109,0.054638,-0.001105,-0.242143,-0.099776,0.009366,0.023207,0.054239,0.001449,-0.531826,0.181628,0.088775,-0.051282,-0.031958,0.011987,0.034981,0.046604,0.048149,-0.151111,-0.037418,-0.037155,-0.064667,0.01615,0.046143,-0.059239,-0.020481,-0.009161,-0.200091,-0.03129,0.066321,0.000985,-0.057359,-0.160558,0.040153,0.01595,0.003957,0.010081,-0.034969,0.085058,-0.013221,-0.042789,0.039034,-0.097895,-0.053052,-0.111118,0.032801,0.007663,-0.147062,-0.016654,-0.069454,-0.08011,0.037661,-0.020606,0.088707,-0.03838,-0.136285,0.004519,0.061457,0.01352,-0.033618,-0.149649,0.040983,-0.002447,0.081288,0.046428,-0.003493,-0.032998,-0.0082,-0.021145,0.064851,0.02051,-0.071174,0.185683,-0.043148,0.05003,-0.064971,-0.017302,0.066093,-0.017928,0.088592,-0.095926,0.001439,0.008952,-0.047589,-0.041067,-0.049686,-0.104477,0.058965,-0.060265,-0.035433,0.03299,-0.153494,0.056788,-0.04724,-0.003281,-0.075365,-0.050565,0.07067,-0.016181,0.06267,0.022658,0.110225,-0.028734,-0.017005,-0.071541,0.05358,-0.024134,0.015069,-0.080827,0.061574,0.018031,0.078137,0.115101,0.010651,-0.055766,0.114029,0.091168,0.145254,-0.058313,0.118517,-0.146189,0.066753,0.16555,0.017404,-0.115467,-0.067533,0.368615,-0.072508,0.04545,0.094219,0.056779,0.056523,0.070746,0.147741,-0.033959,0.082742,-0.025717,0.071089,-0.008595,-0.032755,-0.03799,0.018588,-0.039162,-0.217307,0.012044,0.021992,-0.115836,-0.061371,0.009524,0.004385,0.038809,0.000225,0.005827,-0.023331,0.005088,0.03601,-0.010003,0.142827,0.095813,0.033554],[-0.055307,0.066989,-0.042726,0.205468,0.039399,0.101373,-0.023107,-0.150694,-0.058028,-0.014024,0.211705,0.015275,-0.055409,0.021466,0.029646,0.110598,-0.097873,-0.101701,0.019655,-0.056575,-0.062996,-0.012681,-0.034034,0.117489,0.056997,0.016898,-0.018579,0.04133,-0.182007,-0.066778,-0.141961,0.022859,0.004033,0.102722,0.086322,-0.217518,-0.023843,-0.098354,-0.166634,0.019157,0.069737,-0.073129,0.151239,0.070669,-0.046458,-0.168372,-0.039253,0.046215,-0.113608,-0.201216,-0.061202,-0.03902,0.155602,-0.181966,0.04578,-0.31699,0.095228,0.009259,-0.08676,-0.139324,0.138271,-0.014125,-0.238815,-0.099065,0.037645,-0.372797,-0.066349,0.000198,-0.060207,0.056791,0.065182,0.029935,0.037123,-0.045097,-0.108632,-0.034481,-0.056269,0.123508,0.037468,-0.010634,0.016429,0.076234,-0.068801,-0.095663,0.019035,-0.015927,0.058997,-0.159251,0.071692,0.074873,-0.013406,0.032226,-0.022463,0.07203,-0.138248,0.146927,-0.001103,0.107949,-0.105812,-0.051063,0.120635,0.026093,0.081979,-0.083021,0.00135,-0.317958,0.114386,0.112398,-0.095164,-0.062652,0.090313,-0.265358,0.018955,0.071164,-0.081316,0.037614,0.086325,0.125597,0.020916,0.240234,-0.069515,-0.054811,0.014278,-0.147196,0.004171,0.004896,0.047521,0.017928,-0.045182,-0.051047,0.063021,0.010456,0.088924,0.031906,-0.064482,-0.102777,0.099622,0.05817,-0.134248,0.038859,-0.018678,0.13908,0.020019,-0.180608,-0.015165,-0.135056,-0.063058,-0.024673,0.038324,0.054195,-0.049043,-0.139261,-0.060391,-0.118504,0.122143,-0.194484,-0.022532,0.178586,-0.034758,0.050974,-0.06292,0.143463,-0.00302,0.042538,-0.05166,0.14479,0.05861,-0.147938,0.115099,-0.019157,0.122907,-0.047464,0.078259,0.024929,0.007553,0.046133,-0.171435,-0.062179,-0.004585,-0.076384,-0.09968,-0.157721,-0.016532,-0.038641,0.000899,-0.032826,-0.011212,-0.176271,-0.107748,-0.009227,-0.029987,-0.328356,0.05526,0.108193,-0.195298,0.095906,0.04027,0.032793,0.117995,-0.1598,-0.040081,0.065307,0.095961,-0.032131,0.033497,0.096993,0.16203,0.090065,0.097874,-0.00107,0.085446,-0.09076,-0.229932,0.102378,-0.172634,-0.182225,-0.143601,-0.003619,-0.007641,0.100586,-0.175111,0.026472,0.228153,-0.094906,-0.025773,0.085975,0.283079,0.049325,0.165844,-0.006284,0.111993,0.070259,-0.0783,0.123823,-0.12493,-0.15089,-0.100558,0.058134,0.107722,-0.030566,-0.151608,-0.056782,0.002468,-0.112059,-0.021241,0.009861,0.087955,-0.090633,-0.03244,-0.058776,0.12283,-0.054726,0.039347,0.166806,0.024954,-0.058959],[0.157099,-0.024316,0.019363,-0.041572,0.013236,0.035994,-0.112986,-0.015788,0.166868,0.100296,-0.036082,0.082287,0.100323,-0.014318,-0.056719,0.079608,0.041126,-0.089914,0.067459,-0.009353,-0.051987,0.115857,-0.023014,-0.038854,-0.01635,0.122085,-0.023522,0.035152,-0.001459,0.05307,0.040219,-0.084009,0.167517,-0.19145,0.030105,-0.017984,-0.059148,0.009167,0.107542,-0.06527,0.127215,-0.037532,-0.046238,0.059926,0.004543,0.049001,-0.023634,-0.389367,0.036321,0.032407,-0.102035,0.082992,0.01129,-0.101041,0.105567,-0.049754,0.116751,0.022406,-0.055161,0.09317,-0.239272,0.04189,-0.028836,0.060808,0.073475,0.014007,-0.032133,0.034617,-0.037288,0.070261,-0.012724,-0.060095,-0.028628,-0.087167,0.06607,-0.038417,0.064535,-0.048306,-0.005549,-0.193104,-0.008036,0.009907,-0.003795,0.016854,0.017844,0.049866,-0.009533,0.001031,-0.00625,-0.123826,-0.056546,0.105945,-0.010235,-0.070436,0.052396,0.060194,-0.025944,-0.021136,-0.143135,-0.235327,0.061235,0.027495,-0.001673,-0.010265,-0.070399,0.025405,-0.06375,-0.057767,-0.046692,0.137239,-0.015559,0.103173,0.001825,-0.260662,-0.006257,-0.057937,-0.070449,-0.004075,0.130981,0.020871,0.062982,0.063378,0.063472,0.037529,0.080144,0.167991,-0.066305,-0.026814,0.029476,-0.021742,-0.03939,0.014976,0.001968,-0.147819,-0.078494,0.078697,-0.054743,-0.241683,0.000853,0.00081,0.008412,-0.071259,0.091309,0.073858,0.007691,-0.08154,-0.01774,0.036685,0.012116,0.092432,-0.010852,0.137378,-0.059254,0.089224,0.023261,0.026209,0.024402,0.043471,-0.025505,0.020665,0.128718,0.020777,-0.164087,-0.01737,-0.01797,0.068962,0.033593,0.03538,-0.134622,-0.039253,0.017396,0.047323,-0.157747,0.006851,0.03813,0.001988,0.022086,-0.020778,0.043377,0.14474,-0.015012,-0.232983,-0.158136,0.105638,-0.048778,-0.037529,0.00039,0.0833,-0.107452,0.073992,-0.015499,0.027178,-0.00784,0.014667,0.085309,-0.064247,0.050054,-0.008654,-0.034128,0.118562,-0.017487,0.067334,-0.022076,0.107602,-0.033777,0.022417,0.039034,0.070529,0.054625,0.045799,0.030777,-0.083065,-0.041762,-0.115854,-0.06181,0.033071,0.047446,-0.065722,-0.021477,-0.021294,-0.110115,-0.001973,-0.038356,0.053317,-0.012554,-0.153954,-0.045947,0.058935,-0.002215,-9e-05,-0.036122,0.009511,0.063151,0.088178,-0.078183,-0.18352,0.029742,-0.132601,0.066745,0.069609,-0.003085,-0.151776,0.069988,-0.022577,0.036798,0.055444,0.021684,-0.136213,-0.049504,0.122805,0.087146,0.064034,0.039148,-0.06433,0.018536,-0.020925],[0.043372,0.014556,-0.053681,-0.026171,0.043689,0.023711,0.027331,-0.064756,0.003535,-0.000478,-0.000923,-0.006813,-0.00334,-0.009962,-0.064205,0.117446,-0.057164,-0.077379,0.033393,-0.073978,-0.145719,0.151886,-0.019016,-0.012735,-0.079061,0.117502,0.018824,-0.037557,0.024956,-0.003685,-0.06734,-0.098896,0.025564,0.061765,-0.009663,-0.011177,-0.000166,-0.024108,-0.110754,-0.072804,0.075695,-0.044833,0.009846,-0.013982,0.048373,-0.005742,0.131,-0.074469,0.032818,-0.012063,-0.118335,0.152244,0.032111,-0.10233,-0.082109,-0.01455,0.014056,0.065161,-0.066318,0.167254,-0.131467,0.014148,0.016721,0.052853,0.060568,0.081465,-0.047911,0.07055,0.05859,-0.030201,0.018328,-0.081342,0.095596,0.011443,0.023938,-0.004129,0.006812,-0.122852,0.077674,-0.20062,0.04177,0.032229,0.039021,0.158197,0.065138,-0.024306,-0.007104,-0.011844,-0.024573,-0.008258,0.012639,0.122,-0.009197,-0.042979,-0.064505,0.031107,0.016999,-0.033026,-0.136523,-0.115099,0.016477,-0.004033,0.035681,-0.001369,0.108371,0.024651,-0.080006,0.080785,-0.004325,0.149082,0.022384,-0.090297,-0.048224,-0.411685,-0.016391,-0.058886,0.040663,0.06181,0.030913,0.062743,0.009819,0.060349,0.10064,0.074101,0.084663,0.120885,-0.071146,0.052134,-0.205938,0.01112,0.008898,0.120871,0.010064,-0.100374,0.063125,0.05946,-0.050321,-0.059873,0.053845,0.017713,0.035783,-0.08524,0.055323,0.056655,0.017448,-0.100247,-0.030542,0.0193,-0.007777,0.089188,0.027454,0.046868,-0.073479,0.003454,0.001825,0.024237,0.061237,-0.006531,-0.026279,-0.013112,0.078584,0.03078,-0.206577,-0.093068,-0.026819,-0.028581,-0.028262,-0.009326,-0.154489,-0.014189,-0.053436,0.037913,0.057804,0.042493,0.067276,0.094577,0.040848,0.009947,0.033783,0.068201,0.001264,-0.291239,0.015083,-0.108778,0.060461,0.052768,-0.005745,0.019374,-0.156657,-0.101936,-0.029185,-0.011806,0.064509,0.016269,0.079659,-0.052888,0.09273,-0.021251,0.000678,0.044563,0.063615,0.057788,-0.049034,0.009935,0.066862,-0.073932,0.069244,-0.00832,-0.007781,-0.002097,0.270455,-0.055,0.005863,-0.181964,0.008007,-0.020098,-0.080142,-0.150909,0.090643,-0.083049,-0.075743,0.078082,-0.028447,-0.070751,0.004698,-0.142503,-0.085363,0.064798,0.053684,-0.076678,-0.024259,0.084992,0.028727,0.035615,-0.133918,-0.123989,0.032887,-0.091642,0.003668,0.024719,-0.060202,-0.06916,-0.093026,0.087439,0.03898,0.029355,0.055779,0.006998,0.001721,0.035527,-0.064511,0.011712,0.009451,-0.023724,-0.014235,-0.020637],[0.03451,0.009114,-0.062774,-0.043928,0.111376,0.026114,-0.090965,-0.030379,-0.003384,0.055273,-0.006789,-0.026752,-0.024668,-0.124867,0.147267,0.042953,0.053051,-0.155282,0.017143,0.106462,-0.051663,-0.053046,-0.024713,-0.001743,-0.019016,0.137165,0.037334,0.056178,0.062865,0.007544,-0.016469,-0.144431,0.130307,0.036139,-0.10393,0.01109,-0.011547,0.028127,-0.053434,-0.036115,-0.040224,-0.036487,-0.029096,-0.098581,0.012265,0.096108,-0.011989,-0.090307,-0.01741,0.04727,-0.05663,0.008899,-0.014316,-0.260452,-0.152359,-0.002897,0.094183,-0.048811,0.005146,0.053928,-0.054583,0.02179,0.118296,0.135243,0.080599,0.112407,-0.039666,-0.036456,0.049635,0.076639,0.037816,0.033746,0.119925,0.09195,-0.034162,0.027231,0.030515,-0.124173,-0.07418,-0.32711,-0.018929,0.010961,0.010888,0.149058,0.052248,-0.156142,0.004315,-0.017388,0.01171,-0.146037,0.059787,-0.043818,-0.01324,-0.039426,-0.045497,-0.092334,-0.000383,0.054865,-0.192055,-0.123153,-0.103133,-0.01513,-0.025666,0.026401,-0.112817,0.009321,-0.06443,0.076872,-0.120997,0.131208,0.045499,-0.042385,0.059431,-0.181103,0.004283,-0.006711,0.049284,-0.019046,0.020216,-0.118459,0.091948,0.017771,0.012285,0.054024,0.099374,0.041715,0.056938,0.045224,0.088182,-0.042652,-0.005856,0.139507,0.006435,-0.235046,0.065877,0.059479,-0.077647,-0.002219,0.02485,0.049322,-0.023018,-0.036714,-0.010321,0.029613,0.024109,-0.10545,-0.058044,0.053369,0.074271,0.013576,-0.021868,-0.2354,-0.069033,0.037579,-0.048038,0.033005,0.063613,0.007207,-0.038338,0.036313,0.05925,0.019476,-0.228669,0.131576,-0.021752,0.052207,0.128038,-0.088666,-0.188808,0.009659,-0.016467,-0.057871,-0.313115,-0.018083,-0.013994,-0.026926,0.043342,0.06577,0.020308,-0.229687,0.042844,-0.205485,-0.044752,0.137936,-0.041823,0.026473,-0.024047,-0.059903,0.052724,0.121487,-0.052406,0.072827,0.15636,0.118143,0.034402,-0.05401,-0.029181,-0.013701,-0.02877,-0.026436,0.012479,0.050362,0.007039,0.052058,-0.059315,0.025918,-0.034317,-0.014515,0.015847,0.005144,-0.283918,-0.016644,-0.150993,-0.138719,0.034856,0.011553,-0.035077,-0.030685,0.134147,-0.127827,-0.01294,0.063678,-0.026504,-0.013484,0.104267,-0.119252,-0.163344,0.04215,-0.007847,-0.018674,-0.035374,0.09821,-0.013634,0.034411,-0.112135,-0.073527,0.026707,0.034485,0.06917,0.021606,0.036153,-0.107665,-0.003567,0.007577,-0.025041,0.057445,0.064832,-0.00624,0.076776,-0.015089,0.040146,-0.023993,-0.02156,-0.055322,-0.063993,0.023558],[-0.041991,-0.040152,0.262405,-0.040107,0.021681,-0.004093,-0.250166,-0.02061,0.088182,0.016901,-0.181159,0.119648,0.025044,-0.00826,-0.049721,-0.015776,0.012036,-0.032087,-0.047155,-0.019945,-0.121871,0.108139,-0.022332,0.011819,-0.092593,0.244401,0.106684,-0.014327,-0.052976,0.086112,0.115347,-0.027752,0.100379,-0.067207,0.224214,0.01948,0.050779,-0.128443,-0.217371,-0.017461,-0.000247,-0.046174,-0.037088,-0.417252,-0.06758,0.005618,0.115008,-0.286388,0.016486,0.05808,-0.016206,0.054793,0.037648,-0.051312,0.022566,-0.032609,-0.135585,0.004681,-0.034156,0.105412,-0.038232,0.138298,0.059914,0.199491,0.037892,-0.02458,-0.03708,-0.053567,-0.037278,-0.072637,0.017584,0.012506,-0.056484,-0.172093,-6.7e-05,-0.032319,-0.00787,0.071524,0.007663,-0.14312,0.013312,-0.040964,0.07101,0.181807,0.10611,-0.145168,-0.06185,0.041996,0.003608,-0.087755,0.06546,0.079609,-0.017591,-0.05949,0.051175,-0.131542,0.014446,-0.000202,-0.159175,-0.067767,-0.062539,0.083997,0.053502,-0.025291,0.099644,0.041357,-0.059046,0.028389,0.164274,0.255976,-0.030206,0.10634,-0.073063,0.116249,-0.032539,0.025479,-0.033012,-0.020073,0.016843,-0.088116,-0.000204,0.036681,0.02119,0.060242,0.019253,-0.019888,-0.094495,-0.013594,-0.139679,-0.012296,0.039857,-0.028672,0.051458,-0.076113,-0.10249,0.015053,0.051277,0.048824,-0.008415,0.047709,-0.049987,0.041357,-0.152291,0.022621,0.030097,-0.111698,-0.030787,-0.009801,0.027742,-0.055221,0.005131,-0.14659,-0.040909,0.055817,0.019079,0.031433,0.06695,-0.003287,-0.025022,-0.087033,-0.09398,0.158309,-0.15337,0.021032,-0.045907,0.042493,0.037885,0.076816,-0.10526,-0.042698,0.001289,0.024422,-0.030619,0.058168,0.008018,0.018093,0.087513,0.014604,0.022022,0.080177,-0.063109,0.143944,-0.177753,0.090124,0.011491,0.041563,-0.003839,-0.008422,0.065068,-0.239168,-0.03985,0.058941,0.171035,0.108884,0.200292,0.003558,0.061874,-0.027308,0.009479,-0.149931,-0.004498,0.076615,0.048563,0.05016,-0.072733,0.005087,0.056585,-0.075982,-0.020927,0.019603,0.088986,-0.014956,0.067211,-0.035128,-0.148331,0.075367,-0.075397,0.117048,-0.062951,-0.021457,-0.090889,0.047311,-0.009188,0.013541,-0.006189,-0.114078,-0.245585,0.018795,-0.059576,0.064233,-0.021697,0.063274,0.022691,0.051552,-0.406377,0.137904,0.184063,-0.066917,-0.022626,0.090371,0.099619,-0.096345,-0.051647,0.027372,-0.069757,0.070076,0.071801,0.030205,-0.039674,0.176015,-0.011805,0.022286,0.027971,-0.030238,0.061674,0.020579],[-0.074144,-0.030357,-0.313492,-0.04427,0.026697,0.022652,-0.122351,-0.032714,0.036606,0.074609,-0.056292,-0.043008,0.06306,-0.008497,-0.32628,0.10277,-0.039199,0.069761,0.079247,-0.142837,-0.275323,-0.190142,-0.070198,-0.041092,-0.075429,0.032394,0.124682,-0.027119,0.044269,-0.015441,0.090575,0.039208,0.092975,0.050564,0.080085,0.106412,-0.093849,-0.111098,-0.034678,-0.046095,0.066676,-0.062866,0.057954,-0.215574,-0.003224,-0.077071,0.078116,-0.192524,-0.063473,0.160343,0.096787,-0.086795,-0.134572,0.108444,-0.051393,-0.061014,-0.008458,-0.022272,-0.06538,-0.061095,0.095571,0.070607,0.065806,-0.245733,0.070397,-0.021528,-0.05501,-0.132226,-0.013997,0.006146,-0.003657,-0.151139,0.100722,-0.120434,0.069749,-0.157321,0.025616,0.101742,-0.063487,0.164975,0.043022,0.061648,0.086059,-0.067047,0.000487,-0.225987,-0.08151,-0.06506,0.000819,-0.075663,0.080442,-0.149727,-0.009236,-0.101553,0.060464,-0.059654,-0.017516,0.099618,-0.141414,-0.089816,-0.032569,-0.031164,-0.013832,0.055421,0.012371,0.038221,-0.08183,-7.8e-05,0.110339,0.136667,0.104305,0.042897,-0.104919,-0.03387,0.007731,0.056624,0.164434,0.111533,-0.025922,0.033552,-0.049197,0.105758,0.088568,0.120269,0.079948,0.013025,-0.02094,-0.036158,-0.042815,0.065063,0.098706,-0.037782,-0.013323,0.120335,-0.04408,-0.116806,-0.032071,0.053969,-0.014187,0.023109,-0.096317,-0.08943,-0.095849,0.024693,0.053149,-0.139664,-0.055522,0.026204,0.046066,-0.031955,0.031124,-0.129653,-0.046868,0.112999,-0.05706,0.020023,0.012781,-0.052446,-0.063492,-0.00425,0.068137,0.067088,-0.130161,-0.011195,-0.035684,0.058129,0.035174,-0.007624,-0.119041,-0.01901,-0.057167,0.037741,-0.119351,0.014744,-0.032844,0.080181,0.040267,-0.059055,0.051572,0.128948,0.088348,-0.098933,0.039895,-0.116285,0.01792,-0.034194,0.05381,-0.248515,0.089756,-0.037621,-0.02675,0.088062,-0.02419,-0.031797,0.015544,-0.084754,-0.059449,-0.22417,0.043065,0.046988,0.087391,0.06574,0.023508,0.005775,0.059359,-0.015076,0.025531,-0.082199,-0.124816,-0.042551,-0.04306,-0.08625,0.011931,-0.038359,0.056255,0.033119,-0.104116,0.122648,-0.140652,0.075371,-0.024912,0.040761,-0.021767,0.062874,-0.137837,-0.120764,-0.084843,0.042569,-0.010945,0.05103,-0.12163,0.00978,0.042175,0.044965,0.042021,-0.161092,0.085998,0.112269,0.022859,0.038865,0.104861,-0.000101,-0.028677,0.041968,0.054081,0.064862,0.027923,-0.043185,-0.034453,0.145388,0.000835,0.075342,0.00539,-0.046439,-0.070069,0.011233],[-0.072777,0.013871,0.315485,-0.032212,0.096494,-0.003307,-0.08281,-0.00511,0.045581,0.002716,0.014005,0.071159,0.070252,-0.029927,-0.287171,-0.13608,-0.018047,-0.065242,0.009828,-0.063153,-0.135506,-0.210153,-0.017838,-0.026417,0.027359,-0.112216,0.066502,-0.108638,0.09603,0.027408,-0.052245,-0.066345,-0.005169,0.130922,-0.052897,0.098024,-0.106125,-0.023231,0.11136,0.087697,0.047058,-0.038681,-0.025051,-0.328786,-0.04772,0.080973,-0.071037,0.255172,-0.025682,0.132742,0.02662,-0.083271,-0.011329,-0.130572,-0.122967,-0.02022,0.042302,0.006229,0.04973,-0.131795,0.047169,0.184164,0.122411,-0.119599,0.036928,-0.031683,-0.08487,-0.165207,-0.013058,-0.098072,0.036092,0.039862,0.045964,0.11494,0.027084,0.041268,0.003006,0.010053,0.085078,-0.224563,0.108811,0.108404,0.124931,-0.065147,0.197528,-0.029891,0.046636,0.048801,-0.020303,-0.065669,-0.02831,0.033506,-0.010128,-0.145557,0.046112,-0.114633,-0.024916,-0.202026,0.030034,0.137525,-0.057352,0.028648,0.029528,0.005788,-0.045571,0.023163,-0.108662,0.018418,-0.049345,0.130976,-0.085612,-0.093944,-0.057393,-0.031855,-0.000585,0.001272,-0.09243,0.047403,-0.011764,-0.04524,0.041854,-0.089904,0.17834,0.101969,0.176367,-0.065665,-0.081556,0.070745,-0.129152,0.019303,0.013871,-0.051375,-0.02206,0.178815,0.039326,-0.111648,-0.098288,-0.036642,0.078161,-0.03965,0.033362,-0.009459,0.034284,0.019227,0.007267,-0.1229,-0.008534,-0.042403,0.054536,0.118095,-0.013818,0.195025,-0.032119,-0.28665,-0.021054,0.100596,0.028495,0.007757,-0.022201,0.038073,0.125101,0.340236,0.081085,0.072115,-0.036928,0.000308,0.026169,0.008971,-0.043376,-0.007794,-0.004315,0.19453,-0.119945,0.094237,0.006106,-0.001766,-0.010063,0.016813,0.042719,0.040804,0.130288,0.002489,-0.049488,-0.154126,0.013774,-0.015932,0.043962,-0.216581,-0.131068,0.019825,-0.036423,-0.024901,0.004212,0.206496,-0.099868,0.046397,-0.017875,-0.000695,0.038442,-0.095978,0.024131,0.059493,0.020562,0.038438,-0.063604,0.014417,0.017284,0.109319,-0.162273,0.009393,-0.187746,0.07326,-0.15479,0.032171,0.075748,0.041763,-0.176512,-0.142092,-0.004369,-0.043671,-0.115318,0.087074,-0.000769,-0.005525,0.146357,-0.210708,-0.046487,0.040277,0.05511,0.133969,-0.039211,0.018814,-0.123023,-0.102646,-0.170105,0.235875,0.250851,0.11624,-0.056905,-0.024957,-0.269369,-0.110358,-0.032628,-0.006255,-0.050016,0.0486,-0.143594,-0.029741,-0.029871,0.17171,-0.029414,0.17475,-0.029874,-0.046717,-0.178489,0.088774],[0.016276,-0.078723,-0.183728,-0.028422,-0.006864,0.020439,0.062668,-0.011092,-0.075599,-0.061162,-0.078176,-0.02862,0.037996,0.059115,-0.312608,0.057601,-0.084241,0.008663,-0.037396,-0.148851,0.037511,-0.073577,-0.015996,0.095036,-0.076379,-0.513673,0.020874,0.03161,-0.071072,0.049663,-0.104104,0.083522,0.047719,-0.174542,-0.020308,0.025817,0.028012,-0.071237,-0.035276,0.030815,-0.061109,-0.028342,0.061355,-0.231702,-0.065877,0.040039,0.050051,-0.125022,-0.018322,0.146938,0.097192,-0.048725,-0.059227,0.120843,-0.160162,-0.121738,0.027526,-0.006265,0.106674,-0.009407,-0.037053,0.116082,0.049101,-0.337517,0.081868,-0.110762,-0.034366,-0.076512,-0.045041,-0.065193,0.105936,0.083864,-0.08921,-0.036731,-0.073653,-0.127039,0.05122,0.0551,0.012111,-0.207798,-0.030912,0.067392,-0.050511,0.074707,0.041928,-0.186241,0.087443,-0.06504,0.008269,0.005576,-0.038403,0.046668,-0.018646,-0.024027,0.057724,0.039314,0.08294,-0.346162,-0.04142,0.025475,0.027026,0.011594,-0.009898,0.092613,-0.011116,0.045222,-0.146091,-0.083954,0.150006,0.094147,-0.020983,0.096241,0.030871,0.094658,-0.025971,0.032712,0.052903,0.100795,0.033185,0.095258,0.069954,-0.037386,0.172107,-0.002499,0.005386,-0.072751,-0.021725,0.011849,-0.002523,0.007228,0.059838,0.130081,0.107223,-0.042225,0.096002,-0.077857,0.03706,0.029262,0.050266,-0.00246,-0.028009,0.001657,0.081514,0.046928,-0.000369,-0.024565,-0.041676,-0.009728,0.087552,0.004043,-0.035342,0.10215,-0.016157,-0.079469,0.087909,0.030021,0.022181,-0.023519,-0.032468,0.048995,-0.043866,0.057506,-0.032455,-0.004381,-0.01991,0.056492,-0.012888,0.032073,0.027653,-0.020034,0.000823,0.112537,0.030222,0.077635,-0.0423,-0.092551,0.042779,0.057232,0.007667,-0.097016,0.281488,0.041602,0.079591,-0.123161,-0.0366,-0.080987,-0.019739,-0.201013,-0.066929,0.049662,-0.062859,-0.009854,-0.097464,-0.032177,0.094816,0.064428,0.001994,0.034988,0.024655,-0.001483,0.011352,0.067062,0.016942,0.141247,0.027222,0.038617,-0.009711,0.013005,-0.164992,-0.019381,0.048748,0.06515,-0.002398,0.054589,-0.03359,0.018548,-0.26897,0.022707,0.018188,0.031225,-0.049338,0.005902,-0.016562,0.009712,-0.032936,-0.337872,-0.024792,0.046543,0.098714,0.043485,-0.090994,-0.034494,-0.014431,0.03063,0.113786,0.071863,0.131473,-0.02669,-0.0587,-0.022761,-0.054663,-0.035412,-0.001949,0.069184,-0.028985,0.042781,-0.081817,-0.025805,0.092278,0.170198,0.126981,-0.027551,-0.019362,-0.036782,-0.171171,0.101492],[-0.115788,-0.000505,-0.227867,-0.022618,-0.026805,0.042646,-0.198422,-0.016889,0.005258,0.109069,-0.068675,-0.065747,-0.001503,0.064055,-0.243594,-0.008402,0.006851,0.136376,0.085444,-0.129736,0.093018,0.045557,-0.034745,0.089461,-0.041754,-0.383013,0.039756,0.072546,-0.00537,0.019557,0.01871,0.152614,0.059996,-0.088209,-0.003292,-0.064597,0.014006,-0.039433,-0.053187,0.084707,-0.091416,-0.025696,0.100769,-0.23883,-0.011263,-0.048985,0.093549,-0.123863,-0.06645,0.12507,0.06984,0.032647,-0.016906,0.197161,0.053726,-0.069465,0.08339,0.010185,-0.025214,-0.055696,-0.05864,0.042967,0.040723,-0.13147,0.133976,-0.061163,-0.046183,-0.026866,0.011974,-0.05537,-0.006314,0.13083,0.083297,0.18627,0.081401,0.131569,0.02533,-0.166461,-0.033207,-0.148801,0.020857,-0.069794,0.03251,0.002127,-0.050902,-0.14316,-0.015567,-0.019997,0.049691,0.138509,0.087487,-0.01204,-0.03347,-0.068615,0.05194,-0.080859,0.006196,-0.446497,-0.03436,0.061096,-0.086722,-0.004025,0.013042,-0.076504,-0.123407,0.065945,-0.153068,0.032152,0.187069,0.101312,-0.075129,-0.022057,0.079398,0.111602,-0.017569,0.022076,0.024574,0.005279,0.052719,0.049332,-0.008911,-0.167494,0.177417,-0.147651,-0.038662,0.047935,-0.059154,0.143025,-0.027118,0.065193,0.015906,0.083931,0.257695,-0.199791,0.078715,-0.144381,0.089145,-0.014114,-0.019557,-0.027654,-0.068335,0.082703,0.161883,0.021757,0.001743,-0.034137,-0.055007,0.037348,-0.037514,-0.023275,-0.005918,-0.089107,-0.007957,-0.173869,0.068302,0.082559,-0.008989,-0.06671,-0.028578,0.068249,-0.015933,0.070861,-0.110375,0.057606,-0.006759,0.005879,0.036832,-0.001647,-0.049826,-0.019273,0.054268,0.063274,-0.019575,0.109242,0.055862,0.064757,0.041666,-0.063828,-0.043359,0.017403,0.273638,-0.081065,-0.03738,-0.372074,-0.00684,-0.082539,-0.030734,-0.140548,-0.119603,-0.078786,-0.046366,-0.119552,-0.019164,0.078364,0.076977,0.102192,-0.021383,0.0998,0.071528,0.030262,-0.00434,0.074138,0.037967,0.052139,-0.03467,-0.005727,-0.037574,0.052009,-0.055288,-0.00493,0.122989,0.113855,-0.123805,-0.08335,-0.135016,-0.022507,-0.186954,0.048045,-0.039198,0.109766,-0.093085,-0.075889,-0.00898,-0.018915,0.071232,-0.365756,0.011136,0.060562,0.028478,0.059557,4e-05,-0.078024,0.027461,-0.023016,-0.074834,0.014096,0.177551,-0.009153,-0.091011,-0.053424,-0.048367,-0.064628,-0.016732,0.013317,-0.13023,0.019667,-0.002852,-0.056699,0.043869,0.182927,-0.099569,0.091482,-0.075696,-0.096854,-0.244701,0.023422],[-0.169861,0.04457,-0.004129,-0.05428,-0.008059,0.043767,-0.03527,0.006433,0.00438,0.047928,-0.004243,0.014574,-0.128608,-0.021363,-0.258577,0.14447,-0.133419,-0.13778,0.060394,0.186776,-0.073804,-0.16046,0.001465,-0.022334,-0.025156,-0.098699,-0.001114,-0.043875,0.03315,-0.023628,-0.076411,-0.091771,0.015558,-0.034574,0.077256,0.006113,0.078151,0.156866,0.054196,0.146889,-0.051705,-0.057938,0.213892,-0.223761,-0.088355,0.057523,-0.043664,-0.095655,-0.02795,0.065968,0.143582,0.034284,-0.00386,0.167332,-0.081155,-0.270507,0.022052,0.095277,0.024978,0.035448,-0.145424,0.045237,-0.185502,-0.141648,0.095085,-0.139091,-0.081423,0.021021,0.02257,-0.026714,-0.018853,-0.368357,0.096637,0.05903,-0.06267,-0.178248,0.092895,-0.058604,-0.049982,-0.245708,0.138958,-0.194188,-0.086704,0.221029,0.019094,-0.162424,-0.046066,-0.050404,0.060358,0.162997,0.003243,-0.27959,-0.027208,-0.134585,-0.017781,-0.137549,-0.046389,-0.228161,-0.14324,-0.168219,0.059852,-0.017078,0.098309,0.040743,0.000233,0.054519,-0.34623,-0.046741,0.204658,0.258496,0.115461,-0.076135,0.098965,-0.27046,-0.056115,0.066564,0.090934,0.019555,0.050127,-0.103596,0.092971,-0.135662,0.11648,-0.213281,-0.087843,0.054792,0.048557,-0.010674,0.166278,0.100038,0.0081,0.097072,0.278189,-0.035419,0.132142,-0.077217,0.025207,0.037348,-0.031264,-0.059946,0.161368,-0.309115,-0.163605,0.016816,-0.032528,-0.111196,-0.04923,0.019931,0.032807,0.025876,0.05031,-0.036648,-0.054862,-0.127253,0.132982,-0.05331,0.011768,0.039279,-0.053121,-0.032296,-0.090883,0.090275,0.01669,0.140453,-0.049602,0.039272,0.089962,0.06644,-0.07857,0.111409,0.092496,0.007201,-0.058665,0.052159,0.137643,-0.117804,0.018002,0.065807,0.021228,-0.136692,0.153818,0.006357,0.020235,0.155782,0.101746,0.05804,-0.092176,-0.203962,0.096921,-0.188433,-0.026061,0.005151,0.056995,-0.021901,-0.171073,0.158725,0.114976,0.187996,-0.050504,-0.077116,-0.022813,0.08255,0.055167,0.055352,-0.025422,0.09948,0.164331,-0.151869,-0.150001,0.034172,0.079892,-0.118812,0.022912,0.135194,0.111935,0.005071,0.093986,-0.069464,0.070147,-0.014119,-0.169936,-0.036697,-0.034908,0.055182,0.074456,-0.22591,-0.107035,0.065706,0.008119,0.126813,-0.070369,-0.04146,-0.01864,-0.076721,0.09926,0.00342,0.137409,-0.05215,0.016097,0.069572,0.072418,-0.250521,-0.038489,-0.040225,-0.146553,-0.008736,-0.140616,-0.122929,-0.044216,0.03042,-0.08338,0.095525,-0.027629,-0.136995,-0.205006,0.124608],[-0.035433,-0.063563,-0.032579,-0.033686,0.023955,0.037674,-0.084067,-0.090752,0.141187,-0.025222,-0.208199,0.047019,-0.00971,-0.02444,0.100397,0.041769,0.024824,0.051214,-0.119244,-0.330202,0.079503,-0.088997,0.19365,-0.11351,0.115191,0.055226,0.023617,-0.071482,0.026507,0.095155,0.079896,-0.062972,0.030122,-0.020659,-0.123844,-0.063995,0.152275,-0.078935,0.095762,-0.036209,-0.058653,0.13834,-0.029045,0.056218,0.076258,0.018483,0.076917,0.008498,0.051547,0.044736,0.105004,0.098546,0.100553,-0.114201,0.283789,-0.084005,0.030566,-0.00791,-0.001663,0.053586,-0.037015,0.007425,-0.053427,0.003088,-0.015236,0.066455,-0.006179,0.031571,-0.029695,0.085994,0.123688,0.001271,0.096759,-0.002583,-0.114106,-0.011239,0.003985,-0.080146,0.076197,0.013121,-0.019848,0.048699,0.07331,-0.102433,0.018354,0.21864,-0.113287,0.010896,-0.102028,-0.027073,-0.017878,0.008467,-0.018242,-0.128176,-0.122991,-0.28144,-0.0431,0.031099,0.060147,0.145584,-0.114751,-0.0605,-0.006592,0.064318,-0.050356,0.023987,-0.046672,0.050596,-0.018531,-0.053534,0.127826,-0.024424,-0.053268,-0.009917,-0.017692,0.086926,-0.133397,-0.096298,0.06547,0.004133,0.054103,-0.024232,0.061026,-0.071452,-0.01735,0.103263,-0.013997,0.041476,0.085938,-0.064036,0.037314,0.015048,0.020899,0.004827,0.04765,-0.289636,-0.041481,-0.001637,0.08069,0.054159,0.115684,0.021437,-0.026908,0.027804,-0.090076,-0.050492,0.260266,0.074349,0.066842,0.023989,-0.129445,-0.008797,-0.077554,0.050394,-0.107948,0.060407,0.018767,-0.052885,0.052895,-0.100127,0.020849,-0.003836,-0.177447,-0.051836,-0.018278,0.025645,0.045972,0.045158,-0.100216,0.073158,-0.067186,0.007967,0.1418,-0.365209,-0.044715,0.006908,0.027586,0.01786,0.07943,0.088117,-0.100241,-0.269332,0.037775,-0.039167,0.025852,0.014936,-0.023433,0.043125,-0.107929,-0.108361,0.049052,-0.050744,-0.018803,-0.050245,-0.002304,-0.047888,0.071212,0.009229,0.003296,0.075391,-0.024798,0.081985,0.016834,0.093365,0.085961,-0.084808,0.044461,0.037899,0.03099,0.047657,-0.232237,-0.027418,-0.099849,-0.009339,0.066826,0.027236,0.020518,0.048329,-0.287851,-0.008396,-0.068393,-0.105817,-0.025174,0.077929,0.139313,0.054777,-0.035119,-0.174795,0.015395,-0.042772,0.03655,-0.032506,0.049397,0.049302,0.000776,-0.063887,-0.078778,0.031989,0.083121,-0.004484,-0.003089,0.116863,-0.042991,0.107895,0.075439,0.143766,-0.047877,0.078318,0.044603,-0.015354,0.017049,0.058828,0.098548,-0.038997,0.08868,-0.031478],[-0.026537,-0.005616,-0.06048,-0.03778,0.093281,0.062566,-0.118109,-0.063359,0.158535,0.049616,-0.247972,0.045366,-0.004603,-0.089484,-0.014425,-0.025132,-0.042349,0.130444,-0.13279,-0.10163,0.009733,-0.039885,0.205173,-0.083494,-0.020515,-0.054257,0.07905,-0.016994,-0.068981,0.047155,0.033416,0.148331,0.01469,-0.149287,-0.034277,-0.047416,0.007323,0.026464,-0.135937,-0.053843,0.051225,0.115398,-0.012746,0.070794,-0.042157,0.009657,0.026586,0.012204,0.016619,0.047593,0.02003,0.062599,0.135161,0.053745,-0.105333,0.018337,0.035029,0.062366,0.089415,-0.073155,0.108544,-0.013177,-0.020241,-0.043364,0.009429,0.011289,-0.014987,-0.017553,-0.037185,0.010365,0.058112,-0.023618,0.07799,0.011794,-0.02307,-0.013574,0.055879,-0.037925,0.049158,0.001264,-0.048945,0.061987,0.024442,-0.008382,0.043865,0.103479,-0.009387,-0.011637,-0.086103,0.010404,0.066445,-0.068102,0.007045,-0.046824,0.084192,-0.183263,0.058552,0.048993,0.034901,0.068371,-0.054556,-0.018617,-0.020193,0.040385,-0.001082,0.007152,-0.015491,0.093685,0.047125,-0.072447,0.110603,0.049689,0.02955,-0.045006,-0.006563,0.026371,-0.138789,-0.067183,0.062655,-0.001777,0.104021,-0.021005,0.053289,-0.125454,0.007852,0.004358,-0.051982,0.021964,-0.048436,0.052265,0.03752,0.015673,-0.034436,-0.147554,0.057588,0.141409,-0.046401,0.013654,0.04397,-0.00821,0.048632,0.063713,0.053253,0.045328,-0.040594,-0.107251,0.13204,0.057106,-0.019158,0.042265,-0.08036,0.153556,-0.078402,0.067411,-0.03491,0.083075,0.041277,-0.064565,0.031136,-0.014105,-0.019433,0.02821,-0.11378,0.029202,-0.031182,0.019445,-0.069538,-0.002481,-0.127539,-0.017466,-0.098971,0.033697,0.023074,-0.154239,-0.013211,-0.002454,0.002067,-0.041944,0.050141,0.03066,-0.076693,0.096101,-0.033301,-0.001295,0.047204,0.047352,-0.009807,0.005843,0.085982,0.059189,-0.082484,0.069796,-0.036285,0.027337,0.084226,0.02546,0.00469,0.048839,0.012521,0.098726,-0.014122,0.06389,0.050492,0.063209,0.033203,-0.019615,-0.005119,-0.100554,-0.027017,0.019096,-0.045822,-0.050261,-0.028929,-0.009925,0.172521,0.053908,0.083677,-0.120859,-0.247186,0.037502,-0.098624,0.036195,-0.029872,-0.084213,0.09384,0.053128,-0.011537,-0.173066,-0.027105,0.129225,0.062685,0.020725,-0.027187,0.057634,-0.017101,-0.014603,-0.057039,0.029251,0.033132,0.108751,0.039349,-0.012255,0.024739,0.050921,0.001887,0.081713,-0.037782,0.030863,-0.000986,-0.051253,-0.045767,0.039403,0.019622,-0.033051,-0.032513,-0.041657],[-0.037802,-0.078707,-0.045689,-0.038026,0.081427,0.026193,-0.018143,-0.047936,0.036222,-0.018278,-0.241117,0.117508,-0.014049,-0.144545,-0.033424,-0.055961,0.085079,-0.034055,-0.213038,-0.132419,0.027806,-0.014893,0.137931,-0.105576,0.011114,-0.076348,0.038233,-0.007891,0.043631,-0.04292,0.006771,-0.12749,0.056182,0.05935,-0.034167,0.016718,-0.043056,-0.06273,0.030651,-0.011792,0.010137,0.106308,0.027507,0.060238,0.171028,0.026464,0.092287,0.006248,0.032358,0.068053,-0.059367,-0.021285,-0.072978,-0.196899,0.017359,-0.066914,-0.090768,-0.026224,-0.007383,-0.017752,-0.018636,0.008265,0.027912,0.169249,0.030442,0.082167,-0.028624,0.026708,-0.016916,0.081935,0.017621,-0.05143,-0.183505,0.1195,-0.097199,-0.036129,-0.006375,0.033565,-0.047928,0.047825,0.034293,0.099969,-0.019235,-0.048075,0.019779,0.120095,0.085561,0.027553,-0.083355,0.027017,0.059769,0.057942,-0.020926,-0.045407,0.08802,0.005045,-0.013191,0.0419,0.149335,0.080259,-0.058769,0.01872,-0.010795,0.069005,-0.029876,-0.008819,-0.041148,0.019815,-0.157669,-0.080713,0.089022,-0.034214,0.030663,-0.056311,-0.003812,-0.008335,-0.13198,-0.098631,0.083417,0.09693,-0.00111,-0.01655,0.060104,-0.198272,0.063248,-0.085589,0.071858,-0.049062,-0.008317,0.036884,0.034744,0.095111,-0.010516,-0.085675,0.04766,0.064765,0.017641,0.128125,0.020653,0.065347,0.058167,0.044129,0.087366,0.0302,-0.060748,-0.092781,-0.042696,-0.02003,-0.042357,0.039456,-0.173013,-0.114109,-0.055814,0.071755,-0.028736,0.069011,0.02038,-0.019654,-0.048171,0.006304,0.060449,0.014066,-0.163848,0.017096,-0.023467,-0.061591,-0.09028,-0.007424,-0.195341,0.006725,-0.096303,0.050523,-0.105941,-0.152101,0.025297,0.011146,-0.011271,-0.056116,0.057629,0.101346,-0.068012,-0.11123,-0.178606,0.061016,-0.049437,-0.089119,-0.047398,0.113247,0.145848,-0.014906,-0.111177,0.05004,0.032196,0.049305,0.066938,-0.001183,0.034313,-0.013113,-0.03882,0.095535,0.030787,0.046168,0.069991,0.032923,0.041803,0.032303,0.005781,0.043318,0.014886,0.012476,-0.06514,-0.091153,-0.023901,-0.050158,0.036095,-0.092295,0.017403,-0.184249,-0.001114,-0.038813,-0.11582,-0.015446,-0.023684,-0.029794,-0.041753,0.052161,-0.017808,-0.167398,-0.021478,0.001819,-0.054245,0.020367,-0.021718,0.036519,-0.045458,0.048453,-0.04548,-0.012475,0.087746,0.072905,0.00979,-0.023018,0.020273,-0.1747,0.032015,0.044905,0.003855,0.062802,0.073474,-0.050438,-0.056611,-0.003595,0.009475,0.009742,-0.105874,-0.071877],[0.088245,-0.044034,-0.058043,-0.056903,0.00477,0.049345,-0.059372,-0.011703,0.010504,0.12004,-0.161366,0.08169,-0.047802,-0.065013,0.046321,0.062618,0.007114,0.054595,-0.068149,-0.173158,0.200662,0.092897,0.020128,0.010544,0.069799,-0.016077,0.002203,-0.021557,0.011019,0.083909,-0.179787,0.064698,0.026233,-0.051917,-0.166346,-0.010204,-0.119843,0.07359,0.011144,0.026748,-0.035639,0.365656,-0.022686,0.075988,0.227906,-0.039453,-0.023959,0.021041,-0.028689,0.013167,0.039689,0.04553,-0.035815,-0.071492,-0.19538,-0.044884,0.096451,0.032703,0.101425,-0.061356,0.040943,-0.009894,-0.000919,0.046404,0.030352,-0.001415,-0.082275,0.118672,-0.020557,0.005223,0.053084,0.025455,0.016962,-0.055434,-0.111328,0.040875,-0.067594,0.049798,0.026933,0.007241,0.080327,-0.009493,0.003413,-0.007347,0.094352,0.044006,-0.05325,-0.008606,-0.460771,0.090016,0.005167,-0.079986,0.000708,-0.029512,-0.327284,-0.083575,0.017318,0.053451,0.137574,0.022129,-0.002702,-0.024096,0.036924,0.007729,0.136061,0.049431,-0.09985,0.125162,-0.073357,-0.07294,0.038949,-0.120363,0.062259,-0.022468,-0.01374,-0.04205,0.063819,-0.007562,0.032502,0.026018,-0.014939,0.047045,0.062512,-0.252022,-0.001792,-0.180405,0.031783,0.028525,-0.024099,-0.090626,-0.052249,-0.026567,-0.02663,-0.150396,-0.044616,-0.146078,-0.04306,0.177663,0.068492,0.041722,-0.008257,-0.016309,0.056933,0.018628,-0.029512,-0.107552,0.233601,0.035362,0.055321,-0.054426,-0.155564,-0.135838,-0.054226,0.063093,-0.022427,0.033953,0.05124,0.002289,0.059996,0.030944,0.043753,-0.013476,-0.099822,-0.000138,-0.034416,0.080223,0.144539,0.042224,-0.096475,-0.031426,-0.101442,0.002276,0.012103,-0.133387,-0.00221,-0.019093,0.001539,-0.035825,0.054575,-0.094687,-0.062485,-0.143795,-0.249803,0.025406,-0.029965,0.051099,0.078755,0.016701,0.002253,-0.133533,0.362987,-0.034241,0.093644,0.131446,0.106,-0.044626,0.023394,-0.014069,0.038175,-0.011652,-0.085914,0.044548,0.047099,0.107673,-0.131045,0.027614,0.024011,-0.103911,-0.034823,-0.205014,-0.031788,-0.054764,0.048012,-0.101251,0.065922,0.054147,0.065268,0.029107,-0.141108,0.034239,-0.069925,-0.072567,-0.019457,0.084168,-0.079426,0.067625,-0.086584,-0.102519,-0.000779,0.016895,0.019532,0.05476,0.006085,0.030122,-0.180337,0.005776,-0.072603,0.001837,-0.107746,-0.104667,0.091772,0.11336,-0.048778,-0.326068,0.036291,-0.058351,-0.030359,-0.049123,0.025704,-0.046021,0.064105,0.119063,0.078779,0.018563,0.042647,-0.073552],[-0.073345,0.034587,-0.023376,-0.048746,-0.000562,0.063226,0.040569,-0.029678,0.006629,-0.025384,0.02541,0.077343,0.105514,0.005389,0.07739,-0.059038,-0.013172,-0.109023,0.169548,-0.01965,-0.02188,0.062276,-0.063598,-0.056967,0.09439,-0.05481,-0.039455,0.003256,0.010181,-0.032513,-0.04702,-0.091825,0.048795,0.126197,0.20701,0.018039,0.023325,0.059868,-0.022805,0.008241,0.051244,0.211918,0.085725,0.041101,-0.117803,-0.186863,0.051879,0.034109,-0.004149,0.020126,0.11797,0.062477,0.079781,0.08374,0.07178,-0.058099,-0.066495,-0.014914,-0.150999,-0.05821,0.037261,-0.023798,0.136389,-0.249963,0.03656,0.059167,-0.077509,0.057118,-0.011128,0.050643,0.076883,-0.118931,-0.013944,-0.122367,-0.025015,-0.001733,0.016714,-0.000896,0.005552,0.031807,0.015283,0.01101,0.022919,-0.044826,0.030783,0.10874,0.035523,-0.029948,-0.258048,-0.074843,0.023209,-0.087074,0.009969,0.126806,-0.0845,-0.083199,-0.029418,0.067282,0.099369,-0.049972,-0.066243,0.017918,-0.033872,0.114355,0.141875,0.086824,-0.071083,0.045733,-0.115285,-0.057274,0.050019,-0.075054,0.09187,-0.013033,-0.013213,0.01301,0.188455,-0.085215,0.109356,-0.005566,-0.043041,-0.011236,0.051897,-0.365285,0.102512,-0.124478,0.006634,-0.002542,0.136482,-0.055159,-0.009049,0.054121,-0.03942,0.095746,-0.062319,-0.09559,0.047639,0.042126,0.050272,-0.032408,-0.06623,0.037102,-0.044347,0.021017,-0.207012,-0.088996,-0.05814,-0.032401,0.083237,0.044046,-0.025135,0.057168,-0.06568,0.172976,0.016253,0.041836,-0.004573,-0.009984,0.022845,0.140316,-0.019267,-0.057252,-0.173018,0.00446,-0.026036,0.117482,-0.063415,-0.0468,-0.030672,-0.016905,-0.149975,0.036522,0.029626,-0.133044,-0.011695,0.024733,0.036588,-0.033192,0.045828,0.009248,-0.070778,-0.135371,-0.255073,-0.048123,-0.051541,0.129442,0.018056,0.119651,-0.112282,-0.090286,-0.181056,0.151951,0.037109,-0.018212,0.020763,0.004335,0.059636,-0.049383,0.034433,-0.109357,0.033616,0.067453,0.045129,-0.005356,0.000962,-0.002243,0.002225,-0.010343,0.018452,-0.079284,-0.068633,0.075518,0.034229,0.034637,0.007861,0.058274,-0.138836,0.140889,-0.055838,0.041411,0.042572,-0.040002,-0.009721,0.054717,0.056373,0.033967,-0.127413,-0.122847,-0.037399,0.016386,-0.128717,0.039675,-0.057578,0.025241,0.058452,0.057839,-0.038544,-0.089781,-0.088947,-0.245039,-0.074053,0.087809,-0.069821,-0.196329,-0.069818,-0.491422,-0.058915,0.138128,-0.020477,-0.07516,-0.060759,0.065375,-0.003031,-0.054408,0.117102,-0.004928],[0.042029,-0.085459,-0.047542,-0.042112,0.032521,0.036052,-0.018699,0.011944,-0.15985,0.037944,0.223528,0.009796,0.014408,-0.09272,0.005784,-0.090463,0.00772,-0.014509,-0.22028,-0.051666,-0.247492,0.061452,-0.03065,-0.049917,-0.057665,-0.083851,-0.136954,0.045933,0.073998,-0.064355,-0.246774,0.056607,0.007622,0.086879,0.07408,-0.072716,0.025178,0.068798,-0.13379,-0.019793,0.076777,0.286584,0.017009,0.042777,0.046126,0.090999,0.060686,0.033184,0.034006,-0.018402,-0.037662,-0.011128,-0.091805,0.108077,-0.171266,-0.063961,0.060374,0.141372,0.183944,0.166333,-0.022505,0.027269,0.018671,0.10249,0.018041,-0.064588,-0.061035,0.114559,-0.03695,-0.026855,0.089193,-0.041896,0.050945,0.022819,-0.035598,0.004099,-0.043251,0.062196,-0.055208,0.010853,-0.061734,0.100301,0.054143,-0.048881,0.080134,0.006258,0.042531,-0.003272,0.068189,0.225824,0.071659,-0.005731,0.019969,0.016248,-0.15684,-0.173109,-0.072004,0.068857,0.225405,0.127457,-0.057255,0.018974,0.084299,0.073051,0.044245,0.038437,-0.099327,0.01874,0.012045,-0.074216,0.135001,-0.068333,0.011905,-0.013571,-0.026423,-0.059542,-0.10835,-0.032254,0.066502,-0.160762,-0.055633,0.008155,-0.020011,-0.344365,0.128843,0.008548,0.066261,-0.042995,-0.235885,0.042655,-0.077828,0.005228,0.003031,0.073305,-0.033824,0.189372,0.075923,0.126064,0.12974,0.032264,0.058891,0.059381,0.050035,0.027416,0.418137,-0.144217,-0.039633,0.161097,0.135374,-0.014252,-0.480768,0.001871,-0.055031,0.106957,0.04453,0.021337,0.024961,-0.000232,0.177643,-0.094775,0.035605,0.020408,-0.113585,0.021794,-0.028204,0.054295,-0.124602,-0.022816,-0.003086,0.017219,-0.163225,-0.049825,-0.045543,0.139166,0.036125,0.12849,-0.007178,-0.129914,-0.049272,-0.02798,-0.047679,0.117322,0.055513,-0.105058,-0.013192,-0.164027,-0.00226,0.124248,0.151808,-0.06079,0.210818,0.119108,0.121148,0.080842,0.042462,0.013654,-0.037504,-0.021954,0.026608,-0.119798,0.146923,0.06539,0.096333,0.001168,0.055471,0.016501,0.173134,0.107623,-0.055922,0.323451,0.023145,-0.103606,-0.044024,-0.060902,-0.269248,-0.091632,0.01984,-0.079249,0.117999,0.142842,-0.039887,-0.022836,-0.037963,-0.111241,0.072543,0.065703,0.023774,-0.215911,-0.025939,0.055611,-0.069844,-0.076521,-0.022128,-0.054236,-0.104632,-0.011605,-0.092463,-0.074356,-0.033429,-0.014344,-0.18327,0.060682,0.216964,-0.085643,-0.021519,-0.339629,-0.064574,0.007839,-0.040906,-0.067288,0.054479,0.022674,-0.05377,-0.044725,0.043148,0.06978],[-0.125562,0.105098,-0.033583,-0.015422,0.036977,0.050806,0.129797,0.017272,0.016142,-0.022634,0.069284,0.011203,0.062151,0.039159,0.05858,0.014599,0.05235,-0.050808,-0.204189,-0.060135,-0.067068,-0.053703,-0.072155,0.028748,-0.071351,-0.021361,0.014288,0.090846,0.002713,0.049069,-0.109162,0.189509,0.013712,-0.098559,0.028902,0.064593,0.032542,0.058796,-0.079018,0.114914,-0.00615,0.180189,-0.007059,-0.026619,-0.076265,0.078881,-0.065134,0.029554,0.110636,-0.082171,-0.027547,-0.00768,-0.037653,-0.17593,-0.25829,-0.036563,-0.058292,0.017791,-0.105102,0.010682,-0.060757,-0.024475,0.038401,-0.134195,0.106903,0.008209,-0.058905,0.103247,0.025573,-0.005674,-0.033901,0.012378,-0.044087,-0.00615,-0.184893,-0.131199,-0.048068,-0.051428,-0.010812,0.046974,0.022925,0.03557,0.105551,-0.084467,-0.025974,0.177526,0.029943,-0.034771,-0.150619,0.019663,0.000264,0.093278,-0.016834,0.058752,-0.111468,0.04989,-0.023962,0.016688,0.17001,0.049061,-0.056097,-0.033673,0.082582,-0.062444,-0.0544,0.062277,-0.093342,-0.042947,-0.0708,-0.044677,0.025952,0.118652,-0.035494,0.027037,-0.006315,-0.024407,0.014659,0.0656,0.074735,0.033384,-0.011219,-0.084101,-0.030066,-0.233221,-0.015773,-0.180245,0.054417,-0.042926,0.146024,-0.064325,0.05084,0.019236,0.020304,0.127013,0.134596,-0.03528,0.012769,-0.050644,0.092555,0.010629,0.009398,0.088822,0.009823,0.043246,-0.067071,-0.053646,0.069825,0.054568,0.047418,-0.009894,-0.061546,-0.06432,-0.03234,0.018808,0.034156,0.01864,0.035647,-0.081636,0.323026,-0.045949,0.093138,0.051543,-0.10371,0.046514,-0.017333,-0.001432,-0.077497,0.041272,-0.002331,-0.080375,-0.064495,-0.059432,0.022389,-0.173152,0.052714,0.039587,0.008551,0.012711,-0.103292,0.078371,-0.034861,0.16477,0.052323,-0.128395,-0.02374,-0.066113,-0.022399,0.108909,0.030169,0.079502,-0.138762,-0.042464,-0.012547,0.027518,0.011958,0.059217,0.015666,0.050492,0.064826,-0.18484,-0.06581,0.047038,-0.029155,0.037282,0.033728,0.015811,0.00596,0.000699,-0.008797,-0.075734,-0.016971,0.036103,-0.049806,0.016287,-0.124244,-0.062908,-0.030886,-0.003491,0.022148,0.088473,-0.107641,0.153413,-0.010648,-0.074892,-0.049064,0.078445,-0.103572,-0.249699,-0.035632,-0.069118,-0.011308,-0.112821,0.03171,0.015713,-0.046205,-0.017738,-0.072406,-0.104949,-0.008974,-0.237853,-0.06632,0.006646,-0.011158,-0.148638,-0.044904,-0.317242,-0.041155,0.117448,0.094599,-0.040829,-0.030086,0.008985,0.027369,-0.056847,0.057664,0.004871],[-0.071461,0.072596,-0.03817,-0.01408,-0.011338,-0.034064,-0.079699,-0.003695,0.033305,-0.003934,0.065823,0.021605,-0.070148,0.053796,0.135846,0.013149,-0.031692,-0.049902,-0.382248,0.025133,0.098191,0.068075,-0.050333,0.012958,-0.113621,0.001029,2.5e-05,0.159561,0.036969,-0.005173,-0.045245,0.224998,0.070081,-0.199922,-0.288186,-0.004935,0.158087,0.105415,-0.118735,0.014263,0.025277,0.204979,-0.000363,-0.010773,-0.109667,-0.270763,0.017873,0.024726,-0.04462,-0.279027,0.108286,0.062257,-0.13668,-0.206234,-0.30101,-0.102758,-0.245937,0.02968,-0.009034,0.093137,-0.171883,0.055485,0.056224,-0.092154,0.052687,-0.047115,-0.086518,0.087434,-0.000106,0.009913,0.013129,0.003424,0.118828,-0.068891,0.03905,-0.082474,-0.064645,0.033806,-0.006048,-0.005523,0.029801,-0.015541,0.039626,0.049936,-0.020315,0.105882,-0.009614,-0.074022,-0.077658,0.102874,0.06608,0.06861,-0.023834,0.112812,-0.230274,0.103359,0.084134,0.037591,0.152098,0.221886,0.032134,0.070945,0.046921,0.052254,-0.104693,0.065382,-0.171717,-0.080835,0.031914,-0.035213,0.114407,0.069763,-0.01206,-0.021743,-0.02895,-0.053595,-0.02635,0.083206,-0.01844,-0.15362,0.062732,-0.058872,-0.070709,-0.240728,-0.004463,-0.19124,-0.055109,0.010192,-0.001652,-0.048745,0.046745,-0.029413,0.011484,0.066589,0.001641,0.006939,-0.013599,-0.060809,0.083231,0.035781,-0.023113,0.065114,0.042592,0.030207,-0.088518,-0.032013,0.105958,0.051267,-0.064236,-0.012276,-0.018581,-0.007875,-0.020175,-0.082003,-0.048564,0.019518,0.031707,0.097127,0.365768,0.089434,-0.067214,0.0329,-0.19223,0.073903,-0.017557,0.025302,0.095959,-0.002548,0.03809,-0.002667,0.125177,-0.095333,-0.214081,-0.251167,-0.035438,-0.042941,-0.022304,-0.033455,-0.11636,-0.033586,-0.063058,0.072696,0.126905,-0.043174,-0.061888,0.009409,-0.031804,0.062153,0.194883,-0.04801,-0.180803,-0.040629,-0.073956,0.07757,-0.0804,0.063806,0.012042,0.082764,0.065459,-0.060929,-0.101448,0.056614,0.028751,0.003677,0.044027,0.100181,0.030263,0.140674,-0.053776,-0.128828,-0.050383,-0.01635,-0.134617,0.050175,-0.123752,0.066271,0.013279,-0.065115,0.167366,0.06508,-0.129835,0.13041,-0.038482,-0.015747,-0.189492,0.087036,-0.106231,-0.341169,-0.049553,0.026524,-0.009494,-0.092194,-0.0544,0.036775,-0.122206,0.008548,-0.032607,0.087627,0.035901,-0.049343,-0.033556,0.110865,-0.028892,-0.111271,-0.034843,-0.253677,-0.072913,0.075318,-0.050926,0.004813,-0.032,-0.01037,0.009384,-0.045275,0.034031,0.063848],[-0.071067,-0.062427,-0.031371,-0.061234,0.057412,0.036675,-0.035499,0.029142,-0.000564,-0.114063,-0.174486,-0.003392,-0.116258,-0.057333,-0.013925,0.018791,0.013373,-0.001057,-0.098093,-0.081457,0.146786,0.094856,0.194053,-0.028128,-0.00502,-0.069107,-0.025047,0.06241,0.023163,-0.003376,-0.101523,-0.02235,-0.028273,-0.139695,-0.268884,0.012544,-0.133371,0.166851,-0.093117,0.16322,0.047098,0.222249,0.041609,0.059057,0.089587,-0.30847,-0.050228,0.028327,-0.02249,-0.116346,0.066529,0.05189,-0.17504,-0.24438,-0.204257,-0.335402,-0.151624,0.099221,-0.108049,0.03909,-0.130476,0.171378,-0.248629,-0.088234,0.025909,-0.110357,-0.069855,-0.029553,0.120081,-0.005248,-0.072342,0.028557,-0.124732,0.142225,-0.144871,-0.077778,-0.079504,0.112004,-0.013236,-0.015282,-0.058576,-0.077631,0.041209,-0.097912,-0.061351,-0.080166,-0.039269,-0.064637,0.244623,0.07243,-0.00935,0.017751,-0.02774,0.050079,-0.159378,0.233185,0.112174,0.062202,0.031451,0.029589,0.059161,0.140484,-0.010085,-0.080785,0.102476,0.040588,-0.240872,-0.001368,-0.061883,-0.088222,0.110991,0.118496,-0.007109,-0.054694,-0.042417,0.05117,-0.049611,0.1269,-0.033574,-0.008297,0.03408,-0.067031,-0.1065,-0.094794,-0.030745,-0.093492,-0.011649,0.050223,0.007296,0.042394,-0.017581,-0.049076,0.100107,0.041174,0.026293,0.156905,-0.047808,-0.11277,0.093448,-0.021421,-0.032598,0.078814,-0.055222,0.020235,-0.073165,-0.103991,-0.096022,0.019813,-0.044815,0.034791,0.098294,0.000772,-0.042479,-0.05351,-0.033262,-0.111088,0.064619,0.042266,0.201621,0.059506,0.101125,0.059628,-0.060522,0.064025,-0.043341,0.139654,-0.051168,0.072896,-0.109404,0.10056,0.137007,-0.071826,-0.119955,-0.191234,0.036995,-0.039873,-0.022064,0.009873,-0.173996,-0.143195,-0.119256,-0.223465,0.067305,0.0897,0.087224,-0.032313,-0.014028,0.033345,-0.012873,-0.078301,0.004631,-0.121348,-0.035841,0.033736,-0.116518,0.122844,0.058352,0.092409,0.117962,-0.187579,0.044985,0.082075,-0.035996,-0.008386,0.147621,0.139485,0.13586,0.014669,-0.096007,-0.170478,-0.175387,0.059128,-0.07771,0.049684,-0.187887,-0.042564,-0.220732,0.085489,-0.013881,0.040767,-0.141212,0.049754,-0.049849,-0.043761,0.002062,0.098784,0.120296,-0.341369,0.139958,0.048875,0.058957,-0.131394,-0.008749,-0.026158,0.182412,-0.163551,-0.163653,0.112138,0.052746,0.067024,0.141081,-0.03463,0.04787,-0.080464,0.117429,-0.291114,-0.059732,0.096142,0.117959,-0.050977,0.085734,0.091932,-0.028211,-0.127634,0.065985,-0.058614]],"b":[0.005428,0.125512,0.085329,-0.060911,-0.116499,0.008995,-0.030262,-0.052931,0.129969,0.139072,-0.054797,0.117893,-0.051486,0.052499,-0.024712,-0.115651,0.124255,-0.042505,0.042238,-0.085277,-0.159672,-0.140952,0.004568,0.041318,-0.056038,0.030256,0.070304,0.043723,0.005882,0.133911,-0.069516,-0.046358,-0.041046,-0.07936,-0.137607,0.026294,-0.071488,-0.073603,0.050824,-0.056852,-0.070884,-0.050361,0.08978,-0.104699,-0.013418,-0.028553,0.071388,0.03554,0.071967,-0.151017,-0.110078,-0.057599,-0.10479,-0.101925,-0.124599,-0.025596,0.012554,-0.020026,0.060479,-0.055072,-0.080241,0.024535,-0.131517,-0.152902,-0.041526,0.106729,0.05241,-0.083523,0.09523,0.04551,0.048086,0.067601,-0.056927,-0.090954,-0.020225,-0.008401,0.013249,0.005812,0.12715,0.090515,0.115895,0.063526,0.132124,-0.146692,-0.029912,-0.043811,0.085736,0.014248,0.077944,-0.127109,-0.084728,0.054964,-0.091283,-0.047549,-0.118165,-0.052143,0.070405,-0.030733,-0.005819,-0.151036,0.073064,-0.029541,0.039537,0.069798,-0.096878,0.126848,-0.009349,-0.037534,-0.117324,0.13021,0.082501,-0.096579,-0.034693,0.07751,0.050666,0.083987,-0.036421,0.05977,-0.009285,-0.098494,0.044204,0.129619,-0.053954,-0.046781,0.081169,-0.003632,0.07584,0.056972,-0.167928,0.14095,0.081239,0.159847,0.116408,0.076885,-0.117096,-0.068363,0.102281,-0.112865,-0.109972,0.079187,0.078386,-0.114182,0.095645,0.053179,-0.003177,0.054746,-0.046385,-0.087114,-0.02671,0.005459,-0.011566,0.039973,0.085209,0.007544,0.081081,-0.045574,-0.141759,0.080538,-0.109588,-0.059928,0.058487,0.005313,0.076733,-0.058397,-0.118017,-0.044501,0.013347,-0.038229,-0.034981,0.125928,0.114533,-0.05271,-0.048202,0.002348,0.097116,0.142358,-0.083814,0.073097,-0.045271,-0.16309,-0.165317,-0.073116,-0.034329,-0.16857,0.022602,-0.073166,0.105772,-0.077268,-0.112767,-0.039068,-0.10366,-0.020193,-0.084601,0.034902,-0.096762,0.06167,0.069381,-0.117838,-0.016142,-0.126599,0.022683,-0.041084,0.016651,-0.001246,0.112961,0.024617,0.055368,-0.028873,0.103795,0.111636,-0.10264,0.079666,-0.04074,0.085521,0.076206,-0.097318,0.04362,-0.083883,-0.090803,-0.054305,0.033129,-0.083929,-0.122579,0.057813,-0.101615,-0.137139,-0.081014,-0.027799,-0.008593,-0.143277,0.127846,0.073364,-0.070317,-0.042734,-0.044401,0.014485,-0.134198,-0.101831,0.088753,-0.08979,-0.081723,0.073334,0.036546,-0.077279,0.056776,-0.131625,0.049258,-0.019993,0.103784,0.122236,0.116027,0.117809,-0.007142,-0.072584,-0.036136,0.05522]},{"W":[[0.057685,-8e-06,0.029596,0.033756,0.174728,0.143706,-0.112994,-0.043266,-0.095155,-0.005471,0.004599,0.005209,0.083429,-0.026402,-0.048075,0.030785,0.024002,0.02106,0.01279,-0.08103,-0.066711,0.045358,0.040865,0.018466,0.003057,-0.050319,0.09347,-0.053414,-0.281734,0.045795,0.000673,0.099525,0.016169,0.008682,-0.085619,-0.088748,-0.063455,0.059963,0.02427,-0.101542,-0.051381,0.026331,0.073594,-0.160669,-0.024885,0.109643,-0.055119,-0.048405,-0.051746,0.002261,0.106356,3.5e-05,0.069612,-0.055847,-0.03878,0.030679,0.118994,0.043293,-0.082882,0.145628,0.088741,0.096056,-0.008858,-0.00391,0.008089,0.112441,-0.001706,0.042466,-0.071961,0.046738,-0.00246,-0.077359,-0.013727,-0.116758,-0.072166,-0.142541,-0.174022,0.189667,-0.047836,0.064921,0.119734,-0.068412,0.012967,0.0066,-0.08914,1e-06,0.072011,0.037778,-0.241524,-0.007673,0.04962,0.00249,-0.116744,-0.012739,0.001817,0.142281,-0.031405,0.01111,-0.03242,-0.146714,-0.058255,-0.020488,0.016425,0.024862,0.002338,0.047599,-0.099204,-0.069501,0.021785,-0.080551,0.007581,-0.08328,0.06831,0.087577,0.028557,0.118009,-0.041004,0.049845,-0.052187,-0.095919,0.055662,0.0461,-0.032929,-0.122248,0.004624,0.016886,-0.046612,-0.053315],[-0.147592,0.002365,-0.109898,-0.086306,0.007106,0.050214,0.04548,-0.018029,-0.049178,0.076632,0.058399,-0.027654,0.075782,-0.122503,0.075626,0.107566,0.009256,0.097578,0.001057,-0.088294,-0.153141,-0.059008,-0.055207,0.032457,0.01036,-0.012069,0.029104,0.077952,-0.099641,-0.023668,-0.05657,0.060982,-0.155845,0.084469,0.004588,0.038718,0.083443,-0.121407,-0.035195,-0.092739,0.020866,-0.007009,-0.021121,-0.048347,-0.029882,0.00731,0.091333,-0.011493,0.029056,-0.098303,-0.050407,-0.001384,-0.114836,-0.061711,0.007199,0.038917,0.086243,-0.034212,0.044873,0.095792,-0.001094,-0.026391,-0.032037,-0.069334,-0.081143,0.038815,-0.032709,-0.056201,0.053574,0.041074,-0.015282,0.069247,-0.031581,-0.082703,-0.001894,0.042939,0.112119,-0.074413,0.032198,-0.045567,0.038221,-0.047496,-0.040409,0.010883,0.012735,-7.8e-05,-0.046194,-0.050885,-0.048954,0.010297,0.024793,-0.020238,-0.078999,0.033209,-0.014792,0.036628,-0.043118,-0.035837,0.000791,0.079523,0.078889,-0.058928,0.073066,0.0377,-0.038529,-0.058074,-0.071676,-0.032186,-0.033867,-0.00961,-0.136713,0.06958,-0.064581,-0.172623,-0.049285,-0.018413,-0.048667,-0.01586,-0.020165,0.071072,0.089437,-0.004236,0.002238,0.085359,-0.093488,0.128963,0.046695,-0.071775],[0.031467,0.0,-0.142387,0.001213,-0.099482,-0.108984,0.069661,0.000313,0.144344,-0.128959,-0.136038,-4e-06,-0.014514,-0.113251,-0.095412,-0.048117,0.170228,0.002525,0.216002,-0.021515,-0.238426,-0.224422,0.078535,-0.016607,0.055742,-0.093902,-0.026756,-0.154247,-0.06999,0.122833,-6e-06,-0.044617,-0.077471,-0.029937,-0.004316,-0.125946,-0.223992,-0.131582,0.019927,-0.130472,0.091785,-0.003904,-0.029041,-0.315031,0.087587,-0.052898,0.076074,-0.246467,0.056557,-0.143611,0.124802,0.0,-0.030524,-0.089607,0.085815,-0.149983,-0.003924,4e-06,-0.027113,-0.02211,0.273169,0.022226,-4.6e-05,0.25268,-0.139797,-0.340529,0.006484,0.125715,0.107391,0.05646,-0.0,-0.282282,0.002351,-0.022577,0.006178,0.068439,0.083885,0.328921,0.224159,0.003518,-0.070908,-0.112472,-0.004983,-7.6e-05,-0.015048,0.0,-0.07386,0.132304,-0.077373,-0.0,-0.19345,-0.001599,0.076972,0.0,3.9e-05,-0.055022,-0.088949,-0.206178,-0.113234,-0.230661,0.088209,0.03653,0.110161,-0.062333,3.3e-05,-0.011507,-0.067046,-0.126505,-0.238392,-0.094386,0.118577,0.102362,0.03205,0.411749,0.006569,-0.059112,-0.073386,0.048264,-0.034974,0.049916,0.056946,0.092427,-0.06728,-0.236834,-0.055646,-0.082509,0.006801,-0.036064],[0.016833,-0.0,-0.122444,-0.014944,0.071886,0.11083,0.112786,0.005406,0.108414,-0.148921,0.052428,-1.1e-05,0.045629,-0.003611,-0.029441,-0.166322,0.052134,0.093035,-0.050958,-0.010411,-0.076951,-0.011725,-0.114637,0.007933,0.071469,-0.046071,-0.040251,-0.040062,-0.041204,-0.020945,-0.019991,0.152387,-0.006998,0.014297,0.00902,0.045937,0.124267,0.115635,0.089114,-0.112972,0.223012,0.002055,0.033691,-0.150354,-0.097898,-0.104387,0.206931,-0.103778,0.178745,-0.116043,-0.052026,-0.0,0.032006,-0.018181,0.005083,0.08066,-0.156817,0.0,0.020144,0.162997,-0.054205,-0.062811,0.000107,-0.084757,0.199939,0.219034,-0.035422,0.143517,-0.052978,-0.083062,-0.019092,0.141755,-0.004853,0.102309,0.168523,-0.034425,0.006502,0.026277,-0.174327,-0.000228,0.08654,0.130796,0.0,-0.00256,0.242178,4.8e-05,0.022616,0.011511,-0.241676,-0.012533,-0.133303,-0.038914,0.06421,-0.006035,-0.0,0.158163,-0.003597,0.109416,-0.125523,-0.156805,0.027174,0.09156,-0.019558,-0.028174,0.002994,0.134632,-0.021775,-0.076589,-0.091972,0.072214,0.119591,-0.010096,0.137001,-0.024985,-0.08826,0.11659,0.12175,0.074231,0.085976,-0.073253,-0.213294,0.189483,0.21192,-0.040487,0.063228,0.027995,-0.000273,0.233192],[-0.123168,0.0,0.062962,-0.003598,0.024382,0.144333,-0.078723,-0.000345,0.088987,0.020424,0.044833,-1e-05,0.133781,0.117418,-0.023016,-0.09749,-0.061066,0.042129,-0.085256,0.07987,0.048998,0.001932,-0.085766,0.056377,0.112231,0.027689,0.046586,0.087982,0.018796,-0.164308,-0.005878,-0.049567,-0.061918,-0.046534,-0.006336,-0.013225,-0.098483,-0.09087,0.125309,0.047454,-0.044057,-0.001319,0.00576,-0.006965,-0.113653,-0.009913,-0.145551,0.200178,0.047401,0.157389,-0.09601,-0.0,0.0277,-0.016336,-0.257891,-0.140877,0.017909,-0.0,-0.009412,-0.010026,0.069421,0.082351,-0.0,0.031155,-0.035986,0.006356,-0.030337,-0.249262,0.038487,-0.065666,-0.0,-0.137746,0.046483,0.05565,0.018425,-0.139422,0.154091,-0.09515,-0.200584,-9.5e-05,-0.010338,0.145462,-0.010371,-2e-06,-0.042609,-0.0,-0.191335,0.046839,-0.12624,-0.007452,0.010127,-1.3e-05,0.051069,-0.0,-0.0,0.044423,0.056849,-0.143157,0.119262,0.029472,-0.068985,0.096499,-0.016168,-0.033987,-1e-06,-0.04674,-0.021895,-0.090646,0.167834,0.276971,-0.005958,0.004166,-0.003245,0.056706,0.124374,-0.097194,0.327396,0.022299,0.258253,-0.021853,0.15918,0.086342,0.189518,-0.102563,-0.047023,-0.039284,-0.000646,-0.147577],[0.021818,-0.000434,-0.112118,-0.05896,-0.092768,-0.091604,-0.001957,0.017609,-0.087548,-0.014583,0.081924,0.010455,-0.136078,0.077231,0.015966,0.134659,0.024694,0.025426,0.095083,-0.099016,0.046918,0.063833,-0.038343,-0.046821,-0.085436,-0.013538,0.033508,-0.044422,-0.131217,0.035109,0.064892,-0.020948,0.045795,0.055188,-0.003261,0.179467,0.023187,0.119598,0.088072,0.066926,0.017047,-0.077585,0.146942,-0.014222,-0.006542,0.004359,0.11394,0.093929,0.043535,0.064856,-0.07043,-0.000994,0.051062,-0.090338,-0.113039,-0.01161,0.060165,-0.008673,-0.003076,-0.022599,0.054661,-0.06753,-0.051562,-0.030747,0.157218,0.016642,0.003966,0.090663,0.026978,-0.07301,-0.005246,-0.085512,0.005455,0.001074,0.098341,0.102841,-0.016878,-0.069759,-0.116264,-0.046609,-0.057003,0.119686,-0.044157,0.0064,0.096061,1e-06,0.06096,-0.061058,0.031923,-0.010907,-0.062252,-0.028968,-0.308857,-0.039905,0.016525,-0.098779,-0.07929,0.244487,0.093237,-0.059473,-0.128588,0.015906,0.100989,0.123223,0.00503,-0.004022,-0.112176,-0.090064,0.122072,-0.001792,0.115396,-0.044539,-0.10679,0.112246,0.05054,-0.146215,0.206099,-0.053625,0.013604,0.032764,0.086154,0.15343,0.030273,0.029507,0.062279,-0.163787,0.051473,0.020994],[-0.018802,-2.5e-05,0.050179,-0.0278,-0.028148,0.152003,-0.04945,0.01886,-0.008236,-0.04835,-0.029019,-0.002842,-0.220737,-0.03914,-0.100594,0.160197,0.054553,-0.081403,0.101627,-0.088857,0.054884,-0.103479,-0.080879,0.096684,0.119113,0.023386,0.005484,-0.175335,0.090495,0.038103,-0.023592,0.059394,0.0549,-0.102506,0.068527,0.020109,-0.216616,0.158098,-0.006557,0.175539,-0.024744,-0.022305,0.059713,-0.206398,0.016878,-0.150137,0.006018,0.030913,-0.015217,-0.052497,-0.030518,-0.000341,-0.106601,0.054719,-0.16784,0.150808,0.107771,-0.012993,0.050984,0.07493,0.178352,0.078618,-0.024066,0.039364,0.013565,0.027944,0.032556,-0.258244,0.098903,-0.09722,0.011384,-0.353144,0.094477,-0.116123,0.072986,-0.156601,0.155967,-0.117935,0.086756,-0.059585,-0.039243,-0.173432,0.046667,-0.004677,0.003389,-0.0,0.122168,-0.072736,0.187296,0.007495,-0.068036,0.002089,-0.032894,0.008692,-0.010614,-0.080809,0.018066,-0.043524,0.034916,-0.082752,-0.009622,0.053439,-0.038065,0.050361,0.01909,0.044981,-0.039901,-0.010388,-0.211387,0.012996,0.009884,0.068025,0.014478,0.091237,0.086407,-0.185067,-0.171097,0.034521,0.031987,0.04738,-0.004226,-0.022194,-0.07987,0.26518,-0.046409,0.004181,0.037727,-0.025214],[-0.133856,-0.0,0.072454,-0.001453,0.112786,0.029959,0.090018,0.001084,-0.184341,-0.004357,-0.070889,-1.9e-05,-0.248026,-0.023702,-0.095551,0.239652,0.122789,-0.02272,0.003429,0.040535,0.131755,-0.041199,-0.003137,0.000307,0.034386,0.14094,0.00369,-0.087492,-0.136016,0.034565,-0.0,-0.082046,0.080919,-0.070201,-0.025598,0.044239,0.231001,-0.124447,-0.046337,0.005965,0.046823,0.003942,0.081657,0.045066,-0.080705,-0.25136,-0.083462,-0.200061,0.004837,0.047841,-0.071471,0.0,0.015057,0.011225,0.045337,-0.051556,0.08595,0.0,-0.153004,0.037083,0.069116,-0.014779,0.000569,-0.068904,0.064564,0.124405,-0.029005,0.039193,-0.007493,-0.053189,0.0,0.08162,-0.023779,0.086274,0.129064,-0.069912,0.016311,-0.100204,-0.037035,7.1e-05,0.07437,-0.039128,0.0,-1e-06,0.069319,0.0,0.10715,-0.001435,-0.361553,-0.0,-0.007429,-0.007797,-0.321804,-0.0,0.0,0.041098,-0.044246,-0.050277,0.002739,-0.046349,0.021437,-0.052308,0.063113,0.042323,-0.001862,-0.02373,-0.070778,0.08744,-0.039033,-0.149535,0.054287,-0.024266,0.007926,-0.13176,0.213291,0.106688,0.028253,0.069869,-0.063665,0.191277,0.067081,-0.280137,-0.098197,0.00086,-0.082342,-0.044448,0.0,-0.055482],[-0.030728,0.000933,-0.037936,-0.104125,-0.112523,-0.122995,0.033659,-0.048824,0.089425,-0.015638,-0.013415,-0.008151,0.030747,-0.079352,-0.126499,-0.011567,-0.043889,-0.045568,0.036722,0.012432,0.010149,0.027159,0.058483,0.025115,0.001605,0.037528,0.097079,-0.024427,-0.030247,0.035662,0.005423,-0.111748,0.036184,-0.102403,0.04305,0.069735,0.068659,-0.129009,0.029179,0.05786,-0.02497,-0.095266,0.000593,-0.033075,-0.087378,-0.048535,0.038916,0.064143,0.12272,0.001688,0.08715,0.008526,0.073615,-0.070702,0.040051,-0.059487,0.003043,0.007318,0.074475,0.01844,-0.101172,0.114803,-0.040192,0.104,-0.116993,0.088822,-0.052541,-0.102799,-0.110757,0.036051,0.012167,-0.074636,0.107397,0.027099,0.048602,0.08319,-0.048979,0.009151,0.125917,0.078393,0.12581,0.074911,-0.076939,0.022661,-0.029843,0.006157,-0.01308,0.031149,0.034593,-0.024702,-0.107298,0.057697,0.052586,-0.03769,0.033869,0.024687,-0.046501,-0.090696,0.089242,0.049907,0.046223,-0.013128,-0.101041,-0.021555,-0.060267,-0.09707,0.005342,0.094875,0.016907,-0.127498,-0.008474,0.112723,0.018189,0.041821,-0.036594,-0.011451,-0.128428,-0.043309,-0.025117,0.019712,0.112386,0.08389,-0.104574,-0.110494,-0.011332,-0.06298,0.012053,0.048284],[0.07004,0.002278,0.057102,-0.00967,-0.073841,-0.03127,-0.004459,0.010159,-0.07113,-0.021892,-0.014748,0.047863,