{"mode_names":["trump_oben_0","trump_oben_1","trump_oben_2","trump_oben_3","trump_unten_0","trump_unten_1","trump_unten_2","trump_unten_3","oben","unten","slalom","misere","allesTrumpf","elefant","molotof","schafkopf_0","schafkopf_1","schafkopf_2","schafkopf_3"],"layers":[{"W":[[-0.047775,0.140388,0.079632,0.076419,0.160913,-0.15254,-0.158101,0.000222,0.012668,0.054143,-0.132738,0.143293,0.095806,-0.083828,-0.047423,-0.06495,-0.072063,-0.002552,0.003895,-0.075405,0.017303,-0.127882,-0.055024,-0.020419,0.002563,0.099498,-0.091801,0.006875,-0.00528,-0.12779,0.027044,-0.086998,-0.162583,0.146321,0.108154,0.065312,-0.041989,-0.144709,0.053052,-0.023744,-0.120059,0.026099,-0.121266,0.167899,-0.00583,0.023061,-0.02069,0.035403,0.005936,-0.057787,0.113812,0.083776,0.109018,0.114206,0.060177,0.119852,-0.131215,-0.064464,-0.142608,-0.081081,-0.031663,-0.054758,0.069788,-0.089329,-0.069373,-0.009231,-0.105198,0.100329,-0.097043,0.139161,0.081789,-0.038071,-0.164337,0.066664,0.041084,0.098681,0.074977,-0.146455,-0.053532,-0.085094,0.078424,0.01595,-0.037577,-0.123806,-0.065151,-0.06882,0.075776,0.030202,0.111571,0.012066,-0.100058,0.081704,0.041846,0.009772,0.068876,0.010501,-0.001215,0.000601,-0.128906,-0.11698,-0.148889,0.030316,-0.041659,-0.018602,0.10616,-0.070698,-0.041706,0.063966,-0.173866,-0.122894,-0.085185,-0.130335,0.106571,0.06551,0.098847,0.104999,0.111763,-0.120609,0.126049,0.015263,0.039341,0.1233,-0.067777,-0.10355,-0.116135,-0.012445,0.101777,0.066774,-0.154579,-0.01131,-0.015386,-0.046762,-0.149174,-0.050611,0.144393,-0.066788,0.001075,0.034624,-0.024228,0.140987,0.133479,-0.074593,-0.014303,-0.051184,-0.074615,-0.124096,0.084848,0.034203,-0.106046,-0.053922,0.132133,-0.090806,-0.129188,-0.025951,0.144899,-0.067143,0.020976,0.068079,-0.032046,0.044261,-0.058979,0.031895,0.046669,0.013436,-0.08608,0.048162,-0.050712,-0.083478,-0.170605,0.012994,0.069465,-0.065449,-0.000951,-0.10233,0.043435,-0.078907,0.051514,-0.026122,0.12133,-0.098008,0.011449,-0.100273,0.137534,0.079585,-0.095919,0.035692,0.107373,0.015439,-0.002246,-0.063839,-0.089539,0.10824,0.155615,0.023571,0.001087,-0.075628,0.059191,0.104869,0.107893,0.059863,0.0131,-0.080045,-0.080671,0.112114,0.025253,-0.149529,-0.134085,0.051699,-0.160436,-0.038574,0.009601,0.035712,0.012725,-0.054463,0.052202,-0.081522,-0.060866,0.111782,0.042373,0.055145,0.062145,0.023837,-0.090147,-0.039656,-0.066222,-0.095204,0.167529,-0.02809,0.119949,0.054627,0.080094,0.000884,-0.002074,0.014297,-0.026116,0.063438,-0.090882,-0.127813,0.091876,-0.102802,0.117096,0.175701,0.120187,-0.057873,-0.163915,0.096494,-0.01663,0.14382,0.144037,0.087663,-0.046348,-0.054297,0.095155,-0.040986,-0.086691,0.014727],[0.11552,0.074382,0.044732,-0.127965,-0.064694,0.098233,-0.082663,-0.0,0.097546,0.057543,0.092188,0.07373,-0.029594,-0.046459,0.128347,0.098442,0.099099,0.103763,0.069096,-0.016347,0.059169,0.017921,0.060847,0.110854,0.127215,-0.011905,-0.012633,-0.103773,0.033895,-0.138963,-0.005409,0.017506,-0.045541,0.031642,-0.144391,-0.114216,0.071104,-0.049762,-0.124844,0.025895,0.090459,-0.063288,0.046583,-0.109705,-0.116984,0.040479,0.008658,0.059835,0.09551,0.171895,0.024713,-0.044143,0.067638,-0.072655,-0.017769,-0.098653,-0.144008,0.126508,0.100273,0.043745,-0.014276,-0.097135,-0.126374,0.018261,0.003958,0.060381,0.078302,-0.05122,0.141875,0.059266,0.023711,0.050262,-0.056614,-0.097856,-0.057214,0.046041,-0.131848,-0.133085,-0.142863,-0.140359,0.07605,0.056917,-0.004952,-0.136624,0.000259,-0.036146,-0.088022,-0.01411,-0.037382,0.050692,0.046978,-0.148086,-0.005541,0.017027,0.009778,0.101717,0.024421,-0.089057,-0.086324,0.041159,-0.163476,0.022686,0.106031,0.068407,-0.052946,0.056668,-0.064828,0.018041,0.145282,-0.034984,0.122364,0.095617,-0.110538,-0.076068,-0.029092,-0.137814,-0.110746,0.036709,-0.097795,-0.074784,0.074387,-0.132407,0.071073,-0.098367,-0.12304,0.057261,0.042149,0.098264,0.054388,0.069401,-0.046851,-0.098163,0.06066,0.100435,0.142802,-0.007449,-0.025004,0.080773,-0.077883,0.136973,0.116002,-0.016899,0.072992,0.080038,-0.138437,0.099968,-0.00946,0.100562,-0.053974,0.113634,-0.039004,-0.145728,0.094873,-0.101441,-0.055777,0.139461,0.121461,0.013382,0.05811,-0.037692,-0.055168,-0.046666,0.038836,0.080461,0.09535,0.067662,-0.14681,-0.014347,-0.135148,-0.013838,-0.053447,0.127692,-0.046684,-0.125875,-0.119482,0.063896,0.048427,-0.129521,-0.140356,0.039543,0.05559,0.087366,0.04566,-0.092728,-0.127365,0.145087,-0.057914,-0.044864,0.105124,0.13886,0.135928,0.058428,-0.030662,-0.12661,0.102451,0.011703,-0.026959,0.125401,-0.131266,-0.017037,-0.170249,-0.030075,-0.172582,-0.095793,-0.125905,0.043061,0.065467,0.042394,0.111544,-0.055716,-0.101909,0.109729,-0.11339,0.126965,-0.138461,0.111798,-0.068869,0.128001,-0.003768,0.119147,-0.13566,0.002423,0.163289,0.003839,0.027022,0.042042,-0.025636,0.062761,0.033007,0.123443,-0.119563,-0.048626,0.107087,0.106728,-0.014567,0.033196,-0.054227,-0.087501,0.023496,-0.071063,0.003254,-0.124125,0.137831,0.127237,0.049257,0.017219,-0.090351,0.086335,0.06499,-0.130974,0.104596,0.104741,0.141581,0.06624,0.04172,-0.048823],[0.103836,0.104518,-0.094554,-0.133034,-0.04878,0.10026,0.122022,-0.00015,0.013534,-0.046616,0.158182,0.115173,0.103347,-0.003807,0.012173,-0.081137,-0.05037,0.089898,0.099164,0.146662,0.136212,-0.010266,0.081354,0.09876,0.161783,-0.114175,-0.024458,-0.105002,0.088862,0.055732,-0.059252,0.006072,0.066028,-0.042305,-0.107549,0.052309,0.020976,0.034365,0.066001,0.114549,0.014491,0.031314,0.147414,0.006197,-0.080783,-0.183491,0.082223,0.051578,0.093843,-0.061002,-0.072384,-0.100633,-0.045587,0.013733,0.01666,-0.043981,0.10671,-0.055158,0.034858,0.07533,0.075872,0.032025,0.079151,0.164907,-0.095942,0.084574,-0.001962,0.006772,-0.042055,0.165473,0.018244,-0.026974,0.020679,-0.09582,-0.141298,-0.153593,-0.08525,-0.104684,-0.083299,0.044866,-0.10396,-0.06276,0.129778,-0.033534,0.056688,-0.11009,-0.046034,-0.144621,-0.098314,-0.081396,-0.076849,-0.145893,-0.151303,-0.022154,-0.05717,-0.10888,0.055137,0.068973,-0.105208,0.052202,0.005398,-0.121872,0.107714,0.139741,-0.119821,-0.071575,0.095253,0.096807,-0.007444,-0.098069,0.053873,-0.022918,0.01115,-0.052715,-0.03447,0.050102,-0.08198,-0.094485,0.054989,0.079997,0.075552,0.017994,-0.117794,0.062392,-0.050686,-0.085885,-0.064686,-0.062661,-0.189409,-0.065568,-0.074424,-0.03497,-0.171632,0.11075,0.06747,0.071718,0.064778,0.015297,-0.168653,0.034792,0.006421,0.032193,-0.031013,-0.141245,-0.062538,0.011428,0.078874,0.029308,-0.069994,0.148463,0.057676,-0.057063,-0.07111,-0.085905,-0.063599,-0.000116,-0.080654,-0.034666,-0.005339,0.080892,-0.148154,-0.027709,-0.00638,0.133398,-0.087693,-0.005095,0.132584,0.134678,0.060697,-0.100352,0.005821,0.064747,0.122791,-0.01096,9e-06,-0.03885,0.048414,-0.08885,0.011152,-0.049689,0.163782,-0.060967,-0.026241,-0.008688,-0.031708,0.001387,-0.118832,-0.016045,-0.001256,-0.138368,-0.019569,-0.102179,-0.075238,0.103112,-0.018632,0.104567,-0.05274,0.029902,0.071834,0.022125,-0.020747,0.02093,-0.042215,0.133983,0.082413,0.142293,-0.094627,0.068914,0.114427,-0.241695,-0.124824,0.023057,0.056528,0.10772,-0.116015,0.099508,-0.100827,-0.149533,-0.083877,0.103762,0.036543,0.000486,0.076257,0.09744,-0.026832,0.0884,0.015156,-0.147486,-0.015694,-0.033417,0.046074,0.021028,-0.023933,0.11185,-0.053681,0.022488,0.118068,0.000872,-0.093146,0.13098,0.042267,-0.020647,-0.102598,0.086772,0.004308,-0.0,0.103122,0.038533,-0.079738,-0.059494,-0.063835,0.088748,-0.12049,0.025335,0.10258,0.103621],[-0.064162,0.120572,-0.072966,0.119621,-0.103409,0.020682,0.098366,-0.000152,-0.088538,0.089132,0.082412,0.064096,0.056093,0.027107,-0.005635,-0.009293,-0.099609,0.097146,0.065511,-0.032574,-0.051621,0.130958,-0.094611,-0.002615,0.002209,0.013368,-0.120484,0.134665,0.101438,0.005691,0.071613,0.128535,0.061743,-0.069863,0.010223,0.001356,-0.005364,0.051423,0.162256,0.109658,-0.005769,-0.059817,0.194666,0.164612,-0.093204,0.151129,0.118932,0.078676,0.029586,0.012282,-0.108346,-0.031226,0.0698,-0.158478,-0.0392,-0.043935,0.017327,0.150725,-0.029456,-0.053111,0.074052,-0.018174,-0.114062,0.005506,-0.122801,-0.127238,0.008172,-0.042455,0.155831,-0.016769,0.022344,0.036717,-0.174745,0.023206,-0.104373,0.196091,-0.089844,-0.022179,-0.092563,0.113882,-0.032375,0.044127,-0.105639,0.061772,-0.115038,0.106676,-0.026204,-0.080515,-0.058676,0.0099,0.029321,-0.113773,0.109004,-0.029184,0.007387,-0.001469,-0.011707,0.044767,-0.12072,-0.154099,0.091898,0.123474,-0.036272,-0.029425,0.009729,-0.071671,-0.035964,-0.097536,0.046912,0.042949,-0.097706,-0.065231,-0.096434,0.05388,-0.114737,-0.093819,0.121932,-0.133191,0.05403,-0.072666,-0.094649,-0.051306,0.0397,0.039846,0.053563,-0.019467,0.059834,-0.082042,-0.065719,0.082832,-0.120087,-0.117718,-0.04798,-0.138778,-0.047732,0.028965,-0.013432,0.090737,0.058348,-0.027335,-0.067099,-0.057594,0.032896,-0.078598,0.038436,-0.010218,-0.014322,0.017062,-0.068359,0.13202,0.099817,-0.055161,0.100603,-0.031579,0.086627,0.084928,-0.035421,-0.121802,-0.081485,-0.00523,0.004816,-0.062659,-0.11766,0.074636,0.139565,0.020248,-0.089691,-0.022983,-0.129343,0.103629,-0.147602,0.019267,-0.059691,-0.004106,0.031512,0.097801,-0.066245,-0.150666,-0.00229,0.100505,0.074618,0.002913,0.052421,0.024667,-0.099422,0.14708,0.006593,-0.038268,0.021135,-0.132504,-0.063051,0.060819,-0.10472,0.005972,-0.037467,-0.054026,-0.097005,-0.034644,0.052017,-0.079056,-0.011553,0.049837,0.078255,0.136218,0.063431,-0.076556,-0.143974,-0.062747,0.006957,-0.046561,0.016668,0.013276,-0.039863,0.082523,-0.101652,-0.148513,0.091369,0.073912,0.064214,-0.066006,-0.099223,0.07493,0.048227,0.065455,-0.058282,0.0308,0.00561,-0.122629,0.133524,-0.091529,0.123277,0.007039,-0.070288,0.013923,0.098994,0.082349,0.080381,0.042572,0.071082,0.087459,-0.07045,0.021086,-0.08705,0.129339,0.128583,-0.121581,0.044926,0.092735,-0.061458,-0.007681,0.123569,-0.119165,0.039136,-0.054938,0.156866,0.128345],[0.100302,0.010026,0.127434,0.117599,-0.055548,0.040905,-0.166679,-0.0,-0.094011,-0.083367,-0.114784,0.058322,-0.050336,0.06826,-0.079049,-0.009199,0.035197,0.078398,-0.025924,0.039693,0.072133,0.02233,-0.073005,-0.115575,0.109206,-0.185622,0.120709,0.017812,0.154224,0.102244,0.120791,-0.046405,0.091937,-0.053195,-0.033883,0.002698,0.116211,0.115041,0.077382,-0.016899,-0.021896,0.079017,-0.042702,-0.006587,-0.041804,-0.067102,-0.066193,-0.053557,-0.121326,-0.156647,0.131901,-0.067666,-0.051228,0.040714,-0.124716,0.122117,0.079105,-0.108474,-0.017977,0.098791,0.13438,-0.01867,0.012045,-0.04644,0.127628,-0.125474,0.127312,0.072149,0.033991,0.016663,-0.072387,-0.112494,-0.099558,-0.127691,0.059974,-0.006486,-0.134593,0.117065,0.110436,0.106148,0.116379,-0.109552,-0.016294,0.057863,0.046186,-0.093883,0.116472,-0.0631,-0.083054,0.033367,0.024155,0.028984,-0.206964,0.101767,-0.07631,-0.114734,0.126935,0.135537,0.120604,0.126848,0.023424,0.01353,-0.123136,-0.005644,-0.120632,-0.094063,0.053084,-0.002794,-0.149169,-0.071947,0.066704,-0.133302,0.081355,-0.025149,0.040466,0.039751,0.119552,-0.045156,0.058387,-0.017857,-0.066757,0.120049,0.056621,0.078072,0.092628,0.103408,0.050861,0.078959,0.015931,0.046095,0.041853,0.047204,-0.066198,0.094391,0.105067,-0.126119,0.103684,-0.123215,-0.053775,0.079253,-0.129272,0.097252,0.101045,0.02899,-0.110884,-0.031988,0.051357,0.143569,0.037794,-0.076815,0.040063,-0.016479,0.067388,-0.106181,0.063955,0.000476,0.119958,-0.058847,0.075392,0.112316,-0.131612,0.153427,0.026147,-0.145942,-0.054794,0.035447,-0.138525,0.033176,-0.044997,0.034769,-0.125225,0.129235,0.117208,0.117217,0.0526,-0.120512,0.08003,-0.136086,0.147412,-0.054255,0.0644,0.059342,0.034289,-0.044407,-0.065986,0.139823,0.048913,-0.023719,-0.095191,0.077214,0.044374,-0.11105,-0.100116,0.014293,0.083133,-0.088766,0.098174,-0.09476,-0.040605,0.134302,-0.046333,0.015862,-0.014216,-0.055544,0.120675,-0.021018,0.134834,-0.064514,-0.087777,-0.089086,0.047229,0.016006,0.080793,-0.004765,0.124278,-0.072433,0.103811,0.086986,0.054593,0.062374,0.077942,0.054236,-0.115592,0.094006,0.120618,0.001544,0.092871,-0.054492,-0.093066,-0.106611,0.079229,-0.034084,-0.084367,-0.020114,-0.160625,0.012668,-0.083618,0.087066,-0.062292,-0.017852,-0.109094,-0.137494,-0.039031,-0.015189,0.025708,-0.094149,0.057292,0.107561,0.103327,-0.134484,0.003513,-0.10733,-0.064175,0.152221,-0.112663,-0.014774],[0.022602,0.087361,0.007716,-0.144061,0.034065,-0.048474,-0.05679,-0.0,-0.164702,-0.115268,0.012099,-0.082944,0.02277,0.07738,0.121132,-0.144934,-0.125358,-0.121917,0.064633,0.060774,-0.10125,0.119608,-0.086555,0.009649,0.076536,0.105107,0.068261,0.131794,-0.065027,0.080808,-0.11227,0.079827,0.033,0.104723,-0.014138,0.010761,0.039274,0.028353,-0.057985,-0.15544,-0.049774,0.013847,0.118349,-0.093624,0.156352,-0.069036,-0.084565,0.123983,0.0496,-0.055183,0.02294,0.071074,-0.107245,0.124492,0.133742,0.060192,-0.114823,0.048308,-0.063938,-0.084356,-0.093119,-0.016934,0.078798,0.032439,0.040085,-0.052273,-0.046685,-0.007229,0.147645,-0.120575,0.122371,0.035956,-0.035753,0.051888,-0.024257,0.154749,0.125601,-0.028966,-0.070082,0.021708,0.100684,-0.073707,0.04829,0.014065,0.047869,-0.125432,0.103621,0.137751,-0.069684,-0.050399,0.162518,-0.09391,0.165072,-0.030298,-0.027598,0.124064,-0.03591,0.036392,-0.019646,0.046076,-0.129696,-0.023261,0.109814,-0.021967,0.049099,-0.002506,0.100922,-0.114739,0.175804,-0.024783,-0.076203,-0.140991,-0.124796,-0.002673,-0.070171,0.100629,-0.014884,-0.061275,0.039171,0.061744,-0.048519,-0.078467,-0.147358,0.077629,0.011126,-0.03821,0.095292,0.054964,0.027304,0.083538,-0.060202,-0.134612,-0.048802,-0.116142,-0.011763,0.155412,-0.104994,-0.113566,-0.012466,0.140381,-0.086114,-0.000639,-0.101645,-0.090846,0.130242,0.156748,-0.202705,0.148026,0.003072,0.106023,-0.002429,0.032976,0.005876,0.0362,-0.094396,-0.073658,-0.071113,0.068755,-0.067562,-7.8e-05,0.126437,-0.111113,0.017734,-0.042593,0.09547,-0.100982,0.058088,0.137992,0.125255,0.066945,0.004627,0.045188,0.09088,0.005206,-0.138193,0.129833,0.0693,0.037726,-0.209474,0.007756,-0.210859,0.056581,-0.125245,0.02121,0.128933,-0.155391,0.152358,-0.028041,0.048411,0.084143,-0.008519,0.050259,0.16265,-0.03983,0.009319,-0.002347,0.053888,0.106557,0.06937,-0.040919,0.059668,-0.083908,-0.019229,-0.141349,-0.061957,-0.017333,-0.036856,0.039056,-0.062096,-0.02602,-0.069851,-0.077383,-0.123772,-0.143697,0.034713,0.034124,0.064499,0.058066,-0.009509,0.06176,-0.007647,-0.022285,-0.143854,-0.031792,-0.064862,-0.090852,0.0923,0.057045,0.043114,0.063073,0.081141,0.074685,0.179096,-0.152948,-0.073769,-0.124596,0.026151,0.123001,-0.056333,0.109017,-0.115218,0.128181,-0.05006,-0.125288,0.030772,-0.097493,-0.077703,-0.05073,0.098136,0.032352,-0.04154,0.05945,0.053731,-0.047088,-0.0209,-0.107427],[-0.086648,0.070485,-0.048675,0.092456,0.050293,-0.046458,0.014551,-3e-06,0.122088,0.018702,0.110953,0.034592,-0.121714,0.055553,0.155483,0.073172,0.083905,0.08885,-0.03801,-0.101452,0.002521,-0.004684,0.105014,0.089696,-0.045759,-0.143449,0.083495,-0.049392,0.026948,-0.020839,0.050444,-0.061308,0.034501,-0.021041,0.089454,-0.121248,0.071301,0.074958,-0.045354,-0.100628,-0.160346,0.057262,0.023736,-0.091324,-0.079568,0.05566,0.007224,0.000706,0.140826,-0.078998,0.073191,-0.097368,-0.04286,0.056329,0.070695,0.124443,-0.087077,-0.115732,0.059468,0.014329,-0.079956,-0.12165,-0.133956,0.122902,-0.101371,-0.079145,-0.079048,-0.00684,-0.11421,0.027689,-0.111486,0.10769,-0.094513,-0.020213,0.091324,0.014006,0.02281,-0.0391,-0.020484,0.032485,0.14155,0.042501,0.031636,0.061738,-0.014884,-0.112688,0.05286,0.116957,-0.061795,0.067661,-0.061562,0.019985,-0.162546,-0.014796,0.090768,0.06603,0.056569,0.081815,0.122465,-0.10189,-0.048367,-0.098949,0.135551,0.131355,0.072548,0.137455,0.040478,0.030857,-0.206359,0.051895,-0.088613,0.100204,0.062244,0.065913,-0.140858,-0.050802,-0.034518,-0.052041,-0.088479,0.111344,0.03955,-0.023299,-0.04515,0.019512,0.044116,-0.017691,0.115629,0.000314,0.124989,0.084773,-0.073323,0.146118,-0.055634,0.088777,-0.016273,0.157464,0.123105,0.098398,0.060852,-0.041299,-0.098548,-0.046862,-0.145265,0.045214,-0.061109,0.137237,0.046748,0.091199,-0.069508,0.119002,0.12844,0.038531,0.016524,0.054656,-0.099498,-0.013715,-0.049659,-0.089312,-0.014599,-0.091906,-0.178409,-0.117153,0.127244,-0.005089,0.140271,0.019182,-0.057429,0.014286,-0.030592,-0.087225,0.039084,-0.064356,0.022414,0.04202,-0.090707,-0.122336,0.080362,-0.027565,-0.154523,0.14469,-0.202997,0.062748,0.147847,-0.104982,-0.126485,-0.0917,0.011867,-0.120095,0.041231,-0.1092,0.00738,0.134601,0.103569,0.033895,-0.074433,0.051812,0.009604,-0.026193,-0.124799,0.113024,-0.036128,-0.097854,-0.032225,0.001314,0.07681,0.064481,0.092675,-0.11739,-0.049311,0.007939,-0.113724,-0.057682,0.065081,-0.082701,0.011604,-0.102287,-0.167038,-0.017515,0.141982,0.081091,0.142992,-0.024059,-0.10234,-0.004728,0.014511,0.086422,-0.085195,-0.046018,-0.089378,-0.043353,0.059084,0.012776,-0.062027,-0.043686,0.007165,0.098197,0.104129,0.115911,0.067398,-0.051645,0.040131,-0.014587,-0.084848,0.086689,-0.143611,0.145554,-0.026932,0.012561,0.064317,0.111499,0.037592,0.038723,-0.124282,0.002559,-0.032115,0.055448],[-0.004076,0.063682,-0.161051,-0.093034,0.040435,-0.143005,-0.117823,-0.001752,0.116257,0.074244,-0.03501,-0.043462,-0.039826,0.091673,0.06989,-0.054256,-0.122055,-0.106681,0.029083,0.054229,-0.07892,-0.138857,-0.114498,0.134427,-0.058061,0.118875,0.039818,-0.026865,-0.11895,-0.112684,0.042598,0.056461,0.039806,0.061313,-0.112127,0.115863,0.105646,-0.076944,0.139799,0.00902,0.035594,0.094182,0.087305,0.12594,-0.094493,-0.078133,0.113243,-0.050165,-0.034501,0.00748,-0.006658,-0.008166,0.113161,-0.091994,-0.158501,-0.097856,0.093928,0.054572,-0.062644,0.069497,0.079819,0.097804,0.084367,-0.061222,0.05384,-0.053664,0.092718,0.060595,0.072888,0.053882,-0.079646,-0.000442,0.113597,0.100432,-0.152594,-0.100931,-0.108147,0.048845,0.109689,-0.094483,-0.023268,0.094171,0.065625,-0.009761,0.010372,0.011657,-0.035407,0.009086,0.048358,0.125815,0.05584,0.070962,-0.065142,-0.024104,-0.12888,-0.096722,0.076174,0.159054,-0.131704,-0.019018,0.066089,-0.09025,0.020905,0.080531,0.046444,0.090547,-0.045394,0.085697,0.012038,-0.125379,0.054272,-0.144342,0.062668,-0.090772,0.140876,-0.023829,-0.032214,-0.104505,-0.05512,0.09027,0.099712,-0.038632,-0.026917,0.065031,0.11898,0.003647,-0.011593,-0.055834,0.03084,-0.163021,0.050976,-0.036143,0.100597,-0.116167,-0.022404,0.025889,0.04698,-0.136035,0.042029,0.025158,-0.004277,0.033507,0.050467,0.11808,-0.072637,0.112343,0.022463,-0.10706,-0.107062,-0.048671,0.077124,0.070504,0.095797,-0.009798,-0.015914,-0.103706,-0.073236,-0.017277,-0.114057,-0.123122,0.013945,0.058496,0.130203,0.091165,0.054482,-0.050518,0.022759,0.102318,-0.128094,-0.044663,0.099689,-0.072476,-0.003973,0.017054,-0.080034,-0.04756,-0.048979,-0.150853,-0.171611,0.067452,-0.168518,0.020606,-0.078327,0.090753,-0.079454,-0.060819,0.121715,0.091391,-0.106422,0.077487,-0.021233,-0.019775,-0.052819,-0.126421,0.088059,-0.019627,-0.02007,0.064313,0.064279,-0.099449,0.003019,-0.032498,0.023806,0.052437,0.121946,-0.140035,-0.112803,-0.056773,-0.0891,-0.03973,0.139365,-0.031048,-0.117833,0.08511,-0.008566,0.079561,-0.155049,0.017321,-0.144197,-0.156953,0.114378,-0.119492,-0.003329,-0.010214,-0.03881,0.109344,-0.102257,0.093213,0.141814,0.027064,0.12217,-0.137935,-0.079466,-0.087835,0.139221,0.14117,-0.078315,0.059386,-0.061383,0.003722,-0.025281,0.140394,0.035354,-0.03968,-0.119641,-0.116892,-0.094119,-0.05616,0.108,-0.002515,0.010268,-0.103722,0.10535,0.073355,-0.162684,0.052511],[-0.010146,-0.119649,-0.016947,0.099426,-0.099499,0.08073,0.068408,-0.0,-0.006291,-0.015059,0.064224,0.024372,-0.12325,0.024767,0.070753,0.012191,-0.107899,0.079722,-0.055946,-0.069064,-0.121887,-0.002485,0.073535,0.033308,-0.025204,0.111419,0.100745,0.118813,-0.061645,-0.00776,0.109071,0.094361,-0.093457,-0.145128,-0.001358,0.090849,0.028702,-0.017852,-0.049537,0.041355,0.099733,-0.002307,0.152839,0.168182,-0.012099,0.033587,-0.031107,0.061975,0.018848,0.06232,0.088313,-0.056134,0.107248,0.001958,-0.130429,0.058887,0.051096,-0.043664,0.130224,0.104804,-0.059542,0.127673,-0.119831,-0.119842,-0.106945,0.083492,0.035176,-0.14556,-0.002822,0.033866,-0.101844,0.125706,0.056029,-0.009315,0.117223,-0.040695,0.149033,0.031699,0.068311,-0.110469,0.087617,-0.043083,-0.09517,-0.104239,0.007359,0.00889,0.062342,0.114019,-0.091114,0.075707,-0.078932,0.094439,0.061915,-0.000742,0.049922,-0.048352,-0.016453,0.101959,-0.002949,0.006493,-0.01561,0.101225,-0.041771,-0.069665,0.072208,0.068694,-0.130714,-0.022789,-0.073197,-0.051665,-0.010349,0.071313,0.02782,0.039937,-0.06038,0.094747,0.000284,0.131995,0.043227,-0.110612,0.083437,-0.067211,0.030043,-0.192941,-0.112849,0.080078,-0.088641,0.069798,-0.086047,0.027802,0.06734,-0.00156,-0.048213,-0.093383,-0.114129,-0.089352,0.059033,0.114013,0.132686,0.092213,0.11538,0.074096,-0.052576,0.152033,0.027623,0.009459,-0.05364,0.000662,-0.011379,0.106668,0.017387,-0.062534,0.135711,-0.127993,-0.027257,0.044075,0.036895,0.100784,-0.042165,0.069582,-0.081088,0.160961,0.039447,0.126012,-0.152113,0.090785,0.05868,-0.032488,0.060657,-0.077734,0.140062,-0.091617,0.037273,-0.007254,-0.12201,-0.076778,-0.131335,-0.01904,-0.033655,0.015499,0.106318,-0.0566,0.058455,-0.148403,0.109728,0.067183,0.099849,0.022295,0.129228,-0.063236,-0.140903,-0.088073,0.063283,-0.126574,0.098078,0.138569,0.085032,0.008311,-0.141233,0.093391,0.008198,-0.121396,-0.135448,0.1198,0.033712,0.109284,0.09912,0.018883,-0.006757,-0.079504,-0.047447,-0.051668,0.052595,-0.05665,0.102665,0.029085,0.047856,0.071833,0.012553,0.033782,-0.06342,-0.002223,-0.057952,-0.078389,-0.022764,0.029052,0.178682,0.012501,0.085594,0.009401,0.042642,-0.112112,-0.10813,-0.040725,-0.007162,-0.124784,-0.10724,-0.036839,0.160741,-0.027492,-0.021429,-0.081707,0.019927,-0.063691,-0.114728,-0.035562,-0.1413,-0.133445,-0.059006,-0.145294,-0.10091,-0.054468,0.087484,0.035428,0.021385,-0.072561],[0.102479,-0.01181,-0.089827,0.049383,-0.141552,-0.086779,0.01509,0.000266,-0.02477,0.042221,0.163607,-0.096339,-0.06762,-0.007648,-0.060367,0.013285,0.100808,0.054628,0.015164,-0.04289,0.097748,0.113313,0.108276,-0.143747,0.08051,-0.145637,-0.077924,-0.124103,0.012159,0.044894,-0.129595,-0.030108,-0.005748,-0.04904,-0.102464,-0.023366,0.058315,-0.099628,-0.098619,-0.071854,0.144773,0.060114,0.027271,-0.056506,0.033419,-0.177758,0.064601,0.096903,0.021458,0.138634,0.060892,-0.055812,0.113953,-0.119188,0.056512,-0.100053,-0.116737,-0.001948,-0.057372,0.010756,0.006862,-0.15049,-0.111805,0.029791,-0.065625,0.034848,0.055435,0.125692,0.05589,-0.025498,0.063506,-0.061965,-0.074645,0.066373,-0.034723,0.072349,0.094566,0.102704,0.11989,-0.030585,-0.059891,0.018888,-0.018254,0.044466,0.041721,0.064131,-0.03509,-0.115929,-0.001354,-0.079487,0.117459,-0.01601,-0.150487,-0.147806,0.028376,0.028089,-0.03796,-0.106836,-0.004792,-0.07013,0.035085,0.031119,-0.03153,-0.090295,0.148804,0.090284,0.069173,-0.100055,0.008967,-0.152502,-0.040499,0.114445,-0.064842,-0.149522,-0.14905,-0.037307,-0.086772,-0.171156,0.0992,0.010527,-0.071264,0.135188,-0.107306,0.11729,-0.079133,0.100739,0.026109,0.077751,0.134417,-0.076329,0.140421,-0.00689,-0.075925,-0.037996,0.02321,-0.105524,0.024712,-0.006745,0.052418,0.099867,-0.017831,-0.067703,-0.090311,-0.057899,-0.127078,-0.089836,0.004808,0.125408,0.023085,-0.02088,0.022441,-0.09948,-0.011205,0.022346,-0.005127,-0.042727,0.112531,0.094165,0.051005,-0.029865,0.023887,-0.104957,-0.033559,-0.146145,0.011266,0.000209,-0.063113,0.115044,0.125403,0.068526,0.048767,0.159513,-0.126202,0.071162,-0.069891,0.085808,-0.056039,0.100813,0.130573,-0.105129,0.238356,0.148909,-0.050772,0.089962,-0.002851,-0.047358,-0.045778,-0.075413,0.070996,-0.012921,0.001584,-0.005627,0.01721,0.068952,0.179739,-0.022737,0.101804,0.079136,0.019056,0.10984,-0.115613,-0.076391,0.079078,-0.027057,0.078114,0.09365,-0.143232,0.125056,-0.035217,0.05498,0.022353,0.142884,-0.154308,0.003906,0.05673,0.045023,0.074304,-0.097641,-0.050649,-0.074418,0.114935,-0.072102,-0.058503,0.102616,-0.137405,0.141182,0.054963,0.144182,-0.041392,-0.118374,0.060943,0.111465,0.0489,-0.092442,0.074898,0.083072,0.045165,0.091222,0.146122,0.027399,-0.145363,0.025431,-0.114064,-0.031805,-0.039877,-0.125574,-0.057831,-0.102046,0.098229,0.112642,-0.113208,0.131152,0.000337,-0.034638,-0.079231,-0.02112],[0.070513,0.055986,-0.147723,-0.084076,-0.049238,-0.068449,-0.075047,-0.0,0.054039,0.124141,-0.004601,0.127914,-0.060914,0.005199,-0.051308,0.035632,0.135048,0.014914,-0.075925,0.007464,-0.113613,0.1037,0.018781,-0.024915,0.000651,0.018696,-0.135918,0.052416,-0.121959,0.066067,0.082691,0.079653,-0.014456,0.069043,-0.009717,0.098883,-0.052197,-0.007183,-0.091721,-0.101727,0.047562,-0.150048,0.059313,-0.167148,-0.189948,0.029722,-0.124166,-0.100383,0.072722,-0.114182,0.11865,-0.170394,-0.062317,0.068489,-0.052961,-0.111304,-0.045615,-0.095131,0.093503,-0.079172,0.074245,0.098954,-0.04473,0.119457,-0.031647,0.125848,-0.103067,0.045368,-0.008271,-0.042757,0.037093,0.066309,-0.144847,-0.11862,0.04567,0.026488,0.140883,0.060896,0.149027,0.043018,-0.07272,-0.153027,0.068536,0.027679,-0.111135,-0.066251,0.147005,0.003888,0.020067,-0.013937,-0.070444,-0.048603,0.174872,-0.144674,0.073163,0.029285,0.08449,0.121941,-0.077101,0.080776,-0.028918,0.102815,-0.057355,0.036759,0.042356,-0.090741,0.006442,0.04492,0.065703,-0.059835,0.064464,-0.029832,0.052296,-0.07948,0.149126,-0.060854,-0.014796,-0.132806,-0.129973,0.003386,-0.060842,0.096884,-0.154893,0.007492,-0.0278,-0.182145,-0.11425,-0.057426,-0.013379,-0.046429,0.013774,0.03185,-0.146507,-0.011845,0.139591,0.022673,0.048672,-0.046553,0.123202,0.085548,0.045677,0.14404,-0.088173,-0.13906,0.08267,0.102909,-0.069294,-0.056544,-0.119028,-0.063827,0.094766,-0.016909,-0.046838,-0.020617,-0.182139,-0.019991,0.028015,0.13465,0.159831,-0.123281,0.100481,0.052821,0.070973,0.004774,-0.013684,-0.050782,-0.146712,-0.054512,-0.104014,-0.007062,0.114751,-0.006244,-0.118106,0.12448,0.10088,0.084353,0.13912,0.017909,0.124121,-0.134337,-0.159372,-0.043949,-0.132756,-0.115671,0.017334,0.058399,0.024908,-0.101681,0.084233,0.063936,-0.014853,0.03932,-0.044228,-0.083631,0.162153,-0.058313,-0.006189,0.10763,0.063592,-0.11552,-0.117516,-0.150701,0.041798,-0.016686,-0.102181,0.111545,0.030133,-0.134747,-0.031472,0.068744,-0.118965,-0.034791,0.083838,0.006151,-0.006923,0.049205,-0.123453,-0.118331,-0.00408,-0.095559,-0.096989,0.068916,0.114084,0.080678,0.091142,-0.071577,0.154179,-0.135302,0.130238,0.149612,0.065621,0.133575,-0.005922,-0.107516,-0.01139,0.031208,-0.096112,0.012341,0.135533,-0.089607,0.078571,0.087596,0.132288,0.123203,-0.0058,0.151648,0.065496,-0.129142,0.00442,0.03507,-0.076536,0.057544,0.029052,-0.109861,0.072459,0.055572],[-0.023052,-0.134042,-0.146836,-0.088706,0.10981,-0.05299,0.023979,-1.5e-05,-0.082195,0.090159,0.079415,-0.099165,-0.018563,-0.104493,0.028178,0.094854,-0.105031,-0.071099,0.006767,0.130208,0.151545,-0.142335,0.088946,-0.062918,0.00295,0.03515,0.115628,0.137734,-0.021149,-0.040639,0.066793,-0.086761,0.037068,-0.023184,0.048587,-0.098607,-0.037271,0.113667,-0.08587,-0.017811,-0.078067,-0.136448,-0.104116,-0.032877,0.13917,-0.028476,0.140483,0.009398,0.003537,0.044927,0.015767,0.07289,-0.060396,-0.048685,0.126406,0.112006,0.11857,-0.004123,0.090611,-0.023114,-0.005851,-0.093726,0.011958,-0.106618,-0.058772,0.051424,-0.074145,-0.110646,-0.148055,0.14995,0.004389,-0.008688,0.06051,0.066557,-0.060669,0.070879,0.0907,0.051193,-0.085274,0.092926,-0.001493,-0.07884,0.000342,-0.116465,-0.113981,0.086672,-0.091223,-0.050067,0.046374,-0.119746,0.145154,-0.067459,-0.040658,-0.067315,-0.058206,-0.180008,0.094454,0.141226,-0.068272,0.074622,0.04802,0.096812,-0.010793,-0.069152,-0.041379,0.040084,0.11399,-0.083783,0.003067,0.100306,0.119173,0.137605,0.058717,-0.041343,0.019034,0.044606,-0.085254,-0.002871,0.066186,-0.135954,0.063953,0.044978,0.113266,-0.144197,-0.067647,0.020624,-0.05856,0.054833,0.049434,-0.127373,0.017187,-0.003736,-0.006496,0.119726,0.114727,0.062542,0.060384,-0.024841,0.133541,0.068328,0.04232,0.087843,-0.057513,0.093888,-0.08075,-0.017925,-0.002714,0.135412,0.098094,0.066822,0.082757,0.035881,0.136795,0.020458,-0.052853,-0.006343,0.065381,0.072986,-0.019747,-0.15189,0.116329,-0.170319,0.049477,0.109139,-0.002698,-0.094933,0.043455,0.10002,-0.01489,0.124753,-0.085232,0.031109,0.04272,0.076075,-0.09922,0.095608,0.007182,-0.051545,-0.116552,0.081668,-0.092397,-0.070074,-0.098357,0.075104,0.030599,0.084461,-0.064372,0.021004,-0.029426,0.104099,0.118265,-0.145579,0.072339,-0.125913,0.026432,-0.084035,-0.059857,-0.047242,0.030309,-0.033156,0.044434,0.009943,-0.147043,0.081716,-0.088443,-0.029879,0.045944,-0.044177,-0.149188,-0.006669,0.138602,0.070372,0.128909,0.066476,-0.08121,-0.006492,0.076025,-0.081481,-0.062758,-0.076043,-0.008367,0.109978,-0.154592,0.008253,-0.082935,0.129948,-0.065015,-0.047691,0.074569,0.067806,-0.028372,-0.027076,0.000952,-0.083652,-0.088894,0.002351,-0.072206,-0.065957,0.028759,0.123998,0.016282,-0.110237,-0.114309,0.120454,-0.088859,-0.129356,0.010899,0.008297,0.067152,-0.081909,-0.143338,0.16718,-0.088292,0.052137,0.094103,0.016148],[-0.08256,-0.042018,0.051973,-0.041369,0.120393,-0.108024,-0.08662,0.000957,0.058273,0.103315,-0.018252,0.039354,0.063341,0.075641,-0.044754,-0.091014,0.019616,-0.080764,0.020231,0.139486,0.027347,0.083619,-0.035115,0.071381,0.153294,-0.105974,-0.127119,-0.00142,-0.174471,0.066518,0.098504,0.012266,-0.059145,-0.038324,0.0659,-0.132848,0.00982,0.013856,0.013123,-0.006979,0.078946,-0.101668,-0.128088,0.041524,0.07868,-0.189327,-0.051388,-0.07542,-0.067359,-0.058439,-0.118881,-0.017898,0.064291,0.017096,0.05832,-0.129429,0.087974,0.103678,0.099707,0.065217,0.127113,-0.013554,-0.093243,0.066201,0.055921,0.050326,0.032543,-0.095852,-0.031839,0.12322,0.034965,0.043021,-0.06497,-0.045497,0.094139,0.019967,0.098567,-0.034216,0.015585,-0.080189,0.059794,-0.040019,-0.018481,0.077975,0.147197,-0.125789,0.103191,-0.067824,0.005614,-0.074043,-0.048849,-0.010469,-0.108376,0.002075,0.129607,-0.154433,0.081648,-0.015236,0.064014,-0.083601,-0.111339,-0.103293,-0.083859,-0.122755,0.040791,0.125353,0.10645,0.073348,-0.086608,-0.056453,-0.063719,-0.047548,-0.005442,0.070174,0.027735,-0.025185,0.098016,0.064044,-0.032314,0.096828,0.157626,-0.017335,-0.054039,0.077094,0.071396,0.092706,-0.138339,-0.030781,0.003488,-0.008728,-0.075219,0.117132,0.063808,0.10032,0.096876,0.12474,-0.002275,0.031425,-0.124669,0.059136,-0.053646,0.082661,-0.077081,-0.067402,-0.079352,-0.134074,0.063441,0.074504,0.007536,-0.08265,-0.087277,-0.148778,-0.119679,0.100605,-0.054804,-0.082128,-0.129081,-0.084094,0.104916,-0.016659,-0.047194,-0.074273,-0.057653,-0.123044,-0.066459,0.124655,0.059072,-0.006212,-0.029221,-0.029438,0.062096,0.1086,0.030781,-0.117038,0.027803,-0.021419,0.111723,0.023574,-0.103377,-0.123153,-0.018129,-0.132839,-0.052501,-0.113038,0.025493,-0.108945,-0.053002,0.109955,-0.129415,0.020035,-0.053045,-0.143025,0.070754,-0.127244,0.06165,0.028372,0.031124,0.073402,-0.095573,-0.144324,0.042808,-0.01397,0.072861,0.099486,0.075484,0.00513,-0.060108,0.08596,-0.024181,-0.13604,0.079303,0.089132,-0.028573,-0.146815,-0.017467,0.081869,0.150208,-0.02243,-0.144483,0.08545,-0.045551,-0.001267,0.156338,-0.128551,0.048018,-0.128386,-0.003972,0.137675,0.021081,0.132427,0.01042,-0.009351,-0.026448,-0.046548,-0.018957,-0.108079,0.008406,-0.036219,0.114021,0.056566,0.037155,-0.142343,-0.09492,0.037659,-0.010469,-0.162688,0.047665,0.093229,0.024524,-0.137413,0.077798,0.029234,0.088379,0.078277,0.118353,-0.019174],[-0.115432,0.065463,0.015869,0.199638,-0.120536,-0.122911,0.125895,4e-06,0.09951,0.044729,0.044194,0.063004,0.118405,0.031036,0.044133,-0.12171,-0.030701,0.050425,-0.0596,-0.096972,-0.019994,-0.033873,-0.096821,-0.050236,0.126285,0.015196,-0.098651,-0.09834,0.038141,-0.03921,0.0993,0.044881,0.068488,-0.061455,0.096868,-0.088319,0.135014,0.037151,-0.05014,-0.072856,-0.074415,0.044319,-0.099823,0.04555,-0.074504,0.044761,0.08851,0.071926,0.091579,-0.069132,-0.101821,0.030909,-0.036968,-0.019541,-0.156537,-0.077079,-0.168197,0.092838,-0.065258,0.004958,-0.198601,0.026779,-0.069063,0.088558,0.098405,-0.053645,0.128887,0.106534,0.069726,0.080756,-0.072437,-0.01488,-0.145196,-0.121683,0.12743,-0.086784,0.092528,0.084789,0.107706,0.124952,-0.105117,-0.132396,-0.035421,-0.127871,-0.123803,-0.04932,0.094254,0.019157,-0.086942,0.058057,-0.06182,-0.186146,0.194275,0.026117,0.089224,-0.141643,0.086909,0.027563,0.010222,0.074941,0.092572,0.023,0.033285,0.084307,0.109563,-0.029696,0.081634,0.000599,-0.078238,0.025756,0.125839,0.133989,-0.032143,0.000396,-0.091171,0.1442,0.130468,0.024464,0.080211,0.078113,0.010448,-0.113639,-0.020883,0.105876,0.03088,-0.054049,0.126077,-0.128585,-0.013545,0.026804,0.068071,0.053668,-0.044345,-0.08047,0.014893,0.051234,-0.08065,0.080091,-0.052396,0.056538,0.126029,-0.107429,-0.142103,0.088919,0.013544,0.077628,0.08507,0.094133,0.121782,0.012762,-0.002566,-0.010477,-0.119477,0.022938,-0.068702,0.142592,0.002642,0.037133,-0.032039,-0.136529,-0.131386,-0.033067,-0.126541,0.015137,0.127023,0.105546,0.038045,-0.078034,0.08385,0.102941,-0.085905,0.059766,-0.090791,0.085062,0.141604,-0.161402,0.121211,0.000547,0.135489,-0.03605,0.245017,-0.130712,-0.06903,-0.134639,0.12414,0.088271,0.112356,0.121993,-0.150481,-0.017316,-0.128421,-0.083697,-0.103027,-0.012873,-0.039309,-0.100407,-0.107774,-0.083338,0.11203,0.07606,0.112842,0.037712,-0.092231,0.098271,-0.05907,-0.053972,-0.089667,-0.100219,-0.096946,-0.044065,0.058627,-0.112394,-0.073758,0.051861,-0.098181,-0.068907,0.095666,-0.184681,-0.142172,-0.030666,-0.079875,-0.008381,0.103484,-0.117339,0.009861,-0.007059,-0.154927,0.067385,-0.056243,-0.007335,-0.124464,-0.005082,-0.029615,0.080328,-0.0063,-0.029514,-0.026758,0.065183,0.039096,0.051397,0.064831,0.093773,-0.06109,0.007813,0.122139,0.198,0.087248,0.004442,-0.086783,-0.003113,0.055735,0.01964,-0.00753,0.089577,-0.045909,0.076295],[-0.035817,-0.020007,-0.051209,0.107096,-0.122563,-0.04596,0.12751,-7.7e-05,-0.001417,0.043196,0.054928,0.059662,-0.070994,0.048327,-0.092191,0.077664,-0.084836,-0.000699,-0.079656,-0.11095,-0.094486,-0.101675,0.102152,-0.121499,0.137978,0.187258,0.012742,-0.075759,-0.051472,0.115408,-0.035062,-0.071918,0.015133,0.0693,0.10815,-0.128315,0.060284,-0.114469,-0.043609,0.12223,-0.030513,-0.056158,-0.167038,0.116344,0.098325,0.011568,0.113556,-0.106519,0.005735,0.053656,-0.094665,-0.00306,0.091588,-0.137893,-0.06625,-0.076571,-0.115364,0.09924,0.02087,0.000234,0.096647,-0.100529,-0.007821,-0.008686,0.001195,0.083916,0.090004,-0.048888,0.058076,-0.094829,-0.127226,-0.070867,-0.050669,-0.013577,0.010679,0.099355,0.019832,0.000172,-0.128873,-0.129038,0.002454,-0.028954,0.12838,-0.069493,-0.111603,-0.018968,-0.030444,-0.127284,0.074974,-0.071274,0.045471,-0.063504,-0.130581,-0.039147,0.101626,-0.008088,0.091276,-0.085501,0.089887,-0.105621,0.018897,0.040155,0.118601,-0.013765,-0.089029,-0.09859,0.114377,0.038927,0.026273,-0.115761,-0.065652,-0.146685,0.116495,0.052249,0.097731,-0.056008,0.060341,0.038985,-0.062662,0.125941,0.163424,0.145583,0.056534,-0.016823,-0.148348,0.131646,-0.140768,0.058954,0.068702,0.015725,0.155352,-0.017847,-0.031612,-0.119644,0.002238,0.016612,-0.00432,0.102031,0.087734,-0.090924,-0.013112,0.113731,-0.149337,-0.051569,-0.090414,0.016821,-0.133701,0.175715,-0.002554,0.019218,-0.065562,0.000768,0.02139,0.060213,0.073341,0.034056,0.091235,0.086041,0.108726,-0.152882,-0.148663,-0.089873,0.041829,-0.042169,-0.02384,0.174669,0.151717,0.123258,-0.043037,0.063574,-0.044278,-0.125936,-0.113179,-0.029648,-0.006596,0.11405,-0.09294,0.04672,0.005185,-0.083815,-0.030627,-0.080603,0.031356,-0.071624,-0.126455,-0.156898,0.008215,0.120601,-0.058078,0.068561,0.004933,0.153203,0.010534,-0.02544,-0.015325,0.118935,-0.046707,-0.022977,-0.145033,0.070022,0.053345,-0.071225,0.009298,-0.02088,-0.120426,0.138586,-0.095124,-0.084244,0.017968,0.049625,-0.087142,0.015443,-0.041907,-0.125741,-0.10126,-0.035574,-0.070911,0.166021,0.074828,0.122346,-0.065628,0.149328,-0.00738,-0.057266,-0.166595,-0.149693,0.080127,0.053371,-0.053254,0.032124,-0.079775,0.063031,-0.014181,0.072536,0.117863,-0.004759,-0.069248,-0.050705,0.127788,-0.023219,-0.10298,-0.088864,-0.02287,0.010182,0.103501,-0.110183,-0.053432,0.099057,0.112818,-0.014668,-0.006853,0.005615,0.138054,-0.09923,0.155028,0.02976],[-0.013187,-0.116971,0.005672,0.007192,-0.112644,0.043723,0.140168,0.0,0.064847,-0.115997,-0.009469,-0.1058,0.035961,0.141277,0.068075,-0.09282,-0.029363,-0.003644,-0.018283,0.084086,0.075302,0.045352,-0.022404,-0.075208,-0.079162,-0.076661,-0.027704,0.062755,0.033269,-0.112112,-0.014989,-0.096887,-0.05981,0.102138,-0.115593,-0.033759,-0.070569,0.075558,0.043856,-0.09622,-0.00445,0.101833,0.116297,-0.017246,0.147208,0.092282,0.118342,0.033662,0.049136,-0.047383,0.068629,-0.027881,0.029226,-0.02683,0.071618,0.089675,-0.076214,0.086765,0.0074,0.090763,-0.02153,-0.035198,0.11229,-0.023028,0.082231,-0.036063,0.009092,-0.015689,0.025898,-0.038267,-0.12453,-0.044441,-0.151988,0.12924,0.116685,-0.072377,0.072793,-0.057171,0.066315,0.065585,0.121631,-0.029872,0.109084,-0.095137,0.137011,-0.120585,0.064219,0.041278,0.052645,-0.10164,0.148326,-0.083857,0.041555,-0.100682,-0.045041,0.046677,0.00306,-0.094171,-0.092496,-0.056727,0.057825,0.095536,-0.144054,-0.032654,-0.084561,-0.137322,0.068124,0.025707,-0.102758,-0.080786,-0.157571,0.094761,0.116141,-0.119577,-0.085243,0.112129,0.125907,-0.023937,-0.118504,-0.141655,0.007056,-0.024671,-0.151732,0.045716,-0.125754,0.08368,-0.072453,-0.146839,-0.008379,-0.042182,0.151286,0.02319,-0.011608,0.05673,-0.047337,0.157542,-0.027626,0.007152,-0.15524,-0.014574,0.084098,0.076459,-0.09368,-0.085566,0.090017,0.13503,-0.187398,0.018394,-0.04293,0.117966,-0.117421,-0.059084,0.069232,-0.160678,0.013749,-0.014821,-0.058205,-0.033163,0.021781,-0.120259,0.004432,0.052658,0.05872,-0.141315,-0.080492,-0.067099,-0.043788,-0.008051,0.053891,-0.123959,-0.092266,0.042429,0.044623,-0.096971,0.035218,-0.060485,0.122197,0.10444,-0.053383,-0.076243,-0.027573,-0.050084,0.053655,0.058311,0.052458,0.074013,-0.028153,-0.091419,0.03438,-0.019915,0.049173,-0.064144,-0.15414,0.131665,-0.138944,0.129071,0.133561,0.083393,0.034477,0.025013,0.080203,-0.073093,-0.032389,0.042777,-0.042337,-0.006348,-0.04223,0.010893,0.082914,-0.058613,0.116881,0.0302,0.0907,0.031092,0.072091,-0.12999,0.106232,-0.07685,0.128891,0.126876,-0.051798,-0.08945,0.082363,-0.030949,0.114302,-0.113771,-0.047204,0.136355,0.05828,0.10822,-0.053269,0.043924,0.016721,0.032541,0.075751,0.037908,-0.030615,-0.038108,0.100479,-0.0636,0.043323,-0.090934,0.0288,0.065538,-0.093319,-0.093327,-0.110074,0.026435,0.108823,-0.138638,0.062531,-0.049343,-0.018814,0.135116,-0.051149,-0.028172],[-0.15657,-0.096394,-0.021897,-0.065975,0.074114,0.010715,0.013793,-7.9e-05,-0.038621,0.06562,0.137377,-0.114149,0.110134,0.026803,0.04747,0.011501,-0.13813,-0.121169,0.022585,-0.03946,0.114432,-0.030117,-0.10966,0.043672,-0.047769,0.064735,0.054343,0.131024,0.072742,0.043298,0.035236,0.148498,-0.057993,-0.126694,-0.068526,-0.104641,0.022035,0.016028,0.004703,-0.120644,0.089721,-0.059562,0.076358,0.068756,0.001118,-0.093881,-0.137883,0.074246,0.081283,0.071707,-0.130873,-0.056772,0.06498,0.063034,-0.117162,-0.130545,0.092366,-0.068921,-0.04238,-0.165452,0.039621,0.088995,0.123968,-0.000971,-0.011336,-0.11514,0.008881,0.111754,0.072258,-0.01677,-0.072068,-0.086942,-0.077025,-0.109776,-0.103686,0.128614,-0.000852,-0.028678,0.139574,0.118245,0.009315,0.093435,-0.06578,-0.074457,-0.042428,0.070425,0.075628,-0.058245,-0.126728,0.042502,-0.086831,0.020565,0.068005,0.044874,0.071569,0.107032,0.000547,0.073833,0.026846,-0.111503,-0.155917,-0.065147,-0.029781,0.043802,0.080751,-0.097716,-0.08078,0.142696,-0.089115,-0.030067,0.024529,0.003086,-0.140654,-0.108124,-0.144993,0.022764,0.027872,-0.07062,0.040697,0.07509,-0.137622,0.020534,0.023984,-0.018864,-0.072078,0.040863,0.109138,0.05888,0.005023,0.041458,-0.025894,0.100022,0.041035,-0.087622,0.060341,-0.001811,-0.031824,0.096182,-0.154474,-0.039811,-0.103341,0.096929,0.04817,-0.099108,0.042937,-0.087447,0.073953,-0.018865,-0.040285,0.132739,-0.062985,-0.120263,0.001236,0.116238,-0.035994,-0.173168,-0.075369,-0.024933,-0.142347,0.073968,0.112568,0.005832,-0.05528,-0.018559,-0.107428,0.083734,-0.019666,-0.043176,0.01571,-0.039655,0.078715,-0.121735,0.08162,0.109522,0.02363,0.12169,-0.100385,-0.013837,0.096198,-0.0014,-0.060508,-0.070654,-0.076773,-0.048898,-0.107077,0.089046,-0.098519,-0.131014,0.008141,0.048949,0.125469,0.022871,-0.067053,0.084468,0.084417,-0.145089,0.002834,0.131569,-0.056894,-0.071696,-0.12744,-0.123412,-0.010081,0.047976,-0.128123,0.132976,0.058095,0.033526,0.070143,-0.087563,-0.009034,-0.002657,0.155674,0.085323,-0.076108,0.13228,-0.103153,0.148184,0.145885,-0.13964,0.045761,-0.115575,-0.076297,-0.030533,0.024134,0.105627,0.01711,0.033868,0.108486,0.128835,-0.152411,0.150168,-0.140899,0.08998,-0.034065,-0.105933,-0.020164,0.073478,-0.058578,-0.141601,0.014209,0.100014,-0.028799,-0.087588,-0.032758,-0.099118,0.084543,0.102514,0.029423,-0.046491,0.082872,0.014665,0.107182,0.0538,0.087115,0.032888],[-0.034485,0.149854,-0.00602,0.176131,-0.088147,-0.041057,0.024881,-5.8e-05,-0.139278,0.070577,0.08728,0.023718,-0.069725,0.060111,-0.135026,-0.018956,-0.066431,-0.102799,-0.151389,-0.017835,-0.14155,-0.037048,0.026715,0.029475,0.008744,0.107807,-0.088576,0.01886,-0.118153,-0.122574,0.003074,0.008974,0.10646,0.0402,0.130633,-0.159466,-0.120196,-0.166821,-0.103672,0.008469,0.03271,-0.099171,0.139562,0.167689,0.016047,-0.128527,-0.054864,-0.078995,-0.101622,0.054497,-0.057214,-0.061336,0.126713,0.038908,0.129912,-0.078149,-0.065074,-0.000197,-0.098812,-0.149743,0.024585,0.055202,-0.005876,-0.011089,-0.04225,-0.142835,-0.014657,-0.117379,-0.118536,0.126942,0.032042,0.081576,-0.076937,-0.05907,-0.087668,-0.129024,-0.072355,0.064969,0.061891,-0.022825,-0.016187,0.119393,-0.130165,-0.029027,-0.037582,0.075717,0.169232,-0.055713,0.15184,0.114596,-0.054555,-0.033161,0.011392,0.114206,-0.102817,0.120058,-0.034084,0.094117,-0.010484,0.067169,0.0816,0.090045,0.099574,-0.124656,0.066436,0.045141,0.01476,0.038646,-0.018019,0.023038,0.13606,-0.126368,0.011423,-0.021007,-0.129691,-0.079564,0.136032,0.106219,0.118251,0.121166,-0.073855,-0.025814,0.036311,-0.045348,-0.022005,-0.054126,0.008307,-0.001365,-0.107109,-0.017337,0.032855,0.010513,-0.063601,0.077735,-0.18481,-0.015607,0.103544,0.019588,-0.085279,0.065545,0.01621,0.093443,0.054954,0.057396,-0.014548,-0.118105,-0.037125,-0.010852,0.013835,0.004735,-0.049965,-0.127007,-0.015895,-0.08187,0.071007,-0.00664,-0.000706,0.107625,-0.023292,-0.004242,-0.138359,0.076418,-0.009034,-0.063813,0.041214,0.094752,-0.076563,-0.140397,0.090337,-0.001458,0.128774,0.042189,0.067834,-0.032782,0.073929,0.113948,0.03772,-0.107948,-0.018487,-0.090281,-0.170482,-0.066577,-0.021973,0.003798,-0.047973,-0.016605,-0.105504,-0.119898,-0.106929,0.013466,-0.114837,-0.062254,-0.009724,0.094218,-0.130847,0.020784,0.032302,0.099728,0.112747,-0.119683,-0.127178,0.097249,-0.026463,0.030036,0.019284,0.069048,0.110468,0.134457,0.051646,-0.061016,0.113426,-0.094019,-0.044384,0.108948,-0.056375,-0.118326,-0.04317,0.153693,0.002023,0.037183,-0.056269,0.055029,0.08953,-0.051768,-0.044935,-0.082759,0.136709,0.047416,0.149671,-0.048567,0.077379,0.108864,0.052657,0.117166,0.00772,-0.115333,0.047083,0.074739,0.044766,-0.099225,-0.017093,-0.038422,-0.025261,0.0302,0.052644,-1e-05,-0.059002,-0.045748,-0.065666,0.074396,0.116991,-0.033978,0.080854,0.128253,0.104703,-0.099003],[0.115625,-0.019472,-0.06365,-0.143461,-0.005645,-0.130342,-0.085359,0.0,0.079277,0.111059,-0.036562,0.122871,0.110112,0.090373,-0.081897,0.055022,0.150985,0.066773,-0.03508,-4e-05,0.025992,0.002848,-0.115025,0.01207,0.096524,0.111345,-0.080393,0.140814,-0.046585,0.050511,0.072058,0.092021,0.113804,-0.059947,0.111846,-0.123618,0.057668,0.051803,0.039203,-0.029505,0.116673,0.074535,-0.147207,0.077224,0.004332,0.088011,-0.018494,-0.072677,0.098865,0.05845,-0.091739,0.072109,-0.037678,0.027873,0.043248,0.112407,0.069748,0.047606,-0.10181,0.069847,0.05038,0.056746,-0.043739,0.081016,0.053775,-0.149719,-0.009652,0.147349,-0.1243,0.13994,0.071025,0.024859,-0.083224,-0.087254,0.109607,-0.037823,0.088389,-0.069975,-0.133233,-0.150639,-0.001283,0.123188,-0.060363,-0.025724,-0.054519,-0.032107,-0.009812,0.099343,-0.001831,-0.001622,-0.09577,0.142256,-0.087721,-0.124576,0.039541,0.034028,-0.029366,-0.013944,0.105994,-0.086813,0.076712,0.045853,-0.001577,0.015917,-0.068276,0.103977,-0.000904,-0.060123,0.026399,0.138051,-0.034997,0.084713,-0.036716,-0.093403,-0.094001,-0.005334,-0.083175,-0.149375,0.129648,0.07362,0.088294,-0.08171,-0.142134,-0.184822,0.046169,0.099768,0.010311,-0.143261,-0.013351,-0.062705,-0.02397,0.037662,0.099984,-0.12441,-0.109129,0.156453,-0.072441,-0.123031,-0.097986,-0.12634,-0.008098,0.106733,-0.077633,-0.005171,0.050399,-0.015785,0.146752,0.098838,-0.1478,0.09141,-0.007256,0.146271,-0.024833,0.144679,0.084668,-0.052746,-0.011292,0.150738,0.168751,-0.123918,0.042353,-0.048051,-0.167123,-0.048475,-0.067032,0.052041,-0.053092,0.081283,-0.132915,-0.073059,-0.044842,-0.073806,-0.130525,-0.103218,0.026181,-0.06436,-0.023432,-0.053642,0.085664,0.116635,0.122476,-0.05541,-0.088706,0.105073,-0.000886,-0.075615,-0.054178,-0.071583,-0.083103,0.109296,-0.025415,0.029318,-0.126514,-0.125132,0.146566,-0.095193,0.077784,0.012565,-0.131489,0.128341,-0.103733,0.084547,-0.134581,0.116915,-0.145332,0.018896,0.084431,0.095397,0.102644,0.095161,0.087339,-0.085448,-0.071141,-0.101484,-0.040962,-0.047897,0.031466,-0.053422,0.071864,-0.113563,-0.026966,-0.020378,0.104419,0.073262,0.029786,-0.046492,0.012516,-0.122177,-0.013411,-0.019028,-0.149839,-0.046991,0.100663,0.136633,-0.016829,-0.150145,-0.09333,-0.034471,0.146422,-0.094663,0.054649,-0.085234,0.129398,-0.040219,0.060456,-0.072388,0.013127,-0.058848,-0.093079,0.122682,0.112824,0.094656,0.051074,0.09138,-0.096745,-0.0676],[-0.048614,0.051842,-0.064335,0.102852,0.075839,0.080107,-0.013363,-0.00023,-0.067139,-0.125345,-0.016151,0.058709,0.041345,0.080838,-0.050874,0.124608,-0.091902,-0.010097,0.076946,-0.1218,-0.115392,0.108631,-0.024896,0.106318,-0.150334,0.081428,-0.049898,-0.119761,0.018948,-0.028145,-0.004001,-0.115736,-0.115118,-0.051789,-0.116685,0.11153,-0.150462,-0.043441,-0.117885,-0.054079,0.117226,-0.089074,0.106521,-0.088286,0.076233,0.015071,0.126149,-0.003352,0.021124,-0.130474,-0.072686,0.132419,-0.053059,-0.03981,0.095441,-0.012236,0.088161,0.052464,0.020866,0.093651,-0.001043,-0.070697,0.007088,-0.056319,0.063118,0.110759,-0.00702,0.017773,0.15924,-0.027637,0.010555,-0.021346,0.116857,0.020165,0.057426,0.075987,-0.038426,-0.01197,0.089167,-0.078044,0.077939,0.114768,0.038677,0.091456,0.098145,0.07538,-0.03071,-0.138789,-0.01533,0.039681,-0.006965,0.086761,0.024673,0.012183,-0.072844,0.114499,0.022961,-0.088804,-0.033763,0.080228,-0.022452,-0.083,0.128406,0.082358,0.13721,-0.04783,0.023688,0.106669,0.027145,0.038418,-0.083551,-0.043678,-0.114884,-0.119162,-0.140454,-0.116442,0.147316,-0.075265,0.067639,0.10026,0.01725,-0.062122,0.049881,0.095093,0.005209,0.098396,0.125179,0.018941,-0.055444,0.026705,-0.110411,0.118945,-0.087726,-0.039969,0.092566,0.084947,-0.004239,-0.026386,0.074527,-0.03634,0.123808,-0.122307,0.055507,0.089881,-0.099267,-0.043386,-0.038104,0.062769,0.002706,0.050891,-0.066302,-0.076085,-0.146158,-0.059437,0.045607,0.152399,0.057888,-0.010397,0.150908,0.055836,0.113353,-0.014914,-0.091099,-0.125952,0.067132,-0.135474,-0.051181,0.008365,0.021129,0.031099,-0.026324,-0.012357,0.015395,0.125628,0.083341,0.113671,0.073763,0.021868,-0.042154,0.040067,0.075935,0.048284,0.007174,-0.025537,-0.078443,-0.02179,-0.071331,0.083152,-0.07912,-0.093131,-0.045021,0.040842,-0.053002,-0.070807,0.068742,-0.049168,0.120925,0.11525,-0.012504,-0.033508,0.043137,-0.143307,-0.034819,-0.032953,0.101654,-0.134526,0.002595,0.060801,-0.035788,-0.078389,0.106398,-0.056462,0.055592,-0.091478,-0.005112,-0.057475,-0.097462,-0.069743,0.107563,-0.06944,-0.064924,-0.014888,0.126914,-0.120819,0.001867,-0.109746,-0.105073,-0.179739,0.1095,-0.090679,-0.143633,-0.011468,0.082397,-0.041546,-0.009286,-0.122893,-0.00953,0.012946,0.017559,-0.027438,-0.062982,-0.109042,-0.044739,-0.119393,0.060932,0.160415,0.11707,0.126612,0.032248,0.041405,-0.058423,0.030092,-0.016347,0.011615,0.082749,-0.075232],[-0.06837,0.113876,-0.092451,0.057932,0.117093,0.070563,-0.021126,-4e-06,-0.054749,0.091561,0.034358,0.012286,-0.117961,-0.111,0.136451,-0.057917,0.002317,-0.130288,0.078739,0.094536,0.024986,-0.140925,0.029864,0.04368,0.001555,0.101519,0.033372,0.113735,0.047548,-0.070317,-0.046553,-0.080609,0.1255,0.123728,0.071551,-0.045877,-0.0553,0.050333,-0.001338,-0.062973,0.063219,-0.13354,-0.07829,-0.046251,0.021833,0.14353,-0.086512,-0.133303,-0.112044,0.102793,-0.020635,-0.000922,-0.158336,-0.149983,-0.03863,0.078097,0.108986,-0.110545,0.014743,0.086383,-0.01405,0.090591,-0.123131,0.126755,0.06269,0.105216,0.039014,0.007981,0.106933,-0.051212,-0.041865,0.073099,0.049298,0.108425,-0.099184,0.05113,0.068396,-0.136402,0.008133,-0.073809,-0.067589,0.124598,0.070941,0.024472,0.131179,-0.021893,0.097675,-0.034575,0.085278,-0.090193,0.149202,-0.079916,-0.044547,0.064062,-0.021021,-0.005056,0.008182,0.078422,-0.072591,-0.056373,-0.093795,-0.035105,-0.096726,-0.031423,-0.020425,-0.155007,0.014169,0.114685,-0.083881,0.009125,0.031251,-0.019027,0.046202,-0.044496,-0.012337,-0.129585,0.061832,0.014483,-0.126849,-0.039623,0.109693,-0.003166,-0.02588,0.112862,0.106174,0.011573,0.094847,0.075647,-0.049123,-0.017929,-0.017356,0.151892,0.078471,-0.143555,0.108507,0.023379,-0.129033,0.001275,0.041184,0.110928,-0.060945,0.099992,0.00773,-0.116873,0.137422,-0.003641,0.003785,0.015545,0.096293,-0.048702,-0.09124,-0.135582,-0.040722,0.076723,0.020701,-0.097854,-0.103785,-0.052909,0.142604,-0.058762,0.126897,-0.030244,-0.106018,0.081268,-0.006391,0.045121,0.12723,-0.14349,-0.151863,0.035395,-0.111798,-0.055669,-0.159527,-0.163748,0.078059,-0.105381,-0.016845,0.023412,-0.083864,-0.144617,-0.019997,-0.115584,0.079544,0.08214,-0.029561,-0.005362,-0.026986,-0.029127,0.075513,0.134206,-0.050968,0.048376,0.154617,0.130533,-0.038283,-0.029945,-0.033646,0.116746,-0.102994,0.002367,-0.079654,-0.070601,-0.051093,0.143631,-0.138851,0.01858,-0.125871,-0.101767,-0.039561,0.029074,-0.092438,-0.104365,-0.077444,-0.065527,0.119673,0.12497,-0.057247,0.067727,0.124904,-0.147006,0.100401,0.130653,-0.191566,0.033357,0.129101,0.003093,-0.160317,-0.064667,-0.010545,0.065235,0.077118,0.126232,-0.056901,0.027201,0.034029,-0.014302,-0.087145,0.163344,0.130837,-0.004734,0.01404,-0.089967,0.03412,0.06026,-0.017133,0.115217,0.033395,-0.051141,0.085361,-0.123096,-0.040141,-0.020439,-0.039655,0.099886,-0.005422,0.079728],[-0.004547,-0.032219,0.09032,-0.071476,-0.1026,-0.027009,-0.080657,-0.00182,0.03847,0.032876,0.021391,0.145406,0.009472,0.121053,-0.106006,0.06417,0.097597,0.024463,0.023724,-0.049866,-0.128571,-0.022317,-0.033642,0.126169,-0.043904,0.164546,0.141779,-0.067923,-0.073665,0.106645,0.092856,-0.010399,-0.038994,0.024166,0.037575,-0.05009,0.041963,-0.083409,-0.181201,-0.058442,-0.059776,-0.033587,0.026316,-0.082848,-0.138072,-0.05116,0.143881,-0.063512,0.001625,-0.014109,0.137352,-0.10389,0.056716,0.051887,-0.003209,-0.112574,0.015538,-0.141957,0.024522,0.052379,-0.103449,0.09548,-0.165383,0.145844,-0.036875,-0.092968,-0.106164,0.213383,-0.098233,-0.101423,-0.029014,0.02176,-0.003328,-0.109492,-0.079401,-0.080518,-0.088758,-0.045422,0.046077,-0.088394,-0.055341,-0.048062,0.126596,0.155114,0.079165,-0.08221,-0.108759,-0.033568,-0.062617,-0.001691,0.070189,0.086664,0.087958,-0.048254,0.040272,-0.083525,-0.102984,0.073345,-0.116993,-0.014598,-0.05012,0.055294,0.068054,-0.059504,0.08697,-0.071373,-0.030829,0.071731,0.13816,0.123033,-0.095187,0.040978,-0.005396,0.130766,-0.120049,0.080549,0.032644,-0.041016,-0.007305,-0.04961,0.084253,0.124755,-0.001731,0.070059,-0.025535,-0.139542,-0.093596,-0.023201,-0.05234,-0.110017,0.007363,-0.071843,-0.083507,-0.034456,-0.062991,0.120449,0.126384,0.036925,-0.133986,0.086157,0.101886,0.104802,-0.120992,0.080516,0.106275,-0.028507,0.078879,-0.039735,-0.00412,-0.140739,0.038344,-0.172081,-0.03855,-0.065203,0.007701,0.004907,0.011461,0.070237,-0.055226,-0.11347,-0.093351,0.13643,-0.017427,-0.002508,-0.133023,0.018894,0.105952,0.094886,0.02227,-0.15704,-0.050267,-0.112198,-0.101599,-0.120574,-0.039132,-0.054403,0.122054,0.028478,0.166562,0.03717,0.061828,0.08345,-0.049249,0.015768,-0.062379,0.111579,-0.027341,-0.101458,0.13336,-0.119331,0.073574,0.074665,0.043008,0.093785,0.194589,-0.137703,0.061462,0.049918,0.033723,-0.11202,0.027302,0.151252,0.102635,-0.012764,-0.151768,-0.054885,0.099271,0.056993,-0.028075,-0.145592,-0.045836,-0.082851,0.0623,-0.005856,-0.049182,-0.006262,-0.089419,0.14489,-0.056512,-0.037243,-0.024798,0.04023,0.072601,0.051575,-0.047318,-0.0371,-0.108574,0.058839,-0.106807,0.016083,0.09823,0.133854,-0.035608,-0.020204,-0.125789,0.05674,0.09856,-0.044757,0.037104,0.09046,0.089999,-0.086539,-0.002087,-0.093967,-0.138471,0.104425,0.060419,0.094114,-0.122554,0.087585,-0.017224,-0.077551,0.021528,-0.118235,0.059017,0.007476],[-0.104157,-0.082331,-0.096356,-0.009345,0.003967,0.0584,-0.132214,-0.001052,0.016442,0.064366,-0.039719,-0.028892,0.023888,-0.050148,-0.187182,0.026851,0.067621,0.008345,0.062607,0.042454,-0.093509,-0.017303,-0.131387,-0.050109,0.077231,0.043067,0.139529,0.04197,-0.116255,-0.150379,0.044505,-0.003328,0.033373,0.079464,0.048353,0.086707,-0.087967,0.028875,0.08267,-0.065107,0.035347,-0.047052,0.125258,-0.144358,0.028854,-0.100753,0.035235,-0.122377,-0.076147,0.003286,0.11008,-0.068582,-0.123969,0.05777,0.027052,0.12945,-0.128082,0.026683,-0.045718,-0.121346,0.073577,0.012419,0.082351,-0.05112,-0.017027,-0.01443,0.145432,-0.088201,-0.065281,-0.02786,0.033169,-0.048757,0.110978,-0.068256,0.101783,-0.163257,0.050613,0.104987,-0.092028,0.095907,-0.010723,0.118302,0.06176,-0.08267,-0.077935,-0.031261,-0.10901,-0.126034,-0.126833,-0.019244,0.099408,-0.084401,-0.077621,0.026788,-0.072338,-0.03984,-0.054679,0.127035,0.091069,-0.017941,0.026635,0.009737,0.037063,0.028987,0.048714,-0.07744,-0.114715,-0.029897,0.127847,0.018082,0.08205,0.136552,-0.121445,0.049042,0.031321,0.137608,0.14021,0.058464,-0.065387,0.043166,-0.068254,0.092533,0.101374,0.005157,0.034541,-0.020967,-0.05263,-0.077794,0.056984,0.087623,0.141361,-0.136527,0.165123,0.06457,-0.094854,-0.122223,-0.044518,0.107334,0.101299,0.066655,-0.069617,0.076538,-0.142057,-0.03352,0.033024,-0.069297,0.079828,-0.063389,0.041295,-0.025844,0.028433,-0.111935,-0.150915,0.105338,-0.046766,0.046404,0.115464,-0.095124,-0.07019,0.050241,0.10385,0.132337,-0.044247,0.066541,-0.132613,0.108711,0.107654,-0.104323,-0.073292,-0.134783,-0.029348,0.093259,-0.054201,-0.132055,-0.043952,0.123013,0.040803,-0.032462,-0.024666,0.125362,0.207006,-0.064223,-0.126873,-0.154262,-0.114682,0.008946,0.168683,0.003889,0.070586,-0.007373,0.072588,0.043935,-0.054525,-0.06943,0.083189,-0.143932,-0.045855,0.02048,0.119434,0.017445,0.060713,-0.04362,0.067225,0.040317,0.091338,-0.008667,0.006925,0.02837,-0.048956,0.095205,-0.148669,-0.153196,0.120197,-0.079627,-0.125276,0.078168,-0.066276,0.014702,-0.090596,0.096037,0.116318,0.097854,-0.070263,0.010793,-0.113334,-0.160028,-0.182113,-0.000622,0.002043,0.005736,-0.16943,0.007374,0.062924,-0.02533,0.104183,-0.068016,0.084338,0.014693,-0.129785,-0.096056,0.017437,0.093023,-0.022018,-0.069816,0.092965,0.067831,-0.047247,-0.000652,-0.08608,0.024326,-0.030179,0.142382,-0.006556,0.018127,0.034173,0.111415],[0.069497,-0.002018,0.054937,0.087114,-0.024592,-0.1023,-0.0087,-5e-06,0.127401,-0.027044,0.153888,0.021391,0.054213,0.042975,-0.10343,-0.031645,-0.115971,-0.001535,-0.007574,0.06641,-0.05617,-0.130319,-0.015015,0.154758,0.068729,0.043954,0.020341,-0.115739,0.160821,0.060163,-0.00937,0.023488,-0.148858,0.136499,-0.067998,0.038059,-0.079142,0.061814,0.02763,0.09148,0.014762,0.133627,-0.068909,-0.037498,-0.080624,0.147056,-0.034353,0.051254,0.015721,-0.182847,-0.091343,-0.065712,-0.066429,-0.089132,-0.154441,0.137643,0.078429,-0.069434,-0.041601,-0.155972,0.035388,0.095931,-0.05778,-0.087327,0.065082,0.012874,-0.117877,0.051912,-0.046691,-0.020455,0.08895,0.090572,-0.036217,0.125381,-0.039708,0.015501,0.012197,0.090777,0.127787,-0.147697,0.121486,0.091664,0.102285,-0.07428,0.088307,0.069482,-0.054062,0.116964,-0.134516,-0.10535,0.029278,0.012061,0.126876,-0.141457,0.157764,-0.129316,-0.130499,-0.129752,0.016386,0.136052,0.043443,0.084834,-0.14711,0.03074,-0.023275,-0.014065,-0.123184,0.061245,0.020019,0.065549,-0.030179,-0.113605,0.046805,-0.134337,0.082869,0.050032,-0.125128,0.125847,0.004434,-0.149164,0.086635,-0.05542,0.059864,0.161818,0.136299,-0.010966,-0.029845,0.042358,-0.11686,-0.000238,0.029897,-0.152587,0.027335,0.083727,0.096678,-0.062929,-0.081172,-0.063486,0.114193,-0.098454,0.083257,-0.10395,0.019191,-0.048724,0.076442,-0.086538,0.052384,-0.03742,0.058215,0.116727,-0.111859,0.13088,-0.0025,-0.107567,0.014471,-0.066641,0.058406,0.085333,-0.082926,-0.001952,0.075719,0.176495,-0.037223,0.104303,0.009372,-0.055612,0.087552,-0.00378,-0.007573,-0.006634,0.091752,0.106195,-0.052814,-0.059871,0.021177,-0.007584,-0.075699,0.069782,-0.034764,0.000251,-0.221479,-0.060707,0.134964,-0.09101,-0.108265,-0.049635,-0.055798,-0.158233,-0.047914,0.020754,0.005714,-0.028181,0.019936,0.129181,0.006329,-0.069014,-0.074944,-0.015883,0.058404,-0.113924,0.048125,-0.081195,-0.046623,0.082234,-0.07064,0.050516,-0.123465,0.082185,-0.140618,0.11129,-0.120571,0.060318,-0.020563,-0.00924,-0.070443,0.087731,-0.111908,-0.08644,-0.030615,-0.142969,-0.078504,0.100579,0.157773,-0.000475,0.100368,0.003795,-0.069937,0.039453,0.066027,0.134623,-0.061131,0.073047,-0.128428,-0.116113,-0.160104,0.148189,0.105257,0.116796,0.017038,-0.065949,-0.12879,-0.075693,-0.043422,0.062136,0.007762,-0.125337,-0.171922,-0.091026,-0.016428,0.118856,0.028503,0.095142,-0.029529,-0.015833,-0.114492,0.098564],[0.061864,-0.069352,0.009393,0.069395,0.035917,0.133043,-0.003734,-0.0,-0.138324,-0.114096,-0.057997,-0.125785,0.065971,0.086718,-0.122635,0.135647,-0.08369,-0.090373,-0.066918,-0.014803,-0.070934,-0.010531,-0.020173,0.114623,-0.132713,-0.049168,-0.129994,0.052637,-0.085715,0.102102,-0.003473,0.021957,0.022214,-0.148636,-0.074979,-0.071359,0.031035,-0.130579,-0.089445,0.145776,-0.114767,0.09816,0.111156,-0.114597,-0.10785,-0.112342,0.035957,0.02835,0.068081,0.168839,0.064165,-0.042253,-0.078636,0.092621,-0.042291,-0.139653,0.112026,-0.023847,0.122924,0.030024,-0.101271,0.126932,-0.08668,-0.079807,-0.049542,-0.15332,-0.014,-0.098145,-0.033076,-0.02446,0.084199,0.109457,-0.126782,-0.037484,-0.053337,-0.131035,0.093247,0.069957,-0.05834,-0.061108,-0.129186,0.034405,-0.086662,0.134322,0.067107,-0.033911,0.051184,0.119858,0.036887,-0.065225,-0.015145,0.088456,0.043522,0.036898,0.112989,0.080145,0.128102,-0.09481,0.003415,0.062231,0.062138,0.048824,-0.117917,0.092915,0.078358,-0.062027,0.00946,-0.088906,-0.019696,-0.136247,-0.023728,0.014015,0.014219,0.081474,0.106675,-0.081834,-0.073045,0.076172,-0.10568,0.150098,0.105417,0.016207,0.12054,-0.181389,-0.077158,0.04817,-0.058633,0.091374,-0.130514,-0.004932,0.039564,0.082357,-0.032264,-0.044172,0.119122,-0.083743,0.104865,0.001026,0.067294,0.075794,-0.073732,0.025865,0.108054,-0.0391,0.127641,-0.01831,-0.185108,-0.015856,0.114174,-0.044506,0.116158,0.119013,-0.060181,-0.153599,0.060777,-0.023768,0.066637,-0.028019,0.012384,0.058489,-0.057379,-0.028295,-0.056519,-0.043821,0.03061,0.121688,-0.037251,0.010531,0.033039,-0.069258,-0.064869,0.147979,0.048009,0.024826,0.041471,-0.144985,0.048599,-0.006822,0.017651,-0.058347,-0.172092,-0.069583,0.110577,-0.055347,-0.032891,-0.119143,-0.121753,0.061035,-0.007331,0.038876,-0.071767,0.081446,-0.143911,-0.147107,0.024081,-0.049194,-0.072721,0.0445,0.027711,0.072872,-0.056488,-0.053322,-0.048274,0.14667,0.004845,0.075101,-0.121255,0.035156,-0.151586,0.002669,0.104015,0.084591,0.037722,-0.013744,0.126393,0.040892,-0.12971,-0.017133,-0.071561,-0.039843,-0.011969,0.008699,-0.024642,-0.110679,-0.004211,0.085644,0.031845,0.018015,0.150521,0.126086,-0.077823,-0.134756,0.050326,0.086157,0.14879,0.120344,0.02766,0.03641,-0.115176,-0.087152,-0.015848,0.032413,0.01817,0.064706,-0.052124,0.048164,-0.1145,-0.023756,0.092104,0.037012,0.141588,-0.041914,-0.007778,-0.018753,0.011558,0.091269],[0.044472,0.123604,-0.084072,0.125683,-0.19182,0.095657,-0.057831,0.0,0.025664,0.09792,-0.08892,-0.02473,0.112313,-0.017362,-0.089714,0.009934,-0.063598,0.099312,0.09258,0.017566,0.175928,-0.023925,-0.132453,-0.084295,-0.012439,-0.056377,0.126435,0.081866,-0.070849,0.015414,0.092803,0.154146,0.120206,-0.031912,0.082847,0.000448,0.018653,-0.121114,-0.119405,0.013435,-0.100715,-0.087035,0.110225,-0.031086,0.054947,0.029181,0.099083,0.018746,-0.149841,0.053622,0.093205,0.149382,-0.038717,-0.058418,0.120063,-0.078791,0.021333,-0.031173,-0.114635,-0.055418,-0.056313,0.025293,0.100823,-0.060689,0.074515,-0.15137,0.022513,-0.125164,0.151254,0.087762,0.066622,0.090878,0.015553,0.139605,0.048862,0.084383,0.023724,-0.110348,0.034797,-0.121827,0.015666,-0.000802,0.05324,-0.156917,-0.107327,-0.009071,0.124897,-0.041292,-0.03341,0.078379,0.046616,-0.087718,0.030875,-0.096071,0.138808,-0.140421,-0.046282,-0.114658,-0.081995,0.074275,-0.095708,-0.122505,-0.000709,-0.178711,-0.112257,0.101567,0.064825,0.134076,0.139349,0.029733,-0.134594,0.078186,0.087792,0.082198,-0.05035,-0.080865,0.105604,0.056505,0.148487,-0.077425,-0.093343,-0.073918,0.069173,-0.030649,-0.154524,0.105939,-0.12688,0.066291,-0.035106,0.077725,0.027352,0.141546,0.150393,-0.122865,-0.117262,-0.083588,0.04939,0.097974,-0.058881,0.042691,-0.098126,0.085056,0.13291,-0.074362,-0.018637,-0.134812,0.032787,0.018325,-0.108685,-0.000852,-0.041426,0.009306,0.00815,-0.16196,0.094902,0.090039,-0.061183,-0.120311,0.101745,0.071074,-0.085283,-0.094088,-0.109758,-0.002798,-0.09862,-0.068177,0.039044,0.027513,-0.069485,-0.055636,-0.007141,-0.118941,-0.136062,0.097188,-0.118047,0.024992,0.11079,-0.09345,-0.049913,-0.020086,0.121181,0.145858,0.081852,-0.121973,0.049749,-0.034758,0.025395,-0.14023,-0.069638,0.098142,-0.011581,-0.061826,-0.052707,0.073729,0.147582,-0.032139,-0.067725,-0.082337,0.114665,-0.019816,-0.012497,-0.007886,-0.044399,0.102039,-0.011361,-0.087825,-0.129836,0.041985,0.108566,-0.076495,0.095666,0.032066,-0.052715,-0.137881,-0.107482,0.074747,-0.082167,-0.011078,-0.028943,0.025547,-0.109831,-0.030249,0.026517,-0.012346,0.078511,-0.065845,0.088604,0.087259,0.027261,0.068518,-0.05273,-0.085644,0.023953,0.019551,0.034873,-0.038197,0.126565,0.067349,-0.124914,-0.027745,0.071669,0.077861,-0.009265,0.103416,-0.086104,-0.055793,0.105047,0.111538,0.054656,0.069571,-0.122083,0.096403,-0.056825,-0.074307,-0.068125,-0.037915],[-0.085495,-0.038945,-0.119142,-0.051079,0.002835,-0.012721,-0.046298,3e-06,0.107707,0.0849,-0.028333,0.082605,-0.105871,-0.096334,-0.057577,0.108022,-0.072494,-0.134934,-0.109898,0.09045,0.002616,-0.067907,0.024565,0.014205,0.099886,-0.073172,0.102314,-0.046274,0.068776,-0.143716,-0.02979,-0.060119,0.00996,-0.140119,0.102052,-0.102147,0.062989,0.0654,0.043869,0.039786,0.04089,-0.046207,0.095589,-0.048426,0.058615,0.051649,-0.057051,-0.039737,0.005674,0.136846,0.144421,-0.036225,0.017868,0.107346,-0.077526,-0.093539,0.043851,0.128864,0.113862,-0.035999,-0.138086,-0.019372,-0.088742,-0.056663,0.06027,-0.138964,0.103782,-0.02942,0.007033,-0.122353,-0.043636,-0.135837,0.10325,0.060963,-0.029203,-0.091809,0.127764,-0.065027,-0.085976,-0.007726,0.106474,-0.153631,-0.070941,0.124901,-0.091157,-0.10396,0.039102,0.105434,0.023406,0.156927,0.065204,-0.136134,0.158961,-0.052508,-0.064985,0.032418,-0.047459,-0.104661,-0.137047,-0.012731,0.078598,0.021581,0.148769,-0.093191,-0.014732,-0.112676,-0.062285,-0.025796,0.09003,0.130531,0.137015,-0.092586,0.092985,-0.070119,-0.118214,0.110825,0.045921,-0.114302,-0.011368,-0.059856,0.101217,-0.001311,0.121751,-0.168737,-0.020979,-0.012707,-0.016264,-0.059113,0.044254,0.097789,0.143225,0.09211,0.122311,0.031112,0.093699,-0.039474,-0.021002,-0.057415,-0.010433,-0.049964,0.145025,-0.074748,-0.117677,0.035367,-0.145259,-0.094333,-0.032349,0.005268,-0.04066,0.087739,0.083027,-0.003037,-0.045776,-0.067586,0.094452,-0.126884,-0.156259,0.087979,0.028921,-0.075091,-0.10767,0.115715,0.088086,0.05422,0.008931,0.012831,0.125841,0.136114,-0.100644,0.094362,-0.107065,-0.049796,0.032849,-0.037842,0.126419,-0.136882,0.009899,0.106309,0.113309,-0.070202,-0.079007,0.036247,-0.091342,0.090281,0.110628,-0.112342,-0.104122,-0.121174,0.104249,-0.098529,-0.042109,-0.008215,0.00651,-0.113032,-0.074237,0.125048,0.097805,0.077266,-0.156115,-0.041521,0.013433,-0.071077,0.11145,0.057087,-0.142656,0.127757,0.140854,-0.13531,-0.00294,0.031158,-0.008979,-0.076173,0.050698,0.143289,0.004831,-0.12609,0.079499,-0.05908,0.106542,-0.035686,-0.098169,-0.147629,0.094997,-0.029459,0.075754,-0.124533,-0.102613,0.05663,0.136001,0.13559,-0.087369,-0.025232,-0.110662,0.001382,0.000259,0.118374,0.082864,-0.011235,-0.001613,0.123066,0.085653,-0.155359,-0.056708,-0.029283,-0.08743,-0.077176,-0.110882,0.02753,-0.043654,-0.137093,-0.080428,0.097338,0.098704,0.001182,-0.008436,0.127822],[-0.096205,-0.075533,-0.075755,-0.064862,-0.296321,0.11513,0.048355,0.0,0.129321,-0.160331,-0.072273,0.041668,0.044941,-0.12295,-0.015777,0.055567,0.040794,0.029522,-0.033941,-0.130371,-0.038534,-0.11783,0.138153,-0.042712,-0.097525,0.01149,-0.014713,-0.027971,0.058366,0.073219,0.077316,-0.11656,0.010697,0.088131,-0.056219,-0.117849,0.131659,-0.154614,0.100421,-0.021239,0.00857,-0.173501,0.074735,0.010606,0.036236,0.036419,0.080922,0.127373,0.016153,0.022292,0.107315,0.064159,-0.07937,-0.110505,0.138498,-0.027156,0.028365,0.001259,-0.065714,0.056903,-0.133331,-0.045852,-0.019515,-0.031524,0.064284,0.061428,0.088192,-0.134274,-0.104998,-0.000907,0.137076,0.122238,0.087576,-0.07206,-0.039865,0.03506,-0.084981,-0.09492,0.160394,-0.09822,-0.077151,-0.138117,0.131789,0.030529,0.05356,0.159982,-0.037589,0.019402,-0.058239,-0.101241,0.114962,0.109629,-0.088085,-0.040464,-0.00111,-0.128512,-0.078456,-0.099325,-0.065567,0.136035,-0.070048,-0.10091,-0.014482,0.142219,-0.066042,-0.156919,0.037458,0.076653,-0.017551,0.061796,0.093755,0.061281,-0.00076,-0.016539,-0.097513,0.170127,-0.028928,-0.091156,0.057836,-0.073367,0.062752,0.045598,-0.068116,0.116969,-0.089259,-0.024194,0.022908,0.041624,0.072685,-0.051591,0.061008,-0.052896,0.161017,-0.005654,0.052116,-0.101557,-0.069054,-0.051251,0.082657,0.01452,0.136598,-0.038312,-0.022079,-0.090463,0.069719,-0.108285,0.142877,0.145834,0.110961,0.020553,0.056508,0.136331,-0.085217,0.02261,-0.129317,-0.01273,-0.107501,-0.108388,-0.036459,-0.008987,0.033072,-0.11826,-0.022964,-0.091655,0.000144,0.012825,0.056166,0.115276,-0.012619,0.104474,-0.019874,0.01576,0.038352,-0.164224,0.044507,0.052946,-0.057261,-0.134684,-0.158894,0.109998,0.134291,-0.120024,-0.048095,-0.009944,0.077457,-0.177476,-0.025481,0.105391,-0.152888,-0.06777,0.121818,0.021774,-0.054421,-0.124194,-0.202236,-0.051417,0.10929,-0.027199,0.045795,0.149408,-0.044609,-0.041215,-0.002397,0.128159,0.075709,-0.12023,0.046642,0.007835,0.074994,0.005023,0.020709,0.09638,-0.045227,0.05149,-0.129424,-0.006082,-0.041225,0.137884,-0.059132,-0.02053,0.021925,-0.093931,-0.062651,0.058935,0.097288,0.030258,0.068116,-0.124276,0.125016,-0.119655,0.058991,-0.050166,0.17428,0.091025,0.083524,-0.072937,-0.045666,0.014308,0.071783,-0.094562,0.126124,0.128969,-0.071796,0.092074,0.003678,-0.050048,-0.076893,0.015345,0.065466,-0.010344,0.03817,0.061768,0.059476,-0.099277,0.141082,-0.006878],[-0.073027,-0.048028,-0.00059,0.096581,-0.069934,0.047687,-0.115267,0.0,0.108396,0.082399,-0.071651,0.019311,-0.078064,-0.010981,0.033953,0.079148,-0.049416,0.123463,0.003369,-0.048026,-0.038004,0.048572,0.031754,-0.021162,0.06177,-0.058558,0.106121,0.011567,-0.092534,0.08405,0.137106,0.145937,-0.033205,-0.095328,0.006304,-0.087389,0.123093,-0.098241,-0.074486,-0.041669,-0.004205,0.122205,0.003693,-0.154575,-0.072273,0.009744,-0.109478,0.05504,0.038231,0.034346,0.13283,0.109495,0.088467,-0.082681,-0.071818,-0.05582,0.075836,0.120613,0.125135,-0.116453,0.129939,-0.061574,-0.001815,-0.002564,-0.143311,-0.010732,-0.029074,-0.004866,0.040344,0.087447,0.060467,-0.084107,0.070351,0.099732,-0.134829,0.038044,-0.050915,-0.174426,0.03934,0.132424,-0.122647,0.079772,0.089874,0.112557,-0.095176,0.051168,-0.045193,0.010229,-0.118059,-0.071607,0.072463,-0.032624,-0.109491,-0.089563,0.039868,-0.051131,0.073364,-0.135487,-0.085869,-0.073313,-0.026074,-0.036992,-0.022749,0.142465,0.029876,-0.140126,-0.004084,0.105399,-0.023121,-0.154193,0.074914,0.009332,-0.008906,-0.130327,-0.118938,0.02046,-0.085625,-0.001034,0.026286,-0.067339,0.126589,0.108877,0.056878,-0.137035,-0.130374,-0.020043,-0.083348,0.110243,-0.120941,-0.009698,-0.032945,0.050289,-0.157127,-0.009946,-0.08461,0.089288,-0.145299,0.114526,0.09221,-0.05185,0.074823,-0.117329,0.106724,0.001754,-0.06873,-0.049382,-0.053253,0.155904,-0.131524,0.055086,-0.002163,0.11432,-0.079931,0.017377,0.007021,0.0497,-0.155307,-0.090373,-0.042562,0.084689,-0.067671,-0.016785,-0.071279,0.119793,0.164951,-0.039817,-0.030258,-0.08844,-0.146363,-0.078533,0.09204,-0.007577,0.11539,-0.02745,0.03155,-0.017188,0.015148,-0.069584,-0.040688,0.007713,0.085595,0.139457,-0.036017,-0.135264,0.005939,0.033651,-0.108137,0.047265,0.150274,0.137809,-0.099225,0.103525,0.055119,-0.025399,0.049806,0.101242,-0.013786,-0.026112,-0.007358,0.024864,-0.11105,0.08647,0.024102,0.029346,-0.127568,0.039652,-0.082558,-0.150242,-0.000902,-0.03137,-0.038578,-0.09309,-0.037281,-0.112901,0.139142,-0.015926,0.074925,-0.004397,-0.115671,0.114468,-0.041553,-0.034306,0.035019,-0.154572,0.078771,-0.000167,-0.043388,-0.131504,-0.07555,0.120997,0.043117,-0.071065,-0.159969,0.049653,0.01404,-0.022924,-0.025058,-0.067867,0.116074,0.154568,-0.115945,0.035286,-0.033337,-0.034432,-0.062459,0.11968,-0.005742,0.038194,-0.043055,-0.097873,-0.124278,0.047097,-0.041236,0.0569,-0.084356,-0.053341],[-0.014636,-0.033847,-0.14168,-0.137113,0.034075,-0.014436,-0.089932,0.0,-0.091447,-0.059177,-0.170072,0.121615,-0.074897,-0.081658,-0.085213,-0.064224,0.03117,-0.1283,-0.104769,0.033041,-0.062366,0.032947,0.029046,-0.101039,0.02631,-0.123968,0.016196,-0.022745,0.014285,0.086716,0.115713,0.169731,0.006787,0.006734,-0.107761,-0.074708,-0.032623,-0.067172,0.074756,-0.041648,-0.026226,-0.016926,0.103429,0.194538,0.102421,-0.113975,0.106906,-0.160466,0.121819,0.076605,-0.026093,0.011157,0.072816,-0.161553,0.138178,0.028676,-0.068667,-0.143213,-0.002379,-0.013201,-0.064543,0.021642,-0.044854,0.173947,0.032915,0.066398,-0.092149,-0.066824,-0.067694,0.025231,0.104234,-0.111566,-0.146819,0.092034,-0.10404,0.004212,0.029067,0.068064,-0.081951,-0.120716,0.007125,0.112668,-0.019914,-0.052323,0.024621,0.114061,0.114712,0.152372,-0.155049,-0.112838,0.048122,0.092105,-0.079923,-0.096892,0.078515,-0.133708,-0.023151,0.025076,0.052273,0.057796,-0.065055,0.03308,0.027932,0.024417,0.033429,0.028438,-0.203894,-0.089042,-0.023192,-0.018987,0.096676,0.038682,0.065545,-0.06101,-0.010223,-0.0276,-0.041197,-0.15744,0.019982,0.130388,-0.161313,-0.103528,0.074985,-0.015083,0.089913,0.073453,0.112704,-0.053121,0.032073,-0.014644,0.050065,0.034166,-0.071376,0.021077,-0.006638,0.119801,0.066564,0.01517,-0.12525,0.07193,-0.025157,0.105812,0.104927,-0.114749,0.089044,-0.17531,0.019716,0.056491,-0.11342,0.077814,-0.14471,-0.07326,0.032419,0.052962,0.129781,0.011709,0.03794,-0.02902,-0.080947,-0.082625,-0.011222,0.014935,-0.010845,0.058465,-0.011821,-0.142846,-0.093264,0.097712,0.031029,0.094477,-0.131754,0.152075,-0.081932,-0.15636,0.098483,-0.077597,0.070888,-0.082224,0.016974,0.123743,0.043772,0.05981,-0.089882,0.013032,-0.018348,-0.060161,-0.070795,-0.101919,0.123367,-0.003703,-0.091178,0.009245,-0.058993,0.034521,0.131162,0.012077,0.131063,0.008585,-0.091769,0.056097,-0.01971,0.022585,0.115932,0.004493,0.093007,0.078719,0.011558,0.035449,-0.067254,0.219486,0.002504,-0.11,-0.026028,0.033898,-0.132982,-0.125306,-0.008815,-0.074829,-0.042322,-0.086915,-0.065757,0.055584,-0.029114,-0.108281,-0.029706,0.01746,-0.158239,-0.140164,-0.106927,0.112017,0.044478,0.085207,0.046627,0.041052,0.023016,0.050271,-0.127024,0.064269,0.069391,0.008102,-0.048114,-0.049612,0.039257,0.044477,0.092772,-0.06911,0.112775,0.008132,0.122597,0.003087,0.015565,0.001937,0.081496,0.144515,-0.158732,-0.127421],[0.109762,0.028861,0.040457,0.130149,0.182989,0.016472,0.0885,0.0,-0.038255,0.063864,-0.113462,0.128594,-0.059694,0.037327,0.113849,0.040056,-0.049589,0.044373,-0.032789,-0.04878,0.123815,0.088726,0.038832,0.0165,-0.097655,-0.167799,0.013315,0.097384,0.021735,0.084617,-0.117473,-0.049743,-0.057565,-0.035771,-0.13389,0.132633,-0.083436,0.09418,0.043519,0.115546,0.006892,0.152552,-0.142896,0.110217,0.128191,-0.06769,-0.104801,-0.030536,0.111643,0.003209,0.016611,-0.115622,-0.163451,0.080452,-0.149091,0.047515,0.090261,-0.097949,0.057863,-0.133543,0.021851,-0.070645,0.036265,-0.080063,-0.026538,0.033806,-0.078069,0.115438,-0.036293,0.031082,-0.06996,0.069293,-0.127118,-0.02956,-0.086726,0.049742,-0.042296,0.095238,0.131353,-0.101209,0.023703,-0.124162,-0.040535,0.0791,0.038969,0.048899,-0.08058,0.079291,-0.123197,0.068126,0.017047,0.073374,-0.095245,-0.061278,-0.043668,-0.1039,-0.092364,0.103676,0.121254,0.03183,-0.014047,-0.132198,0.104474,-0.159232,0.122247,-0.012679,-0.059622,0.144504,-0.097095,0.007023,0.013526,-0.08106,-0.043225,0.039334,0.041872,-0.167201,0.127042,-0.118038,-0.043812,-0.053956,-0.108581,-0.104475,0.141175,-0.018366,-0.108054,-0.170602,0.048556,0.086151,-0.060743,-0.163844,-0.067417,-0.112151,-0.142275,-0.001722,-0.072511,-0.003581,-0.048349,0.123863,0.09335,0.032047,-2.4e-05,-0.032827,-0.034761,0.071254,-0.033649,0.101775,0.181942,-0.048496,0.008909,-0.10633,-0.077825,-0.043347,-0.09881,0.060356,-0.104724,-0.000692,-0.002716,0.05703,-0.017888,0.042843,-0.004162,-0.009927,-0.122596,0.028167,0.100299,0.007523,0.095568,0.003755,-0.086848,-0.138116,-0.037764,0.06425,0.084712,-0.064062,-0.010857,-0.033146,-0.010427,-0.087824,-0.073236,-0.090091,-0.166969,-0.072318,-0.12397,-0.001406,-0.049566,0.102503,-0.032519,-0.047311,-0.017095,-0.170048,0.097706,-0.167454,0.083464,0.093803,0.080125,0.004945,0.049333,-0.010491,0.021587,-0.140683,-0.149148,-0.02272,0.007592,0.130997,-0.136749,0.103528,-0.085609,-0.034127,-0.072265,-0.078306,-0.103613,-0.051594,0.067058,-0.018908,0.00895,0.07786,0.088785,0.085935,-0.052081,0.076852,0.034863,-0.092537,-0.06714,0.067702,-0.129949,0.128043,-0.021646,0.144094,-0.028373,0.010907,0.097945,-0.012926,-0.042316,-0.115949,-0.112006,-0.063991,0.056097,-0.161125,-0.08339,-0.010864,0.016419,0.076468,-0.109252,-0.12351,0.115715,-0.010232,0.092221,0.109498,0.085731,-0.119312,0.09742,0.034482,0.02826,-0.043967,-0.059354,-0.127974],[-0.018185,0.019813,-0.060274,-0.00087,-0.056317,0.029623,0.113923,-0.000106,-0.034628,-0.156464,0.04865,0.076039,0.123483,-0.045785,0.15064,-0.191902,-0.011035,-0.133165,0.116634,-0.015939,0.046249,0.088773,-0.107935,-0.155697,0.11445,-0.065114,-0.115429,-0.005807,-0.032001,-0.137673,-0.054276,-0.168299,0.013459,0.117539,0.163319,0.034914,-0.112169,0.087094,0.032488,-0.119084,0.112971,0.093376,0.069849,0.041381,-0.073922,-0.058546,0.030485,-0.069565,0.004431,0.069858,0.095029,-0.023065,0.051209,0.085913,0.053555,-0.104173,-0.116832,-0.067611,-0.131964,-0.08635,-0.051562,-0.041046,0.117767,-0.101944,0.05358,0.038628,-0.111352,0.114152,0.023353,-0.037405,0.081021,-0.049884,0.040156,-0.145971,0.084862,-0.057862,0.040877,-0.06784,0.057938,0.042453,-0.023975,0.019806,-0.026931,0.094373,0.01969,0.059378,0.104832,-0.032172,-0.077694,-0.018442,0.099966,-0.100641,0.03441,0.067404,-0.049603,0.068597,-0.066274,-0.104719,0.095131,-0.119532,-0.07173,0.073878,-0.05014,0.150637,0.172624,-0.083593,-0.141338,0.065889,0.031911,-0.126306,0.065889,-0.129611,0.092469,-0.115552,-0.016143,-0.092828,0.127903,0.035733,0.096069,-0.043457,-0.043757,-0.06164,-0.026153,0.050555,0.005074,-0.069949,0.131384,-0.102066,0.113828,-0.170795,0.003923,-0.057073,0.011282,0.023054,-0.009757,0.006293,0.072552,0.040279,0.069182,-0.054647,0.031989,0.031968,-0.043227,-0.010525,-0.061593,-0.055138,-0.051915,-0.105647,0.044101,0.051119,0.135992,0.07566,-0.118411,0.105944,0.096105,-0.015646,-0.007672,0.12275,0.048243,0.123841,-0.145708,-0.102254,-0.008846,0.00392,0.09452,0.134857,-0.040872,-0.114656,0.047866,0.010165,0.020979,0.006248,0.052309,0.066537,-0.015044,-0.050549,0.134377,0.035437,-0.031321,-0.07645,0.136209,-0.08984,-0.084144,-0.032257,-0.077989,0.031899,-0.130763,0.041246,-0.038651,-0.118333,-0.11723,0.110597,0.079822,-0.086204,0.109227,0.035164,0.113248,-0.051937,0.045299,-0.1595,-0.045682,0.196541,0.003988,-0.050312,-0.112884,0.045895,0.016668,-0.04582,0.102773,-0.094732,-0.046106,0.068675,-0.029371,-0.047375,0.003395,0.11543,-0.130537,0.081713,0.081564,-0.106495,0.054755,-0.058524,-0.015291,0.080379,0.124936,-0.107303,-0.021526,0.024291,-0.0396,-0.03111,-0.1512,0.059261,0.001672,-0.074099,0.09524,0.096102,-0.017517,-0.054398,0.005948,-0.071482,-0.080452,0.05302,-0.119207,-0.12624,-0.144302,-0.12584,-0.143364,0.116089,-0.067556,-0.095065,-0.076699,0.134512,-0.010174,-0.047841,0.117623,-0.038525],[-0.071429,-0.077689,-0.016252,-0.026996,0.163052,-0.097596,0.045355,-0.00081,-0.081703,-0.075853,0.151589,-0.015496,0.068044,-0.063539,-0.113761,-0.171695,-0.078064,-0.119047,-0.065993,0.072394,-0.160502,0.003564,-0.025986,0.001085,0.02196,-0.104124,-0.057632,0.095782,0.09864,-0.106937,-0.082103,0.113671,-0.025587,-0.03654,-0.030216,-0.065144,-0.006778,0.011043,-0.161199,-0.011692,0.09695,0.073001,-0.073945,-0.067384,0.086211,0.158757,0.075813,-0.141926,0.085683,0.116239,-0.137288,0.01447,-0.055274,0.046645,-0.047015,0.038454,0.079105,0.083796,0.156475,0.13976,-0.163976,0.023643,-0.032649,0.060627,-0.085979,0.141173,0.067407,0.104964,-0.119759,-0.09181,0.093534,-0.127953,0.080795,-0.129176,0.03255,-0.047495,0.052943,0.049155,-0.030551,-0.138559,-0.142149,0.01955,0.000356,0.078966,0.015721,-0.020686,-0.037989,-0.167969,-0.069956,0.139878,0.140822,-0.030579,0.09167,0.08532,-0.008148,-0.029326,-0.155597,0.002291,0.154982,0.029858,-0.133989,-0.084303,0.082454,0.093941,0.006107,0.047124,-0.094355,0.147211,0.071822,-0.095931,0.072671,-0.099473,-0.13422,-0.116798,0.10026,-0.053568,-0.026466,0.002925,0.008576,-0.077114,-0.082514,0.054555,-0.031182,-0.005992,0.051759,0.045903,0.099054,0.013318,-0.116573,0.044719,-0.062166,-0.005553,-0.106201,0.117275,-0.17858,0.175241,0.128811,0.031309,0.041224,0.05226,0.129805,-0.043419,0.071909,-0.031275,0.120626,-0.010815,0.014021,0.083187,0.080365,0.027062,-0.094098,0.00459,0.108361,0.072518,0.072058,-0.226422,-0.019902,0.031614,0.109709,-0.150462,0.059675,0.001322,-0.084152,-0.024772,-0.036481,-0.000586,-0.131807,-0.086885,0.128656,-0.114071,-0.103969,-0.004326,0.008126,0.053404,-0.012086,0.090642,0.058865,-0.122212,-0.147438,-0.04389,-0.050566,0.058753,0.048797,-0.068217,-0.088991,-0.08048,0.054034,-0.016927,0.04611,-0.051089,0.050523,0.097128,-0.086812,-0.032788,0.127732,-0.004309,0.028683,-0.103816,0.017045,-0.159158,0.112614,0.107192,0.074918,0.093365,0.014271,0.006114,0.071737,0.132121,-0.015229,0.118538,0.018295,0.024947,-0.037456,-0.051884,-0.145362,-0.085109,0.05686,-0.059693,-0.031057,0.151407,-0.03489,-0.049594,-0.024107,-0.17079,0.073175,0.024431,0.071754,-0.146848,0.024257,-0.051499,-0.087092,-0.100436,-0.101205,-0.045138,-0.097001,0.130453,-0.040534,-0.134165,-0.060877,0.041106,-0.147684,0.107029,0.134077,-0.091216,-0.017605,-0.156233,0.032226,-0.009974,-0.050364,-0.087168,0.039909,-0.033285,-0.065857,0.050173,0.035112,0.076928],[-0.140852,0.101566,0.088336,-0.130716,-0.03945,0.016262,0.113819,-0.000186,0.024392,-0.023272,0.147082,-0.03632,0.143218,0.128883,-0.085256,0.102848,0.161293,-0.087549,-0.029785,-0.030639,-0.10895,-0.150136,-0.08774,-0.111654,0.036342,-0.091272,0.100222,0.07174,-0.121255,0.078911,0.054095,0.122851,-0.161249,-0.089257,0.169046,0.1224,0.083617,0.041072,-0.016295,-0.006637,-0.084111,-0.084852,0.094907,-0.163381,-0.040261,0.123398,-0.074339,0.140787,0.144592,0.069867,-0.079786,-0.071,-0.052225,-0.062771,-0.083567,0.133884,-0.002423,0.06975,-0.152568,0.012126,0.11024,-0.07204,-0.097272,0.087945,0.042653,0.006703,-0.052636,-0.096091,0.110129,0.132154,-0.018885,0.105145,-0.036215,-0.045053,-0.113605,-0.073448,0.033303,-0.108916,0.014619,0.067784,0.03867,0.048694,0.136605,-0.165672,0.018018,0.078093,0.04449,-0.063413,-0.110719,0.129777,0.020989,0.110032,-0.026802,0.040084,0.111077,0.068254,-0.017041,0.00172,0.08784,-0.013868,-0.066525,-0.123258,0.107424,-0.088614,0.039845,-0.031507,-0.016375,0.065462,-0.131836,-0.013921,0.067457,0.114025,-0.105627,0.129239,0.038774,0.102224,0.003964,-0.040139,0.120645,0.116912,-0.010351,-0.054945,-0.050756,-0.04859,-0.081123,-0.080641,0.122043,-0.131597,0.044755,-0.122624,-0.033505,-0.080157,-0.04603,0.072186,0.121653,-0.089815,-0.014604,-0.003316,0.136166,0.085361,-0.016725,-0.015295,0.083709,-0.129193,-0.02359,0.119446,0.058896,0.029696,0.045105,-0.037401,0.005045,0.041568,-0.024781,0.033799,0.111388,-0.128565,0.020195,-0.026355,0.097194,-0.038128,0.01087,0.10733,-0.061397,0.085372,0.163409,-0.078237,-0.068509,0.127595,0.130051,-0.124294,-0.176199,-0.070512,0.122422,-0.103111,-0.01789,0.111734,-0.11971,0.021894,-0.061868,0.085071,-0.02198,0.034183,0.016003,-0.076606,-0.146525,-0.016388,-0.078003,0.082676,0.071703,-0.032671,0.014701,0.026738,0.12745,-0.044877,-0.15793,-0.091528,0.037286,-0.011591,-0.030479,-0.124904,0.03106,0.00675,-0.109038,-0.024946,-0.10698,0.027014,-0.02579,0.002944,-0.03606,-0.09978,-0.097733,0.141781,-0.027197,-0.021101,-0.165998,0.089212,-0.007925,-0.035732,0.07014,-0.085796,-0.064209,0.101423,0.105448,-0.125869,-0.002213,-0.103283,-0.143497,-0.08086,-0.096393,0.074903,-0.008387,-0.152103,-0.155382,0.067612,-0.082136,0.045469,-0.034808,0.024569,-0.054559,-0.120733,-0.091591,-0.097467,-0.019833,0.047314,-0.064709,0.065097,-0.014501,0.011104,0.14756,0.011846,-0.026307,0.04911,0.122039,0.098539,-0.008111,-0.101297],[-0.087625,0.008132,0.071431,0.08504,-0.164299,0.050815,0.107126,-0.0,0.039122,-0.033877,0.13663,0.11211,0.012962,0.057215,0.136768,0.034223,-0.063874,0.066528,-0.095601,-0.067914,0.088401,0.068426,-0.002354,-0.087987,-0.04228,0.04856,-0.110179,0.087214,-0.090763,-0.01167,-0.056481,0.131081,-0.027462,-0.096848,-0.1483,0.018137,0.033371,-0.08403,-0.006748,-0.161668,0.042436,-0.005711,-0.073041,-0.054718,-0.108729,-0.152086,0.050795,-0.091189,-0.054243,-0.065807,0.138374,0.084811,-0.018236,-0.059737,-0.061105,-0.037213,-0.137649,0.047252,0.013172,0.097041,-0.108584,0.066813,0.091614,-0.204953,-0.026568,-0.10807,-0.082673,-0.087481,0.027016,-0.036748,0.136025,-0.163278,0.117569,-0.112581,0.060048,-0.049662,-0.100481,0.099777,-0.023632,0.01772,-0.009103,-0.017999,-0.026153,0.071132,-0.119042,0.049566,0.118775,-0.123714,-0.115478,0.063046,0.006057,-0.036078,-0.092831,-0.007263,-0.110721,-0.011754,0.057775,-0.061988,0.006226,0.151127,0.040111,0.094772,-0.035979,0.069293,-0.157262,-0.149423,-0.092493,-0.016889,0.136254,-0.026347,0.058672,0.052674,0.010089,-0.027168,0.040984,-0.037986,-0.088203,0.139561,-0.106667,-0.110566,0.02535,-0.047086,0.033709,-0.017276,-0.054321,-0.040953,-0.023896,-0.031509,0.034234,-0.027573,0.138566,-0.092375,0.029942,0.054802,0.128628,-0.112194,0.026814,0.082514,-0.092577,0.129065,-0.138429,0.072135,0.11656,0.058213,-0.03988,-0.095619,0.124988,-0.022681,0.058658,0.052055,-0.007088,-0.056944,-0.064848,-0.119678,0.011074,0.055049,-0.028524,0.06978,0.124362,0.032249,-0.158154,0.063708,-0.054951,0.012598,0.045969,-0.052188,0.136546,-0.092285,0.025835,-0.149017,0.177089,-0.117307,-0.14236,-0.050244,-0.057786,-0.078444,0.040128,-0.015886,0.122413,-0.097529,0.167974,0.047884,0.047625,0.041457,-0.079574,-0.113907,-0.090334,0.097756,0.145231,0.022434,0.004336,-0.123633,-0.063096,-0.017521,-0.06826,0.12955,-0.046756,0.120732,0.052642,0.086194,0.002381,0.017677,0.021063,0.061116,0.002502,0.138722,0.070336,0.084408,0.087549,-0.011416,-0.121831,-0.030516,-0.006639,0.09766,-0.023988,0.018505,0.003888,-0.165299,0.041201,0.064078,-0.104437,0.01857,0.011913,-0.107324,-0.112504,0.124658,-0.010711,-0.039782,-0.083874,0.059245,0.030697,0.03953,-0.068942,0.10976,0.033255,-0.043641,-0.020298,-0.035157,0.111053,0.132089,-0.062037,0.105526,0.082699,0.121988,-0.062718,0.05483,-0.090246,0.095177,-0.131737,0.003101,-0.041624,-0.062594,0.036512,0.09523,0.055386,0.090074],[-0.082476,0.019097,0.000145,-0.206822,0.185516,0.062504,0.049937,2e-06,0.053981,-0.154196,-0.130281,0.044275,-0.04637,-0.126268,-0.071232,0.057293,-0.067428,0.057714,0.008265,-0.048307,0.046933,0.024532,0.049003,-0.015905,-0.220614,0.068156,-0.035714,0.141884,0.081598,0.036934,-0.080948,-0.02866,-0.095859,0.005252,-0.113287,-0.00731,-0.112894,0.109823,-0.101775,0.129249,0.116737,-0.012614,0.092486,-0.046627,0.026172,-0.070134,-0.069107,0.041166,-0.025638,0.080683,-0.061606,-0.042697,-0.158047,-0.144923,-0.06503,-0.115477,-0.145602,0.068633,-0.117577,0.035837,-0.054473,0.092876,0.025107,-0.036266,-0.01231,-0.046611,0.032247,-0.021533,0.167299,-0.019696,-0.039493,0.062117,-0.038712,0.081909,-0.02957,0.05489,-0.112981,0.099279,0.104475,-0.115348,-0.109924,-0.068602,0.111049,-0.057601,-0.014038,-0.099877,-0.021357,0.039396,0.12321,0.008475,0.115896,0.02123,-0.056017,-0.060377,0.005937,0.149141,0.091295,-0.064737,-0.06338,-0.067542,0.110632,0.08547,0.075311,-0.01558,-0.060437,0.01397,-0.064405,0.036357,-0.130944,-0.149583,0.11031,0.052351,-0.046804,-0.017742,-0.063384,0.07526,0.100652,0.064036,0.088987,-0.076572,-0.04423,0.023178,-0.07357,0.091209,-0.021252,-0.098475,-0.004689,0.146426,-0.066841,0.005055,-0.00356,-0.090334,0.055728,0.092143,-0.02155,0.092735,-0.064004,-0.137149,0.104498,-0.020856,0.02489,0.083214,-0.066473,0.068098,-0.091603,-0.103549,0.015668,0.101468,-0.096064,0.077277,0.137412,0.011174,-0.015831,-0.027065,-0.054522,-0.032895,0.047344,0.101418,0.134326,0.143874,0.087984,0.052507,0.028493,0.140031,-0.023377,0.089767,-0.005857,0.056124,0.066979,0.129579,5.4e-05,0.095906,0.003869,-0.084957,0.06594,0.016459,0.052745,-0.063151,0.012824,0.022946,-0.053012,-0.103365,0.143714,-0.021091,0.048684,0.003153,-0.050461,-0.034579,-0.005403,0.0322,0.004222,-0.000505,-0.153608,-0.00378,-0.084685,-0.109557,0.127477,0.040519,0.037842,-0.022645,0.082175,0.040808,0.070371,-0.003777,0.117416,0.095011,0.091693,-0.114016,-0.084742,-0.1191,-0.083968,0.090519,-0.116406,-0.122309,-0.048184,-0.079744,-0.016481,0.070236,0.012787,-0.147357,-0.017169,-0.023117,-0.151968,0.013484,0.064598,0.056007,0.071876,-0.032314,0.152584,0.08642,0.09487,-0.144873,0.120963,0.097368,0.097346,-0.107066,0.055742,0.164186,-0.000589,0.06384,0.111531,-0.041059,0.009554,-0.024676,0.107138,-0.15146,-0.006386,0.031679,0.093856,0.010949,0.114923,0.076963,-0.085336,-0.040822,-0.118971,-0.049642]],"b":[-0.006192,0.13175,0.105827,-0.053162,-0.125913,0.004084,0.010318,-0.066977,0.10786,0.117515,-0.005743,0.12634,-0.02878,0.082528,-0.000379,-0.087459,0.120114,-0.024459,0.074,-0.046892,-0.152658,-0.12054,0.007937,0.045747,-0.027106,0.057893,0.057773,0.070597,-0.020103,0.121795,-0.003033,-0.011963,-0.082527,-0.049995,-0.12397,0.026167,-0.069075,-0.083445,0.083262,-0.054928,-0.068819,-0.075402,0.090774,-0.076446,0.007586,0.001533,0.06146,0.041306,0.093576,-0.100387,-0.053257,-0.075111,-0.119397,-0.069278,-0.040655,0.00895,0.029743,-0.038826,0.07099,-0.060833,-0.064875,0.001965,-0.151603,-0.119344,-0.037587,0.103673,0.071066,-0.099321,0.104416,0.069867,0.041513,0.099826,-0.046275,-0.093873,-0.013279,-0.00204,0.020827,0.008467,0.144185,0.096555,0.092764,0.080163,0.132191,-0.11588,-0.071528,-0.007987,0.117323,-0.002372,0.078936,-0.092826,-0.055364,0.066825,-0.082936,-0.056161,-0.063449,-0.035181,0.062119,-0.026871,0.025315,-0.107882,0.070737,-0.040291,0.041295,0.072749,-0.080894,0.10885,0.04637,-0.009951,-0.068965,0.115008,0.069477,-0.092616,-0.064389,0.083434,0.059475,0.080966,-0.002778,0.046492,-0.023747,-0.090862,0.045375,0.15255,-0.071752,0.012958,0.022915,0.002669,0.097762,0.057361,-0.142769,0.124236,0.085719,0.113932,0.0709,0.105632,-0.10576,-0.017077,0.118206,-0.095488,-0.141017,0.093281,0.103997,-0.095979,0.093348,0.062154,-0.000607,0.093506,0.006136,-0.074864,-0.069944,0.008565,0.015937,0.095808,0.075519,0.011755,0.084387,-0.079887,-0.150304,0.102746,-0.085389,-0.089828,0.037475,-0.026269,0.091119,-0.07222,-0.131561,-0.080275,0.020623,-0.028654,-0.003489,0.097726,0.139803,-0.049827,-0.027317,0.001493,0.127188,0.139358,-0.069411,0.054602,-0.036347,-0.155314,-0.106014,-0.008716,-0.005164,-0.171227,0.041283,-0.071931,0.036123,-0.062105,-0.09973,-0.011775,-0.080587,0.006696,-0.092596,-0.013981,-0.06411,0.044403,0.066711,-0.109228,-0.021998,-0.131694,0.003539,-0.066762,-0.005987,0.01585,0.106193,0.019801,0.017645,-0.026601,0.109112,0.082758,-0.07074,0.076592,-0.022425,0.089738,0.089482,-0.089908,0.070503,-0.033254,-0.059493,-0.089643,0.070527,-0.09021,-0.136559,0.050068,-0.097916,-0.123283,-0.058938,-0.018095,0.006537,-0.123091,0.127184,0.071615,-0.058531,-0.054206,0.000374,0.042803,-0.104561,-0.079901,0.11858,-0.069695,-0.047414,0.109367,0.042736,-0.05252,0.044645,-0.127546,0.054444,-0.003209,0.101474,0.119522,0.121911,0.12319,0.003664,-0.030904,0.00563,0.041759]},{"W":[[0.086275,-6e-06,0.097009,0.094012,0.116217,0.040201,-0.07391,-0.113462,-0.083665,-0.063689,0.015425,0.063104,0.102854,0.018467,-0.120371,-0.089762,-0.093133,-0.037469,0.003662,-0.126029,-0.031328,-0.091867,0.020811,-0.022466,-0.013193,-0.0,0.109966,-0.061498,0.013664,0.041531,0.0033,0.093944,-0.022315,-0.008054,-0.114752,-0.0,-0.053885,-0.09563,0.031618,0.001543,-0.093148,0.038633,0.01805,-0.059746,0.004669,0.053594,0.016874,-0.030593,-0.053776,0.013796,0.106351,0.038119,-0.050294,0.020778,0.084781,-0.098743,0.148216,0.099844,-0.114866,0.094133,-0.025041,0.080479,-0.026781,-0.008257,0.06289,0.05672,-0.125935,0.011282,-0.062823,-0.019468,-0.046961,-0.000436,-0.053944,-0.108011,-0.062872,-0.135632,-0.012035,0.088495,-0.094337,0.099834,0.079816,0.03108,0.022015,0.079551,-0.094963,-0.00608,0.035365,0.041892,0.068672,-0.117965,0.035097,0.020497,-0.093489,-0.017409,0.030575,0.126209,-0.019854,0.076758,-0.028314,-0.111896,-0.088825,-0.125731,-0.021555,-0.031594,0.04167,0.074874,-0.117516,-0.061205,-0.039428,-0.004719,-0.111224,-0.108389,0.097498,0.065463,-0.069098,-0.003514,-0.044078,0.056427,-0.008302,-0.066577,0.03946,-0.037547,-0.046841,-0.031853,-0.00831,-0.044729,-0.074835,-0.009366],[-0.130234,2e-06,-0.096164,-0.094069,0.053871,0.064163,0.070967,-0.009797,-0.053998,0.049373,0.036488,-0.078527,0.10144,-0.108729,0.117297,0.074845,0.060788,0.100131,0.050789,-0.089049,0.003683,-0.119067,-0.043758,0.047325,-0.051627,-0.044913,0.041479,0.08955,-0.114034,-0.087307,-0.098126,0.037438,-0.093247,0.048136,-0.063627,-0.082632,0.103755,-0.137574,0.002497,-0.135876,0.018768,-0.01606,-0.054519,-0.07136,-0.017931,0.031902,0.083538,0.002794,0.012306,-0.077996,-0.040031,-0.092478,-0.044728,-0.048465,-0.003091,0.015284,0.140827,-0.091445,0.024629,0.063833,-0.01339,-0.070012,-0.048838,-0.114753,-0.030726,0.05192,-0.124239,-0.082568,0.073819,0.082744,-0.022428,0.043082,-0.019001,-0.096313,0.018114,0.000392,0.110614,-0.113713,-0.005538,-0.057712,0.003974,-0.124889,-0.063415,0.074975,0.003427,-0.013224,-0.068762,-0.039,-0.047049,0.070443,0.109477,-0.012791,-0.055582,0.103604,-0.017475,0.036581,-0.069655,0.059884,0.024811,0.063163,0.078822,-0.086454,0.073086,0.07357,-0.061545,-0.090929,-0.131895,-0.040478,-0.028922,-0.002278,-0.098336,0.064497,-0.076253,-0.082091,0.015056,0.002,-0.080466,-0.044025,-0.110056,0.070306,0.054687,-0.021884,0.060339,0.077635,-0.060486,0.142282,0.06944,-0.068398],[-0.087765,-8.1e-05,-0.105482,0.061074,-0.122271,0.019226,0.074358,0.012738,0.003354,-0.000641,-0.060574,0.017394,-0.114514,-0.128892,0.06855,0.030606,-0.242454,0.045153,0.070015,-0.061324,-0.115272,0.096383,-0.047965,-0.139564,-0.018691,2e-06,-0.082756,-0.050393,-0.092827,0.174167,-0.078155,0.004226,0.098132,-0.076261,0.081822,0.00037,0.090619,-0.086099,0.014747,0.074193,0.094076,-0.092589,0.045689,-0.055837,-0.072373,-0.026539,0.087691,-0.01718,0.008124,0.105866,-0.049824,-0.0,0.013915,0.013113,0.035461,0.141923,0.046914,0.06205,-0.101383,-0.082796,0.025734,-0.125859,-0.09009,0.007427,-0.083924,-0.071955,-0.005977,0.001872,0.115911,0.052237,-0.032255,0.104504,0.104259,-0.084633,-0.090382,0.035042,-0.00025,0.126012,0.048931,0.019911,0.139032,-0.011657,-0.110238,0.073524,-0.082681,0.059946,0.098835,0.081569,0.005966,-0.020345,-0.050765,-0.008507,-0.018093,0.105063,-0.01082,-0.076459,-0.006768,0.059918,0.01608,-0.003943,0.081263,0.025352,-0.046798,0.114932,-0.102004,0.133367,-0.101189,-0.11984,0.111388,-0.087804,0.029725,0.055865,0.077823,0.10558,-0.041743,0.036381,-0.104275,-0.08617,0.078657,-0.029783,0.074043,0.004312,0.067988,0.098081,-0.188343,-0.006396,0.08382,-0.009192],[-0.110652,0.0,-0.063775,-0.077976,0.149107,-0.002834,0.189005,0.008775,-0.011037,-0.000778,-0.0,-0.087527,0.110954,-0.077559,0.100537,-0.004215,-0.032492,-0.067033,-0.004538,-0.114283,-0.218897,-0.047036,0.07088,0.181384,-0.033231,0.0,-0.053027,0.235577,-0.22163,0.034507,0.072965,-0.044229,0.020345,0.03315,-0.053568,-0.000205,-0.07446,0.099159,0.038152,-0.173313,0.073354,0.02821,2.3e-05,-0.173556,-0.088583,-0.032755,-0.11355,0.11743,0.092088,-0.002015,0.015315,-0.220007,-0.191995,0.001337,-0.0,0.139026,-0.143876,-0.0,-0.0,0.08618,-0.043607,-0.076998,-0.177557,0.077757,-0.118931,0.090066,-0.0,0.019952,-0.157191,-0.154394,-0.009186,0.142594,0.118652,0.082478,0.151788,-0.109072,-0.076937,-0.101459,0.0,-0.105547,-0.06827,-0.0,0.076624,0.053441,0.214396,-0.074187,-0.132604,0.101529,-0.065763,-0.073928,0.049921,-0.031058,0.040317,0.000956,0.035821,0.05467,-0.11165,-0.010581,-0.163044,-0.053856,0.001085,0.072955,0.061625,-0.127765,0.027661,0.228647,0.0,-0.031238,-0.054915,-0.007832,0.038722,-0.123505,0.030482,-0.101143,-0.108658,0.051828,0.000434,-0.052381,-0.142688,-0.070109,0.111979,2.3e-05,0.191313,0.047987,0.040061,0.158877,-0.051727,0.017269],[0.080968,0.0,-0.05911,-0.171124,0.054782,0.003755,-0.067797,0.0,0.052722,1.5e-05,-8.3e-05,0.078594,0.04896,0.099082,0.0,-0.080698,-0.031785,-0.03197,-0.08959,0.01757,-0.012991,0.080334,-0.125652,0.035985,0.055093,1e-06,0.099843,0.10882,0.156078,-0.173059,-0.012688,-0.1267,-0.083155,-0.077458,-0.105481,-0.0,-0.154929,-0.125615,0.130314,-0.149957,0.068325,-0.098035,0.000191,0.129045,0.019429,0.020373,-0.108371,0.10819,0.08761,0.080999,0.286593,-0.036122,-0.055322,-0.136047,0.0,-0.139332,0.153495,-5.5e-05,-2e-06,-0.024008,0.057066,0.025156,-0.046739,-0.106649,0.178175,0.108679,1.1e-05,-0.020947,-0.013345,-0.032438,0.015337,0.027342,0.052395,0.059442,0.232503,-0.056076,-0.0692,0.019669,0.0,-0.07483,-0.096522,0.023982,0.053546,0.074507,0.038237,0.081273,0.095173,0.105285,0.018161,-0.060229,0.105873,-0.076596,-0.098259,0.02354,-0.027924,0.112513,-0.036334,-0.054627,0.157198,-0.013147,0.049814,0.008589,0.029851,0.001665,1e-06,-0.050097,-0.059524,-0.119248,-0.002944,0.081492,0.079878,-0.043515,0.033943,0.044915,0.110852,-0.100507,0.000554,0.073219,0.077058,0.158266,0.088409,-0.080237,-0.083548,0.00291,-0.164835,0.137336,-0.064576,-0.099373],[0.040234,-0.0,-0.107271,-0.091898,-0.102237,0.033177,-0.101182,0.049584,-0.085051,-0.072693,0.085188,0.039902,-0.1058,0.066566,-0.018875,0.071582,0.019539,0.036989,0.102227,-0.079336,0.020248,-0.02064,-0.130982,-0.117716,-0.110645,0.0,0.026577,0.032646,-0.110665,0.032007,0.094041,-0.036686,0.039745,0.082125,0.056335,-0.001747,0.080724,-0.043069,0.112475,-0.074685,-0.027497,-0.12453,0.064031,-0.016857,-0.05914,-0.079032,0.10768,0.076313,0.006716,0.021244,-0.004167,-0.033628,0.105484,-0.085446,-0.033837,-0.044268,0.008076,-0.020542,-0.005364,-0.094152,0.000704,-0.076048,-0.076248,-0.102259,0.084632,-0.026554,0.021516,0.044182,0.067523,0.011634,-0.038696,-0.02276,0.038635,-0.012017,0.07575,0.073091,-0.073835,-0.050801,0.017193,-0.062472,-0.113932,0.086859,-0.079947,0.102814,0.054984,0.05451,-0.0887,-0.059256,-0.011459,-0.093229,-0.062947,-0.030091,-0.048828,-0.069336,0.078375,-0.064163,-0.125394,0.026874,0.132659,-0.054634,-0.094395,0.002141,0.111355,0.068884,0.013011,-0.063908,-0.000944,-0.113698,0.053017,0.037077,0.111188,-0.079476,-0.134819,-0.003289,0.068161,0.09263,-0.087427,-0.059783,0.001698,-0.02983,0.090983,-0.016485,0.090125,0.001729,0.137624,-0.017336,0.072405,-0.041107],[-4.1e-05,-4e-06,-0.008239,-0.059466,-0.035058,0.139115,-0.082275,0.054305,0.137009,-0.128353,0.036444,-0.073591,-0.1272,-0.036728,0.109826,-0.139721,0.018011,-0.005717,0.076662,-0.118598,0.033694,0.033809,0.023466,0.105747,0.068653,-0.000442,-0.022163,0.003199,-0.035941,-0.03116,-0.040998,-0.024118,0.12839,-0.108813,0.104978,-0.012991,0.023852,0.068325,-0.00838,-0.010839,0.003786,-0.046277,0.09327,0.034322,-0.089799,-0.106862,-0.007139,-0.109225,0.017769,-0.098013,0.003083,-0.128175,-0.058458,0.019465,-0.015462,0.120326,0.086272,-0.048905,-0.123028,0.086707,0.124627,0.067503,-0.06198,0.126292,-0.049613,0.043817,0.090527,-0.079037,0.129844,-0.028737,0.113114,-0.037233,0.131105,-0.12237,0.003199,-0.010409,-0.010122,-0.024232,0.034532,-0.090941,0.020748,-0.063569,0.102875,-0.120727,-0.084113,-0.065837,-0.036701,-0.077792,-0.020419,0.081443,0.040945,0.033015,-0.059264,0.045939,-0.048325,0.093581,-0.052488,-0.027192,-0.043184,0.075196,-0.088936,0.002649,-0.073729,0.049196,0.083504,-0.015181,-0.010944,0.074416,0.023318,-0.01861,0.031315,0.023321,-0.107453,0.067087,0.011434,-0.081995,0.061512,-0.013902,-0.14464,0.045368,0.106107,0.000112,0.128373,0.065958,-0.028308,0.002807,0.069573,-0.021041],[-0.0,-0.0,-0.0,0.000162,0.0,0.0,0.000807,-0.0,-1.7e-05,0.0,1.3e-05,3e-06,5e-06,-0.0,-0.0,5.9e-05,0.000127,-1e-05,-7.2e-05,0.000585,7e-05,0.000127,0.000108,-0.0,0.0,-0.0,-0.000378,0.0,0.0,0.0,0.0,-0.0,-2.1e-05,0.0,-3.2e-05,-9e-06,0.000562,-3.9e-05,-0.0,-0.0,-0.0,-3.8e-05,6e-06,4e-06,-1e-06,0.0,0.000313,2e-05,-0.0,-0.000213,-0.0,0.0,-1.2e-05,-0.0,-0.0,0.0,3e-06,3.2e-05,0.0,3e-05,-0.000136,2.9e-05,-3.9e-05,-0.00021,0.0,0.0,0.000174,-0.0,0.0,0.0,0.0,-0.0,-0.0,1e-06,4.6e-05,0.00056,-0.0,-0.0,0.0,-0.0,0.0,0.000765,0.0,0.000403,2.7e-05,0.000157,1.3e-05,0.0,-0.0,-0.0,-0.000623,-0.0,0.0,-0.0,0.000571,0.000188,-3e-05,-0.0,-0.0,-0.0,7e-06,-0.0,0.0,4.6e-05,1e-05,-6.9e-05,-0.0,-0.0,0.0,-0.000386,-0.0,-0.0,-0.0,-0.0,2e-06,-1e-06,-0.00039,4.1e-05,-0.000725,0.000308,0.0,0.0,-1e-06,-0.000735,-1e-06,-5.9e-05,-0.0,-2.5e-05],[-0.003825,-0.0,-0.059092,-0.104558,-0.1375,-0.09109,0.062616,-0.062961,0.077518,-0.029153,-0.0253,-0.008849,0.07294,-0.068177,-0.104741,-0.001939,-0.043086,-0.010374,0.021725,-0.013602,0.018051,-0.00161,0.042885,0.053026,-0.010348,0.035959,0.112405,-0.003394,-0.026597,0.073082,0.008416,-0.1152,0.109636,-0.119554,0.059718,0.056978,0.108484,-0.129917,0.039596,-0.022165,-0.029265,-0.116378,0.002931,-0.033955,-0.083288,0.020601,0.072819,0.057515,0.09069,-0.029052,0.124899,0.086348,-0.038695,-0.051469,-0.029588,-0.030835,0.019164,0.009589,0.05432,0.002523,-0.065565,0.080966,-0.038321,0.115079,-0.075216,0.101835,-0.112392,-0.079646,-0.091894,0.063607,0.079392,-0.013691,0.11153,0.011723,0.041303,0.066332,-0.060313,-0.006685,0.086065,0.085365,0.127169,0.084943,-0.097263,0.079524,-0.028616,0.115075,-0.021884,0.022956,-0.008404,-0.05613,-0.1194,0.10679,0.04976,-0.085212,0.077352,0.050502,-0.035919,-0.058043,0.110977,0.035799,0.008051,0.012539,-0.092511,-0.005049,-0.095368,-0.070556,0.034069,0.075573,-0.009038,-0.088932,0.013882,0.068726,0.051749,0.080213,0.024624,0.056348,-0.099371,-0.044162,-0.022754,-0.004284,0.10062,0.081464,-0.076892,-0.070523,0.016947,-0.029323,0.02015,0.112922],[0.105396,0.0,0.073589,0.028281,-0.076613,0.024344,0.014747,0.037644,-0.082937,-0.043764,-0.046316,0.101397,0.005275,0.052959,0.062799,-0.073211,0.02751,0.099416,-0.018567,0.099124,-0.088317,-0.11834,0.080194,0.087134,0.102937,0.034803,0.119896,0.089822,0.079524,0.040681,-0.042073,0.100637,-0.008182,0.019938,-0.019734,0.008043,-0.005657,-0.128824,0.105305,-0.02573,0.030853,-0.105123,-0.131417,-0.06775,0.067564,-0.105379,0.121719,-0.078314,-0.085618,